<?xml version="1.0"?>
<opencv_storage>
<cascade>
  <stageType>BOOST</stageType>
  <featureType>HAAR</featureType>
  <height>20</height>
  <width>20</width>
  <stageParams>
    <boostType>GAB</boostType>
    <minHitRate>9.9900001287460327e-01</minHitRate>
    <maxFalseAlarm>4.2500001192092896e-01</maxFalseAlarm>
    <weightTrimRate>9.4999999999999996e-01</weightTrimRate>
    <maxDepth>1</maxDepth>
    <maxWeakCount>100</maxWeakCount></stageParams>
  <featureParams>
    <maxCatCount>0</maxCatCount>
    <featSize>1</featSize>
    <mode>BASIC</mode></featureParams>
  <stageNum>15</stageNum>
  <stages>
    <!-- stage 0 -->
    <_>
      <maxWeakCount>3</maxWeakCount>
      <stageThreshold>-1.0070506334304810e+00</stageThreshold>
      <weakClassifiers>
        <_>
          <internalNodes>
            0 -1 74 -1.2975672143511474e-04</internalNodes>
          <leafValues>
            6.0000002384185791e-01 -9.1351354122161865e-01</leafValues></_>
        <_>
          <internalNodes>
            0 -1 19 -3.0985022021923214e-05</internalNodes>
          <leafValues>
            6.4911025762557983e-01 -7.9167908430099487e-01</leafValues></_>
        <_>
          <internalNodes>
            0 -1 99 -2.1827228920301422e-05</internalNodes>
          <leafValues>
            6.9814205169677734e-01 -7.1817564964294434e-01</leafValues></_></weakClassifiers></_>
    <!-- stage 1 -->
    <_>
      <maxWeakCount>5</maxWeakCount>
      <stageThreshold>-9.5908945798873901e-01</stageThreshold>
      <weakClassifiers>
        <_>
          <internalNodes>
            0 -1 56 -5.1579219871200621e-05</internalNodes>
          <leafValues>
            3.1386861205101013e-01 -8.7730062007904053e-01</leafValues></_>
        <_>
          <internalNodes>
            0 -1 110 4.0947576053440571e-05</internalNodes>
          <leafValues>
            -6.9713467359542847e-01 6.4480006694793701e-01</leafValues></_>
        <_>
          <internalNodes>
            0 -1 81 4.7941427677869797e-02</internalNodes>
          <leafValues>
            -8.0969077348709106e-01 4.7967311739921570e-01</leafValues></_>
        <_>
          <internalNodes>
            0 -1 72 3.2462307717651129e-04</internalNodes>
          <leafValues>
            -4.8941341042518616e-01 8.6427170038223267e-01</leafValues></_>
        <_>
          <internalNodes>
            0 -1 9 5.7332619326189160e-04</internalNodes>
          <leafValues>
            -5.6160682439804077e-01 7.2328072786331177e-01</leafValues></_></weakClassifiers></_>
    <!-- stage 2 -->
    <_>
      <maxWeakCount>4</maxWeakCount>
      <stageThreshold>-1.3009788990020752e+00</stageThreshold>
      <weakClassifiers>
        <_>
          <internalNodes>
            0 -1 53 -1.0566571354866028e-01</internalNodes>
          <leafValues>
            3.7795275449752808e-01 -8.5549134016036987e-01</leafValues></_>
        <_>
          <internalNodes>
            0 -1 21 -2.0881289616227150e-02</internalNodes>
          <leafValues>
            5.9777998924255371e-01 -7.1960508823394775e-01</leafValues></_>
        <_>
          <internalNodes>
            0 -1 8 -3.6281070206314325e-03</internalNodes>
          <leafValues>
            6.6556137800216675e-01 -5.5929011106491089e-01</leafValues></_>
        <_>
          <internalNodes>
            0 -1 90 9.4468018505722284e-04</internalNodes>
          <leafValues>
            -4.0003642439842224e-01 8.7188422679901123e-01</leafValues></_></weakClassifiers></_>
    <!-- stage 3 -->
    <_>
      <maxWeakCount>6</maxWeakCount>
      <stageThreshold>-8.3056402206420898e-01</stageThreshold>
      <weakClassifiers>
        <_>
          <internalNodes>
            0 -1 38 3.0258823186159134e-02</internalNodes>
          <leafValues>
            -5.6862747669219971e-01 1.</leafValues></_>
        <_>
          <internalNodes>
            0 -1 94 -3.1348794698715210e-02</internalNodes>
          <leafValues>
            4.9910163879394531e-01 -6.5181851387023926e-01</leafValues></_>
        <_>
          <internalNodes>
            0 -1 57 5.1228336989879608e-02</internalNodes>
          <leafValues>
            -9.2048531770706177e-01 3.0027478933334351e-01</leafValues></_>
        <_>
          <internalNodes>
            0 -1 7 -5.4520489647984505e-03</internalNodes>
          <leafValues>
            7.3188126087188721e-01 -4.6591851115226746e-01</leafValues></_>
        <_>
          <internalNodes>
            0 -1 78 5.9698047116398811e-03</internalNodes>
          <leafValues>
            -2.3875153064727783e-01 9.3800121545791626e-01</leafValues></_>
        <_>
          <internalNodes>
            0 -1 103 2.7984245680272579e-03</internalNodes>
          <leafValues>
            -3.1263563036918640e-01 8.3396577835083008e-01</leafValues></_></weakClassifiers></_>
    <!-- stage 4 -->
    <_>
      <maxWeakCount>6</maxWeakCount>
      <stageThreshold>-1.2267627716064453e+00</stageThreshold>
      <weakClassifiers>
        <_>
          <internalNodes>
            0 -1 46 -3.8492064923048019e-03</internalNodes>
          <leafValues>
            8.7999999523162842e-01 -5.7599997520446777e-01</leafValues></_>
        <_>
          <internalNodes>
            0 -1 20 -1.1982306838035583e-02</internalNodes>
          <leafValues>
            5.2651727199554443e-01 -6.0901868343353271e-01</leafValues></_>
        <_>
          <internalNodes>
            0 -1 45 3.0846917070448399e-03</internalNodes>
          <leafValues>
            -3.7155488133430481e-01 8.5116052627563477e-01</leafValues></_>
        <_>
          <internalNodes>
            0 -1 42 -1.6238126903772354e-02</internalNodes>
          <leafValues>
            4.6344196796417236e-01 -7.6635819673538208e-01</leafValues></_>
        <_>
          <internalNodes>
            0 -1 0 -4.5936023816466331e-03</internalNodes>
          <leafValues>
            5.1243990659713745e-01 -4.8988023400306702e-01</leafValues></_>
        <_>
          <internalNodes>
            0 -1 106 7.0282681845128536e-03</internalNodes>
          <leafValues>
            -8.5957294702529907e-01 3.6333382129669189e-01</leafValues></_></weakClassifiers></_>
    <!-- stage 5 -->
    <_>
      <maxWeakCount>7</maxWeakCount>
      <stageThreshold>-1.2106873989105225e+00</stageThreshold>
      <weakClassifiers>
        <_>
          <internalNodes>
            0 -1 35 2.9794918373227119e-02</internalNodes>
          <leafValues>
            -6.7692309617996216e-01 3.0476191639900208e-01</leafValues></_>
        <_>
          <internalNodes>
            0 -1 80 1.5859580598771572e-03</internalNodes>
          <leafValues>
            2.1185816824436188e-01 -8.4489500522613525e-01</leafValues></_>
        <_>
          <internalNodes>
            0 -1 18 -1.2528967112302780e-02</internalNodes>
          <leafValues>
            2.1434782445430756e-01 -8.8950043916702271e-01</leafValues></_>
        <_>
          <internalNodes>
            0 -1 104 4.9607850611209869e-02</internalNodes>
          <leafValues>
            -4.1311725974082947e-01 5.9463405609130859e-01</leafValues></_>
        <_>
          <internalNodes>
            0 -1 43 4.1642710566520691e-03</internalNodes>
          <leafValues>
            -3.4624797105789185e-01 6.8515086174011230e-01</leafValues></_>
        <_>
          <internalNodes>
            0 -1 62 4.7928304411470890e-04</internalNodes>
          <leafValues>
            3.0279070138931274e-01 -8.1307280063629150e-01</leafValues></_>
        <_>
          <internalNodes>
            0 -1 33 -3.8043020758777857e-03</internalNodes>
          <leafValues>
            6.0045254230499268e-01 -3.7309348583221436e-01</leafValues></_></weakClassifiers></_>
    <!-- stage 6 -->
    <_>
      <maxWeakCount>6</maxWeakCount>
      <stageThreshold>-1.4702955484390259e+00</stageThreshold>
      <weakClassifiers>
        <_>
          <internalNodes>
            0 -1 63 1.1976449191570282e-01</internalNodes>
          <leafValues>
            -8.2692307233810425e-01 2.0138889551162720e-01</leafValues></_>
        <_>
          <internalNodes>
            0 -1 52 -1.2804156541824341e-01</internalNodes>
          <leafValues>
            6.5686130523681641e-01 -4.6599069237709045e-01</leafValues></_>
        <_>
          <internalNodes>
            0 -1 26 3.0100427567958832e-02</internalNodes>
          <leafValues>
            -4.4857600331306458e-01 6.4964199066162109e-01</leafValues></_>
        <_>
          <internalNodes>
            0 -1 92 -1.9863206893205643e-02</internalNodes>
          <leafValues>
            3.4070354700088501e-01 -6.5841102600097656e-01</leafValues></_>
        <_>
          <internalNodes>
            0 -1 105 -1.1723837815225124e-03</internalNodes>
          <leafValues>
            -8.9863127470016479e-01 2.3197604715824127e-01</leafValues></_>
        <_>
          <internalNodes>
            0 -1 24 -2.9783231019973755e-01</internalNodes>
          <leafValues>
            6.1996787786483765e-01 -3.3068284392356873e-01</leafValues></_></weakClassifiers></_>
    <!-- stage 7 -->
    <_>
      <maxWeakCount>7</maxWeakCount>
      <stageThreshold>-1.1317760944366455e+00</stageThreshold>
      <weakClassifiers>
        <_>
          <internalNodes>
            0 -1 41 -1.2807998806238174e-02</internalNodes>
          <leafValues>
            7.8723406791687012e-01 -5.4150199890136719e-01</leafValues></_>
        <_>
          <internalNodes>
            0 -1 73 4.3675396591424942e-04</internalNodes>
          <leafValues>
            -4.0878808498382568e-01 5.9022575616836548e-01</leafValues></_>
        <_>
          <internalNodes>
            0 -1 67 -2.3856949061155319e-02</internalNodes>
          <leafValues>
            -9.2025309801101685e-01 2.3862601816654205e-01</leafValues></_>
        <_>
          <internalNodes>
            0 -1 86 3.0170930549502373e-03</internalNodes>
          <leafValues>
            -3.3691602945327759e-01 6.3495278358459473e-01</leafValues></_>
        <_>
          <internalNodes>
            0 -1 95 -2.2895603906363249e-03</internalNodes>
          <leafValues>
            8.2881891727447510e-01 -2.3767416179180145e-01</leafValues></_>
        <_>
          <internalNodes>
            0 -1 107 2.2154498845338821e-02</internalNodes>
          <leafValues>
            -3.5679948329925537e-01 5.6538820266723633e-01</leafValues></_>
        <_>
          <internalNodes>
            0 -1 98 -7.1074720472097397e-04</internalNodes>
          <leafValues>
            6.2014597654342651e-01 -4.1091009974479675e-01</leafValues></_></weakClassifiers></_>
    <!-- stage 8 -->
    <_>
      <maxWeakCount>6</maxWeakCount>
      <stageThreshold>-8.7170374393463135e-01</stageThreshold>
      <weakClassifiers>
        <_>
          <internalNodes>
            0 -1 49 1.4059667475521564e-02</internalNodes>
          <leafValues>
            -5.8369100093841553e-01 5.3731346130371094e-01</leafValues></_>
        <_>
          <internalNodes>
            0 -1 2 -6.8235774524509907e-03</internalNodes>
          <leafValues>
            4.2337614297866821e-01 -5.4811978340148926e-01</leafValues></_>
        <_>
          <internalNodes>
            0 -1 102 -1.4003033284097910e-03</internalNodes>
          <leafValues>
            5.9377670288085938e-01 -3.5961833596229553e-01</leafValues></_>
        <_>
          <internalNodes>
            0 -1 89 -8.9812115766108036e-04</internalNodes>
          <leafValues>
            6.0653382539749146e-01 -3.7548935413360596e-01</leafValues></_>
        <_>
          <internalNodes>
            0 -1 28 -1.1582137085497379e-03</internalNodes>
          <leafValues>
            3.1169652938842773e-01 -6.2885099649429321e-01</leafValues></_>
        <_>
          <internalNodes>
            0 -1 3 -2.0845685154199600e-02</internalNodes>
          <leafValues>
            6.6990685462951660e-01 -2.6987686753273010e-01</leafValues></_></weakClassifiers></_>
    <!-- stage 9 -->
    <_>
      <maxWeakCount>10</maxWeakCount>
      <stageThreshold>-1.2681446075439453e+00</stageThreshold>
      <weakClassifiers>
        <_>
          <internalNodes>
            0 -1 44 3.0532680451869965e-02</internalNodes>
          <leafValues>
            -6.0563379526138306e-01 3.3333334326744080e-01</leafValues></_>
        <_>
          <internalNodes>
            0 -1 65 1.7160611459985375e-03</internalNodes>
          <leafValues>
            1.5417505800724030e-01 -8.1718134880065918e-01</leafValues></_>
        <_>
          <internalNodes>
            0 -1 12 -1.9954713061451912e-02</internalNodes>
          <leafValues>
            4.9488276243209839e-01 -3.5598671436309814e-01</leafValues></_>
        <_>
          <internalNodes>
            0 -1 17 -2.4607825253042392e-05</internalNodes>
          <leafValues>
            -4.8548558354377747e-01 3.4453964233398438e-01</leafValues></_>
        <_>
          <internalNodes>
            0 -1 100 3.9758504135534167e-04</internalNodes>
          <leafValues>
            3.1345486640930176e-01 -5.9485501050949097e-01</leafValues></_>
        <_>
          <internalNodes>
            0 -1 97 -1.2235726462677121e-03</internalNodes>
          <leafValues>
            5.4165005683898926e-01 -3.4042152762413025e-01</leafValues></_>
        <_>
          <internalNodes>
            0 -1 5 -5.8803860098123550e-02</internalNodes>
          <leafValues>
            4.8024338483810425e-01 -3.2945165038108826e-01</leafValues></_>
        <_>
          <internalNodes>
            0 -1 23 1.6950662247836590e-03</internalNodes>
          <leafValues>
            -5.3152805566787720e-01 3.3858603239059448e-01</leafValues></_>
        <_>
          <internalNodes>
            0 -1 10 2.4881117045879364e-02</internalNodes>
          <leafValues>
            -2.0307640731334686e-01 8.1341528892517090e-01</leafValues></_>
        <_>
          <internalNodes>
            0 -1 107 2.1883714944124222e-02</internalNodes>
          <leafValues>
            -4.0746551752090454e-01 4.4446673989295959e-01</leafValues></_></weakClassifiers></_>
    <!-- stage 10 -->
    <_>
      <maxWeakCount>11</maxWeakCount>
      <stageThreshold>-1.1137291193008423e+00</stageThreshold>
      <weakClassifiers>
        <_>
          <internalNodes>
            0 -1 51 -1.6241745650768280e-01</internalNodes>
          <leafValues>
            5.7777780294418335e-01 -4.9411764740943909e-01</leafValues></_>
        <_>
          <internalNodes>
            0 -1 29 5.8544082567095757e-03</internalNodes>
          <leafValues>
            -6.9246673583984375e-01 2.6983469724655151e-01</leafValues></_>
        <_>
          <internalNodes>
            0 -1 66 -3.0147886718623340e-05</internalNodes>
          <leafValues>
            2.2386646270751953e-01 -6.0512977838516235e-01</leafValues></_>
        <_>
          <internalNodes>
            0 -1 34 -2.0077629014849663e-03</internalNodes>
          <leafValues>
            2.8433746099472046e-01 -7.6486748456954956e-01</leafValues></_>
        <_>
          <internalNodes>
            0 -1 87 1.8292538821697235e-02</internalNodes>
          <leafValues>
            -3.7918111681938171e-01 4.7127526998519897e-01</leafValues></_>
        <_>
          <internalNodes>
            0 -1 93 1.0969104245305061e-02</internalNodes>
          <leafValues>
            -8.1841123104095459e-01 2.0590369403362274e-01</leafValues></_>
        <_>
          <internalNodes>
            0 -1 76 3.4617837518453598e-03</internalNodes>
          <leafValues>
            -2.8053930401802063e-01 6.7006164789199829e-01</leafValues></_>
        <_>
          <internalNodes>
            0 -1 77 -4.1381381452083588e-03</internalNodes>
          <leafValues>
            5.9328502416610718e-01 -2.9316988587379456e-01</leafValues></_>
        <_>
          <internalNodes>
            0 -1 16 -8.5068568587303162e-03</internalNodes>
          <leafValues>
            -7.8871756792068481e-01 2.3464249074459076e-01</leafValues></_>
        <_>
          <internalNodes>
            0 -1 48 5.6406155228614807e-02</internalNodes>
          <leafValues>
            -2.8018105030059814e-01 6.4255905151367188e-01</leafValues></_>
        <_>
          <internalNodes>
            0 -1 108 -4.2241634801030159e-03</internalNodes>
          <leafValues>
            5.5589330196380615e-01 -3.3052986860275269e-01</leafValues></_></weakClassifiers></_>
    <!-- stage 11 -->
    <_>
      <maxWeakCount>9</maxWeakCount>
      <stageThreshold>-1.3469438552856445e+00</stageThreshold>
      <weakClassifiers>
        <_>
          <internalNodes>
            0 -1 47 1.7200563102960587e-02</internalNodes>
          <leafValues>
            -4.8106059432029724e-01 7.5000000000000000e-01</leafValues></_>
        <_>
          <internalNodes>
            0 -1 101 9.5241807866841555e-04</internalNodes>
          <leafValues>
            1.9568847119808197e-01 -7.6663124561309814e-01</leafValues></_>
        <_>
          <internalNodes>
            0 -1 1 2.4403883144259453e-03</internalNodes>
          <leafValues>
            1.7386306822299957e-01 -7.7230852842330933e-01</leafValues></_>
        <_>
          <internalNodes>
            0 -1 82 2.3701954632997513e-03</internalNodes>
          <leafValues>
            2.0189493894577026e-01 -7.0655822753906250e-01</leafValues></_>
        <_>
          <internalNodes>
            0 -1 33 -5.9472117573022842e-03</internalNodes>
          <leafValues>
            6.3590294122695923e-01 -2.5447419285774231e-01</leafValues></_>
        <_>
          <internalNodes>
            0 -1 59 2.4557992815971375e-02</internalNodes>
          <leafValues>
            2.2927762567996979e-01 -7.2933328151702881e-01</leafValues></_>
        <_>
          <internalNodes>
            0 -1 91 3.0469880439341068e-03</internalNodes>
          <leafValues>
            1.4691270887851715e-01 -8.4113484621047974e-01</leafValues></_>
        <_>
          <internalNodes>
            0 -1 4 -3.6626160144805908e-02</internalNodes>
          <leafValues>
            -7.6214766502380371e-01 1.6253571212291718e-01</leafValues></_>
        <_>
          <internalNodes>
            0 -1 15 2.5478387251496315e-03</internalNodes>
          <leafValues>
            1.4548252522945404e-01 -7.5698453187942505e-01</leafValues></_></weakClassifiers></_>
    <!-- stage 12 -->
    <_>
      <maxWeakCount>11</maxWeakCount>
      <stageThreshold>-1.4494431018829346e+00</stageThreshold>
      <weakClassifiers>
        <_>
          <internalNodes>
            0 -1 54 -4.1742958128452301e-03</internalNodes>
          <leafValues>
            3.4285715222358704e-01 -5.3913044929504395e-01</leafValues></_>
        <_>
          <internalNodes>
            0 -1 109 -1.4732461422681808e-03</internalNodes>
          <leafValues>
            2.7392074465751648e-01 -5.4580998420715332e-01</leafValues></_>
        <_>
          <internalNodes>
            0 -1 84 -1.2474682182073593e-02</internalNodes>
          <leafValues>
            -9.3250596523284912e-01 1.5191318094730377e-01</leafValues></_>
        <_>
          <internalNodes>
            0 -1 40 1.9328217953443527e-02</internalNodes>
          <leafValues>
            -1.7263682186603546e-01 8.7467253208160400e-01</leafValues></_>
        <_>
          <internalNodes>
            0 -1 79 -1.9807514036074281e-04</internalNodes>
          <leafValues>
            -6.5257167816162109e-01 2.8706946969032288e-01</leafValues></_>
        <_>
          <internalNodes>
            0 -1 70 2.4638446047902107e-03</internalNodes>
          <leafValues>
            -2.7617499232292175e-01 7.2112768888473511e-01</leafValues></_>
        <_>
          <internalNodes>
            0 -1 36 2.5956477969884872e-02</internalNodes>
          <leafValues>
            2.3093566298484802e-01 -8.5832285881042480e-01</leafValues></_>
        <_>
          <internalNodes>
            0 -1 70 -1.6775792464613914e-03</internalNodes>
          <leafValues>
            5.7593613862991333e-01 -2.7695715427398682e-01</leafValues></_>
        <_>
          <internalNodes>
            0 -1 96 3.0070203356444836e-03</internalNodes>
          <leafValues>
            2.1142481267452240e-01 -8.2698976993560791e-01</leafValues></_>
        <_>
          <internalNodes>
            0 -1 60 1.7403062433004379e-02</internalNodes>
          <leafValues>
            -2.3614773154258728e-01 7.4253636598587036e-01</leafValues></_>
        <_>
          <internalNodes>
            0 -1 69 -4.4312956742942333e-03</internalNodes>
          <leafValues>
            7.4766790866851807e-01 -2.2829940915107727e-01</leafValues></_></weakClassifiers></_>
    <!-- stage 13 -->
    <_>
      <maxWeakCount>13</maxWeakCount>
      <stageThreshold>-8.2822620868682861e-01</stageThreshold>
      <weakClassifiers>
        <_>
          <internalNodes>
            0 -1 39 -3.4518271684646606e-02</internalNodes>
          <leafValues>
            5.2688169479370117e-01 -4.9112427234649658e-01</leafValues></_>
        <_>
          <internalNodes>
            0 -1 30 4.5990068465471268e-02</internalNodes>
          <leafValues>
            -4.9802923202514648e-01 2.8052282333374023e-01</leafValues></_>
        <_>
          <internalNodes>
            0 -1 32 -5.2291485480964184e-03</internalNodes>
          <leafValues>
            4.5232945680618286e-01 -3.1311973929405212e-01</leafValues></_>
        <_>
          <internalNodes>
            0 -1 14 -8.4844045341014862e-03</internalNodes>
          <leafValues>
            -8.8827258348464966e-01 1.4667461812496185e-01</leafValues></_>
        <_>
          <internalNodes>
            0 -1 37 2.0991426706314087e-01</internalNodes>
          <leafValues>
            -1.5922567248344421e-01 9.0809214115142822e-01</leafValues></_>
        <_>
          <internalNodes>
            0 -1 64 -6.7904387833550572e-05</internalNodes>
          <leafValues>
            2.2594594955444336e-01 -6.8812757730484009e-01</leafValues></_>
        <_>
          <internalNodes>
            0 -1 85 -6.0635863337665796e-04</internalNodes>
          <leafValues>
            5.1059114933013916e-01 -2.8900757431983948e-01</leafValues></_>
        <_>
          <internalNodes>
            0 -1 83 -3.3477707765996456e-03</internalNodes>
          <leafValues>
            6.5989214181900024e-01 -2.1263736486434937e-01</leafValues></_>
        <_>
          <internalNodes>
            0 -1 55 -4.5169638469815254e-03</internalNodes>
          <leafValues>
            3.1554579734802246e-01 -4.6881353855133057e-01</leafValues></_>
        <_>
          <internalNodes>
            0 -1 58 -4.7529587754979730e-04</internalNodes>
          <leafValues>
            3.3049497008323669e-01 -4.1194945573806763e-01</leafValues></_>
        <_>
          <internalNodes>
            0 -1 88 -2.4787960574030876e-03</internalNodes>
          <leafValues>
            6.7501503229141235e-01 -2.0483778417110443e-01</leafValues></_>
        <_>
          <internalNodes>
            0 -1 61 5.5280332453548908e-03</internalNodes>
          <leafValues>
            -2.7452579140663147e-01 5.3734493255615234e-01</leafValues></_>
        <_>
          <internalNodes>
            0 -1 31 -3.4224156290292740e-02</internalNodes>
          <leafValues>
            6.7532718181610107e-01 -2.1044358611106873e-01</leafValues></_></weakClassifiers></_>
    <!-- stage 14 -->
    <_>
      <maxWeakCount>10</maxWeakCount>
      <stageThreshold>-1.3677729368209839e+00</stageThreshold>
      <weakClassifiers>
        <_>
          <internalNodes>
            0 -1 27 -7.5151827186346054e-03</internalNodes>
          <leafValues>
            4.1592919826507568e-01 -5.0718683004379272e-01</leafValues></_>
        <_>
          <internalNodes>
            0 -1 25 -1.3517841696739197e-01</internalNodes>
          <leafValues>
            4.1480013728141785e-01 -3.5647091269493103e-01</leafValues></_>
        <_>
          <internalNodes>
            0 -1 22 7.7144756913185120e-02</internalNodes>
          <leafValues>
            -2.6148831844329834e-01 5.4144299030303955e-01</leafValues></_>
        <_>
          <internalNodes>
            0 -1 6 -2.9074898920953274e-03</internalNodes>
          <leafValues>
            -6.3535511493682861e-01 2.1890763938426971e-01</leafValues></_>
        <_>
          <internalNodes>
            0 -1 11 -4.6868547797203064e-02</internalNodes>
          <leafValues>
            5.5706483125686646e-01 -2.4141149222850800e-01</leafValues></_>
        <_>
          <internalNodes>
            0 -1 71 -1.0221928823739290e-03</internalNodes>
          <leafValues>
            4.3790844082832336e-01 -3.4499424695968628e-01</leafValues></_>
        <_>
          <internalNodes>
            0 -1 50 -1.8288087099790573e-02</internalNodes>
          <leafValues>
            -5.7361996173858643e-01 2.5905558466911316e-01</leafValues></_>
        <_>
          <internalNodes>
            0 -1 68 4.1000001132488251e-02</internalNodes>
          <leafValues>
            -2.8326478600502014e-01 5.2074199914932251e-01</leafValues></_>
        <_>
          <internalNodes>
            0 -1 75 6.9492548704147339e-02</internalNodes>
          <leafValues>
            -3.1362739205360413e-01 5.6234806776046753e-01</leafValues></_>
        <_>
          <internalNodes>
            0 -1 13 -1.5857039019465446e-02</internalNodes>
          <leafValues>
            4.1030162572860718e-01 -3.4129902720451355e-01</leafValues></_></weakClassifiers></_></stages>
  <features>
    <_>
      <rects>
        <_>
          0 0 6 3 -1.</_>
        <_>
          2 0 2 3 3.</_></rects>
      <tilted>0</tilted></_>
    <_>
      <rects>
        <_>
          0 0 9 1 -1.</_>
        <_>
          3 0 3 1 3.</_></rects>
      <tilted>0</tilted></_>
    <_>
      <rects>
        <_>
          0 0 5 6 -1.</_>
        <_>
          0 2 5 2 3.</_></rects>
      <tilted>0</tilted></_>
    <_>
      <rects>
        <_>
          0 1 4 6 -1.</_>
        <_>
          2 1 2 6 2.</_></rects>
      <tilted>0</tilted></_>
    <_>
      <rects>
        <_>
          0 7 16 9 -1.</_>
        <_>
          0 10 16 3 3.</_></rects>
      <tilted>0</tilted></_>
    <_>
      <rects>
        <_>
          0 8 12 5 -1.</_>
        <_>
          4 8 4 5 3.</_></rects>
      <tilted>0</tilted></_>
    <_>
      <rects>
        <_>
          0 17 6 1 -1.</_>
        <_>
          3 17 3 1 2.</_></rects>
      <tilted>0</tilted></_>
    <_>
      <rects>
        <_>
          1 0 5 3 -1.</_>
        <_>
          1 1 5 1 3.</_></rects>
      <tilted>0</tilted></_>
    <_>
      <rects>
        <_>
          1 0 7 3 -1.</_>
        <_>
          1 1 7 1 3.</_></rects>
      <tilted>0</tilted></_>
    <_>
      <rects>
        <_>
          1 1 4 2 -1.</_>
        <_>
          1 1 2 1 2.</_>
        <_>
          3 2 2 1 2.</_></rects>
      <tilted>0</tilted></_>
    <_>
      <rects>
        <_>
          1 2 6 4 -1.</_>
        <_>
          3 2 2 4 3.</_></rects>
      <tilted>0</tilted></_>
    <_>
      <rects>
        <_>
          1 2 6 10 -1.</_>
        <_>
          1 2 3 5 2.</_>
        <_>
          4 7 3 5 2.</_></rects>
      <tilted>0</tilted></_>
    <_>
      <rects>
        <_>
          1 3 6 4 -1.</_>
        <_>
          1 3 3 2 2.</_>
        <_>
          4 5 3 2 2.</_></rects>
      <tilted>0</tilted></_>
    <_>
      <rects>
        <_>
          1 6 6 6 -1.</_>
        <_>
          3 6 2 6 3.</_></rects>
      <tilted>0</tilted></_>
    <_>
      <rects>
        <_>
          1 9 9 4 -1.</_>
        <_>
          1 11 9 2 2.</_></rects>
      <tilted>0</tilted></_>
    <_>
      <rects>
        <_>
          1 16 1 4 -1.</_>
        <_>
          1 18 1 2 2.</_></rects>
      <tilted>0</tilted></_>
    <_>
      <rects>
        <_>
          2 0 8 2 -1.</_>
        <_>
          6 0 4 2 2.</_></rects>
      <tilted>0</tilted></_>
    <_>
      <rects>
        <_>
          2 0 18 1 -1.</_>
        <_>
          11 0 9 1 2.</_></rects>
      <tilted>0</tilted></_>
    <_>
      <rects>
        <_>
          2 0 9 15 -1.</_>
        <_>
          2 5 9 5 3.</_></rects>
      <tilted>0</tilted></_>
    <_>
      <rects>
        <_>
          2 5 3 2 -1.</_>
        <_>
          2 6 3 1 2.</_></rects>
      <tilted>0</tilted></_>
    <_>
      <rects>
        <_>
          2 6 6 6 -1.</_>
        <_>
          4 6 2 6 3.</_></rects>
      <tilted>0</tilted></_>
    <_>
      <rects>
        <_>
          2 7 6 9 -1.</_>
        <_>
          4 7 2 9 3.</_></rects>
      <tilted>0</tilted></_>
    <_>
      <rects>
        <_>
          2 11 8 9 -1.</_>
        <_>
          6 11 4 9 2.</_></rects>
      <tilted>0</tilted></_>
    <_>
      <rects>
        <_>
          3 0 4 9 -1.</_>
        <_>
          5 0 2 9 2.</_></rects>
      <tilted>0</tilted></_>
    <_>
      <rects>
        <_>
          3 0 16 18 -1.</_>
        <_>
          3 6 16 6 3.</_></rects>
      <tilted>0</tilted></_>
    <_>
      <rects>
        <_>
          3 1 17 9 -1.</_>
        <_>
          3 4 17 3 3.</_></rects>
      <tilted>0</tilted></_>
    <_>
      <rects>
        <_>
          3 3 8 6 -1.</_>
        <_>
          3 3 4 3 2.</_>
        <_>
          7 6 4 3 2.</_></rects>
      <tilted>0</tilted></_>
    <_>
      <rects>
        <_>
          3 4 4 2 -1.</_>
        <_>
          3 4 2 1 2.</_>
        <_>
          5 5 2 1 2.</_></rects>
      <tilted>0</tilted></_>
    <_>
      <rects>
        <_>
          3 4 3 6 -1.</_>
        <_>
          3 6 3 2 3.</_></rects>
      <tilted>0</tilted></_>
    <_>
      <rects>
        <_>
          3 9 10 3 -1.</_>
        <_>
          8 9 5 3 2.</_></rects>
      <tilted>0</tilted></_>
    <_>
      <rects>
        <_>
          3 9 10 10 -1.</_>
        <_>
          8 9 5 10 2.</_></rects>
      <tilted>0</tilted></_>
    <_>
      <rects>
        <_>
          3 16 12 4 -1.</_>
        <_>
          7 16 4 4 3.</_></rects>
      <tilted>0</tilted></_>
    <_>
      <rects>
        <_>
          4 0 6 2 -1.</_>
        <_>
          4 1 6 1 2.</_></rects>
      <tilted>0</tilted></_>
    <_>
      <rects>
        <_>
          4 2 3 3 -1.</_>
        <_>
          4 3 3 1 3.</_></rects>
      <tilted>0</tilted></_>
    <_>
      <rects>
        <_>
          4 2 12 4 -1.</_>
        <_>
          8 2 4 4 3.</_></rects>
      <tilted>0</tilted></_>
    <_>
      <rects>
        <_>
          4 7 6 6 -1.</_>
        <_>
          7 7 3 6 2.</_></rects>
      <tilted>0</tilted></_>
    <_>
      <rects>
        <_>
          4 9 16 6 -1.</_>
        <_>
          4 9 8 3 2.</_>
        <_>
          12 12 8 3 2.</_></rects>
      <tilted>0</tilted></_>
    <_>
      <rects>
        <_>
          5 0 12 12 -1.</_>
        <_>
          5 6 12 6 2.</_></rects>
      <tilted>0</tilted></_>
    <_>
      <rects>
        <_>
          5 1 2 6 -1.</_>
        <_>
          5 3 2 2 3.</_></rects>
      <tilted>0</tilted></_>
    <_>
      <rects>
        <_>
          5 1 6 4 -1.</_>
        <_>
          5 1 3 2 2.</_>
        <_>
          8 3 3 2 2.</_></rects>
      <tilted>0</tilted></_>
    <_>
      <rects>
        <_>
          5 1 5 3 -1.</_>
        <_>
          5 2 5 1 3.</_></rects>
      <tilted>0</tilted></_>
    <_>
      <rects>
        <_>
          5 2 6 2 -1.</_>
        <_>
          5 2 3 1 2.</_>
        <_>
          8 3 3 1 2.</_></rects>
      <tilted>0</tilted></_>
    <_>
      <rects>
        <_>
          5 2 12 4 -1.</_>
        <_>
          9 2 4 4 3.</_></rects>
      <tilted>0</tilted></_>
    <_>
      <rects>
        <_>
          5 4 4 2 -1.</_>
        <_>
          5 4 2 1 2.</_>
        <_>
          7 5 2 1 2.</_></rects>
      <tilted>0</tilted></_>
    <_>
      <rects>
        <_>
          5 8 4 7 -1.</_>
        <_>
          7 8 2 7 2.</_></rects>
      <tilted>0</tilted></_>
    <_>
      <rects>
        <_>
          5 12 4 2 -1.</_>
        <_>
          5 12 2 1 2.</_>
        <_>
          7 13 2 1 2.</_></rects>
      <tilted>0</tilted></_>
    <_>
      <rects>
        <_>
          6 1 1 3 -1.</_>
        <_>
          6 2 1 1 3.</_></rects>
      <tilted>0</tilted></_>
    <_>
      <rects>
        <_>
          6 2 3 3 -1.</_>
        <_>
          6 3 3 1 3.</_></rects>
      <tilted>0</tilted></_>
    <_>
      <rects>
        <_>
          6 3 11 6 -1.</_>
        <_>
          6 6 11 3 2.</_></rects>
      <tilted>0</tilted></_>
    <_>
      <rects>
        <_>
          6 5 3 11 -1.</_>
        <_>
          7 5 1 11 3.</_></rects>
      <tilted>0</tilted></_>
    <_>
      <rects>
        <_>
          6 8 10 12 -1.</_>
        <_>
          6 8 5 6 2.</_>
        <_>
          11 14 5 6 2.</_></rects>
      <tilted>0</tilted></_>
    <_>
      <rects>
        <_>
          7 0 9 8 -1.</_>
        <_>
          7 4 9 4 2.</_></rects>
      <tilted>0</tilted></_>
    <_>
      <rects>
        <_>
          7 0 12 8 -1.</_>
        <_>
          7 4 12 4 2.</_></rects>
      <tilted>0</tilted></_>
    <_>
      <rects>
        <_>
          7 0 12 12 -1.</_>
        <_>
          7 4 12 4 3.</_></rects>
      <tilted>0</tilted></_>
    <_>
      <rects>
        <_>
          7 1 1 3 -1.</_>
        <_>
          7 2 1 1 3.</_></rects>
      <tilted>0</tilted></_>
    <_>
      <rects>
        <_>
          7 1 2 9 -1.</_>
        <_>
          7 4 2 3 3.</_></rects>
      <tilted>0</tilted></_>
    <_>
      <rects>
        <_>
          7 2 2 3 -1.</_>
        <_>
          8 2 1 3 2.</_></rects>
      <tilted>0</tilted></_>
    <_>
      <rects>
        <_>
          7 4 7 12 -1.</_>
        <_>
          7 10 7 6 2.</_></rects>
      <tilted>0</tilted></_>
    <_>
      <rects>
        <_>
          7 5 2 2 -1.</_>
        <_>
          8 5 1 2 2.</_></rects>
      <tilted>0</tilted></_>
    <_>
      <rects>
        <_>
          7 11 12 6 -1.</_>
        <_>
          7 11 6 3 2.</_>
        <_>
          13 14 6 3 2.</_></rects>
      <tilted>0</tilted></_>
    <_>
      <rects>
        <_>
          7 13 8 3 -1.</_>
        <_>
          7 14 8 1 3.</_></rects>
      <tilted>0</tilted></_>
    <_>
      <rects>
        <_>
          7 15 4 3 -1.</_>
        <_>
          7 16 4 1 3.</_></rects>
      <tilted>0</tilted></_>
    <_>
      <rects>
        <_>
          8 3 4 4 -1.</_>
        <_>
          10 3 2 4 2.</_></rects>
      <tilted>0</tilted></_>
    <_>
      <rects>
        <_>
          8 3 8 14 -1.</_>
        <_>
          8 10 8 7 2.</_></rects>
      <tilted>0</tilted></_>
    <_>
      <rects>
        <_>
          8 4 4 3 -1.</_>
        <_>
          10 4 2 3 2.</_></rects>
      <tilted>0</tilted></_>
    <_>
      <rects>
        <_>
          8 4 6 5 -1.</_>
        <_>
          11 4 3 5 2.</_></rects>
      <tilted>0</tilted></_>
    <_>
      <rects>
        <_>
          8 4 8 1 -1.</_>
        <_>
          12 4 4 1 2.</_></rects>
      <tilted>0</tilted></_>
    <_>
      <rects>
        <_>
          8 5 6 5 -1.</_>
        <_>
          11 5 3 5 2.</_></rects>
      <tilted>0</tilted></_>
    <_>
      <rects>
        <_>
          8 8 12 12 -1.</_>
        <_>
          14 8 6 12 2.</_></rects>
      <tilted>0</tilted></_>
    <_>
      <rects>
        <_>
          8 9 4 2 -1.</_>
        <_>
          8 9 2 1 2.</_>
        <_>
          10 10 2 1 2.</_></rects>
      <tilted>0</tilted></_>
    <_>
      <rects>
        <_>
          8 10 2 2 -1.</_>
        <_>
          8 10 1 1 2.</_>
        <_>
          9 11 1 1 2.</_></rects>
      <tilted>0</tilted></_>
    <_>
      <rects>
        <_>
          8 13 3 1 -1.</_>
        <_>
          9 13 1 1 3.</_></rects>
      <tilted>0</tilted></_>
    <_>
      <rects>
        <_>
          8 13 2 2 -1.</_>
        <_>
          8 13 1 1 2.</_>
        <_>
          9 14 1 1 2.</_></rects>
      <tilted>0</tilted></_>
    <_>
      <rects>
        <_>
          8 15 2 2 -1.</_>
        <_>
          8 15 1 1 2.</_>
        <_>
          9 16 1 1 2.</_></rects>
      <tilted>0</tilted></_>
    <_>
      <rects>
        <_>
          9 2 7 2 -1.</_>
        <_>
          9 3 7 1 2.</_></rects>
      <tilted>0</tilted></_>
    <_>
      <rects>
        <_>
          9 2 9 8 -1.</_>
        <_>
          9 6 9 4 2.</_></rects>
      <tilted>0</tilted></_>
    <_>
      <rects>
        <_>
          9 11 1 3 -1.</_>
        <_>
          9 12 1 1 3.</_></rects>
      <tilted>0</tilted></_>
    <_>
      <rects>
        <_>
          9 11 4 3 -1.</_>
        <_>
          9 12 4 1 3.</_></rects>
      <tilted>0</tilted></_>
    <_>
      <rects>
        <_>
          9 17 4 3 -1.</_>
        <_>
          9 18 4 1 3.</_></rects>
      <tilted>0</tilted></_>
    <_>
      <rects>
        <_>
          10 0 4 1 -1.</_>
        <_>
          12 0 2 1 2.</_></rects>
      <tilted>0</tilted></_>
    <_>
      <rects>
        <_>
          10 4 4 3 -1.</_>
        <_>
          12 4 2 3 2.</_></rects>
      <tilted>0</tilted></_>
    <_>
      <rects>
        <_>
          10 4 4 12 -1.</_>
        <_>
          10 10 4 6 2.</_></rects>
      <tilted>0</tilted></_>
    <_>
      <rects>
        <_>
          10 6 6 4 -1.</_>
        <_>
          13 6 3 4 2.</_></rects>
      <tilted>0</tilted></_>
    <_>
      <rects>
        <_>
          10 11 1 3 -1.</_>
        <_>
          10 12 1 1 3.</_></rects>
      <tilted>0</tilted></_>
    <_>
      <rects>
        <_>
          10 11 8 4 -1.</_>
        <_>
          10 13 8 2 2.</_></rects>
      <tilted>0</tilted></_>
    <_>
      <rects>
        <_>
          10 12 1 2 -1.</_>
        <_>
          10 13 1 1 2.</_></rects>
      <tilted>0</tilted></_>
    <_>
      <rects>
        <_>
          10 13 2 3 -1.</_>
        <_>
          10 14 2 1 3.</_></rects>
      <tilted>0</tilted></_>
    <_>
      <rects>
        <_>
          10 13 7 6 -1.</_>
        <_>
          10 15 7 2 3.</_></rects>
      <tilted>0</tilted></_>
    <_>
      <rects>
        <_>
          10 15 1 3 -1.</_>
        <_>
          10 16 1 1 3.</_></rects>
      <tilted>0</tilted></_>
    <_>
      <rects>
        <_>
          10 15 2 2 -1.</_>
        <_>
          10 15 1 1 2.</_>
        <_>
          11 16 1 1 2.</_></rects>
      <tilted>0</tilted></_>
    <_>
      <rects>
        <_>
          10 17 2 2 -1.</_>
        <_>
          10 17 1 1 2.</_>
        <_>
          11 18 1 1 2.</_></rects>
      <tilted>0</tilted></_>
    <_>
      <rects>
        <_>
          11 1 3 4 -1.</_>
        <_>
          12 1 1 4 3.</_></rects>
      <tilted>0</tilted></_>
    <_>
      <rects>
        <_>
          11 3 9 11 -1.</_>
        <_>
          14 3 3 11 3.</_></rects>
      <tilted>0</tilted></_>
    <_>
      <rects>
        <_>
          11 5 2 10 -1.</_>
        <_>
          11 10 2 5 2.</_></rects>
      <tilted>0</tilted></_>
    <_>
      <rects>
        <_>
          11 5 9 11 -1.</_>
        <_>
          14 5 3 11 3.</_></rects>
      <tilted>0</tilted></_>
    <_>
      <rects>
        <_>
          11 12 2 2 -1.</_>
        <_>
          11 12 1 1 2.</_>
        <_>
          12 13 1 1 2.</_></rects>
      <tilted>0</tilted></_>
    <_>
      <rects>
        <_>
          12 3 3 3 -1.</_>
        <_>
          13 3 1 3 3.</_></rects>
      <tilted>0</tilted></_>
    <_>
      <rects>
        <_>
          12 10 2 2 -1.</_>
        <_>
          12 10 1 1 2.</_>
        <_>
          13 11 1 1 2.</_></rects>
      <tilted>0</tilted></_>
    <_>
      <rects>
        <_>
          12 12 2 2 -1.</_>
        <_>
          12 12 1 1 2.</_>
        <_>
          13 13 1 1 2.</_></rects>
      <tilted>0</tilted></_>
    <_>
      <rects>
        <_>
          13 1 1 2 -1.</_>
        <_>
          13 2 1 1 2.</_></rects>
      <tilted>0</tilted></_>
    <_>
      <rects>
        <_>
          13 4 2 2 -1.</_>
        <_>
          14 4 1 2 2.</_></rects>
      <tilted>0</tilted></_>
    <_>
      <rects>
        <_>
          13 4 2 2 -1.</_>
        <_>
          13 5 2 1 2.</_></rects>
      <tilted>0</tilted></_>
    <_>
      <rects>
        <_>
          13 10 1 3 -1.</_>
        <_>
          13 11 1 1 3.</_></rects>
      <tilted>0</tilted></_>
    <_>
      <rects>
        <_>
          13 11 2 3 -1.</_>
        <_>
          13 12 2 1 3.</_></rects>
      <tilted>0</tilted></_>
    <_>
      <rects>
        <_>
          14 2 6 12 -1.</_>
        <_>
          17 2 3 12 2.</_></rects>
      <tilted>0</tilted></_>
    <_>
      <rects>
        <_>
          14 3 2 2 -1.</_>
        <_>
          15 3 1 2 2.</_></rects>
      <tilted>0</tilted></_>
    <_>
      <rects>
        <_>
          15 2 3 16 -1.</_>
        <_>
          15 10 3 8 2.</_></rects>
      <tilted>0</tilted></_>
    <_>
      <rects>
        <_>
          16 5 4 8 -1.</_>
        <_>
          18 5 2 8 2.</_></rects>
      <tilted>0</tilted></_>
    <_>
      <rects>
        <_>
          17 4 3 7 -1.</_>
        <_>
          18 4 1 7 3.</_></rects>
      <tilted>0</tilted></_>
    <_>
      <rects>
        <_>
          18 3 2 12 -1.</_>
        <_>
          18 3 1 6 2.</_>
        <_>
          19 9 1 6 2.</_></rects>
      <tilted>0</tilted></_>
    <_>
      <rects>
        <_>
          18 6 2 1 -1.</_>
        <_>
          19 6 1 1 2.</_></rects>
      <tilted>0</tilted></_></features></cascade>
</opencv_storage>
