<?xml version="1.0"?>
<opencv_storage>
<stage13>
  <maxWeakCount>8</maxWeakCount>
  <stageThreshold>-8.7636667490005493e-01</stageThreshold>
  <weakClassifiers>
    <_>
      <internalNodes>
        0 -1 151552 5.9521305374801159e-03</internalNodes>
      <leafValues>
        -2.5400456786155701e-01 6.8098157644271851e-01</leafValues></_>
    <_>
      <internalNodes>
        0 -1 148035 -2.9200799763202667e-03</internalNodes>
      <leafValues>
        6.1308866739273071e-01 -2.4473701417446136e-01</leafValues></_>
    <_>
      <internalNodes>
        0 -1 223424 5.2434373646974564e-03</internalNodes>
      <leafValues>
        -3.5633364319801331e-01 5.3771740198135376e-01</leafValues></_>
    <_>
      <internalNodes>
        0 -1 209830 -9.7172975074499846e-04</internalNodes>
      <leafValues>
        -6.5034937858581543e-01 3.1311705708503723e-01</leafValues></_>
    <_>
      <internalNodes>
        0 -1 94555 -3.2762009650468826e-02</internalNodes>
      <leafValues>
        6.8501198291778564e-01 -2.3376089334487915e-01</leafValues></_>
    <_>
      <internalNodes>
        0 -1 193124 -2.2198813967406750e-03</internalNodes>
      <leafValues>
        6.4420193433761597e-01 -2.7119937539100647e-01</leafValues></_>
    <_>
      <internalNodes>
        0 -1 27073 3.3008813858032227e-02</internalNodes>
      <leafValues>
        -2.7683225274085999e-01 6.2949538230895996e-01</leafValues></_>
    <_>
      <internalNodes>
        0 -1 125973 3.8041535299271345e-04</internalNodes>
      <leafValues>
        -3.8786643743515015e-01 5.1679950952529907e-01</leafValues></_></weakClassifiers></stage13>
</opencv_storage>
