<?xml version="1.0"?>
<opencv_storage>
<stage5>
  <maxWeakCount>6</maxWeakCount>
  <stageThreshold>-1.2354209423065186e+00</stageThreshold>
  <weakClassifiers>
    <_>
      <internalNodes>
        0 -1 29812 -6.9316932931542397e-03</internalNodes>
      <leafValues>
        4.8314607143402100e-01 -6.3557481765747070e-01</leafValues></_>
    <_>
      <internalNodes>
        0 -1 59590 6.1549905687570572e-02</internalNodes>
      <leafValues>
        -9.2359375953674316e-01 2.0992819964885712e-01</leafValues></_>
    <_>
      <internalNodes>
        0 -1 14933 -3.3640884794294834e-04</internalNodes>
      <leafValues>
        -6.3407588005065918e-01 2.7814322710037231e-01</leafValues></_>
    <_>
      <internalNodes>
        0 -1 64975 -5.8147730305790901e-03</internalNodes>
      <leafValues>
        3.3570468425750732e-01 -5.6551438570022583e-01</leafValues></_>
    <_>
      <internalNodes>
        0 -1 69954 2.8629027307033539e-02</internalNodes>
      <leafValues>
        -6.5130561590194702e-01 3.7153139710426331e-01</leafValues></_>
    <_>
      <internalNodes>
        0 -1 23781 -1.5271209180355072e-02</internalNodes>
      <leafValues>
        3.3612740039825439e-01 -6.6163158416748047e-01</leafValues></_></weakClassifiers></stage5>
</opencv_storage>
