<?xml version="1.0"?>
<opencv_storage>
<stage15>
  <maxWeakCount>13</maxWeakCount>
  <stageThreshold>-1.2514938116073608e+00</stageThreshold>
  <weakClassifiers>
    <_>
      <internalNodes>
        0 -1 207354 2.1306376904249191e-02</internalNodes>
      <leafValues>
        -3.3854165673255920e-01 6.0185188055038452e-01</leafValues></_>
    <_>
      <internalNodes>
        0 -1 688 -3.6281163338571787e-03</internalNodes>
      <leafValues>
        4.3628576397895813e-01 -3.5604825615882874e-01</leafValues></_>
    <_>
      <internalNodes>
        0 -1 86629 2.2373121231794357e-02</internalNodes>
      <leafValues>
        1.6863086819648743e-01 -8.7940019369125366e-01</leafValues></_>
    <_>
      <internalNodes>
        0 -1 106562 2.6637683622539043e-03</internalNodes>
      <leafValues>
        2.7510970830917358e-01 -6.8827545642852783e-01</leafValues></_>
    <_>
      <internalNodes>
        0 -1 92639 1.9033066928386688e-02</internalNodes>
      <leafValues>
        -3.1210261583328247e-01 4.6199572086334229e-01</leafValues></_>
    <_>
      <internalNodes>
        0 -1 223744 -3.3846688456833363e-03</internalNodes>
      <leafValues>
        5.6860256195068359e-01 -2.5089660286903381e-01</leafValues></_>
    <_>
      <internalNodes>
        0 -1 122841 1.9733193330466747e-03</internalNodes>
      <leafValues>
        -2.5492084026336670e-01 5.0629293918609619e-01</leafValues></_>
    <_>
      <internalNodes>
        0 -1 161048 -3.6856714636087418e-02</internalNodes>
      <leafValues>
        -6.6915100812911987e-01 1.9061094522476196e-01</leafValues></_>
    <_>
      <internalNodes>
        0 -1 66087 -1.9624095410108566e-02</internalNodes>
      <leafValues>
        3.2404968142509460e-01 -4.9156346917152405e-01</leafValues></_>
    <_>
      <internalNodes>
        0 -1 181588 -3.8792349398136139e-02</internalNodes>
      <leafValues>
        4.4669604301452637e-01 -3.4515750408172607e-01</leafValues></_>
    <_>
      <internalNodes>
        0 -1 194647 1.4232326298952103e-02</internalNodes>
      <leafValues>
        -3.1984993815422058e-01 5.2904033660888672e-01</leafValues></_>
    <_>
      <internalNodes>
        0 -1 201297 -1.1126999743282795e-03</internalNodes>
      <leafValues>
        6.3466954231262207e-01 -2.7528607845306396e-01</leafValues></_>
    <_>
      <internalNodes>
        0 -1 5067 -3.0593352857977152e-04</internalNodes>
      <leafValues>
        -6.0003250837326050e-01 2.6666808128356934e-01</leafValues></_></weakClassifiers></stage15>
</opencv_storage>
