<?xml version="1.0"?>
<opencv_storage>
<stage6>
  <maxWeakCount>5</maxWeakCount>
  <stageThreshold>-3.1481587886810303e-01</stageThreshold>
  <weakClassifiers>
    <_>
      <internalNodes>
        0 -1 823 2.4243883788585663e-01</internalNodes>
      <leafValues>
        -5.0649350881576538e-01 5.3424656391143799e-01</leafValues></_>
    <_>
      <internalNodes>
        0 -1 108763 -2.7146693319082260e-03</internalNodes>
      <leafValues>
        8.7396258115768433e-01 -3.2945382595062256e-01</leafValues></_>
    <_>
      <internalNodes>
        0 -1 106442 8.9779756963253021e-03</internalNodes>
      <leafValues>
        -3.0846586823463440e-01 9.3032807111740112e-01</leafValues></_>
    <_>
      <internalNodes>
        0 -1 125207 -1.5425797551870346e-02</internalNodes>
      <leafValues>
        -9.7817379236221313e-01 3.6617922782897949e-01</leafValues></_>
    <_>
      <internalNodes>
        0 -1 143677 1.4646025374531746e-04</internalNodes>
      <leafValues>
        -5.3658205270767212e-01 4.6341806650161743e-01</leafValues></_></weakClassifiers></stage6>
</opencv_storage>
