<?xml version="1.0"?>
<opencv_storage>
<stage10>
  <maxWeakCount>9</maxWeakCount>
  <stageThreshold>-1.0109460353851318e+00</stageThreshold>
  <weakClassifiers>
    <_>
      <internalNodes>
        0 -1 20352 1.2903449824079871e-03</internalNodes>
      <leafValues>
        2.1149897575378418e-01 -9.1150444746017456e-01</leafValues></_>
    <_>
      <internalNodes>
        0 -1 59774 6.0010828077793121e-02</internalNodes>
      <leafValues>
        1.5869407355785370e-01 -9.0890270471572876e-01</leafValues></_>
    <_>
      <internalNodes>
        0 -1 6352 1.3391953893005848e-02</internalNodes>
      <leafValues>
        -3.5463684797286987e-01 5.7376414537429810e-01</leafValues></_>
    <_>
      <internalNodes>
        0 -1 223084 4.3715830892324448e-02</internalNodes>
      <leafValues>
        -2.5793832540512085e-01 7.6936924457550049e-01</leafValues></_>
    <_>
      <internalNodes>
        0 -1 42548 -4.1224068263545632e-04</internalNodes>
      <leafValues>
        3.7946078181266785e-01 -5.6604242324829102e-01</leafValues></_>
    <_>
      <internalNodes>
        0 -1 103807 -3.8590006530284882e-02</internalNodes>
      <leafValues>
        5.5659019947052002e-01 -3.8185364007949829e-01</leafValues></_>
    <_>
      <internalNodes>
        0 -1 24397 4.3289382010698318e-03</internalNodes>
      <leafValues>
        -7.6237058639526367e-01 2.8167945146560669e-01</leafValues></_>
    <_>
      <internalNodes>
        0 -1 132834 -2.8964304365217686e-03</internalNodes>
      <leafValues>
        6.4112579822540283e-01 -3.2948088645935059e-01</leafValues></_>
    <_>
      <internalNodes>
        0 -1 167295 -4.5889327302575111e-03</internalNodes>
      <leafValues>
        4.2173603177070618e-01 -4.8227101564407349e-01</leafValues></_></weakClassifiers></stage10>
</opencv_storage>
