<?xml version="1.0"?>
<opencv_storage>
<stage5>
  <maxWeakCount>5</maxWeakCount>
  <stageThreshold>-4.0427097678184509e-01</stageThreshold>
  <weakClassifiers>
    <_>
      <internalNodes>
        0 -1 14227 -2.7628764510154724e-02</internalNodes>
      <leafValues>
        -9.6875000000000000e-01 2.6271185278892517e-01</leafValues></_>
    <_>
      <internalNodes>
        0 -1 35442 2.6677362620830536e-03</internalNodes>
      <leafValues>
        1.8951831758022308e-01 -9.0135413408279419e-01</leafValues></_>
    <_>
      <internalNodes>
        0 -1 19367 9.8962690681219101e-03</internalNodes>
      <leafValues>
        -4.8030963540077209e-01 5.2458208799362183e-01</leafValues></_>
    <_>
      <internalNodes>
        0 -1 3535 1.8312723841518164e-03</internalNodes>
      <leafValues>
        2.7042117714881897e-01 -8.2586789131164551e-01</leafValues></_>
    <_>
      <internalNodes>
        0 -1 7946 1.5031097456812859e-02</internalNodes>
      <leafValues>
        -4.2004257440567017e-01 6.3049662113189697e-01</leafValues></_></weakClassifiers></stage5>
</opencv_storage>
