<?xml version="1.0"?>
<opencv_storage>
<stage15>
  <maxWeakCount>9</maxWeakCount>
  <stageThreshold>-7.9622870683670044e-01</stageThreshold>
  <weakClassifiers>
    <_>
      <internalNodes>
        0 -1 21105 1.2396360980346799e-03</internalNodes>
      <leafValues>
        1.6767676174640656e-01 -7.9047620296478271e-01</leafValues></_>
    <_>
      <internalNodes>
        0 -1 24107 4.0255067870020866e-03</internalNodes>
      <leafValues>
        1.2699629366397858e-01 -8.4993338584899902e-01</leafValues></_>
    <_>
      <internalNodes>
        0 -1 273 2.4086195975542068e-02</internalNodes>
      <leafValues>
        -3.4905365109443665e-01 4.2792391777038574e-01</leafValues></_>
    <_>
      <internalNodes>
        0 -1 24480 -2.0383773371577263e-02</internalNodes>
      <leafValues>
        5.0618702173233032e-01 -3.5845592617988586e-01</leafValues></_>
    <_>
      <internalNodes>
        0 -1 14797 3.1625185161828995e-02</internalNodes>
      <leafValues>
        -2.5440067052841187e-01 6.3579452037811279e-01</leafValues></_>
    <_>
      <internalNodes>
        0 -1 9984 -3.4069124609231949e-02</internalNodes>
      <leafValues>
        2.7113804221153259e-01 -5.5658304691314697e-01</leafValues></_>
    <_>
      <internalNodes>
        0 -1 3956 -3.0873419018462300e-04</internalNodes>
      <leafValues>
        3.3706888556480408e-01 -4.5519644021987915e-01</leafValues></_>
    <_>
      <internalNodes>
        0 -1 33740 -4.9206370022147894e-04</internalNodes>
      <leafValues>
        5.0246304273605347e-01 -3.4031951427459717e-01</leafValues></_>
    <_>
      <internalNodes>
        0 -1 14335 -3.1074862927198410e-03</internalNodes>
      <leafValues>
        5.7801431417465210e-01 -3.4613537788391113e-01</leafValues></_></weakClassifiers></stage15>
</opencv_storage>
