<?xml version="1.0"?>
<opencv_storage>
<stage14>
  <maxWeakCount>9</maxWeakCount>
  <stageThreshold>-7.6817804574966431e-01</stageThreshold>
  <weakClassifiers>
    <_>
      <internalNodes>
        0 -1 724666 -3.4850575029850006e-02</internalNodes>
      <leafValues>
        6.5100669860839844e-01 -2.1507760882377625e-01</leafValues></_>
    <_>
      <internalNodes>
        0 -1 730890 1.4291229657828808e-02</internalNodes>
      <leafValues>
        -2.6855665445327759e-01 5.5057775974273682e-01</leafValues></_>
    <_>
      <internalNodes>
        0 -1 510641 9.2716515064239502e-03</internalNodes>
      <leafValues>
        -1.9738762080669403e-01 7.4231779575347900e-01</leafValues></_>
    <_>
      <internalNodes>
        0 -1 456561 3.3248816616833210e-03</internalNodes>
      <leafValues>
        -4.1394048929214478e-01 3.7650036811828613e-01</leafValues></_>
    <_>
      <internalNodes>
        0 -1 467510 9.6599876880645752e-02</internalNodes>
      <leafValues>
        2.3983468115329742e-01 -7.2311806678771973e-01</leafValues></_>
    <_>
      <internalNodes>
        0 -1 311986 -3.9801821112632751e-03</internalNodes>
      <leafValues>
        4.2881661653518677e-01 -3.8972315192222595e-01</leafValues></_>
    <_>
      <internalNodes>
        0 -1 120524 8.9068365923594683e-05</internalNodes>
      <leafValues>
        2.9977858066558838e-01 -5.9716290235519409e-01</leafValues></_>
    <_>
      <internalNodes>
        0 -1 146667 -6.7024528980255127e-03</internalNodes>
      <leafValues>
        -7.7086806297302246e-01 1.3843886554241180e-01</leafValues></_>
    <_>
      <internalNodes>
        0 -1 426851 -4.8278176109306514e-05</internalNodes>
      <leafValues>
        3.3259153366088867e-01 -4.4806066155433655e-01</leafValues></_></weakClassifiers></stage14>
</opencv_storage>
