<?xml version="1.0"?>
<opencv_storage>
<stage5>
  <maxWeakCount>7</maxWeakCount>
  <stageThreshold>-4.7823071479797363e-01</stageThreshold>
  <weakClassifiers>
    <_>
      <internalNodes>
        0 -1 465640 -1.1406670091673732e-04</internalNodes>
      <leafValues>
        4.5573770999908447e-01 -4.7118642926216125e-01</leafValues></_>
    <_>
      <internalNodes>
        0 -1 61916 -1.3369310181587934e-03</internalNodes>
      <leafValues>
        3.7046363949775696e-01 -6.1642754077911377e-01</leafValues></_>
    <_>
      <internalNodes>
        0 -1 91242 5.8806221932172775e-04</internalNodes>
      <leafValues>
        -5.1790177822113037e-01 3.8590067625045776e-01</leafValues></_>
    <_>
      <internalNodes>
        0 -1 60330 5.2647940814495087e-02</internalNodes>
      <leafValues>
        -3.1401774287223816e-01 6.7827683687210083e-01</leafValues></_>
    <_>
      <internalNodes>
        0 -1 341194 -1.4235584065318108e-02</internalNodes>
      <leafValues>
        6.6682261228561401e-01 -3.7241324782371521e-01</leafValues></_>
    <_>
      <internalNodes>
        0 -1 35701 1.8324067059438676e-04</internalNodes>
      <leafValues>
        -5.5867618322372437e-01 4.4398567080497742e-01</leafValues></_>
    <_>
      <internalNodes>
        0 -1 701861 -1.1922545731067657e-02</internalNodes>
      <leafValues>
        5.7826238870620728e-01 -4.4522553682327271e-01</leafValues></_></weakClassifiers></stage5>
</opencv_storage>
