<?xml version="1.0"?>
<opencv_storage>
<cascade>
  <stageType>BOOST</stageType>
  <featureType>HAAR</featureType>
  <height>15</height>
  <width>15</width>
  <stageParams>
    <boostType>GAB</boostType>
    <minHitRate>9.9900001287460327e-01</minHitRate>
    <maxFalseAlarm>5.0000000000000000e-01</maxFalseAlarm>
    <weightTrimRate>9.4999999999999996e-01</weightTrimRate>
    <maxDepth>1</maxDepth>
    <maxWeakCount>100</maxWeakCount></stageParams>
  <featureParams>
    <maxCatCount>0</maxCatCount>
    <featSize>1</featSize>
    <mode>ALL</mode></featureParams>
  <stageNum>17</stageNum>
  <stages>
    <!-- stage 0 -->
    <_>
      <maxWeakCount>2</maxWeakCount>
      <stageThreshold>-1.3291417062282562e-01</stageThreshold>
      <weakClassifiers>
        <_>
          <internalNodes>
            0 -1 62 4.8096068203449249e-02</internalNodes>
          <leafValues>
            -9.4676804542541504e-01 7.3887240886688232e-01</leafValues></_>
        <_>
          <internalNodes>
            0 -1 27 4.4423206418287009e-05</internalNodes>
          <leafValues>
            -6.6271322965621948e-01 8.1385385990142822e-01</leafValues></_></weakClassifiers></_>
    <!-- stage 1 -->
    <_>
      <maxWeakCount>3</maxWeakCount>
      <stageThreshold>-3.9213955402374268e-01</stageThreshold>
      <weakClassifiers>
        <_>
          <internalNodes>
            0 -1 57 -5.7983106671599671e-05</internalNodes>
          <leafValues>
            6.5384614467620850e-01 -7.0833331346511841e-01</leafValues></_>
        <_>
          <internalNodes>
            0 -1 94 -4.9946567742154002e-05</internalNodes>
          <leafValues>
            7.9849684238433838e-01 -5.3929919004440308e-01</leafValues></_>
        <_>
          <internalNodes>
            0 -1 99 -4.4423206418287009e-05</internalNodes>
          <leafValues>
            8.5549294948577881e-01 -4.7206142544746399e-01</leafValues></_></weakClassifiers></_>
    <!-- stage 2 -->
    <_>
      <maxWeakCount>4</maxWeakCount>
      <stageThreshold>-1.0447870492935181e+00</stageThreshold>
      <weakClassifiers>
        <_>
          <internalNodes>
            0 -1 24 -5.3914867748972028e-05</internalNodes>
          <leafValues>
            7.7049177885055542e-01 -5.2808988094329834e-01</leafValues></_>
        <_>
          <internalNodes>
            0 -1 19 5.1367314881645143e-05</internalNodes>
          <leafValues>
            -5.7167005538940430e-01 7.3459309339523315e-01</leafValues></_>
        <_>
          <internalNodes>
            0 -1 34 -5.8253430324839428e-05</internalNodes>
          <leafValues>
            7.8463798761367798e-01 -4.9914446473121643e-01</leafValues></_>
        <_>
          <internalNodes>
            0 -1 93 -4.2724601371446624e-05</internalNodes>
          <leafValues>
            6.8479967117309570e-01 -7.2966504096984863e-01</leafValues></_></weakClassifiers></_>
    <!-- stage 3 -->
    <_>
      <maxWeakCount>3</maxWeakCount>
      <stageThreshold>-1.0069499015808105e+00</stageThreshold>
      <weakClassifiers>
        <_>
          <internalNodes>
            0 -1 52 3.2131310552358627e-02</internalNodes>
          <leafValues>
            -8.2156133651733398e-01 6.6767370700836182e-01</leafValues></_>
        <_>
          <internalNodes>
            0 -1 31 -7.9084513708949089e-03</internalNodes>
          <leafValues>
            4.1785514354705811e-01 -6.8334674835205078e-01</leafValues></_>
        <_>
          <internalNodes>
            0 -1 33 5.1726177334785461e-03</internalNodes>
          <leafValues>
            -5.8232474327087402e-01 4.9795821309089661e-01</leafValues></_></weakClassifiers></_>
    <!-- stage 4 -->
    <_>
      <maxWeakCount>4</maxWeakCount>
      <stageThreshold>-1.0067315101623535e+00</stageThreshold>
      <weakClassifiers>
        <_>
          <internalNodes>
            0 -1 14 -2.4682858958840370e-02</internalNodes>
          <leafValues>
            7.6569038629531860e-01 -5.0692522525787354e-01</leafValues></_>
        <_>
          <internalNodes>
            0 -1 100 -9.1845169663429260e-03</internalNodes>
          <leafValues>
            4.5526650547981262e-01 -8.6240965127944946e-01</leafValues></_>
        <_>
          <internalNodes>
            0 -1 42 -1.0535771027207375e-02</internalNodes>
          <leafValues>
            6.9667309522628784e-01 -5.2262699604034424e-01</leafValues></_>
        <_>
          <internalNodes>
            0 -1 34 -1.5775652136653662e-03</internalNodes>
          <leafValues>
            7.5054579973220825e-01 -3.8738518953323364e-01</leafValues></_></weakClassifiers></_>
    <!-- stage 5 -->
    <_>
      <maxWeakCount>4</maxWeakCount>
      <stageThreshold>-6.7110908031463623e-01</stageThreshold>
      <weakClassifiers>
        <_>
          <internalNodes>
            0 -1 39 2.2368509322404861e-02</internalNodes>
          <leafValues>
            -3.4411084651947021e-01 8.9221554994583130e-01</leafValues></_>
        <_>
          <internalNodes>
            0 -1 26 1.3669111067429185e-03</internalNodes>
          <leafValues>
            -3.8462525606155396e-01 6.4547890424728394e-01</leafValues></_>
        <_>
          <internalNodes>
            0 -1 45 3.1561302021145821e-03</internalNodes>
          <leafValues>
            -3.5690587759017944e-01 8.8053709268569946e-01</leafValues></_>
        <_>
          <internalNodes>
            0 -1 0 -1.8782570958137512e-02</internalNodes>
          <leafValues>
            5.0436317920684814e-01 -6.1557120084762573e-01</leafValues></_></weakClassifiers></_>
    <!-- stage 6 -->
    <_>
      <maxWeakCount>6</maxWeakCount>
      <stageThreshold>-8.4259957075119019e-01</stageThreshold>
      <weakClassifiers>
        <_>
          <internalNodes>
            0 -1 6 -2.3823508992791176e-02</internalNodes>
          <leafValues>
            5.8394157886505127e-01 -4.9079754948616028e-01</leafValues></_>
        <_>
          <internalNodes>
            0 -1 40 3.6555800586938858e-02</internalNodes>
          <leafValues>
            -3.2181552052497864e-01 8.8679665327072144e-01</leafValues></_>
        <_>
          <internalNodes>
            0 -1 81 5.8659967035055161e-03</internalNodes>
          <leafValues>
            -2.9104059934616089e-01 7.3691391944885254e-01</leafValues></_>
        <_>
          <internalNodes>
            0 -1 51 -1.3552892953157425e-02</internalNodes>
          <leafValues>
            2.9634395241737366e-01 -9.3380278348922729e-01</leafValues></_>
        <_>
          <internalNodes>
            0 -1 28 -1.5726841986179352e-02</internalNodes>
          <leafValues>
            7.6368051767349243e-01 -3.6476966738700867e-01</leafValues></_>
        <_>
          <internalNodes>
            0 -1 87 -1.4929391443729401e-02</internalNodes>
          <leafValues>
            5.3167200088500977e-01 -5.9829235076904297e-01</leafValues></_></weakClassifiers></_>
    <!-- stage 7 -->
    <_>
      <maxWeakCount>7</maxWeakCount>
      <stageThreshold>-5.7090747356414795e-01</stageThreshold>
      <weakClassifiers>
        <_>
          <internalNodes>
            0 -1 97 -4.4282022863626480e-03</internalNodes>
          <leafValues>
            7.0652174949645996e-01 -3.1250000000000000e-01</leafValues></_>
        <_>
          <internalNodes>
            0 -1 44 5.3618200123310089e-02</internalNodes>
          <leafValues>
            -7.3421168327331543e-01 3.3015358448028564e-01</leafValues></_>
        <_>
          <internalNodes>
            0 -1 41 4.1697062551975250e-03</internalNodes>
          <leafValues>
            -3.2276260852813721e-01 7.4300783872604370e-01</leafValues></_>
        <_>
          <internalNodes>
            0 -1 17 -3.6551088094711304e-02</internalNodes>
          <leafValues>
            7.4250638484954834e-01 -3.5799160599708557e-01</leafValues></_>
        <_>
          <internalNodes>
            0 -1 91 3.2812058925628662e-03</internalNodes>
          <leafValues>
            -2.1078693866729736e-01 8.6787319183349609e-01</leafValues></_>
        <_>
          <internalNodes>
            0 -1 102 5.4460987448692322e-03</internalNodes>
          <leafValues>
            -2.2373691201210022e-01 8.4964150190353394e-01</leafValues></_>
        <_>
          <internalNodes>
            0 -1 4 -2.8933262452483177e-02</internalNodes>
          <leafValues>
            5.7206052541732788e-01 -3.8542288541793823e-01</leafValues></_></weakClassifiers></_>
    <!-- stage 8 -->
    <_>
      <maxWeakCount>8</maxWeakCount>
      <stageThreshold>-8.7395232915878296e-01</stageThreshold>
      <weakClassifiers>
        <_>
          <internalNodes>
            0 -1 2 5.2308388054370880e-02</internalNodes>
          <leafValues>
            -4.0000000596046448e-01 5.2307695150375366e-01</leafValues></_>
        <_>
          <internalNodes>
            0 -1 68 2.0300351083278656e-02</internalNodes>
          <leafValues>
            2.1244332194328308e-01 -9.4272726774215698e-01</leafValues></_>
        <_>
          <internalNodes>
            0 -1 82 -9.7943097352981567e-04</internalNodes>
          <leafValues>
            6.1297208070755005e-01 -3.2804486155509949e-01</leafValues></_>
        <_>
          <internalNodes>
            0 -1 46 6.4998175948858261e-03</internalNodes>
          <leafValues>
            -3.5427835583686829e-01 5.4958939552307129e-01</leafValues></_>
        <_>
          <internalNodes>
            0 -1 86 6.2469571828842163e-02</internalNodes>
          <leafValues>
            -4.7274684906005859e-01 4.8345950245857239e-01</leafValues></_>
        <_>
          <internalNodes>
            0 -1 23 -2.0619612187147141e-02</internalNodes>
          <leafValues>
            5.7646113634109497e-01 -3.2085084915161133e-01</leafValues></_>
        <_>
          <internalNodes>
            0 -1 83 -9.3246055766940117e-03</internalNodes>
          <leafValues>
            7.7965795993804932e-01 -2.9705381393432617e-01</leafValues></_>
        <_>
          <internalNodes>
            0 -1 71 1.9188544247299433e-03</internalNodes>
          <leafValues>
            3.6246636509895325e-01 -6.8640142679214478e-01</leafValues></_></weakClassifiers></_>
    <!-- stage 9 -->
    <_>
      <maxWeakCount>7</maxWeakCount>
      <stageThreshold>-9.0151143074035645e-01</stageThreshold>
      <weakClassifiers>
        <_>
          <internalNodes>
            0 -1 60 1.0398215055465698e-01</internalNodes>
          <leafValues>
            -8.1560283899307251e-01 2.5054466724395752e-01</leafValues></_>
        <_>
          <internalNodes>
            0 -1 67 2.7402043342590332e-02</internalNodes>
          <leafValues>
            -3.7150216102600098e-01 4.2043820023536682e-01</leafValues></_>
        <_>
          <internalNodes>
            0 -1 92 6.5465091029182076e-04</internalNodes>
          <leafValues>
            2.2193342447280884e-01 -6.5842670202255249e-01</leafValues></_>
        <_>
          <internalNodes>
            0 -1 47 1.3601715862751007e-01</internalNodes>
          <leafValues>
            -2.2168740630149841e-01 7.1151959896087646e-01</leafValues></_>
        <_>
          <internalNodes>
            0 -1 101 -4.5283222571015358e-03</internalNodes>
          <leafValues>
            -9.5337438583374023e-01 1.8719300627708435e-01</leafValues></_>
        <_>
          <internalNodes>
            0 -1 36 4.5545324683189392e-02</internalNodes>
          <leafValues>
            -4.5288792252540588e-01 3.5489302873611450e-01</leafValues></_>
        <_>
          <internalNodes>
            0 -1 90 -4.3204971589148045e-03</internalNodes>
          <leafValues>
            6.3271331787109375e-01 -2.5673848390579224e-01</leafValues></_></weakClassifiers></_>
    <!-- stage 10 -->
    <_>
      <maxWeakCount>10</maxWeakCount>
      <stageThreshold>-9.8394036293029785e-01</stageThreshold>
      <weakClassifiers>
        <_>
          <internalNodes>
            0 -1 58 1.1194708943367004e-01</internalNodes>
          <leafValues>
            -5.9641253948211670e-01 3.5278514027595520e-01</leafValues></_>
        <_>
          <internalNodes>
            0 -1 77 -1.6974718309938908e-03</internalNodes>
          <leafValues>
            -7.9126250743865967e-01 2.0565867424011230e-01</leafValues></_>
        <_>
          <internalNodes>
            0 -1 76 7.0263771340250969e-04</internalNodes>
          <leafValues>
            3.5908365249633789e-01 -5.5629986524581909e-01</leafValues></_>
        <_>
          <internalNodes>
            0 -1 1 -9.4273000955581665e-02</internalNodes>
          <leafValues>
            4.4476884603500366e-01 -3.8249990344047546e-01</leafValues></_>
        <_>
          <internalNodes>
            0 -1 13 1.8784195184707642e-01</internalNodes>
          <leafValues>
            -1.8861612677574158e-01 7.8738635778427124e-01</leafValues></_>
        <_>
          <internalNodes>
            0 -1 105 -1.5310137532651424e-03</internalNodes>
          <leafValues>
            3.5566914081573486e-01 -5.2702134847640991e-01</leafValues></_>
        <_>
          <internalNodes>
            0 -1 3 3.4520890563726425e-02</internalNodes>
          <leafValues>
            -2.7559071779251099e-01 7.2375506162643433e-01</leafValues></_>
        <_>
          <internalNodes>
            0 -1 85 -2.1458208560943604e-02</internalNodes>
          <leafValues>
            -9.4488561153411865e-01 2.3391218483448029e-01</leafValues></_>
        <_>
          <internalNodes>
            0 -1 29 -1.2260252982378006e-01</internalNodes>
          <leafValues>
            7.0321935415267944e-01 -3.1059467792510986e-01</leafValues></_>
        <_>
          <internalNodes>
            0 -1 12 1.4449113607406616e-01</internalNodes>
          <leafValues>
            -2.8140485286712646e-01 6.9249832630157471e-01</leafValues></_></weakClassifiers></_>
    <!-- stage 11 -->
    <_>
      <maxWeakCount>10</maxWeakCount>
      <stageThreshold>-9.4884735345840454e-01</stageThreshold>
      <weakClassifiers>
        <_>
          <internalNodes>
            0 -1 59 1.4494338538497686e-03</internalNodes>
          <leafValues>
            2.7356320619583130e-01 -7.2121214866638184e-01</leafValues></_>
        <_>
          <internalNodes>
            0 -1 7 1.3997425138950348e-01</internalNodes>
          <leafValues>
            -3.0925384163856506e-01 5.5604571104049683e-01</leafValues></_>
        <_>
          <internalNodes>
            0 -1 10 -4.2960077524185181e-02</internalNodes>
          <leafValues>
            5.2398824691772461e-01 -3.1916865706443787e-01</leafValues></_>
        <_>
          <internalNodes>
            0 -1 5 -1.6955775208771229e-03</internalNodes>
          <leafValues>
            -6.8996429443359375e-01 2.3309665918350220e-01</leafValues></_>
        <_>
          <internalNodes>
            0 -1 96 -1.0172859765589237e-03</internalNodes>
          <leafValues>
            -6.1968600749969482e-01 2.6938390731811523e-01</leafValues></_>
        <_>
          <internalNodes>
            0 -1 56 -5.3539153188467026e-02</internalNodes>
          <leafValues>
            4.6625268459320068e-01 -3.8382250070571899e-01</leafValues></_>
        <_>
          <internalNodes>
            0 -1 70 2.7666513342410326e-03</internalNodes>
          <leafValues>
            2.2766062617301941e-01 -8.9698320627212524e-01</leafValues></_>
        <_>
          <internalNodes>
            0 -1 84 -5.5051133967936039e-03</internalNodes>
          <leafValues>
            -7.2607344388961792e-01 1.9340610504150391e-01</leafValues></_>
        <_>
          <internalNodes>
            0 -1 15 -5.0089092837879434e-05</internalNodes>
          <leafValues>
            -7.1670919656753540e-01 1.8139584362506866e-01</leafValues></_>
        <_>
          <internalNodes>
            0 -1 74 6.0792960226535797e-02</internalNodes>
          <leafValues>
            -2.2380840778350830e-01 6.7905026674270630e-01</leafValues></_></weakClassifiers></_>
    <!-- stage 12 -->
    <_>
      <maxWeakCount>6</maxWeakCount>
      <stageThreshold>-6.9930744171142578e-01</stageThreshold>
      <weakClassifiers>
        <_>
          <internalNodes>
            0 -1 54 5.8296893257647753e-04</internalNodes>
          <leafValues>
            -3.3507853746414185e-01 5.8715593814849854e-01</leafValues></_>
        <_>
          <internalNodes>
            0 -1 95 -9.2649512225762010e-05</internalNodes>
          <leafValues>
            4.9482959508895874e-01 -3.8964882493019104e-01</leafValues></_>
        <_>
          <internalNodes>
            0 -1 20 -1.9894720986485481e-02</internalNodes>
          <leafValues>
            2.0726197957992554e-01 -9.5834684371948242e-01</leafValues></_>
        <_>
          <internalNodes>
            0 -1 80 -1.0285275056958199e-03</internalNodes>
          <leafValues>
            6.3278347253799438e-01 -3.3374464511871338e-01</leafValues></_>
        <_>
          <internalNodes>
            0 -1 80 5.1765184616670012e-04</internalNodes>
          <leafValues>
            -3.7040284276008606e-01 5.4318320751190186e-01</leafValues></_>
        <_>
          <internalNodes>
            0 -1 32 -1.9000183965545148e-04</internalNodes>
          <leafValues>
            5.2512156963348389e-01 -3.6217302083969116e-01</leafValues></_></weakClassifiers></_>
    <!-- stage 13 -->
    <_>
      <maxWeakCount>9</maxWeakCount>
      <stageThreshold>-1.2447942495346069e+00</stageThreshold>
      <weakClassifiers>
        <_>
          <internalNodes>
            0 -1 49 -5.2094599232077599e-03</internalNodes>
          <leafValues>
            7.9591834545135498e-01 -2.5827813148498535e-01</leafValues></_>
        <_>
          <internalNodes>
            0 -1 63 -6.6421758383512497e-03</internalNodes>
          <leafValues>
            8.4206569194793701e-01 -1.7877517640590668e-01</leafValues></_>
        <_>
          <internalNodes>
            0 -1 66 6.5056839957833290e-03</internalNodes>
          <leafValues>
            -2.2886432707309723e-01 8.5278397798538208e-01</leafValues></_>
        <_>
          <internalNodes>
            0 -1 34 -2.6844546664506197e-03</internalNodes>
          <leafValues>
            6.5188062191009521e-01 -3.1044480204582214e-01</leafValues></_>
        <_>
          <internalNodes>
            0 -1 21 4.3580438941717148e-03</internalNodes>
          <leafValues>
            -1.7076255381107330e-01 8.9338952302932739e-01</leafValues></_>
        <_>
          <internalNodes>
            0 -1 18 1.8597636371850967e-02</internalNodes>
          <leafValues>
            -1.9122079014778137e-01 6.9730460643768311e-01</leafValues></_>
        <_>
          <internalNodes>
            0 -1 48 4.2837818909902126e-05</internalNodes>
          <leafValues>
            -4.1149732470512390e-01 4.7424840927124023e-01</leafValues></_>
        <_>
          <internalNodes>
            0 -1 89 -4.6450993977487087e-03</internalNodes>
          <leafValues>
            9.2065578699111938e-01 -1.7048451304435730e-01</leafValues></_>
        <_>
          <internalNodes>
            0 -1 79 -9.0737114078365266e-05</internalNodes>
          <leafValues>
            7.2680687904357910e-01 -2.1299201250076294e-01</leafValues></_></weakClassifiers></_>
    <!-- stage 14 -->
    <_>
      <maxWeakCount>8</maxWeakCount>
      <stageThreshold>-1.1285439729690552e+00</stageThreshold>
      <weakClassifiers>
        <_>
          <internalNodes>
            0 -1 64 -2.9982903506606817e-03</internalNodes>
          <leafValues>
            6.7179489135742188e-01 -3.2345679402351379e-01</leafValues></_>
        <_>
          <internalNodes>
            0 -1 35 1.8974484410136938e-03</internalNodes>
          <leafValues>
            -4.4637784361839294e-01 4.1119882464408875e-01</leafValues></_>
        <_>
          <internalNodes>
            0 -1 104 -2.1645398810505867e-02</internalNodes>
          <leafValues>
            5.1576811075210571e-01 -3.0226457118988037e-01</leafValues></_>
        <_>
          <internalNodes>
            0 -1 43 -7.8771440312266350e-03</internalNodes>
          <leafValues>
            3.0072808265686035e-01 -5.1608997583389282e-01</leafValues></_>
        <_>
          <internalNodes>
            0 -1 53 -1.5281494706869125e-03</internalNodes>
          <leafValues>
            5.8740687370300293e-01 -3.0019712448120117e-01</leafValues></_>
        <_>
          <internalNodes>
            0 -1 73 -1.1383750243112445e-03</internalNodes>
          <leafValues>
            4.5402273535728455e-01 -3.8675141334533691e-01</leafValues></_>
        <_>
          <internalNodes>
            0 -1 8 5.3737275302410126e-02</internalNodes>
          <leafValues>
            -3.3402591943740845e-01 5.2832442522048950e-01</leafValues></_>
        <_>
          <internalNodes>
            0 -1 72 -4.9102688208222389e-03</internalNodes>
          <leafValues>
            6.4242452383041382e-01 -2.2380238771438599e-01</leafValues></_></weakClassifiers></_>
    <!-- stage 15 -->
    <_>
      <maxWeakCount>10</maxWeakCount>
      <stageThreshold>-9.1851609945297241e-01</stageThreshold>
      <weakClassifiers>
        <_>
          <internalNodes>
            0 -1 40 7.1399047970771790e-02</internalNodes>
          <leafValues>
            -1.7434869706630707e-01 8.6138612031936646e-01</leafValues></_>
        <_>
          <internalNodes>
            0 -1 61 1.2327675521373749e-01</internalNodes>
          <leafValues>
            1.7280291020870209e-01 -9.6264022588729858e-01</leafValues></_>
        <_>
          <internalNodes>
            0 -1 22 7.9867010936141014e-04</internalNodes>
          <leafValues>
            -5.3194731473922729e-01 2.9254764318466187e-01</leafValues></_>
        <_>
          <internalNodes>
            0 -1 11 1.1977299436694011e-04</internalNodes>
          <leafValues>
            -6.1575120687484741e-01 1.4988495409488678e-01</leafValues></_>
        <_>
          <internalNodes>
            0 -1 98 1.9431050866842270e-02</internalNodes>
          <leafValues>
            2.2574584186077118e-01 -6.6295433044433594e-01</leafValues></_>
        <_>
          <internalNodes>
            0 -1 88 -3.8598640821874142e-03</internalNodes>
          <leafValues>
            5.6814146041870117e-01 -2.3182958364486694e-01</leafValues></_>
        <_>
          <internalNodes>
            0 -1 78 3.0709863640367985e-03</internalNodes>
          <leafValues>
            2.6635321974754333e-01 -5.1941913366317749e-01</leafValues></_>
        <_>
          <internalNodes>
            0 -1 9 8.7553309276700020e-03</internalNodes>
          <leafValues>
            1.2675845623016357e-01 -9.0400058031082153e-01</leafValues></_>
        <_>
          <internalNodes>
            0 -1 106 -1.5125944279134274e-02</internalNodes>
          <leafValues>
            4.2356875538825989e-01 -3.4001529216766357e-01</leafValues></_>
        <_>
          <internalNodes>
            0 -1 55 -1.7023358959704638e-03</internalNodes>
          <leafValues>
            3.2896786928176880e-01 -4.5065176486968994e-01</leafValues></_></weakClassifiers></_>
    <!-- stage 16 -->
    <_>
      <maxWeakCount>10</maxWeakCount>
      <stageThreshold>-8.4126776456832886e-01</stageThreshold>
      <weakClassifiers>
        <_>
          <internalNodes>
            0 -1 38 1.6060441732406616e-02</internalNodes>
          <leafValues>
            -1.7505030333995819e-01 8.4466022253036499e-01</leafValues></_>
        <_>
          <internalNodes>
            0 -1 69 1.5162089839577675e-03</internalNodes>
          <leafValues>
            2.2822727262973785e-01 -5.7596719264984131e-01</leafValues></_>
        <_>
          <internalNodes>
            0 -1 25 -1.9824791699647903e-02</internalNodes>
          <leafValues>
            -9.1488969326019287e-01 1.1131965368986130e-01</leafValues></_>
        <_>
          <internalNodes>
            0 -1 37 4.2616493999958038e-02</internalNodes>
          <leafValues>
            -1.7229019105434418e-01 7.3341006040573120e-01</leafValues></_>
        <_>
          <internalNodes>
            0 -1 30 -3.3605729695409536e-03</internalNodes>
          <leafValues>
            3.8742050528526306e-01 -3.7456563115119934e-01</leafValues></_>
        <_>
          <internalNodes>
            0 -1 65 5.5734939873218536e-02</internalNodes>
          <leafValues>
            1.4439971745014191e-01 -9.4967138767242432e-01</leafValues></_>
        <_>
          <internalNodes>
            0 -1 16 3.3550597727298737e-02</internalNodes>
          <leafValues>
            -5.1890993118286133e-01 2.6153093576431274e-01</leafValues></_>
        <_>
          <internalNodes>
            0 -1 75 9.4650080427527428e-04</internalNodes>
          <leafValues>
            2.2158177196979523e-01 -7.9597479104995728e-01</leafValues></_>
        <_>
          <internalNodes>
            0 -1 50 -1.4229599037207663e-04</internalNodes>
          <leafValues>
            2.7505326271057129e-01 -4.5451796054840088e-01</leafValues></_>
        <_>
          <internalNodes>
            0 -1 103 -1.8317377544008195e-04</internalNodes>
          <leafValues>
            -4.9936071038246155e-01 2.6039418578147888e-01</leafValues></_></weakClassifiers></_></stages>
  <features>
    <_>
      <rects>
        <_>
          0 0 10 4 -1.</_>
        <_>
          0 0 5 2 2.</_>
        <_>
          5 2 5 2 2.</_></rects>
      <tilted>0</tilted></_>
    <_>
      <rects>
        <_>
          0 0 12 6 -1.</_>
        <_>
          0 0 6 3 2.</_>
        <_>
          6 3 6 3 2.</_></rects>
      <tilted>0</tilted></_>
    <_>
      <rects>
        <_>
          0 1 9 3 -1.</_>
        <_>
          3 1 3 3 3.</_></rects>
      <tilted>0</tilted></_>
    <_>
      <rects>
        <_>
          0 2 4 3 -1.</_>
        <_>
          2 2 2 3 2.</_></rects>
      <tilted>0</tilted></_>
    <_>
      <rects>
        <_>
          0 5 6 3 -1.</_>
        <_>
          2 6 2 1 9.</_></rects>
      <tilted>0</tilted></_>
    <_>
      <rects>
        <_>
          0 7 1 4 -1.</_>
        <_>
          0 8 1 2 2.</_></rects>
      <tilted>0</tilted></_>
    <_>
      <rects>
        <_>
          0 7 6 3 -1.</_>
        <_>
          2 7 2 3 3.</_></rects>
      <tilted>0</tilted></_>
    <_>
      <rects>
        <_>
          0 7 8 8 -1.</_>
        <_>
          4 7 4 8 2.</_></rects>
      <tilted>0</tilted></_>
    <_>
      <rects>
        <_>
          0 10 6 5 -1.</_>
        <_>
          3 10 3 5 2.</_></rects>
      <tilted>0</tilted></_>
    <_>
      <rects>
        <_>
          0 12 5 2 -1.</_>
        <_>
          0 13 5 1 2.</_></rects>
      <tilted>0</tilted></_>
    <_>
      <rects>
        <_>
          1 0 4 10 -1.</_>
        <_>
          1 0 2 5 2.</_>
        <_>
          3 5 2 5 2.</_></rects>
      <tilted>0</tilted></_>
    <_>
      <rects>
        <_>
          1 0 8 1 -1.</_>
        <_>
          5 0 4 1 2.</_></rects>
      <tilted>0</tilted></_>
    <_>
      <rects>
        <_>
          1 1 14 8 -1.</_>
        <_>
          1 5 14 4 2.</_></rects>
      <tilted>0</tilted></_>
    <_>
      <rects>
        <_>
          1 2 14 12 -1.</_>
        <_>
          1 5 14 6 2.</_></rects>
      <tilted>0</tilted></_>
    <_>
      <rects>
        <_>
          1 6 6 3 -1.</_>
        <_>
          3 6 2 3 3.</_></rects>
      <tilted>0</tilted></_>
    <_>
      <rects>
        <_>
          1 7 2 8 -1.</_>
        <_>
          1 9 2 4 2.</_></rects>
      <tilted>0</tilted></_>
    <_>
      <rects>
        <_>
          1 9 13 6 -1.</_>
        <_>
          1 11 13 2 3.</_></rects>
      <tilted>0</tilted></_>
    <_>
      <rects>
        <_>
          1 13 14 2 -1.</_>
        <_>
          1 14 14 1 2.</_></rects>
      <tilted>0</tilted></_>
    <_>
      <rects>
        <_>
          2 0 4 1 -1.</_>
        <_>
          3 1 2 1 2.</_></rects>
      <tilted>1</tilted></_>
    <_>
      <rects>
        <_>
          2 0 2 2 -1.</_>
        <_>
          3 0 1 2 2.</_></rects>
      <tilted>0</tilted></_>
    <_>
      <rects>
        <_>
          2 1 12 2 -1.</_>
        <_>
          2 1 6 2 2.</_></rects>
      <tilted>1</tilted></_>
    <_>
      <rects>
        <_>
          2 2 2 2 -1.</_>
        <_>
          2 2 1 1 2.</_>
        <_>
          3 3 1 1 2.</_></rects>
      <tilted>0</tilted></_>
    <_>
      <rects>
        <_>
          2 2 8 8 -1.</_>
        <_>
          4 2 4 8 2.</_></rects>
      <tilted>0</tilted></_>
    <_>
      <rects>
        <_>
          2 6 4 7 -1.</_>
        <_>
          3 6 2 7 2.</_></rects>
      <tilted>0</tilted></_>
    <_>
      <rects>
        <_>
          2 7 2 1 -1.</_>
        <_>
          3 7 1 1 2.</_></rects>
      <tilted>0</tilted></_>
    <_>
      <rects>
        <_>
          2 9 4 2 -1.</_>
        <_>
          3 10 2 2 2.</_></rects>
      <tilted>1</tilted></_>
    <_>
      <rects>
        <_>
          2 12 4 2 -1.</_>
        <_>
          2 12 2 1 2.</_>
        <_>
          4 13 2 1 2.</_></rects>
      <tilted>0</tilted></_>
    <_>
      <rects>
        <_>
          3 0 2 2 -1.</_>
        <_>
          4 0 1 2 2.</_></rects>
      <tilted>0</tilted></_>
    <_>
      <rects>
        <_>
          3 0 2 2 -1.</_>
        <_>
          3 0 1 2 2.</_></rects>
      <tilted>1</tilted></_>
    <_>
      <rects>
        <_>
          3 0 7 6 -1.</_>
        <_>
          3 3 7 3 2.</_></rects>
      <tilted>0</tilted></_>
    <_>
      <rects>
        <_>
          3 1 3 3 -1.</_>
        <_>
          4 2 1 1 9.</_></rects>
      <tilted>0</tilted></_>
    <_>
      <rects>
        <_>
          3 1 1 12 -1.</_>
        <_>
          3 4 1 6 2.</_></rects>
      <tilted>0</tilted></_>
    <_>
      <rects>
        <_>
          3 6 1 2 -1.</_>
        <_>
          3 7 1 1 2.</_></rects>
      <tilted>0</tilted></_>
    <_>
      <rects>
        <_>
          3 7 12 4 -1.</_>
        <_>
          3 8 12 2 2.</_></rects>
      <tilted>0</tilted></_>
    <_>
      <rects>
        <_>
          3 9 2 2 -1.</_>
        <_>
          3 9 1 1 2.</_>
        <_>
          4 10 1 1 2.</_></rects>
      <tilted>0</tilted></_>
    <_>
      <rects>
        <_>
          3 10 4 1 -1.</_>
        <_>
          5 10 2 1 2.</_></rects>
      <tilted>0</tilted></_>
    <_>
      <rects>
        <_>
          3 11 12 4 -1.</_>
        <_>
          7 11 4 4 3.</_></rects>
      <tilted>0</tilted></_>
    <_>
      <rects>
        <_>
          4 0 3 2 -1.</_>
        <_>
          5 1 1 2 3.</_></rects>
      <tilted>1</tilted></_>
    <_>
      <rects>
        <_>
          4 1 1 4 -1.</_>
        <_>
          4 2 1 2 2.</_></rects>
      <tilted>0</tilted></_>
    <_>
      <rects>
        <_>
          4 1 3 2 -1.</_>
        <_>
          5 2 1 2 3.</_></rects>
      <tilted>1</tilted></_>
    <_>
      <rects>
        <_>
          4 1 3 3 -1.</_>
        <_>
          5 2 1 3 3.</_></rects>
      <tilted>1</tilted></_>
    <_>
      <rects>
        <_>
          4 3 2 2 -1.</_>
        <_>
          4 3 1 1 2.</_>
        <_>
          5 4 1 1 2.</_></rects>
      <tilted>0</tilted></_>
    <_>
      <rects>
        <_>
          4 3 3 2 -1.</_>
        <_>
          5 4 1 2 3.</_></rects>
      <tilted>1</tilted></_>
    <_>
      <rects>
        <_>
          4 3 3 4 -1.</_>
        <_>
          5 4 1 4 3.</_></rects>
      <tilted>1</tilted></_>
    <_>
      <rects>
        <_>
          4 4 5 8 -1.</_>
        <_>
          4 8 5 4 2.</_></rects>
      <tilted>0</tilted></_>
    <_>
      <rects>
        <_>
          4 9 2 2 -1.</_>
        <_>
          4 9 1 1 2.</_>
        <_>
          5 10 1 1 2.</_></rects>
      <tilted>0</tilted></_>
    <_>
      <rects>
        <_>
          4 12 3 3 -1.</_>
        <_>
          4 13 3 1 3.</_></rects>
      <tilted>0</tilted></_>
    <_>
      <rects>
        <_>
          5 0 10 8 -1.</_>
        <_>
          5 4 10 4 2.</_></rects>
      <tilted>0</tilted></_>
    <_>
      <rects>
        <_>
          5 1 2 1 -1.</_>
        <_>
          6 1 1 1 2.</_></rects>
      <tilted>0</tilted></_>
    <_>
      <rects>
        <_>
          5 2 1 3 -1.</_>
        <_>
          5 3 1 1 3.</_></rects>
      <tilted>0</tilted></_>
    <_>
      <rects>
        <_>
          5 2 4 3 -1.</_>
        <_>
          6 2 2 3 2.</_></rects>
      <tilted>0</tilted></_>
    <_>
      <rects>
        <_>
          5 3 8 4 -1.</_>
        <_>
          5 3 4 4 2.</_></rects>
      <tilted>1</tilted></_>
    <_>
      <rects>
        <_>
          5 4 5 6 -1.</_>
        <_>
          5 7 5 3 2.</_></rects>
      <tilted>0</tilted></_>
    <_>
      <rects>
        <_>
          5 10 2 2 -1.</_>
        <_>
          5 10 1 1 2.</_>
        <_>
          6 11 1 1 2.</_></rects>
      <tilted>0</tilted></_>
    <_>
      <rects>
        <_>
          5 11 2 2 -1.</_>
        <_>
          5 11 1 1 2.</_>
        <_>
          6 12 1 1 2.</_></rects>
      <tilted>0</tilted></_>
    <_>
      <rects>
        <_>
          6 1 3 3 -1.</_>
        <_>
          7 2 1 1 9.</_></rects>
      <tilted>0</tilted></_>
    <_>
      <rects>
        <_>
          6 1 6 2 -1.</_>
        <_>
          8 3 2 2 3.</_></rects>
      <tilted>1</tilted></_>
    <_>
      <rects>
        <_>
          6 2 2 2 -1.</_>
        <_>
          7 2 1 2 2.</_></rects>
      <tilted>0</tilted></_>
    <_>
      <rects>
        <_>
          6 2 4 12 -1.</_>
        <_>
          6 8 4 6 2.</_></rects>
      <tilted>0</tilted></_>
    <_>
      <rects>
        <_>
          6 3 4 2 -1.</_>
        <_>
          8 3 2 2 2.</_></rects>
      <tilted>0</tilted></_>
    <_>
      <rects>
        <_>
          6 3 8 10 -1.</_>
        <_>
          6 8 8 5 2.</_></rects>
      <tilted>0</tilted></_>
    <_>
      <rects>
        <_>
          6 4 6 5 -1.</_>
        <_>
          8 6 2 5 3.</_></rects>
      <tilted>1</tilted></_>
    <_>
      <rects>
        <_>
          6 4 5 8 -1.</_>
        <_>
          6 8 5 4 2.</_></rects>
      <tilted>0</tilted></_>
    <_>
      <rects>
        <_>
          6 6 1 3 -1.</_>
        <_>
          6 7 1 1 3.</_></rects>
      <tilted>0</tilted></_>
    <_>
      <rects>
        <_>
          6 8 3 2 -1.</_>
        <_>
          7 8 1 2 3.</_></rects>
      <tilted>0</tilted></_>
    <_>
      <rects>
        <_>
          6 8 9 4 -1.</_>
        <_>
          6 10 9 2 2.</_></rects>
      <tilted>0</tilted></_>
    <_>
      <rects>
        <_>
          6 12 1 3 -1.</_>
        <_>
          6 13 1 1 3.</_></rects>
      <tilted>0</tilted></_>
    <_>
      <rects>
        <_>
          7 0 2 4 -1.</_>
        <_>
          7 0 1 4 2.</_></rects>
      <tilted>1</tilted></_>
    <_>
      <rects>
        <_>
          7 0 7 6 -1.</_>
        <_>
          7 0 7 3 2.</_></rects>
      <tilted>1</tilted></_>
    <_>
      <rects>
        <_>
          7 3 4 1 -1.</_>
        <_>
          9 3 2 1 2.</_></rects>
      <tilted>0</tilted></_>
    <_>
      <rects>
        <_>
          7 5 8 2 -1.</_>
        <_>
          9 5 4 2 2.</_></rects>
      <tilted>0</tilted></_>
    <_>
      <rects>
        <_>
          7 6 8 2 -1.</_>
        <_>
          9 6 4 2 2.</_></rects>
      <tilted>0</tilted></_>
    <_>
      <rects>
        <_>
          7 8 2 3 -1.</_>
        <_>
          7 9 2 1 3.</_></rects>
      <tilted>0</tilted></_>
    <_>
      <rects>
        <_>
          7 12 4 1 -1.</_>
        <_>
          9 12 2 1 2.</_></rects>
      <tilted>0</tilted></_>
    <_>
      <rects>
        <_>
          8 0 3 8 -1.</_>
        <_>
          8 4 3 4 2.</_></rects>
      <tilted>0</tilted></_>
    <_>
      <rects>
        <_>
          8 2 1 2 -1.</_>
        <_>
          8 3 1 1 2.</_></rects>
      <tilted>0</tilted></_>
    <_>
      <rects>
        <_>
          8 2 2 2 -1.</_>
        <_>
          9 2 1 2 2.</_></rects>
      <tilted>0</tilted></_>
    <_>
      <rects>
        <_>
          8 3 2 1 -1.</_>
        <_>
          9 3 1 1 2.</_></rects>
      <tilted>0</tilted></_>
    <_>
      <rects>
        <_>
          8 3 3 2 -1.</_>
        <_>
          9 4 1 2 3.</_></rects>
      <tilted>1</tilted></_>
    <_>
      <rects>
        <_>
          8 7 1 2 -1.</_>
        <_>
          8 8 1 1 2.</_></rects>
      <tilted>0</tilted></_>
    <_>
      <rects>
        <_>
          8 9 2 2 -1.</_>
        <_>
          8 9 1 1 2.</_>
        <_>
          9 10 1 1 2.</_></rects>
      <tilted>0</tilted></_>
    <_>
      <rects>
        <_>
          8 9 2 3 -1.</_>
        <_>
          8 10 2 1 3.</_></rects>
      <tilted>0</tilted></_>
    <_>
      <rects>
        <_>
          8 11 2 2 -1.</_>
        <_>
          8 11 1 1 2.</_>
        <_>
          9 12 1 1 2.</_></rects>
      <tilted>0</tilted></_>
    <_>
      <rects>
        <_>
          8 13 4 2 -1.</_>
        <_>
          8 13 2 1 2.</_>
        <_>
          10 14 2 1 2.</_></rects>
      <tilted>0</tilted></_>
    <_>
      <rects>
        <_>
          9 0 3 4 -1.</_>
        <_>
          10 0 1 4 3.</_></rects>
      <tilted>0</tilted></_>
    <_>
      <rects>
        <_>
          9 2 3 2 -1.</_>
        <_>
          10 3 1 2 3.</_></rects>
      <tilted>1</tilted></_>
    <_>
      <rects>
        <_>
          9 2 4 8 -1.</_>
        <_>
          9 6 4 4 2.</_></rects>
      <tilted>0</tilted></_>
    <_>
      <rects>
        <_>
          9 5 6 4 -1.</_>
        <_>
          11 5 2 4 3.</_></rects>
      <tilted>0</tilted></_>
    <_>
      <rects>
        <_>
          9 7 1 3 -1.</_>
        <_>
          9 8 1 1 3.</_></rects>
      <tilted>0</tilted></_>
    <_>
      <rects>
        <_>
          9 9 2 2 -1.</_>
        <_>
          9 9 1 1 2.</_>
        <_>
          10 10 1 1 2.</_></rects>
      <tilted>0</tilted></_>
    <_>
      <rects>
        <_>
          9 10 1 3 -1.</_>
        <_>
          9 11 1 1 3.</_></rects>
      <tilted>0</tilted></_>
    <_>
      <rects>
        <_>
          9 10 2 2 -1.</_>
        <_>
          9 10 1 1 2.</_>
        <_>
          10 11 1 1 2.</_></rects>
      <tilted>0</tilted></_>
    <_>
      <rects>
        <_>
          10 0 2 1 -1.</_>
        <_>
          11 0 1 1 2.</_></rects>
      <tilted>0</tilted></_>
    <_>
      <rects>
        <_>
          10 1 1 2 -1.</_>
        <_>
          10 2 1 1 2.</_></rects>
      <tilted>0</tilted></_>
    <_>
      <rects>
        <_>
          10 2 1 2 -1.</_>
        <_>
          10 3 1 1 2.</_></rects>
      <tilted>0</tilted></_>
    <_>
      <rects>
        <_>
          10 2 2 2 -1.</_>
        <_>
          10 2 1 1 2.</_>
        <_>
          11 3 1 1 2.</_></rects>
      <tilted>0</tilted></_>
    <_>
      <rects>
        <_>
          10 3 2 2 -1.</_>
        <_>
          11 3 1 2 2.</_></rects>
      <tilted>0</tilted></_>
    <_>
      <rects>
        <_>
          10 8 3 1 -1.</_>
        <_>
          11 8 1 1 3.</_></rects>
      <tilted>0</tilted></_>
    <_>
      <rects>
        <_>
          10 8 5 4 -1.</_>
        <_>
          10 10 5 2 2.</_></rects>
      <tilted>0</tilted></_>
    <_>
      <rects>
        <_>
          10 12 2 2 -1.</_>
        <_>
          10 12 1 1 2.</_>
        <_>
          11 13 1 1 2.</_></rects>
      <tilted>0</tilted></_>
    <_>
      <rects>
        <_>
          11 1 4 4 -1.</_>
        <_>
          10 2 4 2 2.</_></rects>
      <tilted>1</tilted></_>
    <_>
      <rects>
        <_>
          12 1 2 2 -1.</_>
        <_>
          12 1 2 1 2.</_></rects>
      <tilted>1</tilted></_>
    <_>
      <rects>
        <_>
          12 10 3 1 -1.</_>
        <_>
          13 10 1 1 3.</_></rects>
      <tilted>0</tilted></_>
    <_>
      <rects>
        <_>
          13 0 1 2 -1.</_>
        <_>
          13 1 1 1 2.</_></rects>
      <tilted>0</tilted></_>
    <_>
      <rects>
        <_>
          13 3 2 12 -1.</_>
        <_>
          13 3 1 6 2.</_>
        <_>
          14 9 1 6 2.</_></rects>
      <tilted>0</tilted></_>
    <_>
      <rects>
        <_>
          13 6 2 8 -1.</_>
        <_>
          13 6 1 4 2.</_>
        <_>
          14 10 1 4 2.</_></rects>
      <tilted>0</tilted></_>
    <_>
      <rects>
        <_>
          13 9 2 6 -1.</_>
        <_>
          13 12 2 3 2.</_></rects>
      <tilted>0</tilted></_></features></cascade>
</opencv_storage>
