<?xml version="1.0"?>
<opencv_storage>
<stage11>
  <maxWeakCount>10</maxWeakCount>
  <stageThreshold>-9.4884735345840454e-01</stageThreshold>
  <weakClassifiers>
    <_>
      <internalNodes>
        0 -1 23770 1.4494338538497686e-03</internalNodes>
      <leafValues>
        2.7356320619583130e-01 -7.2121214866638184e-01</leafValues></_>
    <_>
      <internalNodes>
        0 -1 3072 1.3997425138950348e-01</internalNodes>
      <leafValues>
        -3.0925384163856506e-01 5.5604571104049683e-01</leafValues></_>
    <_>
      <internalNodes>
        0 -1 4206 -4.2960077524185181e-02</internalNodes>
      <leafValues>
        5.2398824691772461e-01 -3.1916865706443787e-01</leafValues></_>
    <_>
      <internalNodes>
        0 -1 2935 -1.6955775208771229e-03</internalNodes>
      <leafValues>
        -6.8996429443359375e-01 2.3309665918350220e-01</leafValues></_>
    <_>
      <internalNodes>
        0 -1 34185 -1.0172859765589237e-03</internalNodes>
      <leafValues>
        -6.1968600749969482e-01 2.6938390731811523e-01</leafValues></_>
    <_>
      <internalNodes>
        0 -1 23021 -5.3539153188467026e-02</internalNodes>
      <leafValues>
        4.6625268459320068e-01 -3.8382250070571899e-01</leafValues></_>
    <_>
      <internalNodes>
        0 -1 27449 2.7666513342410326e-03</internalNodes>
      <leafValues>
        2.2766062617301941e-01 -8.9698320627212524e-01</leafValues></_>
    <_>
      <internalNodes>
        0 -1 31127 -5.5051133967936039e-03</internalNodes>
      <leafValues>
        -7.2607344388961792e-01 1.9340610504150391e-01</leafValues></_>
    <_>
      <internalNodes>
        0 -1 6961 -5.0089092837879434e-05</internalNodes>
      <leafValues>
        -7.1670919656753540e-01 1.8139584362506866e-01</leafValues></_>
    <_>
      <internalNodes>
        0 -1 28795 6.0792960226535797e-02</internalNodes>
      <leafValues>
        -2.2380840778350830e-01 6.7905026674270630e-01</leafValues></_></weakClassifiers></stage11>
</opencv_storage>
