<?xml version="1.0"?>
<opencv_storage>
<stage10>
  <maxWeakCount>10</maxWeakCount>
  <stageThreshold>-9.8394036293029785e-01</stageThreshold>
  <weakClassifiers>
    <_>
      <internalNodes>
        0 -1 23573 1.1194708943367004e-01</internalNodes>
      <leafValues>
        -5.9641253948211670e-01 3.5278514027595520e-01</leafValues></_>
    <_>
      <internalNodes>
        0 -1 29520 -1.6974718309938908e-03</internalNodes>
      <leafValues>
        -7.9126250743865967e-01 2.0565867424011230e-01</leafValues></_>
    <_>
      <internalNodes>
        0 -1 29241 7.0263771340250969e-04</internalNodes>
      <leafValues>
        3.5908365249633789e-01 -5.5629986524581909e-01</leafValues></_>
    <_>
      <internalNodes>
        0 -1 344 -9.4273000955581665e-02</internalNodes>
      <leafValues>
        4.4476884603500366e-01 -3.8249990344047546e-01</leafValues></_>
    <_>
      <internalNodes>
        0 -1 5495 1.8784195184707642e-01</internalNodes>
      <leafValues>
        -1.8861612677574158e-01 7.8738635778427124e-01</leafValues></_>
    <_>
      <internalNodes>
        0 -1 38585 -1.5310137532651424e-03</internalNodes>
      <leafValues>
        3.5566914081573486e-01 -5.2702134847640991e-01</leafValues></_>
    <_>
      <internalNodes>
        0 -1 1091 3.4520890563726425e-02</internalNodes>
      <leafValues>
        -2.7559071779251099e-01 7.2375506162643433e-01</leafValues></_>
    <_>
      <internalNodes>
        0 -1 31729 -2.1458208560943604e-02</internalNodes>
      <leafValues>
        -9.4488561153411865e-01 2.3391218483448029e-01</leafValues></_>
    <_>
      <internalNodes>
        0 -1 12227 -1.2260252982378006e-01</internalNodes>
      <leafValues>
        7.0321935415267944e-01 -3.1059467792510986e-01</leafValues></_>
    <_>
      <internalNodes>
        0 -1 5060 1.4449113607406616e-01</internalNodes>
      <leafValues>
        -2.8140485286712646e-01 6.9249832630157471e-01</leafValues></_></weakClassifiers></stage10>
</opencv_storage>
