<?xml version="1.0"?>
<opencv_storage>
<stage9>
  <maxWeakCount>8</maxWeakCount>
  <stageThreshold>-6.5450865030288696e-01</stageThreshold>
  <weakClassifiers>
    <_>
      <internalNodes>
        0 -1 41268 -4.2069209739565849e-03</internalNodes>
      <leafValues>
        2.6806527376174927e-01 -6.7251461744308472e-01</leafValues></_>
    <_>
      <internalNodes>
        0 -1 78783 1.7257491126656532e-02</internalNodes>
      <leafValues>
        -5.3700172901153564e-01 3.0626428127288818e-01</leafValues></_>
    <_>
      <internalNodes>
        0 -1 175373 -2.2907210513949394e-03</internalNodes>
      <leafValues>
        7.9045391082763672e-01 -2.1633167564868927e-01</leafValues></_>
    <_>
      <internalNodes>
        0 -1 150577 -7.6652099378407001e-03</internalNodes>
      <leafValues>
        3.7377545237541199e-01 -5.1987028121948242e-01</leafValues></_>
    <_>
      <internalNodes>
        0 -1 210626 9.3098630895838141e-04</internalNodes>
      <leafValues>
        -3.8233837485313416e-01 4.8185700178146362e-01</leafValues></_>
    <_>
      <internalNodes>
        0 -1 222880 1.7304709763266146e-04</internalNodes>
      <leafValues>
        2.9070550203323364e-01 -7.7274072170257568e-01</leafValues></_>
    <_>
      <internalNodes>
        0 -1 219536 -4.9079698510468006e-03</internalNodes>
      <leafValues>
        3.3164253830909729e-01 -5.2863669395446777e-01</leafValues></_>
    <_>
      <internalNodes>
        0 -1 82064 6.5006414661183953e-04</internalNodes>
      <leafValues>
        -5.4112303256988525e-01 3.3080026507377625e-01</leafValues></_></weakClassifiers></stage9>
</opencv_storage>
