<?xml version="1.0"?>
<opencv_storage>
<stage7>
  <maxWeakCount>7</maxWeakCount>
  <stageThreshold>-8.9494752883911133e-01</stageThreshold>
  <weakClassifiers>
    <_>
      <internalNodes>
        0 -1 126462 9.7349839052185416e-05</internalNodes>
      <leafValues>
        -4.1795665025711060e-01 4.8736461997032166e-01</leafValues></_>
    <_>
      <internalNodes>
        0 -1 24280 -5.9008125215768814e-02</internalNodes>
      <leafValues>
        -8.4386515617370605e-01 1.9498947262763977e-01</leafValues></_>
    <_>
      <internalNodes>
        0 -1 14455 -9.9244248121976852e-04</internalNodes>
      <leafValues>
        5.4127317667007446e-01 -3.2092860341072083e-01</leafValues></_>
    <_>
      <internalNodes>
        0 -1 96796 8.4768738597631454e-03</internalNodes>
      <leafValues>
        -8.6419141292572021e-01 2.2726224362850189e-01</leafValues></_>
    <_>
      <internalNodes>
        0 -1 172507 1.6428735107183456e-02</internalNodes>
      <leafValues>
        1.4915688335895538e-01 -8.7320142984390259e-01</leafValues></_>
    <_>
      <internalNodes>
        0 -1 126586 -4.1383043862879276e-03</internalNodes>
      <leafValues>
        8.7978744506835938e-01 -2.5250473618507385e-01</leafValues></_>
    <_>
      <internalNodes>
        0 -1 194687 1.4426210327656008e-05</internalNodes>
      <leafValues>
        -4.7496613860130310e-01 4.6685445308685303e-01</leafValues></_></weakClassifiers></stage7>
</opencv_storage>
