<?xml version="1.0"?>
<opencv_storage>
<stage7>
  <maxWeakCount>7</maxWeakCount>
  <stageThreshold>-6.6001224517822266e-01</stageThreshold>
  <weakClassifiers>
    <_>
      <internalNodes>
        0 -1 435860 -7.8754201240371913e-06</internalNodes>
      <leafValues>
        5.3367877006530762e-01 -4.9758455157279968e-01</leafValues></_>
    <_>
      <internalNodes>
        0 -1 190762 5.2499053708743304e-05</internalNodes>
      <leafValues>
        -4.3345990777015686e-01 4.7372874617576599e-01</leafValues></_>
    <_>
      <internalNodes>
        0 -1 203361 -8.1679836512194015e-06</internalNodes>
      <leafValues>
        6.0123634338378906e-01 -3.6053678393363953e-01</leafValues></_>
    <_>
      <internalNodes>
        0 -1 323209 7.6326206908561289e-05</internalNodes>
      <leafValues>
        -4.0239527821540833e-01 5.4795956611633301e-01</leafValues></_>
    <_>
      <internalNodes>
        0 -1 614860 1.8944396288134158e-04</internalNodes>
      <leafValues>
        -2.7601304650306702e-01 7.4199712276458740e-01</leafValues></_>
    <_>
      <internalNodes>
        0 -1 435091 5.1193302497267723e-03</internalNodes>
      <leafValues>
        -2.0833177864551544e-01 8.5850048065185547e-01</leafValues></_>
    <_>
      <internalNodes>
        0 -1 110144 -2.7326942654326558e-04</internalNodes>
      <leafValues>
        6.1905115842819214e-01 -3.3923444151878357e-01</leafValues></_></weakClassifiers></stage7>
</opencv_storage>
