<?xml version="1.0"?>
<opencv_storage>
<stage7>
  <maxWeakCount>7</maxWeakCount>
  <stageThreshold>-3.9838895201683044e-01</stageThreshold>
  <weakClassifiers>
    <_>
      <internalNodes>
        0 -1 204646 1.0895115137100220e-01</internalNodes>
      <leafValues>
        -4.0166205167770386e-01 6.0669457912445068e-01</leafValues></_>
    <_>
      <internalNodes>
        0 -1 73450 -1.7660971730947495e-02</internalNodes>
      <leafValues>
        6.7404806613922119e-01 -3.2280385494232178e-01</leafValues></_>
    <_>
      <internalNodes>
        0 -1 45213 -6.2523275613784790e-02</internalNodes>
      <leafValues>
        -8.7371301651000977e-01 2.3856407403945923e-01</leafValues></_>
    <_>
      <internalNodes>
        0 -1 107452 -2.0783157087862492e-03</internalNodes>
      <leafValues>
        -9.8348778486251831e-01 2.5853130221366882e-01</leafValues></_>
    <_>
      <internalNodes>
        0 -1 165004 -2.0905283745378256e-03</internalNodes>
      <leafValues>
        4.4065007567405701e-01 -4.8135933279991150e-01</leafValues></_>
    <_>
      <internalNodes>
        0 -1 223183 -5.0314046442508698e-02</internalNodes>
      <leafValues>
        8.8329637050628662e-01 -2.1935930848121643e-01</leafValues></_>
    <_>
      <internalNodes>
        0 -1 223033 3.6783598363399506e-02</internalNodes>
      <leafValues>
        -3.9230918884277344e-01 8.4444510936737061e-01</leafValues></_></weakClassifiers></stage7>
</opencv_storage>
