<?xml version="1.0"?>
<opencv_storage>
<stage9>
  <maxWeakCount>7</maxWeakCount>
  <stageThreshold>-5.8314055204391479e-01</stageThreshold>
  <weakClassifiers>
    <_>
      <internalNodes>
        0 -1 161360 5.3284876048564911e-03</internalNodes>
      <leafValues>
        3.2249322533607483e-01 -5.1515150070190430e-01</leafValues></_>
    <_>
      <internalNodes>
        0 -1 24881 1.4482661208603531e-04</internalNodes>
      <leafValues>
        2.3550538718700409e-01 -7.4786370992660522e-01</leafValues></_>
    <_>
      <internalNodes>
        0 -1 5076 1.2584609794430435e-04</internalNodes>
      <leafValues>
        -9.0963286161422729e-01 2.1363225579261780e-01</leafValues></_>
    <_>
      <internalNodes>
        0 -1 162174 3.8097300566732883e-03</internalNodes>
      <leafValues>
        -2.8946954011917114e-01 9.1043668985366821e-01</leafValues></_>
    <_>
      <internalNodes>
        0 -1 217314 2.4219809565693140e-03</internalNodes>
      <leafValues>
        -3.6974558234214783e-01 5.3443938493728638e-01</leafValues></_>
    <_>
      <internalNodes>
        0 -1 166616 -8.0639356747269630e-04</internalNodes>
      <leafValues>
        5.7730257511138916e-01 -3.1299227476119995e-01</leafValues></_>
    <_>
      <internalNodes>
        0 -1 10875 -6.9346137344837189e-02</internalNodes>
      <leafValues>
        7.8472751379013062e-01 -2.8948974609375000e-01</leafValues></_></weakClassifiers></stage9>
</opencv_storage>
