<?xml version="1.0"?>
<opencv_storage>
<cascade>
  <stageType>BOOST</stageType>
  <featureType>HAAR</featureType>
  <height>15</height>
  <width>15</width>
  <stageParams>
    <boostType>GAB</boostType>
    <minHitRate>9.9900001287460327e-01</minHitRate>
    <maxFalseAlarm>5.0000000000000000e-01</maxFalseAlarm>
    <weightTrimRate>9.4999999999999996e-01</weightTrimRate>
    <maxDepth>1</maxDepth>
    <maxWeakCount>100</maxWeakCount></stageParams>
  <featureParams>
    <maxCatCount>0</maxCatCount>
    <featSize>1</featSize>
    <mode>ALL</mode></featureParams>
  <stageNum>16</stageNum>
  <stages>
    <!-- stage 0 -->
    <_>
      <maxWeakCount>2</maxWeakCount>
      <stageThreshold>-4.2688287794589996e-02</stageThreshold>
      <weakClassifiers>
        <_>
          <internalNodes>
            0 -1 27 1.4413729310035706e-02</internalNodes>
          <leafValues>
            -7.4850296974182129e-01 9.3984961509704590e-01</leafValues></_>
        <_>
          <internalNodes>
            0 -1 65 -1.8334466964006424e-02</internalNodes>
          <leafValues>
            7.6119881868362427e-01 -9.8253792524337769e-01</leafValues></_></weakClassifiers></_>
    <!-- stage 1 -->
    <_>
      <maxWeakCount>5</maxWeakCount>
      <stageThreshold>-1.5867191553115845e+00</stageThreshold>
      <weakClassifiers>
        <_>
          <internalNodes>
            0 -1 63 -3.7032864987850189e-02</internalNodes>
          <leafValues>
            8.1314879655838013e-01 -7.5562703609466553e-01</leafValues></_>
        <_>
          <internalNodes>
            0 -1 86 -2.4052308872342110e-02</internalNodes>
          <leafValues>
            7.5179171562194824e-01 -6.6024762392044067e-01</leafValues></_>
        <_>
          <internalNodes>
            0 -1 62 -1.9612755626440048e-02</internalNodes>
          <leafValues>
            7.3104339838027954e-01 -5.9290003776550293e-01</leafValues></_>
        <_>
          <internalNodes>
            0 -1 35 -1.2432425282895565e-02</internalNodes>
          <leafValues>
            8.8206017017364502e-01 -4.4380110502243042e-01</leafValues></_>
        <_>
          <internalNodes>
            0 -1 48 8.2179587334394455e-03</internalNodes>
          <leafValues>
            -4.5351228117942810e-01 8.6585664749145508e-01</leafValues></_></weakClassifiers></_>
    <!-- stage 2 -->
    <_>
      <maxWeakCount>6</maxWeakCount>
      <stageThreshold>-1.0871391296386719e+00</stageThreshold>
      <weakClassifiers>
        <_>
          <internalNodes>
            0 -1 13 -4.1163936257362366e-02</internalNodes>
          <leafValues>
            7.8707224130630493e-01 -6.1424332857131958e-01</leafValues></_>
        <_>
          <internalNodes>
            0 -1 89 -9.0008862316608429e-03</internalNodes>
          <leafValues>
            7.5030851364135742e-01 -5.3402996063232422e-01</leafValues></_>
        <_>
          <internalNodes>
            0 -1 85 2.2393457591533661e-02</internalNodes>
          <leafValues>
            -8.6473804712295532e-01 4.8090222477912903e-01</leafValues></_>
        <_>
          <internalNodes>
            0 -1 58 -1.3574971817433834e-03</internalNodes>
          <leafValues>
            6.9935655593872070e-01 -5.5317729711532593e-01</leafValues></_>
        <_>
          <internalNodes>
            0 -1 8 -5.2672429010272026e-03</internalNodes>
          <leafValues>
            7.0900386571884155e-01 -5.1225131750106812e-01</leafValues></_>
        <_>
          <internalNodes>
            0 -1 99 -8.3741992712020874e-03</internalNodes>
          <leafValues>
            7.5869131088256836e-01 -5.1429283618927002e-01</leafValues></_></weakClassifiers></_>
    <!-- stage 3 -->
    <_>
      <maxWeakCount>7</maxWeakCount>
      <stageThreshold>-7.0735269784927368e-01</stageThreshold>
      <weakClassifiers>
        <_>
          <internalNodes>
            0 -1 17 -2.4885840713977814e-02</internalNodes>
          <leafValues>
            7.6521736383438110e-01 -4.7567567229270935e-01</leafValues></_>
        <_>
          <internalNodes>
            0 -1 74 -6.1046019196510315e-02</internalNodes>
          <leafValues>
            5.4318487644195557e-01 -5.9437423944473267e-01</leafValues></_>
        <_>
          <internalNodes>
            0 -1 50 -1.2488123029470444e-02</internalNodes>
          <leafValues>
            5.9579354524612427e-01 -5.3278392553329468e-01</leafValues></_>
        <_>
          <internalNodes>
            0 -1 8 -1.2214433401823044e-02</internalNodes>
          <leafValues>
            8.8961696624755859e-01 -3.2989215850830078e-01</leafValues></_>
        <_>
          <internalNodes>
            0 -1 101 8.8205132633447647e-03</internalNodes>
          <leafValues>
            -2.9486569762229919e-01 7.6511144638061523e-01</leafValues></_>
        <_>
          <internalNodes>
            0 -1 79 3.8085333071649075e-03</internalNodes>
          <leafValues>
            -2.9603511095046997e-01 8.1227296590805054e-01</leafValues></_>
        <_>
          <internalNodes>
            0 -1 70 -2.0988245960325003e-03</internalNodes>
          <leafValues>
            7.5629693269729614e-01 -2.8353375196456909e-01</leafValues></_></weakClassifiers></_>
    <!-- stage 4 -->
    <_>
      <maxWeakCount>6</maxWeakCount>
      <stageThreshold>-8.5953360795974731e-01</stageThreshold>
      <weakClassifiers>
        <_>
          <internalNodes>
            0 -1 44 -7.4719591066241264e-03</internalNodes>
          <leafValues>
            4.0469974279403687e-01 -7.1428573131561279e-01</leafValues></_>
        <_>
          <internalNodes>
            0 -1 43 -3.4758903086185455e-02</internalNodes>
          <leafValues>
            5.9038007259368896e-01 -5.0170773267745972e-01</leafValues></_>
        <_>
          <internalNodes>
            0 -1 39 2.9919638764113188e-03</internalNodes>
          <leafValues>
            -3.6390233039855957e-01 7.5792431831359863e-01</leafValues></_>
        <_>
          <internalNodes>
            0 -1 28 6.5683908760547638e-03</internalNodes>
          <leafValues>
            -1. 2.3849323391914368e-01</leafValues></_>
        <_>
          <internalNodes>
            0 -1 102 -4.8524527810513973e-03</internalNodes>
          <leafValues>
            7.7135103940963745e-01 -3.3572727441787720e-01</leafValues></_>
        <_>
          <internalNodes>
            0 -1 66 -6.9451676681637764e-03</internalNodes>
          <leafValues>
            8.1759613752365112e-01 -2.4915821850299835e-01</leafValues></_></weakClassifiers></_>
    <!-- stage 5 -->
    <_>
      <maxWeakCount>6</maxWeakCount>
      <stageThreshold>-1.1801645755767822e+00</stageThreshold>
      <weakClassifiers>
        <_>
          <internalNodes>
            0 -1 29 -2.6219256222248077e-02</internalNodes>
          <leafValues>
            6.4315354824066162e-01 -4.3175488710403442e-01</leafValues></_>
        <_>
          <internalNodes>
            0 -1 38 -2.6310500688850880e-03</internalNodes>
          <leafValues>
            8.1078797578811646e-01 -3.0498132109642029e-01</leafValues></_>
        <_>
          <internalNodes>
            0 -1 14 -2.2106833755970001e-02</internalNodes>
          <leafValues>
            8.7370485067367554e-01 -2.8388088941574097e-01</leafValues></_>
        <_>
          <internalNodes>
            0 -1 7 2.8325449675321579e-03</internalNodes>
          <leafValues>
            -7.0782494544982910e-01 4.2888399958610535e-01</leafValues></_>
        <_>
          <internalNodes>
            0 -1 6 3.8323882035911083e-03</internalNodes>
          <leafValues>
            -2.9245319962501526e-01 8.0224031209945679e-01</leafValues></_>
        <_>
          <internalNodes>
            0 -1 32 -1.5181316994130611e-02</internalNodes>
          <leafValues>
            7.6157116889953613e-01 -2.9597833752632141e-01</leafValues></_></weakClassifiers></_>
    <!-- stage 6 -->
    <_>
      <maxWeakCount>6</maxWeakCount>
      <stageThreshold>-6.9192498922348022e-01</stageThreshold>
      <weakClassifiers>
        <_>
          <internalNodes>
            0 -1 104 -1.4276098459959030e-02</internalNodes>
          <leafValues>
            4.4505494832992554e-01 -6.8644070625305176e-01</leafValues></_>
        <_>
          <internalNodes>
            0 -1 12 -1.4846559613943100e-02</internalNodes>
          <leafValues>
            8.3665001392364502e-01 -3.2140389084815979e-01</leafValues></_>
        <_>
          <internalNodes>
            0 -1 3 2.0126171410083771e-02</internalNodes>
          <leafValues>
            4.0808609127998352e-01 -6.7052429914474487e-01</leafValues></_>
        <_>
          <internalNodes>
            0 -1 51 -5.7392213493585587e-03</internalNodes>
          <leafValues>
            8.0628639459609985e-01 -2.8363865613937378e-01</leafValues></_>
        <_>
          <internalNodes>
            0 -1 46 -5.4982434958219528e-03</internalNodes>
          <leafValues>
            7.1940058469772339e-01 -2.8826203942298889e-01</leafValues></_>
        <_>
          <internalNodes>
            0 -1 40 -2.1107103675603867e-03</internalNodes>
          <leafValues>
            4.7973421216011047e-01 -4.5530179142951965e-01</leafValues></_></weakClassifiers></_>
    <!-- stage 7 -->
    <_>
      <maxWeakCount>8</maxWeakCount>
      <stageThreshold>-1.0225975513458252e+00</stageThreshold>
      <weakClassifiers>
        <_>
          <internalNodes>
            0 -1 107 -3.0582901090383530e-02</internalNodes>
          <leafValues>
            8.7586206197738647e-01 -2.7912089228630066e-01</leafValues></_>
        <_>
          <internalNodes>
            0 -1 31 1.5551097691059113e-02</internalNodes>
          <leafValues>
            -6.3033860921859741e-01 3.5634824633598328e-01</leafValues></_>
        <_>
          <internalNodes>
            0 -1 59 -2.8596771880984306e-03</internalNodes>
          <leafValues>
            5.9497874975204468e-01 -3.4095299243927002e-01</leafValues></_>
        <_>
          <internalNodes>
            0 -1 15 -2.7097687125205994e-02</internalNodes>
          <leafValues>
            2.3689669370651245e-01 -8.2930910587310791e-01</leafValues></_>
        <_>
          <internalNodes>
            0 -1 105 -2.0540552213788033e-02</internalNodes>
          <leafValues>
            -8.9347302913665771e-01 1.8973207473754883e-01</leafValues></_>
        <_>
          <internalNodes>
            0 -1 2 7.0412047207355499e-03</internalNodes>
          <leafValues>
            -3.1460157036781311e-01 6.7919653654098511e-01</leafValues></_>
        <_>
          <internalNodes>
            0 -1 56 -4.5219343155622482e-03</internalNodes>
          <leafValues>
            5.7858210802078247e-01 -3.4041899442672729e-01</leafValues></_>
        <_>
          <internalNodes>
            0 -1 11 -1.5794932842254639e-02</internalNodes>
          <leafValues>
            5.3572565317153931e-01 -3.7296679615974426e-01</leafValues></_></weakClassifiers></_>
    <!-- stage 8 -->
    <_>
      <maxWeakCount>8</maxWeakCount>
      <stageThreshold>-7.2864729166030884e-01</stageThreshold>
      <weakClassifiers>
        <_>
          <internalNodes>
            0 -1 5 1.2732070684432983e-01</internalNodes>
          <leafValues>
            -4.3266475200653076e-01 6.0159361362457275e-01</leafValues></_>
        <_>
          <internalNodes>
            0 -1 13 -5.3705148398876190e-02</internalNodes>
          <leafValues>
            5.8587318658828735e-01 -4.6250090003013611e-01</leafValues></_>
        <_>
          <internalNodes>
            0 -1 97 1.0773821850307286e-04</internalNodes>
          <leafValues>
            -8.1421774625778198e-01 2.6793536543846130e-01</leafValues></_>
        <_>
          <internalNodes>
            0 -1 93 -9.2584348749369383e-04</internalNodes>
          <leafValues>
            2.4677138030529022e-01 -7.4610579013824463e-01</leafValues></_>
        <_>
          <internalNodes>
            0 -1 47 8.0680111423134804e-03</internalNodes>
          <leafValues>
            -4.1432470083236694e-01 5.2276301383972168e-01</leafValues></_>
        <_>
          <internalNodes>
            0 -1 80 -1.9790567457675934e-03</internalNodes>
          <leafValues>
            5.8018076419830322e-01 -3.5073778033256531e-01</leafValues></_>
        <_>
          <internalNodes>
            0 -1 68 1.1314949020743370e-02</internalNodes>
          <leafValues>
            2.0745959877967834e-01 -9.0771329402923584e-01</leafValues></_>
        <_>
          <internalNodes>
            0 -1 76 -8.9797096734400839e-05</internalNodes>
          <leafValues>
            3.5447990894317627e-01 -4.7478279471397400e-01</leafValues></_></weakClassifiers></_>
    <!-- stage 9 -->
    <_>
      <maxWeakCount>6</maxWeakCount>
      <stageThreshold>-9.2409306764602661e-01</stageThreshold>
      <weakClassifiers>
        <_>
          <internalNodes>
            0 -1 16 1.2911567091941833e-01</internalNodes>
          <leafValues>
            -7.6036864519119263e-01 4.3080940842628479e-01</leafValues></_>
        <_>
          <internalNodes>
            0 -1 9 -1.7751116305589676e-02</internalNodes>
          <leafValues>
            5.9275883436203003e-01 -3.9199948310852051e-01</leafValues></_>
        <_>
          <internalNodes>
            0 -1 82 -3.2092574983835220e-02</internalNodes>
          <leafValues>
            3.2326170802116394e-01 -7.2956472635269165e-01</leafValues></_>
        <_>
          <internalNodes>
            0 -1 54 -2.1085008047521114e-03</internalNodes>
          <leafValues>
            -6.9949930906295776e-01 2.5692468881607056e-01</leafValues></_>
        <_>
          <internalNodes>
            0 -1 90 -1.0627458803355694e-02</internalNodes>
          <leafValues>
            4.1083285212516785e-01 -4.4905859231948853e-01</leafValues></_>
        <_>
          <internalNodes>
            0 -1 67 -7.4386768974363804e-03</internalNodes>
          <leafValues>
            2.6174798607826233e-01 -6.9187498092651367e-01</leafValues></_></weakClassifiers></_>
    <!-- stage 10 -->
    <_>
      <maxWeakCount>12</maxWeakCount>
      <stageThreshold>-1.2836635112762451e+00</stageThreshold>
      <weakClassifiers>
        <_>
          <internalNodes>
            0 -1 91 -1.0393720865249634e-01</internalNodes>
          <leafValues>
            9.3548387289047241e-01 -2.4369747936725616e-01</leafValues></_>
        <_>
          <internalNodes>
            0 -1 20 -2.9596306383609772e-02</internalNodes>
          <leafValues>
            6.2888354063034058e-01 -2.0475466549396515e-01</leafValues></_>
        <_>
          <internalNodes>
            0 -1 64 7.4018095619976521e-04</internalNodes>
          <leafValues>
            2.4280029535293579e-01 -6.8292742967605591e-01</leafValues></_>
        <_>
          <internalNodes>
            0 -1 36 2.0197171717882156e-02</internalNodes>
          <leafValues>
            -9.2676818370819092e-01 1.4267274737358093e-01</leafValues></_>
        <_>
          <internalNodes>
            0 -1 55 -1.5137234004214406e-03</internalNodes>
          <leafValues>
            5.8584791421890259e-01 -2.8909301757812500e-01</leafValues></_>
        <_>
          <internalNodes>
            0 -1 78 -3.6717939656227827e-03</internalNodes>
          <leafValues>
            5.5683970451354980e-01 -3.1850671768188477e-01</leafValues></_>
        <_>
          <internalNodes>
            0 -1 4 -6.2135932967066765e-04</internalNodes>
          <leafValues>
            -4.8196247220039368e-01 3.3814418315887451e-01</leafValues></_>
        <_>
          <internalNodes>
            0 -1 71 -3.4382417798042297e-03</internalNodes>
          <leafValues>
            6.1375695466995239e-01 -2.8443738818168640e-01</leafValues></_>
        <_>
          <internalNodes>
            0 -1 106 -1.4769697561860085e-02</internalNodes>
          <leafValues>
            6.2672245502471924e-01 -2.7373087406158447e-01</leafValues></_>
        <_>
          <internalNodes>
            0 -1 75 -2.6196178048849106e-02</internalNodes>
          <leafValues>
            2.0263254642486572e-01 -9.8035687208175659e-01</leafValues></_>
        <_>
          <internalNodes>
            0 -1 77 -9.5790863037109375e-02</internalNodes>
          <leafValues>
            -8.7305903434753418e-01 1.4149367809295654e-01</leafValues></_>
        <_>
          <internalNodes>
            0 -1 30 5.5722661316394806e-02</internalNodes>
          <leafValues>
            1.8854087591171265e-01 -8.5905468463897705e-01</leafValues></_></weakClassifiers></_>
    <!-- stage 11 -->
    <_>
      <maxWeakCount>7</maxWeakCount>
      <stageThreshold>-7.9568731784820557e-01</stageThreshold>
      <weakClassifiers>
        <_>
          <internalNodes>
            0 -1 92 -9.8382979631423950e-02</internalNodes>
          <leafValues>
            8.7323945760726929e-01 -2.7074235677719116e-01</leafValues></_>
        <_>
          <internalNodes>
            0 -1 42 -9.9832759588025510e-05</internalNodes>
          <leafValues>
            3.2254913449287415e-01 -7.2704023122787476e-01</leafValues></_>
        <_>
          <internalNodes>
            0 -1 45 -4.4846899807453156e-02</internalNodes>
          <leafValues>
            -6.4717048406600952e-01 2.1266657114028931e-01</leafValues></_>
        <_>
          <internalNodes>
            0 -1 98 -4.5164879411458969e-03</internalNodes>
          <leafValues>
            -6.1530321836471558e-01 2.4747271835803986e-01</leafValues></_>
        <_>
          <internalNodes>
            0 -1 94 -4.5653758570551872e-03</internalNodes>
          <leafValues>
            4.3286520242691040e-01 -3.8871443271636963e-01</leafValues></_>
        <_>
          <internalNodes>
            0 -1 19 2.6967085897922516e-02</internalNodes>
          <leafValues>
            -2.4082730710506439e-01 8.8067257404327393e-01</leafValues></_>
        <_>
          <internalNodes>
            0 -1 21 -8.4886953234672546e-02</internalNodes>
          <leafValues>
            4.0975517034530640e-01 -4.3243545293807983e-01</leafValues></_></weakClassifiers></_>
    <!-- stage 12 -->
    <_>
      <maxWeakCount>9</maxWeakCount>
      <stageThreshold>-1.0789853334426880e+00</stageThreshold>
      <weakClassifiers>
        <_>
          <internalNodes>
            0 -1 100 -2.8002526611089706e-02</internalNodes>
          <leafValues>
            8.5034012794494629e-01 -2.7593818306922913e-01</leafValues></_>
        <_>
          <internalNodes>
            0 -1 88 -4.1276574134826660e-02</internalNodes>
          <leafValues>
            -8.3377736806869507e-01 2.5466641783714294e-01</leafValues></_>
        <_>
          <internalNodes>
            0 -1 57 -1.8404280766844749e-02</internalNodes>
          <leafValues>
            5.6154024600982666e-01 -3.1934928894042969e-01</leafValues></_>
        <_>
          <internalNodes>
            0 -1 84 -3.6844097077846527e-02</internalNodes>
          <leafValues>
            -7.8991961479187012e-01 2.0142929255962372e-01</leafValues></_>
        <_>
          <internalNodes>
            0 -1 61 -7.9815750941634178e-03</internalNodes>
          <leafValues>
            -7.7930241823196411e-01 1.5584991872310638e-01</leafValues></_>
        <_>
          <internalNodes>
            0 -1 73 6.2246462330222130e-03</internalNodes>
          <leafValues>
            -3.7726607918739319e-01 3.8823595643043518e-01</leafValues></_>
        <_>
          <internalNodes>
            0 -1 53 -3.4881420433521271e-02</internalNodes>
          <leafValues>
            9.2017555236816406e-01 -1.7177760601043701e-01</leafValues></_>
        <_>
          <internalNodes>
            0 -1 0 8.8505513966083527e-02</internalNodes>
          <leafValues>
            3.4826806187629700e-01 -6.2722569704055786e-01</leafValues></_>
        <_>
          <internalNodes>
            0 -1 96 8.2171363756060600e-03</internalNodes>
          <leafValues>
            1.9357588887214661e-01 -6.7735219001770020e-01</leafValues></_></weakClassifiers></_>
    <!-- stage 13 -->
    <_>
      <maxWeakCount>7</maxWeakCount>
      <stageThreshold>-5.7385474443435669e-01</stageThreshold>
      <weakClassifiers>
        <_>
          <internalNodes>
            0 -1 83 -1.4803457260131836e-01</internalNodes>
          <leafValues>
            7.5324672460556030e-01 -2.6008969545364380e-01</leafValues></_>
        <_>
          <internalNodes>
            0 -1 41 -2.5315735489130020e-02</internalNodes>
          <leafValues>
            7.7904772758483887e-01 -1.7274089157581329e-01</leafValues></_>
        <_>
          <internalNodes>
            0 -1 33 2.7213785797357559e-02</internalNodes>
          <leafValues>
            -2.2331683337688446e-01 7.3644506931304932e-01</leafValues></_>
        <_>
          <internalNodes>
            0 -1 24 -7.2404895909130573e-03</internalNodes>
          <leafValues>
            5.8598083257675171e-01 -2.6719334721565247e-01</leafValues></_>
        <_>
          <internalNodes>
            0 -1 109 -2.1712221205234528e-02</internalNodes>
          <leafValues>
            -6.9744056463241577e-01 2.3918518424034119e-01</leafValues></_>
        <_>
          <internalNodes>
            0 -1 72 -9.8427776247262955e-03</internalNodes>
          <leafValues>
            5.5230152606964111e-01 -2.9494297504425049e-01</leafValues></_>
        <_>
          <internalNodes>
            0 -1 49 -3.0883783474564552e-03</internalNodes>
          <leafValues>
            4.0524378418922424e-01 -4.1107922792434692e-01</leafValues></_></weakClassifiers></_>
    <!-- stage 14 -->
    <_>
      <maxWeakCount>8</maxWeakCount>
      <stageThreshold>-1.2292517423629761e+00</stageThreshold>
      <weakClassifiers>
        <_>
          <internalNodes>
            0 -1 52 1.6849554376676679e-03</internalNodes>
          <leafValues>
            2.5279641151428223e-01 -7.3856210708618164e-01</leafValues></_>
        <_>
          <internalNodes>
            0 -1 1 2.4040493369102478e-01</internalNodes>
          <leafValues>
            -3.2027468085289001e-01 6.2504953145980835e-01</leafValues></_>
        <_>
          <internalNodes>
            0 -1 87 -3.0801710672676563e-03</internalNodes>
          <leafValues>
            4.7582608461380005e-01 -3.3002793788909912e-01</leafValues></_>
        <_>
          <internalNodes>
            0 -1 81 -1.8793158233165741e-02</internalNodes>
          <leafValues>
            4.1133442521095276e-01 -3.9960744976997375e-01</leafValues></_>
        <_>
          <internalNodes>
            0 -1 22 -3.9944946765899658e-02</internalNodes>
          <leafValues>
            1.1906907707452774e-01 -8.9353704452514648e-01</leafValues></_>
        <_>
          <internalNodes>
            0 -1 108 1.1903343722224236e-02</internalNodes>
          <leafValues>
            1.2465579807758331e-01 -8.9531368017196655e-01</leafValues></_>
        <_>
          <internalNodes>
            0 -1 23 2.5861743092536926e-01</internalNodes>
          <leafValues>
            -1.9958767294883728e-01 8.4896171092987061e-01</leafValues></_>
        <_>
          <internalNodes>
            0 -1 69 8.1124976277351379e-03</internalNodes>
          <leafValues>
            -3.7065681815147400e-01 5.1508319377899170e-01</leafValues></_></weakClassifiers></_>
    <!-- stage 15 -->
    <_>
      <maxWeakCount>9</maxWeakCount>
      <stageThreshold>-9.2548012733459473e-01</stageThreshold>
      <weakClassifiers>
        <_>
          <internalNodes>
            0 -1 103 -2.8527766466140747e-02</internalNodes>
          <leafValues>
            7.8807944059371948e-01 -2.6503339409828186e-01</leafValues></_>
        <_>
          <internalNodes>
            0 -1 37 1.0552071966230869e-02</internalNodes>
          <leafValues>
            -8.2156032323837280e-01 2.1592585742473602e-01</leafValues></_>
        <_>
          <internalNodes>
            0 -1 60 1.6617330908775330e-01</internalNodes>
          <leafValues>
            -1.9770151376724243e-01 8.1159794330596924e-01</leafValues></_>
        <_>
          <internalNodes>
            0 -1 10 1.9818949513137341e-03</internalNodes>
          <leafValues>
            2.9520830512046814e-01 -6.9483137130737305e-01</leafValues></_>
        <_>
          <internalNodes>
            0 -1 26 4.1831441223621368e-02</internalNodes>
          <leafValues>
            -4.2447406053543091e-01 3.2197424769401550e-01</leafValues></_>
        <_>
          <internalNodes>
            0 -1 34 -1.0512475855648518e-02</internalNodes>
          <leafValues>
            6.2524729967117310e-01 -2.2434009611606598e-01</leafValues></_>
        <_>
          <internalNodes>
            0 -1 25 5.1885724067687988e-02</internalNodes>
          <leafValues>
            -1.8490578234195709e-01 6.5305429697036743e-01</leafValues></_>
        <_>
          <internalNodes>
            0 -1 18 5.2984629292041063e-04</internalNodes>
          <leafValues>
            -4.1337737441062927e-01 3.1402328610420227e-01</leafValues></_>
        <_>
          <internalNodes>
            0 -1 95 -7.3863063007593155e-03</internalNodes>
          <leafValues>
            8.9762628078460693e-01 -1.6314482688903809e-01</leafValues></_></weakClassifiers></_></stages>
  <features>
    <_>
      <rects>
        <_>
          0 0 14 10 -1.</_>
        <_>
          7 0 7 10 2.</_></rects>
      <tilted>0</tilted></_>
    <_>
      <rects>
        <_>
          0 3 12 12 -1.</_>
        <_>
          0 3 6 6 2.</_>
        <_>
          6 9 6 6 2.</_></rects>
      <tilted>0</tilted></_>
    <_>
      <rects>
        <_>
          0 4 3 1 -1.</_>
        <_>
          1 4 1 1 3.</_></rects>
      <tilted>0</tilted></_>
    <_>
      <rects>
        <_>
          0 7 8 8 -1.</_>
        <_>
          0 11 8 4 2.</_></rects>
      <tilted>0</tilted></_>
    <_>
      <rects>
        <_>
          0 10 2 4 -1.</_>
        <_>
          1 10 1 4 2.</_></rects>
      <tilted>0</tilted></_>
    <_>
      <rects>
        <_>
          0 10 12 5 -1.</_>
        <_>
          6 10 6 5 2.</_></rects>
      <tilted>0</tilted></_>
    <_>
      <rects>
        <_>
          1 0 2 2 -1.</_>
        <_>
          1 0 1 1 2.</_>
        <_>
          2 1 1 1 2.</_></rects>
      <tilted>0</tilted></_>
    <_>
      <rects>
        <_>
          1 0 6 3 -1.</_>
        <_>
          4 0 3 3 2.</_></rects>
      <tilted>0</tilted></_>
    <_>
      <rects>
        <_>
          1 2 2 4 -1.</_>
        <_>
          1 2 1 2 2.</_>
        <_>
          2 4 1 2 2.</_></rects>
      <tilted>0</tilted></_>
    <_>
      <rects>
        <_>
          1 7 1 8 -1.</_>
        <_>
          1 11 1 4 2.</_></rects>
      <tilted>0</tilted></_>
    <_>
      <rects>
        <_>
          1 13 2 2 -1.</_>
        <_>
          1 14 2 1 2.</_></rects>
      <tilted>0</tilted></_>
    <_>
      <rects>
        <_>
          1 13 13 2 -1.</_>
        <_>
          1 14 13 1 2.</_></rects>
      <tilted>0</tilted></_>
    <_>
      <rects>
        <_>
          2 0 3 1 -1.</_>
        <_>
          3 1 1 1 3.</_></rects>
      <tilted>1</tilted></_>
    <_>
      <rects>
        <_>
          2 0 8 4 -1.</_>
        <_>
          2 0 4 2 2.</_>
        <_>
          6 2 4 2 2.</_></rects>
      <tilted>0</tilted></_>
    <_>
      <rects>
        <_>
          2 1 3 3 -1.</_>
        <_>
          3 2 1 1 9.</_></rects>
      <tilted>0</tilted></_>
    <_>
      <rects>
        <_>
          2 1 10 8 -1.</_>
        <_>
          2 3 10 4 2.</_></rects>
      <tilted>0</tilted></_>
    <_>
      <rects>
        <_>
          2 4 12 8 -1.</_>
        <_>
          2 8 12 4 2.</_></rects>
      <tilted>0</tilted></_>
    <_>
      <rects>
        <_>
          2 6 4 6 -1.</_>
        <_>
          3 6 2 6 2.</_></rects>
      <tilted>0</tilted></_>
    <_>
      <rects>
        <_>
          3 0 2 1 -1.</_>
        <_>
          4 0 1 1 2.</_></rects>
      <tilted>0</tilted></_>
    <_>
      <rects>
        <_>
          3 0 3 1 -1.</_>
        <_>
          4 1 1 1 3.</_></rects>
      <tilted>1</tilted></_>
    <_>
      <rects>
        <_>
          3 0 4 4 -1.</_>
        <_>
          3 0 2 2 2.</_>
        <_>
          5 2 2 2 2.</_></rects>
      <tilted>0</tilted></_>
    <_>
      <rects>
        <_>
          3 0 4 12 -1.</_>
        <_>
          3 4 4 4 3.</_></rects>
      <tilted>0</tilted></_>
    <_>
      <rects>
        <_>
          3 0 12 3 -1.</_>
        <_>
          3 0 6 3 2.</_></rects>
      <tilted>1</tilted></_>
    <_>
      <rects>
        <_>
          3 0 10 10 -1.</_>
        <_>
          3 5 10 5 2.</_></rects>
      <tilted>0</tilted></_>
    <_>
      <rects>
        <_>
          3 1 3 3 -1.</_>
        <_>
          4 2 1 1 9.</_></rects>
      <tilted>0</tilted></_>
    <_>
      <rects>
        <_>
          3 2 3 3 -1.</_>
        <_>
          4 3 1 1 9.</_></rects>
      <tilted>0</tilted></_>
    <_>
      <rects>
        <_>
          3 2 4 3 -1.</_>
        <_>
          3 2 2 3 2.</_></rects>
      <tilted>1</tilted></_>
    <_>
      <rects>
        <_>
          3 3 6 4 -1.</_>
        <_>
          3 3 3 2 2.</_>
        <_>
          6 5 3 2 2.</_></rects>
      <tilted>0</tilted></_>
    <_>
      <rects>
        <_>
          3 3 7 12 -1.</_>
        <_>
          3 9 7 6 2.</_></rects>
      <tilted>0</tilted></_>
    <_>
      <rects>
        <_>
          3 3 12 3 -1.</_>
        <_>
          3 4 12 1 3.</_></rects>
      <tilted>0</tilted></_>
    <_>
      <rects>
        <_>
          3 5 4 8 -1.</_>
        <_>
          3 7 4 4 2.</_></rects>
      <tilted>0</tilted></_>
    <_>
      <rects>
        <_>
          3 7 6 5 -1.</_>
        <_>
          6 7 3 5 2.</_></rects>
      <tilted>0</tilted></_>
    <_>
      <rects>
        <_>
          4 0 3 3 -1.</_>
        <_>
          4 1 3 1 3.</_></rects>
      <tilted>0</tilted></_>
    <_>
      <rects>
        <_>
          4 1 3 1 -1.</_>
        <_>
          5 2 1 1 3.</_></rects>
      <tilted>1</tilted></_>
    <_>
      <rects>
        <_>
          4 2 2 3 -1.</_>
        <_>
          4 3 2 1 3.</_></rects>
      <tilted>0</tilted></_>
    <_>
      <rects>
        <_>
          4 3 6 3 -1.</_>
        <_>
          4 4 6 1 3.</_></rects>
      <tilted>0</tilted></_>
    <_>
      <rects>
        <_>
          4 4 6 6 -1.</_>
        <_>
          4 7 6 3 2.</_></rects>
      <tilted>0</tilted></_>
    <_>
      <rects>
        <_>
          4 5 4 6 -1.</_>
        <_>
          4 8 4 3 2.</_></rects>
      <tilted>0</tilted></_>
    <_>
      <rects>
        <_>
          4 7 2 2 -1.</_>
        <_>
          4 7 1 1 2.</_>
        <_>
          5 8 1 1 2.</_></rects>
      <tilted>0</tilted></_>
    <_>
      <rects>
        <_>
          4 9 2 2 -1.</_>
        <_>
          4 9 1 1 2.</_>
        <_>
          5 10 1 1 2.</_></rects>
      <tilted>0</tilted></_>
    <_>
      <rects>
        <_>
          5 0 2 4 -1.</_>
        <_>
          6 0 1 4 2.</_></rects>
      <tilted>0</tilted></_>
    <_>
      <rects>
        <_>
          5 1 3 2 -1.</_>
        <_>
          6 2 1 2 3.</_></rects>
      <tilted>1</tilted></_>
    <_>
      <rects>
        <_>
          5 2 2 2 -1.</_>
        <_>
          6 2 1 2 2.</_></rects>
      <tilted>0</tilted></_>
    <_>
      <rects>
        <_>
          5 2 4 3 -1.</_>
        <_>
          6 3 2 3 2.</_></rects>
      <tilted>1</tilted></_>
    <_>
      <rects>
        <_>
          5 3 6 3 -1.</_>
        <_>
          8 3 3 3 2.</_></rects>
      <tilted>0</tilted></_>
    <_>
      <rects>
        <_>
          5 3 8 1 -1.</_>
        <_>
          5 3 4 1 2.</_></rects>
      <tilted>1</tilted></_>
    <_>
      <rects>
        <_>
          5 8 2 3 -1.</_>
        <_>
          5 9 2 1 3.</_></rects>
      <tilted>0</tilted></_>
    <_>
      <rects>
        <_>
          5 9 2 3 -1.</_>
        <_>
          5 10 2 1 3.</_></rects>
      <tilted>0</tilted></_>
    <_>
      <rects>
        <_>
          5 9 3 3 -1.</_>
        <_>
          5 10 3 1 3.</_></rects>
      <tilted>0</tilted></_>
    <_>
      <rects>
        <_>
          5 10 3 2 -1.</_>
        <_>
          5 11 3 1 2.</_></rects>
      <tilted>0</tilted></_>
    <_>
      <rects>
        <_>
          5 12 10 2 -1.</_>
        <_>
          5 13 10 1 2.</_></rects>
      <tilted>0</tilted></_>
    <_>
      <rects>
        <_>
          6 0 1 3 -1.</_>
        <_>
          6 1 1 1 3.</_></rects>
      <tilted>0</tilted></_>
    <_>
      <rects>
        <_>
          6 2 4 2 -1.</_>
        <_>
          8 2 2 2 2.</_></rects>
      <tilted>0</tilted></_>
    <_>
      <rects>
        <_>
          6 3 2 4 -1.</_>
        <_>
          6 3 1 4 2.</_></rects>
      <tilted>1</tilted></_>
    <_>
      <rects>
        <_>
          6 4 1 2 -1.</_>
        <_>
          6 4 1 1 2.</_></rects>
      <tilted>1</tilted></_>
    <_>
      <rects>
        <_>
          6 8 2 1 -1.</_>
        <_>
          7 8 1 1 2.</_></rects>
      <tilted>0</tilted></_>
    <_>
      <rects>
        <_>
          6 8 2 3 -1.</_>
        <_>
          6 9 2 1 3.</_></rects>
      <tilted>0</tilted></_>
    <_>
      <rects>
        <_>
          6 9 2 3 -1.</_>
        <_>
          5 10 2 1 3.</_></rects>
      <tilted>1</tilted></_>
    <_>
      <rects>
        <_>
          6 10 3 2 -1.</_>
        <_>
          7 10 1 2 3.</_></rects>
      <tilted>0</tilted></_>
    <_>
      <rects>
        <_>
          6 11 3 1 -1.</_>
        <_>
          7 11 1 1 3.</_></rects>
      <tilted>0</tilted></_>
    <_>
      <rects>
        <_>
          7 0 4 10 -1.</_>
        <_>
          7 5 4 5 2.</_></rects>
      <tilted>0</tilted></_>
    <_>
      <rects>
        <_>
          7 1 2 4 -1.</_>
        <_>
          8 1 1 4 2.</_></rects>
      <tilted>0</tilted></_>
    <_>
      <rects>
        <_>
          7 1 3 5 -1.</_>
        <_>
          8 2 1 5 3.</_></rects>
      <tilted>1</tilted></_>
    <_>
      <rects>
        <_>
          7 1 4 6 -1.</_>
        <_>
          7 3 4 2 3.</_></rects>
      <tilted>0</tilted></_>
    <_>
      <rects>
        <_>
          7 4 4 2 -1.</_>
        <_>
          9 4 2 2 2.</_></rects>
      <tilted>0</tilted></_>
    <_>
      <rects>
        <_>
          7 4 4 4 -1.</_>
        <_>
          7 4 2 4 2.</_></rects>
      <tilted>1</tilted></_>
    <_>
      <rects>
        <_>
          7 5 2 3 -1.</_>
        <_>
          7 6 2 1 3.</_></rects>
      <tilted>0</tilted></_>
    <_>
      <rects>
        <_>
          7 6 4 3 -1.</_>
        <_>
          7 6 2 3 2.</_></rects>
      <tilted>1</tilted></_>
    <_>
      <rects>
        <_>
          7 6 6 3 -1.</_>
        <_>
          10 6 3 3 2.</_></rects>
      <tilted>0</tilted></_>
    <_>
      <rects>
        <_>
          7 7 8 3 -1.</_>
        <_>
          11 7 4 3 2.</_></rects>
      <tilted>0</tilted></_>
    <_>
      <rects>
        <_>
          7 8 2 2 -1.</_>
        <_>
          7 8 1 1 2.</_>
        <_>
          8 9 1 1 2.</_></rects>
      <tilted>0</tilted></_>
    <_>
      <rects>
        <_>
          7 11 2 2 -1.</_>
        <_>
          7 11 1 1 2.</_>
        <_>
          8 12 1 1 2.</_></rects>
      <tilted>0</tilted></_>
    <_>
      <rects>
        <_>
          7 12 3 3 -1.</_>
        <_>
          8 13 1 1 9.</_></rects>
      <tilted>0</tilted></_>
    <_>
      <rects>
        <_>
          7 12 8 1 -1.</_>
        <_>
          9 12 4 1 2.</_></rects>
      <tilted>0</tilted></_>
    <_>
      <rects>
        <_>
          8 0 4 8 -1.</_>
        <_>
          8 2 4 4 2.</_></rects>
      <tilted>0</tilted></_>
    <_>
      <rects>
        <_>
          8 3 4 6 -1.</_>
        <_>
          8 3 2 6 2.</_></rects>
      <tilted>1</tilted></_>
    <_>
      <rects>
        <_>
          8 5 2 2 -1.</_>
        <_>
          8 5 1 1 2.</_>
        <_>
          9 6 1 1 2.</_></rects>
      <tilted>0</tilted></_>
    <_>
      <rects>
        <_>
          8 7 6 6 -1.</_>
        <_>
          10 9 2 2 9.</_></rects>
      <tilted>0</tilted></_>
    <_>
      <rects>
        <_>
          8 8 1 3 -1.</_>
        <_>
          8 9 1 1 3.</_></rects>
      <tilted>0</tilted></_>
    <_>
      <rects>
        <_>
          8 10 1 3 -1.</_>
        <_>
          8 11 1 1 3.</_></rects>
      <tilted>0</tilted></_>
    <_>
      <rects>
        <_>
          8 13 4 1 -1.</_>
        <_>
          9 13 2 1 2.</_></rects>
      <tilted>0</tilted></_>
    <_>
      <rects>
        <_>
          9 0 3 4 -1.</_>
        <_>
          8 1 3 2 2.</_></rects>
      <tilted>1</tilted></_>
    <_>
      <rects>
        <_>
          9 0 3 8 -1.</_>
        <_>
          9 2 3 4 2.</_></rects>
      <tilted>0</tilted></_>
    <_>
      <rects>
        <_>
          9 1 5 12 -1.</_>
        <_>
          9 4 5 6 2.</_></rects>
      <tilted>0</tilted></_>
    <_>
      <rects>
        <_>
          9 3 2 8 -1.</_>
        <_>
          9 3 1 8 2.</_></rects>
      <tilted>1</tilted></_>
    <_>
      <rects>
        <_>
          9 3 2 10 -1.</_>
        <_>
          9 8 2 5 2.</_></rects>
      <tilted>0</tilted></_>
    <_>
      <rects>
        <_>
          9 3 6 6 -1.</_>
        <_>
          11 3 2 6 3.</_></rects>
      <tilted>0</tilted></_>
    <_>
      <rects>
        <_>
          9 10 3 3 -1.</_>
        <_>
          10 11 1 1 9.</_></rects>
      <tilted>0</tilted></_>
    <_>
      <rects>
        <_>
          10 5 2 4 -1.</_>
        <_>
          10 5 2 2 2.</_></rects>
      <tilted>1</tilted></_>
    <_>
      <rects>
        <_>
          10 7 4 3 -1.</_>
        <_>
          11 7 2 3 2.</_></rects>
      <tilted>0</tilted></_>
    <_>
      <rects>
        <_>
          10 11 3 4 -1.</_>
        <_>
          10 13 3 2 2.</_></rects>
      <tilted>0</tilted></_>
    <_>
      <rects>
        <_>
          11 1 2 12 -1.</_>
        <_>
          11 4 2 6 2.</_></rects>
      <tilted>0</tilted></_>
    <_>
      <rects>
        <_>
          11 6 4 8 -1.</_>
        <_>
          11 6 2 4 2.</_>
        <_>
          13 10 2 4 2.</_></rects>
      <tilted>0</tilted></_>
    <_>
      <rects>
        <_>
          11 6 3 4 -1.</_>
        <_>
          11 6 3 2 2.</_></rects>
      <tilted>1</tilted></_>
    <_>
      <rects>
        <_>
          11 8 3 1 -1.</_>
        <_>
          12 9 1 1 3.</_></rects>
      <tilted>1</tilted></_>
    <_>
      <rects>
        <_>
          11 11 2 2 -1.</_>
        <_>
          11 11 1 1 2.</_>
        <_>
          12 12 1 1 2.</_></rects>
      <tilted>0</tilted></_>
    <_>
      <rects>
        <_>
          12 0 2 8 -1.</_>
        <_>
          12 0 1 8 2.</_></rects>
      <tilted>1</tilted></_>
    <_>
      <rects>
        <_>
          12 1 1 2 -1.</_>
        <_>
          12 1 1 1 2.</_></rects>
      <tilted>1</tilted></_>
    <_>
      <rects>
        <_>
          12 4 2 9 -1.</_>
        <_>
          12 7 2 3 3.</_></rects>
      <tilted>0</tilted></_>
    <_>
      <rects>
        <_>
          12 5 2 8 -1.</_>
        <_>
          12 5 1 4 2.</_>
        <_>
          13 9 1 4 2.</_></rects>
      <tilted>0</tilted></_>
    <_>
      <rects>
        <_>
          12 7 2 6 -1.</_>
        <_>
          12 7 1 3 2.</_>
        <_>
          13 10 1 3 2.</_></rects>
      <tilted>0</tilted></_>
    <_>
      <rects>
        <_>
          12 8 3 2 -1.</_>
        <_>
          13 8 1 2 3.</_></rects>
      <tilted>0</tilted></_>
    <_>
      <rects>
        <_>
          12 9 2 2 -1.</_>
        <_>
          12 9 1 1 2.</_>
        <_>
          13 10 1 1 2.</_></rects>
      <tilted>0</tilted></_>
    <_>
      <rects>
        <_>
          13 2 1 6 -1.</_>
        <_>
          13 4 1 2 3.</_></rects>
      <tilted>0</tilted></_>
    <_>
      <rects>
        <_>
          13 2 2 4 -1.</_>
        <_>
          12 3 2 2 2.</_></rects>
      <tilted>1</tilted></_>
    <_>
      <rects>
        <_>
          13 2 2 12 -1.</_>
        <_>
          13 5 2 6 2.</_></rects>
      <tilted>0</tilted></_>
    <_>
      <rects>
        <_>
          13 6 2 6 -1.</_>
        <_>
          13 6 1 3 2.</_>
        <_>
          14 9 1 3 2.</_></rects>
      <tilted>0</tilted></_>
    <_>
      <rects>
        <_>
          13 7 2 2 -1.</_>
        <_>
          13 7 1 2 2.</_></rects>
      <tilted>1</tilted></_>
    <_>
      <rects>
        <_>
          13 10 2 4 -1.</_>
        <_>
          13 12 2 2 2.</_></rects>
      <tilted>0</tilted></_>
    <_>
      <rects>
        <_>
          14 0 1 12 -1.</_>
        <_>
          14 4 1 4 3.</_></rects>
      <tilted>0</tilted></_></features></cascade>
</opencv_storage>
