<?xml version="1.0"?>
<opencv_storage>
<stage6>
  <maxWeakCount>8</maxWeakCount>
  <stageThreshold>-8.0252921581268311e-01</stageThreshold>
  <weakClassifiers>
    <_>
      <internalNodes>
        0 -1 161701 1.8144104629755020e-02</internalNodes>
      <leafValues>
        1.9591836631298065e-01 -8.7272727489471436e-01</leafValues></_>
    <_>
      <internalNodes>
        0 -1 49047 -1.0986082255840302e-01</internalNodes>
      <leafValues>
        4.6829885244369507e-01 -3.5507845878601074e-01</leafValues></_>
    <_>
      <internalNodes>
        0 -1 516 3.7618108093738556e-02</internalNodes>
      <leafValues>
        -3.0992820858955383e-01 5.4210227727890015e-01</leafValues></_>
    <_>
      <internalNodes>
        0 -1 202882 -1.8274071626365185e-03</internalNodes>
      <leafValues>
        4.0631598234176636e-01 -4.2665418982505798e-01</leafValues></_>
    <_>
      <internalNodes>
        0 -1 24867 1.5129882376641035e-03</internalNodes>
      <leafValues>
        -5.0280725955963135e-01 3.6320930719375610e-01</leafValues></_>
    <_>
      <internalNodes>
        0 -1 60953 3.3413253724575043e-02</internalNodes>
      <leafValues>
        2.1797083318233490e-01 -8.1636631488800049e-01</leafValues></_>
    <_>
      <internalNodes>
        0 -1 48491 3.8413915899582207e-04</internalNodes>
      <leafValues>
        2.4928942322731018e-01 -6.6821593046188354e-01</leafValues></_>
    <_>
      <internalNodes>
        0 -1 222881 -6.1202343204058707e-05</internalNodes>
      <leafValues>
        -7.4496674537658691e-01 1.9423514604568481e-01</leafValues></_></weakClassifiers></stage6>
</opencv_storage>
