<?xml version="1.0"?>
<opencv_storage>
<stage14>
  <maxWeakCount>9</maxWeakCount>
  <stageThreshold>-1.3401076793670654e+00</stageThreshold>
  <weakClassifiers>
    <_>
      <internalNodes>
        0 -1 770318 2.1992153779137880e-04</internalNodes>
      <leafValues>
        -3.5905045270919800e-01 4.6007603406906128e-01</leafValues></_>
    <_>
      <internalNodes>
        0 -1 3698769 2.9640120919793844e-04</internalNodes>
      <leafValues>
        1.8957391381263733e-01 -8.6092424392700195e-01</leafValues></_>
    <_>
      <internalNodes>
        0 -1 2863593 -6.1303121037781239e-04</internalNodes>
      <leafValues>
        5.9289109706878662e-01 -2.9632046818733215e-01</leafValues></_>
    <_>
      <internalNodes>
        0 -1 2229942 -4.3880613520741463e-03</internalNodes>
      <leafValues>
        6.0914844274520874e-01 -2.6476109027862549e-01</leafValues></_>
    <_>
      <internalNodes>
        0 -1 1203838 -3.7684388458728790e-02</internalNodes>
      <leafValues>
        7.2675609588623047e-01 -2.7830114960670471e-01</leafValues></_>
    <_>
      <internalNodes>
        0 -1 2148 3.1803015619516373e-02</internalNodes>
      <leafValues>
        -3.8744443655014038e-01 5.6455725431442261e-01</leafValues></_>
    <_>
      <internalNodes>
        0 -1 49 -2.7826911536976695e-04</internalNodes>
      <leafValues>
        -6.1221683025360107e-01 3.9956566691398621e-01</leafValues></_>
    <_>
      <internalNodes>
        0 -1 1006426 -1.9008832168765366e-05</internalNodes>
      <leafValues>
        -5.3605926036834717e-01 3.8660955429077148e-01</leafValues></_>
    <_>
      <internalNodes>
        0 -1 2725816 7.8386077657341957e-03</internalNodes>
      <leafValues>
        1.9268961250782013e-01 -9.0212744474411011e-01</leafValues></_></weakClassifiers></stage14>
</opencv_storage>
