<?xml version="1.0"?>
<opencv_storage>
<stage11>
  <maxWeakCount>11</maxWeakCount>
  <stageThreshold>-1.0929547548294067e+00</stageThreshold>
  <weakClassifiers>
    <_>
      <internalNodes>
        0 -1 96372 5.6351203471422195e-02</internalNodes>
      <leafValues>
        -6.5094339847564697e-01 3.5567009449005127e-01</leafValues></_>
    <_>
      <internalNodes>
        0 -1 64952 -4.1917767375707626e-03</internalNodes>
      <leafValues>
        6.5203672647476196e-01 -3.1742930412292480e-01</leafValues></_>
    <_>
      <internalNodes>
        0 -1 97432 6.9042472168803215e-03</internalNodes>
      <leafValues>
        -1.7043335735797882e-01 9.3775939941406250e-01</leafValues></_>
    <_>
      <internalNodes>
        0 -1 3700 -3.9635658264160156e-02</internalNodes>
      <leafValues>
        6.3676106929779053e-01 -2.4072051048278809e-01</leafValues></_>
    <_>
      <internalNodes>
        0 -1 109104 -1.1180483270436525e-03</internalNodes>
      <leafValues>
        5.7108390331268311e-01 -2.9213359951972961e-01</leafValues></_>
    <_>
      <internalNodes>
        0 -1 53010 -2.7506118640303612e-03</internalNodes>
      <leafValues>
        -9.2588716745376587e-01 2.2428020834922791e-01</leafValues></_>
    <_>
      <internalNodes>
        0 -1 93702 -2.7661441708914936e-04</internalNodes>
      <leafValues>
        -7.2381860017776489e-01 2.0999981462955475e-01</leafValues></_>
    <_>
      <internalNodes>
        0 -1 30429 1.1120470240712166e-02</internalNodes>
      <leafValues>
        -2.6909014582633972e-01 6.8162047863006592e-01</leafValues></_>
    <_>
      <internalNodes>
        0 -1 71256 1.1649543885141611e-03</internalNodes>
      <leafValues>
        -3.2475104928016663e-01 5.3470629453659058e-01</leafValues></_>
    <_>
      <internalNodes>
        0 -1 105429 -1.9857503939419985e-03</internalNodes>
      <leafValues>
        3.3699077367782593e-01 -5.3321105241775513e-01</leafValues></_>
    <_>
      <internalNodes>
        0 -1 105215 -1.2894576415419579e-02</internalNodes>
      <leafValues>
        7.4123537540435791e-01 -2.7674892544746399e-01</leafValues></_></weakClassifiers></stage11>
</opencv_storage>
