<?xml version="1.0"?>
<opencv_storage>
<stage2>
  <maxWeakCount>6</maxWeakCount>
  <stageThreshold>-8.0651384592056274e-01</stageThreshold>
  <weakClassifiers>
    <_>
      <internalNodes>
        0 -1 26618 -1.4229078777134418e-02</internalNodes>
      <leafValues>
        7.2830188274383545e-01 -5.7611942291259766e-01</leafValues></_>
    <_>
      <internalNodes>
        0 -1 64952 -1.6517334152013063e-03</internalNodes>
      <leafValues>
        8.8338100910186768e-01 -4.1556560993194580e-01</leafValues></_>
    <_>
      <internalNodes>
        0 -1 11400 -1.1239132843911648e-02</internalNodes>
      <leafValues>
        8.1701695919036865e-01 -4.0405479073524475e-01</leafValues></_>
    <_>
      <internalNodes>
        0 -1 98545 -1.2977642472833395e-03</internalNodes>
      <leafValues>
        7.6218664646148682e-01 -4.7457310557365417e-01</leafValues></_>
    <_>
      <internalNodes>
        0 -1 75947 -1.3456307351589203e-02</internalNodes>
      <leafValues>
        4.3599283695220947e-01 -1.</leafValues></_>
    <_>
      <internalNodes>
        0 -1 107978 -1.2610225938260555e-02</internalNodes>
      <leafValues>
        6.6142743825912476e-01 -5.9326559305191040e-01</leafValues></_></weakClassifiers></stage2>
</opencv_storage>
