<?xml version="1.0"?>
<opencv_storage>
<stage9>
  <maxWeakCount>5</maxWeakCount>
  <stageThreshold>-1.0946266651153564e+00</stageThreshold>
  <weakClassifiers>
    <_>
      <internalNodes>
        0 -1 319001 5.6158052757382393e-03</internalNodes>
      <leafValues>
        -6.5568864345550537e-01 2.8787878155708313e-01</leafValues></_>
    <_>
      <internalNodes>
        0 -1 50942 -2.8532105498015881e-03</internalNodes>
      <leafValues>
        4.4458499550819397e-01 -5.3608632087707520e-01</leafValues></_>
    <_>
      <internalNodes>
        0 -1 231511 -3.9463657885789871e-03</internalNodes>
      <leafValues>
        -7.7635037899017334e-01 2.5239348411560059e-01</leafValues></_>
    <_>
      <internalNodes>
        0 -1 139230 -3.4410148859024048e-02</internalNodes>
      <leafValues>
        4.8852425813674927e-01 -4.2237538099288940e-01</leafValues></_>
    <_>
      <internalNodes>
        0 -1 56174 6.1074551194906235e-04</internalNodes>
      <leafValues>
        2.6713016629219055e-01 -9.2684048414230347e-01</leafValues></_></weakClassifiers></stage9>
</opencv_storage>
