<?xml version="1.0"?>
<opencv_storage>
<stage15>
  <maxWeakCount>6</maxWeakCount>
  <stageThreshold>-4.3564683198928833e-01</stageThreshold>
  <weakClassifiers>
    <_>
      <internalNodes>
        0 -1 54167 1.7574841622263193e-03</internalNodes>
      <leafValues>
        2.2621564567089081e-01 -8.4251970052719116e-01</leafValues></_>
    <_>
      <internalNodes>
        0 -1 31757 -5.9287082403898239e-03</internalNodes>
      <leafValues>
        8.0782884359359741e-01 -2.6824611425399780e-01</leafValues></_>
    <_>
      <internalNodes>
        0 -1 466579 1.0060395114123821e-02</internalNodes>
      <leafValues>
        -1.7732396721839905e-01 9.2394876480102539e-01</leafValues></_>
    <_>
      <internalNodes>
        0 -1 526556 1.0398916900157928e-01</internalNodes>
      <leafValues>
        -1.9238916039466858e-01 9.0913486480712891e-01</leafValues></_>
    <_>
      <internalNodes>
        0 -1 709304 -8.9649222791194916e-03</internalNodes>
      <leafValues>
        6.0846751928329468e-01 -3.3817142248153687e-01</leafValues></_>
    <_>
      <internalNodes>
        0 -1 17094 1.9408814609050751e-02</internalNodes>
      <leafValues>
        -5.3155040740966797e-01 4.3636453151702881e-01</leafValues></_></weakClassifiers></stage15>
</opencv_storage>
