<?xml version="1.0"?>
<opencv_storage>
<stage6>
  <maxWeakCount>5</maxWeakCount>
  <stageThreshold>-9.1753369569778442e-01</stageThreshold>
  <weakClassifiers>
    <_>
      <internalNodes>
        0 -1 545388 9.3447079416364431e-04</internalNodes>
      <leafValues>
        -5.2737754583358765e-01 7.2332018613815308e-01</leafValues></_>
    <_>
      <internalNodes>
        0 -1 412568 -6.2968151178210974e-04</internalNodes>
      <leafValues>
        5.0055468082427979e-01 -7.4772644042968750e-01</leafValues></_>
    <_>
      <internalNodes>
        0 -1 725851 -2.4812323972582817e-03</internalNodes>
      <leafValues>
        5.4650056362152100e-01 -6.7217862606048584e-01</leafValues></_>
    <_>
      <internalNodes>
        0 -1 233477 1.6583828255534172e-03</internalNodes>
      <leafValues>
        -5.2088958024978638e-01 6.4546674489974976e-01</leafValues></_>
    <_>
      <internalNodes>
        0 -1 97293 -3.5615384578704834e-02</internalNodes>
      <leafValues>
        -1. 3.3195930719375610e-01</leafValues></_></weakClassifiers></stage6>
</opencv_storage>
