<?xml version="1.0"?>
<opencv_storage>
<stage5>
  <maxWeakCount>6</maxWeakCount>
  <stageThreshold>-1.2066465616226196e+00</stageThreshold>
  <weakClassifiers>
    <_>
      <internalNodes>
        0 -1 152347 1.6366922855377197e-01</internalNodes>
      <leafValues>
        -3.4761905670166016e-01 8.1111109256744385e-01</leafValues></_>
    <_>
      <internalNodes>
        0 -1 17661 -4.9447193741798401e-03</internalNodes>
      <leafValues>
        7.4890512228012085e-01 -2.5866472721099854e-01</leafValues></_>
    <_>
      <internalNodes>
        0 -1 157142 2.4299845099449158e-03</internalNodes>
      <leafValues>
        -2.7963331341743469e-01 7.9559212923049927e-01</leafValues></_>
    <_>
      <internalNodes>
        0 -1 56187 1.6911461949348450e-02</internalNodes>
      <leafValues>
        -4.8118412494659424e-01 4.5591264963150024e-01</leafValues></_>
    <_>
      <internalNodes>
        0 -1 69935 2.1701091900467873e-03</internalNodes>
      <leafValues>
        -2.9176002740859985e-01 7.9964113235473633e-01</leafValues></_>
    <_>
      <internalNodes>
        0 -1 63960 1.3289067428559065e-03</internalNodes>
      <leafValues>
        -5.5535519123077393e-01 4.3724331259727478e-01</leafValues></_></weakClassifiers></stage5>
</opencv_storage>
