<?xml version="1.0"?>
<opencv_storage>
<stage10>
  <maxWeakCount>8</maxWeakCount>
  <stageThreshold>-7.5587123632431030e-01</stageThreshold>
  <weakClassifiers>
    <_>
      <internalNodes>
        0 -1 9253 1.9905680790543556e-02</internalNodes>
      <leafValues>
        3.8035264611244202e-01 -7.4384236335754395e-01</leafValues></_>
    <_>
      <internalNodes>
        0 -1 25784 -5.7469408959150314e-02</internalNodes>
      <leafValues>
        5.8567994832992554e-01 -3.7800022959709167e-01</leafValues></_>
    <_>
      <internalNodes>
        0 -1 30872 2.2493638098239899e-03</internalNodes>
      <leafValues>
        -3.1836920976638794e-01 5.8218860626220703e-01</leafValues></_>
    <_>
      <internalNodes>
        0 -1 28325 -2.4401054251939058e-03</internalNodes>
      <leafValues>
        5.9425908327102661e-01 -4.0638494491577148e-01</leafValues></_>
    <_>
      <internalNodes>
        0 -1 20552 -8.5209880489856005e-04</internalNodes>
      <leafValues>
        -8.5814297199249268e-01 3.2290247082710266e-01</leafValues></_>
    <_>
      <internalNodes>
        0 -1 38945 8.6639169603586197e-03</internalNodes>
      <leafValues>
        1.6934791207313538e-01 -8.8936406373977661e-01</leafValues></_>
    <_>
      <internalNodes>
        0 -1 14826 5.6650098413228989e-02</internalNodes>
      <leafValues>
        1.6660895943641663e-01 -7.9031836986541748e-01</leafValues></_>
    <_>
      <internalNodes>
        0 -1 3479 -1.8215708434581757e-02</internalNodes>
      <leafValues>
        4.3186616897583008e-01 -3.9358362555503845e-01</leafValues></_></weakClassifiers></stage10>
</opencv_storage>
