<?xml version="1.0"?>
<opencv_storage>
<stage11>
  <maxWeakCount>6</maxWeakCount>
  <stageThreshold>-5.5545830726623535e-01</stageThreshold>
  <weakClassifiers>
    <_>
      <internalNodes>
        0 -1 59633 3.6611020565032959e-02</internalNodes>
      <leafValues>
        1.8110236525535583e-01 -1.</leafValues></_>
    <_>
      <internalNodes>
        0 -1 223273 -4.3964959681034088e-02</internalNodes>
      <leafValues>
        6.4730054140090942e-01 -2.9390406608581543e-01</leafValues></_>
    <_>
      <internalNodes>
        0 -1 222983 4.7661617398262024e-02</internalNodes>
      <leafValues>
        -1.7906664311885834e-01 8.4036171436309814e-01</leafValues></_>
    <_>
      <internalNodes>
        0 -1 86410 1.3845530338585377e-02</internalNodes>
      <leafValues>
        -1.7622503638267517e-01 8.9422667026519775e-01</leafValues></_>
    <_>
      <internalNodes>
        0 -1 161755 8.8167404755949974e-03</internalNodes>
      <leafValues>
        -2.0919694006443024e-01 7.3585927486419678e-01</leafValues></_>
    <_>
      <internalNodes>
        0 -1 65682 6.9948444142937660e-03</internalNodes>
      <leafValues>
        2.5139924883842468e-01 -8.2322418689727783e-01</leafValues></_></weakClassifiers></stage11>
</opencv_storage>
