<?xml version="1.0"?>
<opencv_storage>
<stage9>
  <maxWeakCount>5</maxWeakCount>
  <stageThreshold>-4.3703493475914001e-01</stageThreshold>
  <weakClassifiers>
    <_>
      <internalNodes>
        0 -1 679 3.2516373321413994e-03</internalNodes>
      <leafValues>
        -8.0891722440719604e-01 2.8668171167373657e-01</leafValues></_>
    <_>
      <internalNodes>
        0 -1 17844 -3.8487173151224852e-03</internalNodes>
      <leafValues>
        2.2712017595767975e-01 -8.2502079010009766e-01</leafValues></_>
    <_>
      <internalNodes>
        0 -1 8176 1.8936123698949814e-02</internalNodes>
      <leafValues>
        -4.0484482049942017e-01 5.2397751808166504e-01</leafValues></_>
    <_>
      <internalNodes>
        0 -1 1437 1.2744887173175812e-01</internalNodes>
      <leafValues>
        -7.3099797964096069e-01 3.3806955814361572e-01</leafValues></_>
    <_>
      <internalNodes>
        0 -1 12313 -1.0067981481552124e-01</internalNodes>
      <leafValues>
        -9.7241991758346558e-01 2.1153733134269714e-01</leafValues></_></weakClassifiers></stage9>
</opencv_storage>
