<?xml version="1.0"?>
<opencv_storage>
<stage12>
  <maxWeakCount>6</maxWeakCount>
  <stageThreshold>-5.5511277914047241e-01</stageThreshold>
  <weakClassifiers>
    <_>
      <internalNodes>
        0 -1 540 5.2612088620662689e-03</internalNodes>
      <leafValues>
        -3.8607594370841980e-01 4.2957746982574463e-01</leafValues></_>
    <_>
      <internalNodes>
        0 -1 160780 -5.0676777027547359e-03</internalNodes>
      <leafValues>
        4.6342024207115173e-01 -3.8026681542396545e-01</leafValues></_>
    <_>
      <internalNodes>
        0 -1 24350 -6.6011394374072552e-03</internalNodes>
      <leafValues>
        -8.8311618566513062e-01 1.9840171933174133e-01</leafValues></_>
    <_>
      <internalNodes>
        0 -1 86608 3.4171761944890022e-04</internalNodes>
      <leafValues>
        -4.4939050078392029e-01 3.8827845454216003e-01</leafValues></_>
    <_>
      <internalNodes>
        0 -1 147844 -6.2259240075945854e-04</internalNodes>
      <leafValues>
        4.8248896002769470e-01 -4.3216437101364136e-01</leafValues></_>
    <_>
      <internalNodes>
        0 -1 166901 -3.5449083894491196e-02</internalNodes>
      <leafValues>
        -8.0730611085891724e-01 2.4559430778026581e-01</leafValues></_></weakClassifiers></stage12>
</opencv_storage>
