<?xml version="1.0"?>
<opencv_storage>
<stage15>
  <maxWeakCount>8</maxWeakCount>
  <stageThreshold>-3.2565262913703918e-01</stageThreshold>
  <weakClassifiers>
    <_>
      <internalNodes>
        0 -1 111846 -6.4048757776618004e-03</internalNodes>
      <leafValues>
        6.2666666507720947e-01 -2.0888888835906982e-01</leafValues></_>
    <_>
      <internalNodes>
        0 -1 193597 1.3177085202187300e-03</internalNodes>
      <leafValues>
        2.1517825126647949e-01 -6.5872812271118164e-01</leafValues></_>
    <_>
      <internalNodes>
        0 -1 221346 2.5265368167310953e-03</internalNodes>
      <leafValues>
        -2.1926811337471008e-01 6.3069373369216919e-01</leafValues></_>
    <_>
      <internalNodes>
        0 -1 187365 1.7708589439280331e-04</internalNodes>
      <leafValues>
        -3.4945207834243774e-01 4.1820579767227173e-01</leafValues></_>
    <_>
      <internalNodes>
        0 -1 127062 -3.1148989364737645e-05</internalNodes>
      <leafValues>
        3.3814436197280884e-01 -4.9742946028709412e-01</leafValues></_>
    <_>
      <internalNodes>
        0 -1 14463 -5.4044909775257111e-03</internalNodes>
      <leafValues>
        6.6301614046096802e-01 -2.8688693046569824e-01</leafValues></_>
    <_>
      <internalNodes>
        0 -1 204960 -3.2818064093589783e-02</internalNodes>
      <leafValues>
        8.0240845680236816e-01 -1.4704045653343201e-01</leafValues></_>
    <_>
      <internalNodes>
        0 -1 219552 -1.6250245273113251e-02</internalNodes>
      <leafValues>
        4.3880975246429443e-01 -3.5104683041572571e-01</leafValues></_></weakClassifiers></stage15>
</opencv_storage>
