<?xml version="1.0"?>
<opencv_storage>
<stage6>
  <maxWeakCount>5</maxWeakCount>
  <stageThreshold>-5.8145803213119507e-01</stageThreshold>
  <weakClassifiers>
    <_>
      <internalNodes>
        0 -1 34810 3.7282399833202362e-02</internalNodes>
      <leafValues>
        -5.4581671953201294e-01 7.5510203838348389e-01</leafValues></_>
    <_>
      <internalNodes>
        0 -1 29404 -1.9580908119678497e-03</internalNodes>
      <leafValues>
        2.9762065410614014e-01 -8.0718690156936646e-01</leafValues></_>
    <_>
      <internalNodes>
        0 -1 130 -3.3780276775360107e-02</internalNodes>
      <leafValues>
        5.6667321920394897e-01 -5.0630754232406616e-01</leafValues></_>
    <_>
      <internalNodes>
        0 -1 47238 7.8539691865444183e-02</internalNodes>
      <leafValues>
        -3.6602640151977539e-01 6.3253569602966309e-01</leafValues></_>
    <_>
      <internalNodes>
        0 -1 75782 1.8212061375379562e-02</internalNodes>
      <leafValues>
        -4.2766326665878296e-01 6.2469178438186646e-01</leafValues></_></weakClassifiers></stage6>
</opencv_storage>
