<?xml version="1.0"?>
<opencv_storage>
<stage4>
  <maxWeakCount>5</maxWeakCount>
  <stageThreshold>-9.0436261892318726e-01</stageThreshold>
  <weakClassifiers>
    <_>
      <internalNodes>
        0 -1 45557 -1.8264549970626831e-01</internalNodes>
      <leafValues>
        9.0909093618392944e-01 -5.4687500000000000e-01</leafValues></_>
    <_>
      <internalNodes>
        0 -1 64151 2.2873596753925085e-03</internalNodes>
      <leafValues>
        2.6444503664970398e-01 -9.3618291616439819e-01</leafValues></_>
    <_>
      <internalNodes>
        0 -1 30361 1.4016031287610531e-02</internalNodes>
      <leafValues>
        -5.4428875446319580e-01 4.9282741546630859e-01</leafValues></_>
    <_>
      <internalNodes>
        0 -1 51321 9.7523239674046636e-04</internalNodes>
      <leafValues>
        3.1628775596618652e-01 -8.2101899385452271e-01</leafValues></_>
    <_>
      <internalNodes>
        0 -1 22128 -1.0701157152652740e-02</internalNodes>
      <leafValues>
        8.3677071332931519e-01 -3.9393162727355957e-01</leafValues></_></weakClassifiers></stage4>
</opencv_storage>
