<?xml version="1.0"?>
<opencv_storage>
<stage12>
  <maxWeakCount>13</maxWeakCount>
  <stageThreshold>-1.0234005451202393e+00</stageThreshold>
  <weakClassifiers>
    <_>
      <internalNodes>
        0 -1 390333 3.1904330849647522e-01</internalNodes>
      <leafValues>
        -1.9551680982112885e-01 7.9695433378219604e-01</leafValues></_>
    <_>
      <internalNodes>
        0 -1 558810 2.3675583302974701e-02</internalNodes>
      <leafValues>
        -1.3003982603549957e-01 6.9597548246383667e-01</leafValues></_>
    <_>
      <internalNodes>
        0 -1 12738 3.0988419428467751e-02</internalNodes>
      <leafValues>
        -1.9686150550842285e-01 5.9770715236663818e-01</leafValues></_>
    <_>
      <internalNodes>
        0 -1 75254 -1.8498089048080146e-05</internalNodes>
      <leafValues>
        -4.1846814751625061e-01 2.7139702439308167e-01</leafValues></_>
    <_>
      <internalNodes>
        0 -1 156006 -5.8785408735275269e-02</internalNodes>
      <leafValues>
        -8.3254188299179077e-01 1.4136710762977600e-01</leafValues></_>
    <_>
      <internalNodes>
        0 -1 617917 -1.0431252885609865e-03</internalNodes>
      <leafValues>
        4.2687031626701355e-01 -2.4846382439136505e-01</leafValues></_>
    <_>
      <internalNodes>
        0 -1 594286 2.4284245228045620e-05</internalNodes>
      <leafValues>
        2.0852489769458771e-01 -4.9664753675460815e-01</leafValues></_>
    <_>
      <internalNodes>
        0 -1 435093 -5.6388746015727520e-03</internalNodes>
      <leafValues>
        4.6333795785903931e-01 -2.3183079063892365e-01</leafValues></_>
    <_>
      <internalNodes>
        0 -1 297000 -8.3044765051454306e-04</internalNodes>
      <leafValues>
        3.6904367804527283e-01 -3.1542605161666870e-01</leafValues></_>
    <_>
      <internalNodes>
        0 -1 730294 -3.7506182707147673e-05</internalNodes>
      <leafValues>
        -6.4370983839035034e-01 1.7946419119834900e-01</leafValues></_>
    <_>
      <internalNodes>
        0 -1 610512 -2.8905801475048065e-02</internalNodes>
      <leafValues>
        -8.4945213794708252e-01 1.1118596792221069e-01</leafValues></_>
    <_>
      <internalNodes>
        0 -1 135280 3.5357333254069090e-03</internalNodes>
      <leafValues>
        1.3456532359123230e-01 -7.1896123886108398e-01</leafValues></_>
    <_>
      <internalNodes>
        0 -1 54953 2.3789561964804307e-05</internalNodes>
      <leafValues>
        2.3767173290252686e-01 -4.7302600741386414e-01</leafValues></_></weakClassifiers></stage12>
</opencv_storage>
