<?xml version="1.0"?>
<opencv_storage>
<stage13>
  <maxWeakCount>16</maxWeakCount>
  <stageThreshold>-1.2045022249221802e+00</stageThreshold>
  <weakClassifiers>
    <_>
      <internalNodes>
        0 -1 535360 -2.9708578949794173e-04</internalNodes>
      <leafValues>
        4.0724948048591614e-01 -3.5969868302345276e-01</leafValues></_>
    <_>
      <internalNodes>
        0 -1 289983 -3.4204795956611633e-03</internalNodes>
      <leafValues>
        6.9601500034332275e-01 -1.8539340794086456e-01</leafValues></_>
    <_>
      <internalNodes>
        0 -1 505343 -2.7132185641676188e-03</internalNodes>
      <leafValues>
        2.9482302069664001e-01 -3.8625711202621460e-01</leafValues></_>
    <_>
      <internalNodes>
        0 -1 658066 3.2255612313747406e-02</internalNodes>
      <leafValues>
        -2.3784784972667694e-01 4.4635069370269775e-01</leafValues></_>
    <_>
      <internalNodes>
        0 -1 29976 1.8884599208831787e-02</internalNodes>
      <leafValues>
        -1.3527886569499969e-01 7.6287877559661865e-01</leafValues></_>
    <_>
      <internalNodes>
        0 -1 465819 5.4467148147523403e-03</internalNodes>
      <leafValues>
        -1.2116641551256180e-01 7.9571151733398438e-01</leafValues></_>
    <_>
      <internalNodes>
        0 -1 92205 -6.9515526294708252e-02</internalNodes>
      <leafValues>
        -9.4761353731155396e-01 1.3022644817829132e-01</leafValues></_>
    <_>
      <internalNodes>
        0 -1 98346 -1.5829154290258884e-04</internalNodes>
      <leafValues>
        2.7607411146163940e-01 -4.5911833643913269e-01</leafValues></_>
    <_>
      <internalNodes>
        0 -1 731162 9.0341163740959018e-05</internalNodes>
      <leafValues>
        2.5425294041633606e-01 -4.5438760519027710e-01</leafValues></_>
    <_>
      <internalNodes>
        0 -1 505125 -6.9618120323866606e-04</internalNodes>
      <leafValues>
        4.2519733309745789e-01 -2.6222029328346252e-01</leafValues></_>
    <_>
      <internalNodes>
        0 -1 470391 -3.1916736625134945e-03</internalNodes>
      <leafValues>
        3.7335550785064697e-01 -2.6415038108825684e-01</leafValues></_>
    <_>
      <internalNodes>
        0 -1 456559 -9.8824277520179749e-03</internalNodes>
      <leafValues>
        -7.5844198465347290e-01 1.6556681692600250e-01</leafValues></_>
    <_>
      <internalNodes>
        0 -1 462199 -1.2454764219000936e-03</internalNodes>
      <leafValues>
        4.1084706783294678e-01 -2.8224173188209534e-01</leafValues></_>
    <_>
      <internalNodes>
        0 -1 28107 -6.4948348153848201e-05</internalNodes>
      <leafValues>
        -5.1492279767990112e-01 2.3390610516071320e-01</leafValues></_>
    <_>
      <internalNodes>
        0 -1 550529 -9.0758991427719593e-04</internalNodes>
      <leafValues>
        4.6336919069290161e-01 -2.3895698785781860e-01</leafValues></_>
    <_>
      <internalNodes>
        0 -1 262365 1.7808593111112714e-03</internalNodes>
      <leafValues>
        -3.6037060618400574e-01 3.4444814920425415e-01</leafValues></_></weakClassifiers></stage13>
</opencv_storage>
