<?xml version="1.0"?>
<opencv_storage>
<stage12>
  <maxWeakCount>5</maxWeakCount>
  <stageThreshold>-6.2487947940826416e-01</stageThreshold>
  <weakClassifiers>
    <_>
      <internalNodes>
        0 -1 100892 5.4639698937535286e-03</internalNodes>
      <leafValues>
        -5.6595742702484131e-01 5.0769233703613281e-01</leafValues></_>
    <_>
      <internalNodes>
        0 -1 9544 2.6053809560835361e-03</internalNodes>
      <leafValues>
        2.4613325297832489e-01 -9.3233364820480347e-01</leafValues></_>
    <_>
      <internalNodes>
        0 -1 89960 -2.9377758502960205e-02</internalNodes>
      <leafValues>
        3.4360224008560181e-01 -6.9014531373977661e-01</leafValues></_>
    <_>
      <internalNodes>
        0 -1 149421 -2.1690098219551146e-04</internalNodes>
      <leafValues>
        -9.7498965263366699e-01 2.5770696997642517e-01</leafValues></_>
    <_>
      <internalNodes>
        0 -1 92283 4.0647957939654589e-04</internalNodes>
      <leafValues>
        -7.0817130804061890e-01 3.2633212208747864e-01</leafValues></_></weakClassifiers></stage12>
</opencv_storage>
