<?xml version="1.0"?>
<opencv_storage>
<stage16>
  <maxWeakCount>13</maxWeakCount>
  <stageThreshold>-1.2793788909912109e+00</stageThreshold>
  <weakClassifiers>
    <_>
      <internalNodes>
        0 -1 126705 -4.1811546543613076e-04</internalNodes>
      <leafValues>
        2.6775956153869629e-01 -4.1880342364311218e-01</leafValues></_>
    <_>
      <internalNodes>
        0 -1 59528 3.0413754284381866e-02</internalNodes>
      <leafValues>
        2.0351064205169678e-01 -6.1107879877090454e-01</leafValues></_>
    <_>
      <internalNodes>
        0 -1 173160 -2.7884084731340408e-02</internalNodes>
      <leafValues>
        -8.5037118196487427e-01 1.6176506876945496e-01</leafValues></_>
    <_>
      <internalNodes>
        0 -1 76761 5.8611925691366196e-02</internalNodes>
      <leafValues>
        -3.7943029403686523e-01 3.6897966265678406e-01</leafValues></_>
    <_>
      <internalNodes>
        0 -1 217710 -7.7113363659009337e-04</internalNodes>
      <leafValues>
        3.1752350926399231e-01 -4.1399139165878296e-01</leafValues></_>
    <_>
      <internalNodes>
        0 -1 189678 -3.3238120377063751e-03</internalNodes>
      <leafValues>
        2.2329448163509369e-01 -4.9525639414787292e-01</leafValues></_>
    <_>
      <internalNodes>
        0 -1 162214 5.4000224918127060e-03</internalNodes>
      <leafValues>
        2.0230071246623993e-01 -8.2778614759445190e-01</leafValues></_>
    <_>
      <internalNodes>
        0 -1 149462 1.1579830897971988e-03</internalNodes>
      <leafValues>
        -2.9187420010566711e-01 5.2589267492294312e-01</leafValues></_>
    <_>
      <internalNodes>
        0 -1 187370 -4.9724918790161610e-04</internalNodes>
      <leafValues>
        5.9800541400909424e-01 -2.7759823203086853e-01</leafValues></_>
    <_>
      <internalNodes>
        0 -1 184026 -2.5965202599763870e-02</internalNodes>
      <leafValues>
        4.8073217272758484e-01 -3.2805377244949341e-01</leafValues></_>
    <_>
      <internalNodes>
        0 -1 64176 -2.2394806146621704e-03</internalNodes>
      <leafValues>
        1.8170437216758728e-01 -8.0942064523696899e-01</leafValues></_>
    <_>
      <internalNodes>
        0 -1 133265 -4.8248730599880219e-02</internalNodes>
      <leafValues>
        6.6152667999267578e-01 -2.4993669986724854e-01</leafValues></_>
    <_>
      <internalNodes>
        0 -1 223896 -3.4204688854515553e-03</internalNodes>
      <leafValues>
        -7.0280826091766357e-01 2.6021385192871094e-01</leafValues></_></weakClassifiers></stage16>
</opencv_storage>
