<?xml version="1.0"?>
<opencv_storage>
<stage13>
  <maxWeakCount>10</maxWeakCount>
  <stageThreshold>-7.8761315345764160e-01</stageThreshold>
  <weakClassifiers>
    <_>
      <internalNodes>
        0 -1 219250 1.1678026930894703e-04</internalNodes>
      <leafValues>
        2.3853211104869843e-01 -6.3414633274078369e-01</leafValues></_>
    <_>
      <internalNodes>
        0 -1 194592 7.9464744776487350e-03</internalNodes>
      <leafValues>
        -2.5385117530822754e-01 6.9659763574600220e-01</leafValues></_>
    <_>
      <internalNodes>
        0 -1 222876 8.2802303950302303e-05</internalNodes>
      <leafValues>
        2.5242936611175537e-01 -7.1729165315628052e-01</leafValues></_>
    <_>
      <internalNodes>
        0 -1 20289 1.8568430095911026e-03</internalNodes>
      <leafValues>
        -3.7242421507835388e-01 4.6490183472633362e-01</leafValues></_>
    <_>
      <internalNodes>
        0 -1 59063 3.9530722424387932e-03</internalNodes>
      <leafValues>
        -5.0433129072189331e-01 3.1288263201713562e-01</leafValues></_>
    <_>
      <internalNodes>
        0 -1 136313 7.5828999280929565e-02</internalNodes>
      <leafValues>
        2.7809572219848633e-01 -6.8932938575744629e-01</leafValues></_>
    <_>
      <internalNodes>
        0 -1 108322 1.4427715213969350e-03</internalNodes>
      <leafValues>
        -3.4689667820930481e-01 5.5354285240173340e-01</leafValues></_>
    <_>
      <internalNodes>
        0 -1 159779 1.4330935664474964e-03</internalNodes>
      <leafValues>
        -4.8193919658660889e-01 3.5256263613700867e-01</leafValues></_>
    <_>
      <internalNodes>
        0 -1 104653 -9.8097641021013260e-03</internalNodes>
      <leafValues>
        3.4523054957389832e-01 -5.3334009647369385e-01</leafValues></_>
    <_>
      <internalNodes>
        0 -1 118320 1.2104623019695282e-02</internalNodes>
      <leafValues>
        -7.3571562767028809e-01 2.5422653555870056e-01</leafValues></_></weakClassifiers></stage13>
</opencv_storage>
