<?xml version="1.0"?>
<opencv_storage>
<stage2>
  <maxWeakCount>5</maxWeakCount>
  <stageThreshold>-5.2907550334930420e-01</stageThreshold>
  <weakClassifiers>
    <_>
      <internalNodes>
        0 -1 8266 -4.2173080146312714e-02</internalNodes>
      <leafValues>
        8.1538462638854980e-01 -6.2352943420410156e-01</leafValues></_>
    <_>
      <internalNodes>
        0 -1 32376 -2.2803440690040588e-02</internalNodes>
      <leafValues>
        7.6408326625823975e-01 -5.6503552198410034e-01</leafValues></_>
    <_>
      <internalNodes>
        0 -1 32126 2.2393457591533661e-02</internalNodes>
      <leafValues>
        -8.7606996297836304e-01 4.3093147873878479e-01</leafValues></_>
    <_>
      <internalNodes>
        0 -1 28426 -2.5408556684851646e-03</internalNodes>
      <leafValues>
        8.9815688133239746e-01 -4.7009766101837158e-01</leafValues></_>
    <_>
      <internalNodes>
        0 -1 1510 8.0741364508867264e-03</internalNodes>
      <leafValues>
        -4.9104386568069458e-01 6.9865560531616211e-01</leafValues></_></weakClassifiers></stage2>
</opencv_storage>
