<?xml version="1.0"?>
<opencv_storage>
<cascade>
  <stageType>BOOST</stageType>
  <featureType>HAAR</featureType>
  <height>15</height>
  <width>15</width>
  <stageParams>
    <boostType>GAB</boostType>
    <minHitRate>9.9900001287460327e-01</minHitRate>
    <maxFalseAlarm>4.7499999403953552e-01</maxFalseAlarm>
    <weightTrimRate>9.4999999999999996e-01</weightTrimRate>
    <maxDepth>1</maxDepth>
    <maxWeakCount>100</maxWeakCount></stageParams>
  <featureParams>
    <maxCatCount>0</maxCatCount>
    <featSize>1</featSize>
    <mode>ALL</mode></featureParams>
  <stageNum>17</stageNum>
  <stages>
    <!-- stage 0 -->
    <_>
      <maxWeakCount>2</maxWeakCount>
      <stageThreshold>-2.1219390630722046e-01</stageThreshold>
      <weakClassifiers>
        <_>
          <internalNodes>
            0 -1 47 2.5861632078886032e-02</internalNodes>
          <leafValues>
            -9.4466406106948853e-01 6.8876081705093384e-01</leafValues></_>
        <_>
          <internalNodes>
            0 -1 26 -4.3677031499100849e-05</internalNodes>
          <leafValues>
            7.3247009515762329e-01 -8.4552884101867676e-01</leafValues></_></weakClassifiers></_>
    <!-- stage 1 -->
    <_>
      <maxWeakCount>3</maxWeakCount>
      <stageThreshold>-9.4962656497955322e-01</stageThreshold>
      <weakClassifiers>
        <_>
          <internalNodes>
            0 -1 86 -5.2045437769265845e-05</internalNodes>
          <leafValues>
            7.2307693958282471e-01 -8.5454547405242920e-01</leafValues></_>
        <_>
          <internalNodes>
            0 -1 89 -2.2423021437134594e-04</internalNodes>
          <leafValues>
            5.5985784530639648e-01 -8.4864085912704468e-01</leafValues></_>
        <_>
          <internalNodes>
            0 -1 81 -4.0198159695137292e-05</internalNodes>
          <leafValues>
            7.9007130861282349e-01 -6.5493899583816528e-01</leafValues></_></weakClassifiers></_>
    <!-- stage 2 -->
    <_>
      <maxWeakCount>3</maxWeakCount>
      <stageThreshold>-7.8391396999359131e-01</stageThreshold>
      <weakClassifiers>
        <_>
          <internalNodes>
            0 -1 23 4.3677031499100849e-05</internalNodes>
          <leafValues>
            -6.8770766258239746e-01 6.9230771064758301e-01</leafValues></_>
        <_>
          <internalNodes>
            0 -1 84 -4.7502569941570982e-05</internalNodes>
          <leafValues>
            6.5376144647598267e-01 -7.4665224552154541e-01</leafValues></_>
        <_>
          <internalNodes>
            0 -1 69 4.2092888179467991e-05</internalNodes>
          <leafValues>
            -7.4996775388717651e-01 6.5550786256790161e-01</leafValues></_></weakClassifiers></_>
    <!-- stage 3 -->
    <_>
      <maxWeakCount>4</maxWeakCount>
      <stageThreshold>-4.5220211148262024e-01</stageThreshold>
      <weakClassifiers>
        <_>
          <internalNodes>
            0 -1 33 -2.9535001143813133e-02</internalNodes>
          <leafValues>
            6.0000002384185791e-01 -7.3333334922790527e-01</leafValues></_>
        <_>
          <internalNodes>
            0 -1 4 1.0671693831682205e-02</internalNodes>
          <leafValues>
            -7.9968827962875366e-01 4.5972523093223572e-01</leafValues></_>
        <_>
          <internalNodes>
            0 -1 58 -8.7192477658390999e-03</internalNodes>
          <leafValues>
            5.4236483573913574e-01 -6.3446223735809326e-01</leafValues></_>
        <_>
          <internalNodes>
            0 -1 13 -2.4650620762258768e-03</internalNodes>
          <leafValues>
            4.6951666474342346e-01 -7.2095882892608643e-01</leafValues></_></weakClassifiers></_>
    <!-- stage 4 -->
    <_>
      <maxWeakCount>3</maxWeakCount>
      <stageThreshold>-3.7488448619842529e-01</stageThreshold>
      <weakClassifiers>
        <_>
          <internalNodes>
            0 -1 85 -9.5842834562063217e-03</internalNodes>
          <leafValues>
            5.1497006416320801e-01 -6.4661651849746704e-01</leafValues></_>
        <_>
          <internalNodes>
            0 -1 67 1.9289553165435791e-02</internalNodes>
          <leafValues>
            -4.2788335680961609e-01 7.1413618326187134e-01</leafValues></_>
        <_>
          <internalNodes>
            0 -1 63 1.2191359885036945e-02</internalNodes>
          <leafValues>
            -4.4240415096282959e-01 7.0725542306900024e-01</leafValues></_></weakClassifiers></_>
    <!-- stage 5 -->
    <_>
      <maxWeakCount>8</maxWeakCount>
      <stageThreshold>-1.0514886379241943e+00</stageThreshold>
      <weakClassifiers>
        <_>
          <internalNodes>
            0 -1 40 6.7736737430095673e-02</internalNodes>
          <leafValues>
            -3.8624337315559387e-01 6.5765768289566040e-01</leafValues></_>
        <_>
          <internalNodes>
            0 -1 15 8.6734518408775330e-02</internalNodes>
          <leafValues>
            -5.0406432151794434e-01 4.8701375722885132e-01</leafValues></_>
        <_>
          <internalNodes>
            0 -1 79 -6.4857192337512970e-03</internalNodes>
          <leafValues>
            6.0294854640960693e-01 -3.9446121454238892e-01</leafValues></_>
        <_>
          <internalNodes>
            0 -1 83 5.8987974189221859e-03</internalNodes>
          <leafValues>
            -2.8237804770469666e-01 8.7265336513519287e-01</leafValues></_>
        <_>
          <internalNodes>
            0 -1 3 4.8363814130425453e-03</internalNodes>
          <leafValues>
            -7.0422875881195068e-01 4.2734241485595703e-01</leafValues></_>
        <_>
          <internalNodes>
            0 -1 8 -2.3523110896348953e-02</internalNodes>
          <leafValues>
            -9.4135022163391113e-01 2.7345526218414307e-01</leafValues></_>
        <_>
          <internalNodes>
            0 -1 35 -1.7934886738657951e-02</internalNodes>
          <leafValues>
            7.5741475820541382e-01 -3.7596780061721802e-01</leafValues></_>
        <_>
          <internalNodes>
            0 -1 39 4.3484322726726532e-02</internalNodes>
          <leafValues>
            -9.4252508878707886e-01 3.3132150769233704e-01</leafValues></_></weakClassifiers></_>
    <!-- stage 6 -->
    <_>
      <maxWeakCount>6</maxWeakCount>
      <stageThreshold>-8.8180500268936157e-01</stageThreshold>
      <weakClassifiers>
        <_>
          <internalNodes>
            0 -1 88 -8.4243034943938255e-03</internalNodes>
          <leafValues>
            7.7272725105285645e-01 -3.2075470685958862e-01</leafValues></_>
        <_>
          <internalNodes>
            0 -1 72 -2.6549394242465496e-03</internalNodes>
          <leafValues>
            -8.3717870712280273e-01 2.7795735001564026e-01</leafValues></_>
        <_>
          <internalNodes>
            0 -1 57 -6.5839262679219246e-03</internalNodes>
          <leafValues>
            3.8798290491104126e-01 -4.9760395288467407e-01</leafValues></_>
        <_>
          <internalNodes>
            0 -1 97 -5.8814152143895626e-03</internalNodes>
          <leafValues>
            4.3013417720794678e-01 -5.0277757644653320e-01</leafValues></_>
        <_>
          <internalNodes>
            0 -1 50 2.5994781404733658e-02</internalNodes>
          <leafValues>
            -3.4056657552719116e-01 7.9784160852432251e-01</leafValues></_>
        <_>
          <internalNodes>
            0 -1 49 3.9167955517768860e-02</internalNodes>
          <leafValues>
            -2.0142206549644470e-01 9.1281503438949585e-01</leafValues></_></weakClassifiers></_>
    <!-- stage 7 -->
    <_>
      <maxWeakCount>6</maxWeakCount>
      <stageThreshold>-5.6598639488220215e-01</stageThreshold>
      <weakClassifiers>
        <_>
          <internalNodes>
            0 -1 87 -2.7917295694351196e-02</internalNodes>
          <leafValues>
            3.4466019272804260e-01 -7.5531917810440063e-01</leafValues></_>
        <_>
          <internalNodes>
            0 -1 75 -7.6423138380050659e-03</internalNodes>
          <leafValues>
            3.4793683886528015e-01 -5.9060335159301758e-01</leafValues></_>
        <_>
          <internalNodes>
            0 -1 43 -8.8198864832520485e-03</internalNodes>
          <leafValues>
            7.4211150407791138e-01 -2.9446676373481750e-01</leafValues></_>
        <_>
          <internalNodes>
            0 -1 65 6.6862730309367180e-03</internalNodes>
          <leafValues>
            2.8344735503196716e-01 -1.</leafValues></_>
        <_>
          <internalNodes>
            0 -1 42 2.4288801476359367e-02</internalNodes>
          <leafValues>
            -4.6454918384552002e-01 6.7112052440643311e-01</leafValues></_>
        <_>
          <internalNodes>
            0 -1 6 -1.0686211287975311e-01</internalNodes>
          <leafValues>
            -9.0481740236282349e-01 3.1696450710296631e-01</leafValues></_></weakClassifiers></_>
    <!-- stage 8 -->
    <_>
      <maxWeakCount>4</maxWeakCount>
      <stageThreshold>-3.5131168365478516e-01</stageThreshold>
      <weakClassifiers>
        <_>
          <internalNodes>
            0 -1 17 -1.6343122348189354e-02</internalNodes>
          <leafValues>
            4.7605633735656738e-01 -6.8979591131210327e-01</leafValues></_>
        <_>
          <internalNodes>
            0 -1 96 5.1147915655747056e-04</internalNodes>
          <leafValues>
            2.9042860865592957e-01 -9.5116746425628662e-01</leafValues></_>
        <_>
          <internalNodes>
            0 -1 54 -1.4693573117256165e-01</internalNodes>
          <leafValues>
            7.2535735368728638e-01 -4.3920049071311951e-01</leafValues></_>
        <_>
          <internalNodes>
            0 -1 10 1.5106304548680782e-02</internalNodes>
          <leafValues>
            -6.5695995092391968e-01 4.8725613951683044e-01</leafValues></_></weakClassifiers></_>
    <!-- stage 9 -->
    <_>
      <maxWeakCount>5</maxWeakCount>
      <stageThreshold>-7.0951008796691895e-01</stageThreshold>
      <weakClassifiers>
        <_>
          <internalNodes>
            0 -1 93 1.1994272936135530e-03</internalNodes>
          <leafValues>
            3.8341969251632690e-01 -6.9158875942230225e-01</leafValues></_>
        <_>
          <internalNodes>
            0 -1 99 5.9541239170357585e-04</internalNodes>
          <leafValues>
            -7.7192729711532593e-01 3.2197818160057068e-01</leafValues></_>
        <_>
          <internalNodes>
            0 -1 92 1.5276367776095867e-04</internalNodes>
          <leafValues>
            2.1479173004627228e-01 -8.7234812974929810e-01</leafValues></_>
        <_>
          <internalNodes>
            0 -1 94 -7.6945661567151546e-04</internalNodes>
          <leafValues>
            -7.1480399370193481e-01 2.9125642776489258e-01</leafValues></_>
        <_>
          <internalNodes>
            0 -1 71 6.5459776669740677e-04</internalNodes>
          <leafValues>
            2.4795781075954437e-01 -7.7131420373916626e-01</leafValues></_></weakClassifiers></_>
    <!-- stage 10 -->
    <_>
      <maxWeakCount>9</maxWeakCount>
      <stageThreshold>-7.8549283742904663e-01</stageThreshold>
      <weakClassifiers>
        <_>
          <internalNodes>
            0 -1 73 -4.0198159695137292e-05</internalNodes>
          <leafValues>
            6.2931036949157715e-01 -3.9673912525177002e-01</leafValues></_>
        <_>
          <internalNodes>
            0 -1 23 8.0124460509978235e-05</internalNodes>
          <leafValues>
            -6.3172471523284912e-01 4.1132554411888123e-01</leafValues></_>
        <_>
          <internalNodes>
            0 -1 30 -4.9494780600070953e-02</internalNodes>
          <leafValues>
            3.6567935347557068e-01 -6.3658165931701660e-01</leafValues></_>
        <_>
          <internalNodes>
            0 -1 45 1.5453738160431385e-04</internalNodes>
          <leafValues>
            -3.7521776556968689e-01 5.9513390064239502e-01</leafValues></_>
        <_>
          <internalNodes>
            0 -1 37 -4.1377868910785764e-05</internalNodes>
          <leafValues>
            5.4208004474639893e-01 -3.5593339800834656e-01</leafValues></_>
        <_>
          <internalNodes>
            0 -1 1 2.3862984380684793e-04</internalNodes>
          <leafValues>
            -6.6535675525665283e-01 2.8312125802040100e-01</leafValues></_>
        <_>
          <internalNodes>
            0 -1 61 2.7439713478088379e-02</internalNodes>
          <leafValues>
            -2.7817684412002563e-01 7.9716914892196655e-01</leafValues></_>
        <_>
          <internalNodes>
            0 -1 31 5.4793573915958405e-02</internalNodes>
          <leafValues>
            2.1930034458637238e-01 -8.7279176712036133e-01</leafValues></_>
        <_>
          <internalNodes>
            0 -1 59 4.5380518713500351e-05</internalNodes>
          <leafValues>
            -5.2967870235443115e-01 3.8419800996780396e-01</leafValues></_></weakClassifiers></_>
    <!-- stage 11 -->
    <_>
      <maxWeakCount>7</maxWeakCount>
      <stageThreshold>-7.5521183013916016e-01</stageThreshold>
      <weakClassifiers>
        <_>
          <internalNodes>
            0 -1 66 3.8130372762680054e-02</internalNodes>
          <leafValues>
            -7.0114940404891968e-01 2.8638496994972229e-01</leafValues></_>
        <_>
          <internalNodes>
            0 -1 90 1.6792826354503632e-02</internalNodes>
          <leafValues>
            -5.5373829603195190e-01 3.7810125946998596e-01</leafValues></_>
        <_>
          <internalNodes>
            0 -1 27 1.6719049308449030e-03</internalNodes>
          <leafValues>
            -4.3310421705245972e-01 4.5250412821769714e-01</leafValues></_>
        <_>
          <internalNodes>
            0 -1 60 2.5416661053895950e-02</internalNodes>
          <leafValues>
            -2.3448815941810608e-01 7.3294728994369507e-01</leafValues></_>
        <_>
          <internalNodes>
            0 -1 19 1.4485633932054043e-02</internalNodes>
          <leafValues>
            -4.8065233230590820e-01 3.7467995285987854e-01</leafValues></_>
        <_>
          <internalNodes>
            0 -1 25 -1.5212613157927990e-02</internalNodes>
          <leafValues>
            5.9333729743957520e-01 -2.8827497363090515e-01</leafValues></_>
        <_>
          <internalNodes>
            0 -1 21 -3.3499073982238770e-01</internalNodes>
          <leafValues>
            -1. 1.4902371168136597e-01</leafValues></_></weakClassifiers></_>
    <!-- stage 12 -->
    <_>
      <maxWeakCount>9</maxWeakCount>
      <stageThreshold>-6.8541508913040161e-01</stageThreshold>
      <weakClassifiers>
        <_>
          <internalNodes>
            0 -1 24 -1.4689361676573753e-02</internalNodes>
          <leafValues>
            3.0632910132408142e-01 -5.9024387598037720e-01</leafValues></_>
        <_>
          <internalNodes>
            0 -1 64 -2.0973910577595234e-03</internalNodes>
          <leafValues>
            -7.2081363201141357e-01 2.1633031964302063e-01</leafValues></_>
        <_>
          <internalNodes>
            0 -1 55 7.4796536937355995e-03</internalNodes>
          <leafValues>
            2.2894990444183350e-01 -7.1485418081283569e-01</leafValues></_>
        <_>
          <internalNodes>
            0 -1 2 1.7765108495950699e-02</internalNodes>
          <leafValues>
            -5.4422926902770996e-01 2.7173912525177002e-01</leafValues></_>
        <_>
          <internalNodes>
            0 -1 34 2.2101214155554771e-02</internalNodes>
          <leafValues>
            -2.3356468975543976e-01 7.5537323951721191e-01</leafValues></_>
        <_>
          <internalNodes>
            0 -1 91 -1.1384453624486923e-02</internalNodes>
          <leafValues>
            7.2605675458908081e-01 -2.2252807021141052e-01</leafValues></_>
        <_>
          <internalNodes>
            0 -1 44 2.9031531885266304e-03</internalNodes>
          <leafValues>
            -4.1713547706604004e-01 3.5319277644157410e-01</leafValues></_>
        <_>
          <internalNodes>
            0 -1 22 7.1963937953114510e-03</internalNodes>
          <leafValues>
            -4.5126140117645264e-01 4.1787698864936829e-01</leafValues></_>
        <_>
          <internalNodes>
            0 -1 80 -5.6752967648208141e-03</internalNodes>
          <leafValues>
            7.1151459217071533e-01 -1.9002358615398407e-01</leafValues></_></weakClassifiers></_>
    <!-- stage 13 -->
    <_>
      <maxWeakCount>9</maxWeakCount>
      <stageThreshold>-7.8392481803894043e-01</stageThreshold>
      <weakClassifiers>
        <_>
          <internalNodes>
            0 -1 77 2.0241602323949337e-03</internalNodes>
          <leafValues>
            2.2048997879028320e-01 -6.5562915802001953e-01</leafValues></_>
        <_>
          <internalNodes>
            0 -1 36 -5.8208640664815903e-02</internalNodes>
          <leafValues>
            3.0382889509201050e-01 -5.0905215740203857e-01</leafValues></_>
        <_>
          <internalNodes>
            0 -1 12 2.9974272474646568e-03</internalNodes>
          <leafValues>
            2.7466565370559692e-01 -6.0699909925460815e-01</leafValues></_>
        <_>
          <internalNodes>
            0 -1 9 -2.3509613238275051e-03</internalNodes>
          <leafValues>
            -6.9590705633163452e-01 2.2545991837978363e-01</leafValues></_>
        <_>
          <internalNodes>
            0 -1 11 2.7717733383178711e-01</internalNodes>
          <leafValues>
            9.6947513520717621e-02 -1.</leafValues></_>
        <_>
          <internalNodes>
            0 -1 52 5.8061559684574604e-03</internalNodes>
          <leafValues>
            1.6899377107620239e-01 -7.0588779449462891e-01</leafValues></_>
        <_>
          <internalNodes>
            0 -1 38 4.5380518713500351e-05</internalNodes>
          <leafValues>
            -4.6882691979408264e-01 3.7683501839637756e-01</leafValues></_>
        <_>
          <internalNodes>
            0 -1 0 -8.8124111061915755e-04</internalNodes>
          <leafValues>
            -7.5907629728317261e-01 1.6943521797657013e-01</leafValues></_>
        <_>
          <internalNodes>
            0 -1 5 -1.0880257003009319e-02</internalNodes>
          <leafValues>
            -8.9244025945663452e-01 1.0541680455207825e-01</leafValues></_></weakClassifiers></_>
    <!-- stage 14 -->
    <_>
      <maxWeakCount>9</maxWeakCount>
      <stageThreshold>-7.0247542858123779e-01</stageThreshold>
      <weakClassifiers>
        <_>
          <internalNodes>
            0 -1 46 -4.6695899218320847e-03</internalNodes>
          <leafValues>
            -7.7600002288818359e-01 2.0421051979064941e-01</leafValues></_>
        <_>
          <internalNodes>
            0 -1 78 -1.5871766954660416e-02</internalNodes>
          <leafValues>
            2.0518468320369720e-01 -6.9766402244567871e-01</leafValues></_>
        <_>
          <internalNodes>
            0 -1 16 -4.3542869389057159e-04</internalNodes>
          <leafValues>
            -7.0785695314407349e-01 2.0764195919036865e-01</leafValues></_>
        <_>
          <internalNodes>
            0 -1 70 3.2608357723802328e-03</internalNodes>
          <leafValues>
            2.2138395905494690e-01 -7.1366447210311890e-01</leafValues></_>
        <_>
          <internalNodes>
            0 -1 18 -4.3099880713270977e-05</internalNodes>
          <leafValues>
            3.1889685988426208e-01 -4.3206080794334412e-01</leafValues></_>
        <_>
          <internalNodes>
            0 -1 53 2.1376422955654562e-04</internalNodes>
          <leafValues>
            -3.5430777072906494e-01 4.0368062257766724e-01</leafValues></_>
        <_>
          <internalNodes>
            0 -1 95 -2.1081176237203181e-04</internalNodes>
          <leafValues>
            3.8513785600662231e-01 -3.8670283555984497e-01</leafValues></_>
        <_>
          <internalNodes>
            0 -1 68 -1.4442952349781990e-02</internalNodes>
          <leafValues>
            2.8418278694152832e-01 -5.0840306282043457e-01</leafValues></_>
        <_>
          <internalNodes>
            0 -1 41 1.5156775712966919e-02</internalNodes>
          <leafValues>
            -2.6657801866531372e-01 7.0333075523376465e-01</leafValues></_></weakClassifiers></_>
    <!-- stage 15 -->
    <_>
      <maxWeakCount>8</maxWeakCount>
      <stageThreshold>-7.0137208700180054e-01</stageThreshold>
      <weakClassifiers>
        <_>
          <internalNodes>
            0 -1 20 3.5551998298615217e-03</internalNodes>
          <leafValues>
            -5.6613755226135254e-01 2.6034063100814819e-01</leafValues></_>
        <_>
          <internalNodes>
            0 -1 51 9.2764273285865784e-03</internalNodes>
          <leafValues>
            -2.5546574592590332e-01 6.4395946264266968e-01</leafValues></_>
        <_>
          <internalNodes>
            0 -1 14 -3.2138157635927200e-02</internalNodes>
          <leafValues>
            3.5881516337394714e-01 -4.0686619281768799e-01</leafValues></_>
        <_>
          <internalNodes>
            0 -1 28 -1.0939574800431728e-02</internalNodes>
          <leafValues>
            5.4193562269210815e-01 -3.0276271700859070e-01</leafValues></_>
        <_>
          <internalNodes>
            0 -1 48 1.2815289665013552e-03</internalNodes>
          <leafValues>
            2.9567492008209229e-01 -7.0107650756835938e-01</leafValues></_>
        <_>
          <internalNodes>
            0 -1 82 5.8589801192283630e-03</internalNodes>
          <leafValues>
            -3.0564418435096741e-01 4.8788473010063171e-01</leafValues></_>
        <_>
          <internalNodes>
            0 -1 76 -2.8040986508131027e-02</internalNodes>
          <leafValues>
            4.7563916444778442e-01 -3.4912753105163574e-01</leafValues></_>
        <_>
          <internalNodes>
            0 -1 74 -6.6525237634778023e-03</internalNodes>
          <leafValues>
            6.5271729230880737e-01 -2.4943794310092926e-01</leafValues></_></weakClassifiers></_>
    <!-- stage 16 -->
    <_>
      <maxWeakCount>9</maxWeakCount>
      <stageThreshold>-7.9965287446975708e-01</stageThreshold>
      <weakClassifiers>
        <_>
          <internalNodes>
            0 -1 7 4.5825326815247536e-03</internalNodes>
          <leafValues>
            2.3076923191547394e-01 -5.7894736528396606e-01</leafValues></_>
        <_>
          <internalNodes>
            0 -1 43 -1.0198565199971199e-02</internalNodes>
          <leafValues>
            6.2421911954879761e-01 -2.2219002246856689e-01</leafValues></_>
        <_>
          <internalNodes>
            0 -1 32 -5.1927603781223297e-02</internalNodes>
          <leafValues>
            2.4463748931884766e-01 -6.0602933168411255e-01</leafValues></_>
        <_>
          <internalNodes>
            0 -1 56 -5.4559595882892609e-03</internalNodes>
          <leafValues>
            -7.0383137464523315e-01 2.2167554497718811e-01</leafValues></_>
        <_>
          <internalNodes>
            0 -1 86 -1.2822542339563370e-04</internalNodes>
          <leafValues>
            1.0162085294723511e-01 -8.1924545764923096e-01</leafValues></_>
        <_>
          <internalNodes>
            0 -1 29 -1.7900907993316650e-01</internalNodes>
          <leafValues>
            7.7621960639953613e-01 -2.0357464253902435e-01</leafValues></_>
        <_>
          <internalNodes>
            0 -1 98 -3.3963724854402244e-04</internalNodes>
          <leafValues>
            -5.0903600454330444e-01 3.2769349217414856e-01</leafValues></_>
        <_>
          <internalNodes>
            0 -1 62 8.1974500790238380e-03</internalNodes>
          <leafValues>
            -3.3654892444610596e-01 3.9372667670249939e-01</leafValues></_>
        <_>
          <internalNodes>
            0 -1 80 -5.7803159579634666e-03</internalNodes>
          <leafValues>
            5.7020968198776245e-01 -2.3822902143001556e-01</leafValues></_></weakClassifiers></_></stages>
  <features>
    <_>
      <rects>
        <_>
          0 0 2 1 -1.</_>
        <_>
          1 0 1 1 2.</_></rects>
      <tilted>0</tilted></_>
    <_>
      <rects>
        <_>
          0 0 1 6 -1.</_>
        <_>
          0 3 1 3 2.</_></rects>
      <tilted>0</tilted></_>
    <_>
      <rects>
        <_>
          0 0 4 14 -1.</_>
        <_>
          2 0 2 14 2.</_></rects>
      <tilted>0</tilted></_>
    <_>
      <rects>
        <_>
          0 0 4 4 -1.</_>
        <_>
          0 2 4 2 2.</_></rects>
      <tilted>0</tilted></_>
    <_>
      <rects>
        <_>
          0 0 4 8 -1.</_>
        <_>
          0 4 4 4 2.</_></rects>
      <tilted>0</tilted></_>
    <_>
      <rects>
        <_>
          0 0 12 3 -1.</_>
        <_>
          6 0 6 3 2.</_></rects>
      <tilted>0</tilted></_>
    <_>
      <rects>
        <_>
          0 0 8 15 -1.</_>
        <_>
          0 5 8 5 3.</_></rects>
      <tilted>0</tilted></_>
    <_>
      <rects>
        <_>
          0 1 1 6 -1.</_>
        <_>
          0 3 1 2 3.</_></rects>
      <tilted>0</tilted></_>
    <_>
      <rects>
        <_>
          0 2 14 2 -1.</_>
        <_>
          7 2 7 2 2.</_></rects>
      <tilted>0</tilted></_>
    <_>
      <rects>
        <_>
          0 3 2 9 -1.</_>
        <_>
          1 3 1 9 2.</_></rects>
      <tilted>0</tilted></_>
    <_>
      <rects>
        <_>
          0 3 4 12 -1.</_>
        <_>
          2 3 2 12 2.</_></rects>
      <tilted>0</tilted></_>
    <_>
      <rects>
        <_>
          0 3 8 12 -1.</_>
        <_>
          0 6 8 6 2.</_></rects>
      <tilted>0</tilted></_>
    <_>
      <rects>
        <_>
          0 6 2 3 -1.</_>
        <_>
          1 6 1 3 2.</_></rects>
      <tilted>0</tilted></_>
    <_>
      <rects>
        <_>
          0 7 1 8 -1.</_>
        <_>
          0 11 1 4 2.</_></rects>
      <tilted>0</tilted></_>
    <_>
      <rects>
        <_>
          0 9 3 6 -1.</_>
        <_>
          0 12 3 3 2.</_></rects>
      <tilted>0</tilted></_>
    <_>
      <rects>
        <_>
          0 9 8 6 -1.</_>
        <_>
          4 9 4 6 2.</_></rects>
      <tilted>0</tilted></_>
    <_>
      <rects>
        <_>
          0 13 2 2 -1.</_>
        <_>
          1 13 1 2 2.</_></rects>
      <tilted>0</tilted></_>
    <_>
      <rects>
        <_>
          0 13 14 2 -1.</_>
        <_>
          0 14 14 1 2.</_></rects>
      <tilted>0</tilted></_>
    <_>
      <rects>
        <_>
          0 14 4 1 -1.</_>
        <_>
          1 14 2 1 2.</_></rects>
      <tilted>0</tilted></_>
    <_>
      <rects>
        <_>
          0 14 10 1 -1.</_>
        <_>
          5 14 5 1 2.</_></rects>
      <tilted>0</tilted></_>
    <_>
      <rects>
        <_>
          1 0 3 4 -1.</_>
        <_>
          1 2 3 2 2.</_></rects>
      <tilted>0</tilted></_>
    <_>
      <rects>
        <_>
          1 0 14 12 -1.</_>
        <_>
          1 4 14 4 3.</_></rects>
      <tilted>0</tilted></_>
    <_>
      <rects>
        <_>
          1 11 6 4 -1.</_>
        <_>
          1 11 3 2 2.</_>
        <_>
          4 13 3 2 2.</_></rects>
      <tilted>0</tilted></_>
    <_>
      <rects>
        <_>
          1 13 2 2 -1.</_>
        <_>
          2 13 1 2 2.</_></rects>
      <tilted>0</tilted></_>
    <_>
      <rects>
        <_>
          1 13 12 2 -1.</_>
        <_>
          1 14 12 1 2.</_></rects>
      <tilted>0</tilted></_>
    <_>
      <rects>
        <_>
          2 11 3 3 -1.</_>
        <_>
          3 12 1 1 9.</_></rects>
      <tilted>0</tilted></_>
    <_>
      <rects>
        <_>
          2 13 1 2 -1.</_>
        <_>
          2 14 1 1 2.</_></rects>
      <tilted>0</tilted></_>
    <_>
      <rects>
        <_>
          2 13 4 2 -1.</_>
        <_>
          2 13 2 1 2.</_>
        <_>
          4 14 2 1 2.</_></rects>
      <tilted>0</tilted></_>
    <_>
      <rects>
        <_>
          3 1 3 3 -1.</_>
        <_>
          4 2 1 1 9.</_></rects>
      <tilted>0</tilted></_>
    <_>
      <rects>
        <_>
          3 1 12 6 -1.</_>
        <_>
          7 1 4 6 3.</_></rects>
      <tilted>0</tilted></_>
    <_>
      <rects>
        <_>
          3 2 9 8 -1.</_>
        <_>
          3 4 9 4 2.</_></rects>
      <tilted>0</tilted></_>
    <_>
      <rects>
        <_>
          3 3 12 6 -1.</_>
        <_>
          7 5 4 2 9.</_></rects>
      <tilted>0</tilted></_>
    <_>
      <rects>
        <_>
          3 3 8 9 -1.</_>
        <_>
          3 6 8 3 3.</_></rects>
      <tilted>0</tilted></_>
    <_>
      <rects>
        <_>
          3 4 9 6 -1.</_>
        <_>
          3 6 9 2 3.</_></rects>
      <tilted>0</tilted></_>
    <_>
      <rects>
        <_>
          3 5 2 6 -1.</_>
        <_>
          3 5 1 3 2.</_>
        <_>
          4 8 1 3 2.</_></rects>
      <tilted>0</tilted></_>
    <_>
      <rects>
        <_>
          3 8 3 3 -1.</_>
        <_>
          4 9 1 1 9.</_></rects>
      <tilted>0</tilted></_>
    <_>
      <rects>
        <_>
          4 0 4 12 -1.</_>
        <_>
          4 4 4 4 3.</_></rects>
      <tilted>0</tilted></_>
    <_>
      <rects>
        <_>
          4 3 1 2 -1.</_>
        <_>
          4 4 1 1 2.</_></rects>
      <tilted>0</tilted></_>
    <_>
      <rects>
        <_>
          4 6 3 2 -1.</_>
        <_>
          5 6 1 2 3.</_></rects>
      <tilted>0</tilted></_>
    <_>
      <rects>
        <_>
          4 6 10 9 -1.</_>
        <_>
          4 9 10 3 3.</_></rects>
      <tilted>0</tilted></_>
    <_>
      <rects>
        <_>
          4 7 5 6 -1.</_>
        <_>
          4 9 5 2 3.</_></rects>
      <tilted>0</tilted></_>
    <_>
      <rects>
        <_>
          4 8 3 3 -1.</_>
        <_>
          5 8 1 3 3.</_></rects>
      <tilted>0</tilted></_>
    <_>
      <rects>
        <_>
          4 9 3 3 -1.</_>
        <_>
          5 10 1 1 9.</_></rects>
      <tilted>0</tilted></_>
    <_>
      <rects>
        <_>
          4 9 4 3 -1.</_>
        <_>
          5 9 2 3 2.</_></rects>
      <tilted>0</tilted></_>
    <_>
      <rects>
        <_>
          4 10 3 3 -1.</_>
        <_>
          4 11 3 1 3.</_></rects>
      <tilted>0</tilted></_>
    <_>
      <rects>
        <_>
          5 5 1 3 -1.</_>
        <_>
          5 6 1 1 3.</_></rects>
      <tilted>0</tilted></_>
    <_>
      <rects>
        <_>
          5 5 4 2 -1.</_>
        <_>
          7 5 2 2 2.</_></rects>
      <tilted>0</tilted></_>
    <_>
      <rects>
        <_>
          5 5 6 6 -1.</_>
        <_>
          5 8 6 3 2.</_></rects>
      <tilted>0</tilted></_>
    <_>
      <rects>
        <_>
          5 7 4 1 -1.</_>
        <_>
          6 7 2 1 2.</_></rects>
      <tilted>0</tilted></_>
    <_>
      <rects>
        <_>
          5 7 6 4 -1.</_>
        <_>
          5 8 6 2 2.</_></rects>
      <tilted>0</tilted></_>
    <_>
      <rects>
        <_>
          5 9 3 3 -1.</_>
        <_>
          6 10 1 1 9.</_></rects>
      <tilted>0</tilted></_>
    <_>
      <rects>
        <_>
          5 9 3 2 -1.</_>
        <_>
          6 9 1 2 3.</_></rects>
      <tilted>0</tilted></_>
    <_>
      <rects>
        <_>
          6 0 4 1 -1.</_>
        <_>
          7 1 2 1 2.</_></rects>
      <tilted>1</tilted></_>
    <_>
      <rects>
        <_>
          6 3 3 2 -1.</_>
        <_>
          7 3 1 2 3.</_></rects>
      <tilted>0</tilted></_>
    <_>
      <rects>
        <_>
          6 3 8 12 -1.</_>
        <_>
          6 3 4 6 2.</_>
        <_>
          10 9 4 6 2.</_></rects>
      <tilted>0</tilted></_>
    <_>
      <rects>
        <_>
          6 4 3 3 -1.</_>
        <_>
          7 5 1 1 9.</_></rects>
      <tilted>0</tilted></_>
    <_>
      <rects>
        <_>
          6 4 1 4 -1.</_>
        <_>
          6 6 1 2 2.</_></rects>
      <tilted>0</tilted></_>
    <_>
      <rects>
        <_>
          6 6 9 1 -1.</_>
        <_>
          9 6 3 1 3.</_></rects>
      <tilted>0</tilted></_>
    <_>
      <rects>
        <_>
          6 6 4 4 -1.</_>
        <_>
          6 7 4 2 2.</_></rects>
      <tilted>0</tilted></_>
    <_>
      <rects>
        <_>
          6 7 3 1 -1.</_>
        <_>
          7 7 1 1 3.</_></rects>
      <tilted>0</tilted></_>
    <_>
      <rects>
        <_>
          6 8 4 1 -1.</_>
        <_>
          7 9 2 1 2.</_></rects>
      <tilted>1</tilted></_>
    <_>
      <rects>
        <_>
          6 8 3 3 -1.</_>
        <_>
          5 9 3 1 3.</_></rects>
      <tilted>1</tilted></_>
    <_>
      <rects>
        <_>
          6 9 3 3 -1.</_>
        <_>
          6 10 3 1 3.</_></rects>
      <tilted>0</tilted></_>
    <_>
      <rects>
        <_>
          7 0 8 2 -1.</_>
        <_>
          7 0 4 1 2.</_>
        <_>
          11 1 4 1 2.</_></rects>
      <tilted>0</tilted></_>
    <_>
      <rects>
        <_>
          7 4 2 2 -1.</_>
        <_>
          7 4 2 1 2.</_></rects>
      <tilted>1</tilted></_>
    <_>
      <rects>
        <_>
          7 4 4 3 -1.</_>
        <_>
          7 4 2 3 2.</_></rects>
      <tilted>1</tilted></_>
    <_>
      <rects>
        <_>
          7 4 5 10 -1.</_>
        <_>
          7 9 5 5 2.</_></rects>
      <tilted>0</tilted></_>
    <_>
      <rects>
        <_>
          7 8 3 3 -1.</_>
        <_>
          8 9 1 3 3.</_></rects>
      <tilted>1</tilted></_>
    <_>
      <rects>
        <_>
          7 14 8 1 -1.</_>
        <_>
          11 14 4 1 2.</_></rects>
      <tilted>0</tilted></_>
    <_>
      <rects>
        <_>
          8 0 4 2 -1.</_>
        <_>
          8 0 2 1 2.</_>
        <_>
          10 1 2 1 2.</_></rects>
      <tilted>0</tilted></_>
    <_>
      <rects>
        <_>
          8 4 1 2 -1.</_>
        <_>
          8 4 1 1 2.</_></rects>
      <tilted>1</tilted></_>
    <_>
      <rects>
        <_>
          8 5 2 1 -1.</_>
        <_>
          9 5 1 1 2.</_></rects>
      <tilted>0</tilted></_>
    <_>
      <rects>
        <_>
          8 5 1 2 -1.</_>
        <_>
          8 5 1 1 2.</_></rects>
      <tilted>1</tilted></_>
    <_>
      <rects>
        <_>
          8 6 1 2 -1.</_>
        <_>
          8 7 1 1 2.</_></rects>
      <tilted>0</tilted></_>
    <_>
      <rects>
        <_>
          8 9 5 3 -1.</_>
        <_>
          8 10 5 1 3.</_></rects>
      <tilted>0</tilted></_>
    <_>
      <rects>
        <_>
          9 0 6 1 -1.</_>
        <_>
          12 0 3 1 2.</_></rects>
      <tilted>0</tilted></_>
    <_>
      <rects>
        <_>
          9 0 6 2 -1.</_>
        <_>
          12 0 3 2 2.</_></rects>
      <tilted>0</tilted></_>
    <_>
      <rects>
        <_>
          9 4 1 2 -1.</_>
        <_>
          9 4 1 1 2.</_></rects>
      <tilted>1</tilted></_>
    <_>
      <rects>
        <_>
          9 5 3 4 -1.</_>
        <_>
          9 5 3 2 2.</_></rects>
      <tilted>1</tilted></_>
    <_>
      <rects>
        <_>
          9 6 4 3 -1.</_>
        <_>
          10 6 2 3 2.</_></rects>
      <tilted>0</tilted></_>
    <_>
      <rects>
        <_>
          9 8 1 3 -1.</_>
        <_>
          8 9 1 1 3.</_></rects>
      <tilted>1</tilted></_>
    <_>
      <rects>
        <_>
          9 9 2 1 -1.</_>
        <_>
          10 9 1 1 2.</_></rects>
      <tilted>0</tilted></_>
    <_>
      <rects>
        <_>
          9 9 2 3 -1.</_>
        <_>
          9 10 2 1 3.</_></rects>
      <tilted>0</tilted></_>
    <_>
      <rects>
        <_>
          9 10 1 3 -1.</_>
        <_>
          9 11 1 1 3.</_></rects>
      <tilted>0</tilted></_>
    <_>
      <rects>
        <_>
          9 13 4 2 -1.</_>
        <_>
          9 14 4 1 2.</_></rects>
      <tilted>0</tilted></_>
    <_>
      <rects>
        <_>
          9 14 6 1 -1.</_>
        <_>
          12 14 3 1 2.</_></rects>
      <tilted>0</tilted></_>
    <_>
      <rects>
        <_>
          10 0 4 1 -1.</_>
        <_>
          12 0 2 1 2.</_></rects>
      <tilted>0</tilted></_>
    <_>
      <rects>
        <_>
          10 1 5 6 -1.</_>
        <_>
          8 3 5 2 3.</_></rects>
      <tilted>1</tilted></_>
    <_>
      <rects>
        <_>
          10 12 4 2 -1.</_>
        <_>
          10 12 2 1 2.</_>
        <_>
          12 13 2 1 2.</_></rects>
      <tilted>0</tilted></_>
    <_>
      <rects>
        <_>
          10 14 4 1 -1.</_>
        <_>
          12 14 2 1 2.</_></rects>
      <tilted>0</tilted></_>
    <_>
      <rects>
        <_>
          11 0 4 4 -1.</_>
        <_>
          11 2 4 2 2.</_></rects>
      <tilted>0</tilted></_>
    <_>
      <rects>
        <_>
          11 1 3 3 -1.</_>
        <_>
          12 2 1 1 9.</_></rects>
      <tilted>0</tilted></_>
    <_>
      <rects>
        <_>
          11 14 4 1 -1.</_>
        <_>
          13 14 2 1 2.</_></rects>
      <tilted>0</tilted></_>
    <_>
      <rects>
        <_>
          12 0 3 1 -1.</_>
        <_>
          13 0 1 1 3.</_></rects>
      <tilted>0</tilted></_>
    <_>
      <rects>
        <_>
          12 0 2 4 -1.</_>
        <_>
          12 2 2 2 2.</_></rects>
      <tilted>0</tilted></_>
    <_>
      <rects>
        <_>
          12 6 3 3 -1.</_>
        <_>
          13 6 1 3 3.</_></rects>
      <tilted>0</tilted></_>
    <_>
      <rects>
        <_>
          13 0 2 1 -1.</_>
        <_>
          14 0 1 1 2.</_></rects>
      <tilted>0</tilted></_>
    <_>
      <rects>
        <_>
          13 3 2 10 -1.</_>
        <_>
          14 3 1 10 2.</_></rects>
      <tilted>0</tilted></_>
    <_>
      <rects>
        <_>
          14 2 1 6 -1.</_>
        <_>
          14 5 1 3 2.</_></rects>
      <tilted>0</tilted></_>
    <_>
      <rects>
        <_>
          14 2 1 12 -1.</_>
        <_>
          14 5 1 6 2.</_></rects>
      <tilted>0</tilted></_></features></cascade>
</opencv_storage>
