<?xml version="1.0"?>
<opencv_storage>
<stage10>
  <maxWeakCount>5</maxWeakCount>
  <stageThreshold>-3.6528778076171875e-01</stageThreshold>
  <weakClassifiers>
    <_>
      <internalNodes>
        0 -1 253 2.5175660848617554e-02</internalNodes>
      <leafValues>
        -3.9772728085517883e-01 5.6451612710952759e-01</leafValues></_>
    <_>
      <internalNodes>
        0 -1 93765 -3.9863247366156429e-05</internalNodes>
      <leafValues>
        -5.8387857675552368e-01 3.2608351111412048e-01</leafValues></_>
    <_>
      <internalNodes>
        0 -1 154797 -7.6049566268920898e-02</internalNodes>
      <leafValues>
        6.3834142684936523e-01 -3.0967769026756287e-01</leafValues></_>
    <_>
      <internalNodes>
        0 -1 170398 1.4060875773429871e-01</internalNodes>
      <leafValues>
        -3.2676425576210022e-01 7.8831022977828979e-01</leafValues></_>
    <_>
      <internalNodes>
        0 -1 3843 1.1157609988003969e-03</internalNodes>
      <leafValues>
        -6.0522121191024780e-01 3.9486727118492126e-01</leafValues></_></weakClassifiers></stage10>
</opencv_storage>
