<?xml version="1.0"?>
<opencv_storage>
<cascade>
  <stageType>BOOST</stageType>
  <featureType>HAAR</featureType>
  <height>20</height>
  <width>20</width>
  <stageParams>
    <boostType>GAB</boostType>
    <minHitRate>9.9900001287460327e-01</minHitRate>
    <maxFalseAlarm>4.7499999403953552e-01</maxFalseAlarm>
    <weightTrimRate>9.4999999999999996e-01</weightTrimRate>
    <maxDepth>1</maxDepth>
    <maxWeakCount>100</maxWeakCount></stageParams>
  <featureParams>
    <maxCatCount>0</maxCatCount>
    <featSize>1</featSize>
    <mode>ALL</mode></featureParams>
  <stageNum>17</stageNum>
  <stages>
    <!-- stage 0 -->
    <_>
      <maxWeakCount>2</maxWeakCount>
      <stageThreshold>-1.3357715308666229e-01</stageThreshold>
      <weakClassifiers>
        <_>
          <internalNodes>
            0 -1 25 -2.1399093384388834e-05</internalNodes>
          <leafValues>
            8.0204778909683228e-01 -7.6547229290008545e-01</leafValues></_>
        <_>
          <internalNodes>
            0 -1 42 2.7498062700033188e-02</internalNodes>
          <leafValues>
            -9.3562495708465576e-01 6.3637793064117432e-01</leafValues></_></weakClassifiers></_>
    <!-- stage 1 -->
    <_>
      <maxWeakCount>4</maxWeakCount>
      <stageThreshold>-9.2251032590866089e-01</stageThreshold>
      <weakClassifiers>
        <_>
          <internalNodes>
            0 -1 17 2.3021116852760315e-02</internalNodes>
          <leafValues>
            -6.3141995668411255e-01 7.7695167064666748e-01</leafValues></_>
        <_>
          <internalNodes>
            0 -1 87 -2.0259414668544196e-05</internalNodes>
          <leafValues>
            8.4664881229400635e-01 -5.8737313747406006e-01</leafValues></_>
        <_>
          <internalNodes>
            0 -1 59 -1.9355496988282539e-05</internalNodes>
          <leafValues>
            8.3108538389205933e-01 -5.6444621086120605e-01</leafValues></_>
        <_>
          <internalNodes>
            0 -1 61 2.1717263734899461e-05</internalNodes>
          <leafValues>
            -5.1431334018707275e-01 8.6072891950607300e-01</leafValues></_></weakClassifiers></_>
    <!-- stage 2 -->
    <_>
      <maxWeakCount>4</maxWeakCount>
      <stageThreshold>-7.1684950590133667e-01</stageThreshold>
      <weakClassifiers>
        <_>
          <internalNodes>
            0 -1 83 -2.0790545022464357e-05</internalNodes>
          <leafValues>
            5.0276243686676025e-01 -7.6470589637756348e-01</leafValues></_>
        <_>
          <internalNodes>
            0 -1 14 -1.6322515904903412e-02</internalNodes>
          <leafValues>
            4.2595669627189636e-01 -8.1428819894790649e-01</leafValues></_>
        <_>
          <internalNodes>
            0 -1 71 -6.3930656760931015e-03</internalNodes>
          <leafValues>
            4.4465574622154236e-01 -8.1526470184326172e-01</leafValues></_>
        <_>
          <internalNodes>
            0 -1 4 1.9470504485070705e-03</internalNodes>
          <leafValues>
            -7.9507613182067871e-01 4.1748887300491333e-01</leafValues></_></weakClassifiers></_>
    <!-- stage 3 -->
    <_>
      <maxWeakCount>2</maxWeakCount>
      <stageThreshold>-1.7749659717082977e-01</stageThreshold>
      <weakClassifiers>
        <_>
          <internalNodes>
            0 -1 41 -3.5756174474954605e-03</internalNodes>
          <leafValues>
            4.3552312254905701e-01 -9.4708997011184692e-01</leafValues></_>
        <_>
          <internalNodes>
            0 -1 60 5.0304811447858810e-03</internalNodes>
          <leafValues>
            -4.9625292420387268e-01 7.6959335803985596e-01</leafValues></_></weakClassifiers></_>
    <!-- stage 4 -->
    <_>
      <maxWeakCount>4</maxWeakCount>
      <stageThreshold>-2.3056127130985260e-01</stageThreshold>
      <weakClassifiers>
        <_>
          <internalNodes>
            0 -1 22 -1.0299203917384148e-02</internalNodes>
          <leafValues>
            5.5414015054702759e-01 -6.0839158296585083e-01</leafValues></_>
        <_>
          <internalNodes>
            0 -1 39 -1.6297094523906708e-02</internalNodes>
          <leafValues>
            4.1855990886688232e-01 -7.5382590293884277e-01</leafValues></_>
        <_>
          <internalNodes>
            0 -1 50 -3.1890352256596088e-03</internalNodes>
          <leafValues>
            7.5735169649124146e-01 -3.9548113942146301e-01</leafValues></_>
        <_>
          <internalNodes>
            0 -1 35 6.4787929877638817e-03</internalNodes>
          <leafValues>
            -7.5034493207931519e-01 3.7430453300476074e-01</leafValues></_></weakClassifiers></_>
    <!-- stage 5 -->
    <_>
      <maxWeakCount>5</maxWeakCount>
      <stageThreshold>-5.8091497421264648e-01</stageThreshold>
      <weakClassifiers>
        <_>
          <internalNodes>
            0 -1 3 2.5212322361767292e-03</internalNodes>
          <leafValues>
            -7.4528300762176514e-01 4.0721648931503296e-01</leafValues></_>
        <_>
          <internalNodes>
            0 -1 76 -7.8769940882921219e-03</internalNodes>
          <leafValues>
            4.7529953718185425e-01 -5.2155745029449463e-01</leafValues></_>
        <_>
          <internalNodes>
            0 -1 67 -1.7526701558381319e-03</internalNodes>
          <leafValues>
            3.5917967557907104e-01 -6.7319875955581665e-01</leafValues></_>
        <_>
          <internalNodes>
            0 -1 33 5.5571170523762703e-03</internalNodes>
          <leafValues>
            -3.7952882051467896e-01 6.6706186532974243e-01</leafValues></_>
        <_>
          <internalNodes>
            0 -1 37 3.0114900320768356e-02</internalNodes>
          <leafValues>
            -3.0479457974433899e-01 8.5458105802536011e-01</leafValues></_></weakClassifiers></_>
    <!-- stage 6 -->
    <_>
      <maxWeakCount>5</maxWeakCount>
      <stageThreshold>-5.1047033071517944e-01</stageThreshold>
      <weakClassifiers>
        <_>
          <internalNodes>
            0 -1 9 8.8456738740205765e-03</internalNodes>
          <leafValues>
            -7.1162790060043335e-01 3.9740258455276489e-01</leafValues></_>
        <_>
          <internalNodes>
            0 -1 89 2.3102850536815822e-04</internalNodes>
          <leafValues>
            2.7850973606109619e-01 -9.3870115280151367e-01</leafValues></_>
        <_>
          <internalNodes>
            0 -1 77 -4.0870063006877899e-02</internalNodes>
          <leafValues>
            3.8100552558898926e-01 -6.1902594566345215e-01</leafValues></_>
        <_>
          <internalNodes>
            0 -1 34 -7.5896419584751129e-03</internalNodes>
          <leafValues>
            -8.9269447326660156e-01 2.7378287911415100e-01</leafValues></_>
        <_>
          <internalNodes>
            0 -1 84 1.5872968360781670e-02</internalNodes>
          <leafValues>
            -5.1621061563491821e-01 4.3433678150177002e-01</leafValues></_></weakClassifiers></_>
    <!-- stage 7 -->
    <_>
      <maxWeakCount>6</maxWeakCount>
      <stageThreshold>-9.2388880252838135e-01</stageThreshold>
      <weakClassifiers>
        <_>
          <internalNodes>
            0 -1 17 2.7658205479383469e-02</internalNodes>
          <leafValues>
            -5.3982299566268921e-01 7.0114940404891968e-01</leafValues></_>
        <_>
          <internalNodes>
            0 -1 11 8.8105350732803345e-02</internalNodes>
          <leafValues>
            -5.8164948225021362e-01 4.5364528894424438e-01</leafValues></_>
        <_>
          <internalNodes>
            0 -1 81 -1.5761606395244598e-02</internalNodes>
          <leafValues>
            4.3917787075042725e-01 -5.9014087915420532e-01</leafValues></_>
        <_>
          <internalNodes>
            0 -1 90 -2.4523580214008689e-04</internalNodes>
          <leafValues>
            -7.5456237792968750e-01 3.5024914145469666e-01</leafValues></_>
        <_>
          <internalNodes>
            0 -1 93 5.8172619901597500e-04</internalNodes>
          <leafValues>
            3.7582200765609741e-01 -6.8451958894729614e-01</leafValues></_>
        <_>
          <internalNodes>
            0 -1 43 4.2697403114289045e-04</internalNodes>
          <leafValues>
            2.3128277063369751e-01 -8.9814859628677368e-01</leafValues></_></weakClassifiers></_>
    <!-- stage 8 -->
    <_>
      <maxWeakCount>5</maxWeakCount>
      <stageThreshold>-7.5800782442092896e-01</stageThreshold>
      <weakClassifiers>
        <_>
          <internalNodes>
            0 -1 62 -2.2384489057003520e-05</internalNodes>
          <leafValues>
            7.0093458890914917e-01 -3.8860103487968445e-01</leafValues></_>
        <_>
          <internalNodes>
            0 -1 7 -2.4027782492339611e-03</internalNodes>
          <leafValues>
            -8.7091779708862305e-01 2.9871028661727905e-01</leafValues></_>
        <_>
          <internalNodes>
            0 -1 28 2.2088233890826814e-05</internalNodes>
          <leafValues>
            -4.5725765824317932e-01 5.1807618141174316e-01</leafValues></_>
        <_>
          <internalNodes>
            0 -1 16 -2.4509510694770142e-05</internalNodes>
          <leafValues>
            4.3374496698379517e-01 -5.5225211381912231e-01</leafValues></_>
        <_>
          <internalNodes>
            0 -1 23 4.7036432079039514e-05</internalNodes>
          <leafValues>
            -4.5031017065048218e-01 5.7243019342422485e-01</leafValues></_></weakClassifiers></_>
    <!-- stage 9 -->
    <_>
      <maxWeakCount>6</maxWeakCount>
      <stageThreshold>-4.6106028556823730e-01</stageThreshold>
      <weakClassifiers>
        <_>
          <internalNodes>
            0 -1 75 1.8554711714386940e-03</internalNodes>
          <leafValues>
            -2.7356320619583130e-01 7.2121214866638184e-01</leafValues></_>
        <_>
          <internalNodes>
            0 -1 49 -3.3825866412371397e-03</internalNodes>
          <leafValues>
            -6.6234141588211060e-01 3.3872416615486145e-01</leafValues></_>
        <_>
          <internalNodes>
            0 -1 52 5.0937698688358068e-04</internalNodes>
          <leafValues>
            2.6131492853164673e-01 -8.2827794551849365e-01</leafValues></_>
        <_>
          <internalNodes>
            0 -1 26 -6.5078325569629669e-02</internalNodes>
          <leafValues>
            3.5100033879280090e-01 -6.4241200685501099e-01</leafValues></_>
        <_>
          <internalNodes>
            0 -1 58 6.9307757075875998e-04</internalNodes>
          <leafValues>
            -4.6870422363281250e-01 5.9295606613159180e-01</leafValues></_>
        <_>
          <internalNodes>
            0 -1 8 1.5166502445936203e-02</internalNodes>
          <leafValues>
            -6.4189970493316650e-01 4.3436136841773987e-01</leafValues></_></weakClassifiers></_>
    <!-- stage 10 -->
    <_>
      <maxWeakCount>7</maxWeakCount>
      <stageThreshold>-1.1380323171615601e+00</stageThreshold>
      <weakClassifiers>
        <_>
          <internalNodes>
            0 -1 15 -2.1013064542785287e-04</internalNodes>
          <leafValues>
            -6.2679427862167358e-01 3.3503836393356323e-01</leafValues></_>
        <_>
          <internalNodes>
            0 -1 82 -7.6398178935050964e-03</internalNodes>
          <leafValues>
            3.1963020563125610e-01 -6.6801196336746216e-01</leafValues></_>
        <_>
          <internalNodes>
            0 -1 44 2.8690874576568604e-02</internalNodes>
          <leafValues>
            -2.6178663969039917e-01 8.1714916229248047e-01</leafValues></_>
        <_>
          <internalNodes>
            0 -1 27 -2.6453696191310883e-03</internalNodes>
          <leafValues>
            5.7144981622695923e-01 -3.4575575590133667e-01</leafValues></_>
        <_>
          <internalNodes>
            0 -1 30 -4.7882916405797005e-03</internalNodes>
          <leafValues>
            7.3308849334716797e-01 -2.9547572135925293e-01</leafValues></_>
        <_>
          <internalNodes>
            0 -1 69 -1.9845250062644482e-03</internalNodes>
          <leafValues>
            6.4275121688842773e-01 -3.2221952080726624e-01</leafValues></_>
        <_>
          <internalNodes>
            0 -1 12 5.0522446632385254e-02</internalNodes>
          <leafValues>
            -6.3673734664916992e-01 4.2017892003059387e-01</leafValues></_></weakClassifiers></_>
    <!-- stage 11 -->
    <_>
      <maxWeakCount>7</maxWeakCount>
      <stageThreshold>-5.0843858718872070e-01</stageThreshold>
      <weakClassifiers>
        <_>
          <internalNodes>
            0 -1 29 -3.4129247069358826e-02</internalNodes>
          <leafValues>
            2.9440388083457947e-01 -6.4021164178848267e-01</leafValues></_>
        <_>
          <internalNodes>
            0 -1 1 -4.3680286034941673e-04</internalNodes>
          <leafValues>
            -7.5214451551437378e-01 2.1088333427906036e-01</leafValues></_>
        <_>
          <internalNodes>
            0 -1 32 -3.9006557781249285e-03</internalNodes>
          <leafValues>
            4.6490967273712158e-01 -4.1825532913208008e-01</leafValues></_>
        <_>
          <internalNodes>
            0 -1 66 -1.1918271193280816e-03</internalNodes>
          <leafValues>
            3.0586758255958557e-01 -6.0981535911560059e-01</leafValues></_>
        <_>
          <internalNodes>
            0 -1 36 -9.8554762080311775e-03</internalNodes>
          <leafValues>
            6.2129950523376465e-01 -2.9645320773124695e-01</leafValues></_>
        <_>
          <internalNodes>
            0 -1 48 -8.2526486366987228e-03</internalNodes>
          <leafValues>
            2.6233965158462524e-01 -7.9015022516250610e-01</leafValues></_>
        <_>
          <internalNodes>
            0 -1 18 -2.1492496132850647e-01</internalNodes>
          <leafValues>
            -9.3363791704177856e-01 1.8526534736156464e-01</leafValues></_></weakClassifiers></_>
    <!-- stage 12 -->
    <_>
      <maxWeakCount>7</maxWeakCount>
      <stageThreshold>-1.0616900920867920e+00</stageThreshold>
      <weakClassifiers>
        <_>
          <internalNodes>
            0 -1 56 2.2463907953351736e-03</internalNodes>
          <leafValues>
            2.4444444477558136e-01 -7.3333334922790527e-01</leafValues></_>
        <_>
          <internalNodes>
            0 -1 92 -4.5510882046073675e-05</internalNodes>
          <leafValues>
            2.9069948196411133e-01 -6.0206890106201172e-01</leafValues></_>
        <_>
          <internalNodes>
            0 -1 91 9.2698035587090999e-05</internalNodes>
          <leafValues>
            -4.7250029444694519e-01 3.7794658541679382e-01</leafValues></_>
        <_>
          <internalNodes>
            0 -1 72 -1.4401401858776808e-03</internalNodes>
          <leafValues>
            3.0734312534332275e-01 -6.0130977630615234e-01</leafValues></_>
        <_>
          <internalNodes>
            0 -1 47 -1.7270727455615997e-01</internalNodes>
          <leafValues>
            5.5878019332885742e-01 -3.9426788687705994e-01</leafValues></_>
        <_>
          <internalNodes>
            0 -1 80 -1.0044744238257408e-02</internalNodes>
          <leafValues>
            4.0897646546363831e-01 -5.7012081146240234e-01</leafValues></_>
        <_>
          <internalNodes>
            0 -1 65 2.3136939489631914e-05</internalNodes>
          <leafValues>
            -5.4837316274642944e-01 4.4136473536491394e-01</leafValues></_></weakClassifiers></_>
    <!-- stage 13 -->
    <_>
      <maxWeakCount>9</maxWeakCount>
      <stageThreshold>-7.0313757658004761e-01</stageThreshold>
      <weakClassifiers>
        <_>
          <internalNodes>
            0 -1 13 -1.4431681483983994e-04</internalNodes>
          <leafValues>
            2.9274004697799683e-01 -7.2254335880279541e-01</leafValues></_>
        <_>
          <internalNodes>
            0 -1 74 -2.7605167124420404e-03</internalNodes>
          <leafValues>
            5.3569453954696655e-01 -3.5274818539619446e-01</leafValues></_>
        <_>
          <internalNodes>
            0 -1 85 4.7243101289495826e-04</internalNodes>
          <leafValues>
            2.5072428584098816e-01 -6.9093781709671021e-01</leafValues></_>
        <_>
          <internalNodes>
            0 -1 70 -4.0977422031573951e-04</internalNodes>
          <leafValues>
            5.1780033111572266e-01 -3.4090459346771240e-01</leafValues></_>
        <_>
          <internalNodes>
            0 -1 2 8.2281930372118950e-03</internalNodes>
          <leafValues>
            -4.5597696304321289e-01 4.3815177679061890e-01</leafValues></_>
        <_>
          <internalNodes>
            0 -1 6 2.4671400897204876e-03</internalNodes>
          <leafValues>
            3.5459837317466736e-01 -5.6986784934997559e-01</leafValues></_>
        <_>
          <internalNodes>
            0 -1 45 5.4366383701562881e-03</internalNodes>
          <leafValues>
            -3.4793290495872498e-01 4.8319655656814575e-01</leafValues></_>
        <_>
          <internalNodes>
            0 -1 31 -6.3825482502579689e-03</internalNodes>
          <leafValues>
            6.1343109607696533e-01 -3.3586928248405457e-01</leafValues></_>
        <_>
          <internalNodes>
            0 -1 94 5.3750434890389442e-03</internalNodes>
          <leafValues>
            -4.7205707430839539e-01 3.9102831482887268e-01</leafValues></_></weakClassifiers></_>
    <!-- stage 14 -->
    <_>
      <maxWeakCount>7</maxWeakCount>
      <stageThreshold>-7.8682225942611694e-01</stageThreshold>
      <weakClassifiers>
        <_>
          <internalNodes>
            0 -1 40 -3.8872241973876953e-02</internalNodes>
          <leafValues>
            2.9824560880661011e-01 -5.9203982353210449e-01</leafValues></_>
        <_>
          <internalNodes>
            0 -1 51 -2.2791330702602863e-03</internalNodes>
          <leafValues>
            -1. 1.2212692946195602e-01</leafValues></_>
        <_>
          <internalNodes>
            0 -1 64 1.6504840459674597e-03</internalNodes>
          <leafValues>
            -6.4666163921356201e-01 2.5617760419845581e-01</leafValues></_>
        <_>
          <internalNodes>
            0 -1 46 -1.0998371988534927e-02</internalNodes>
          <leafValues>
            4.4804120063781738e-01 -4.1592127084732056e-01</leafValues></_>
        <_>
          <internalNodes>
            0 -1 21 -2.0406013936735690e-04</internalNodes>
          <leafValues>
            2.3271910846233368e-01 -6.0844194889068604e-01</leafValues></_>
        <_>
          <internalNodes>
            0 -1 88 -3.4481223672628403e-02</internalNodes>
          <leafValues>
            3.2612600922584534e-01 -4.9605122208595276e-01</leafValues></_>
        <_>
          <internalNodes>
            0 -1 52 7.2936573997139931e-04</internalNodes>
          <leafValues>
            1.6402705013751984e-01 -9.2992454767227173e-01</leafValues></_></weakClassifiers></_>
    <!-- stage 15 -->
    <_>
      <maxWeakCount>8</maxWeakCount>
      <stageThreshold>-6.0123914480209351e-01</stageThreshold>
      <weakClassifiers>
        <_>
          <internalNodes>
            0 -1 78 8.6174886673688889e-03</internalNodes>
          <leafValues>
            1.8951612710952759e-01 -9.0384614467620850e-01</leafValues></_>
        <_>
          <internalNodes>
            0 -1 10 -3.4336261451244354e-03</internalNodes>
          <leafValues>
            6.5124124288558960e-01 -2.8142914175987244e-01</leafValues></_>
        <_>
          <internalNodes>
            0 -1 20 -4.7250449657440186e-02</internalNodes>
          <leafValues>
            3.6891943216323853e-01 -4.8176559805870056e-01</leafValues></_>
        <_>
          <internalNodes>
            0 -1 79 4.2998967692255974e-03</internalNodes>
          <leafValues>
            -3.9989960193634033e-01 4.7661277651786804e-01</leafValues></_>
        <_>
          <internalNodes>
            0 -1 38 -3.7569357082247734e-03</internalNodes>
          <leafValues>
            -5.9462612867355347e-01 2.6130211353302002e-01</leafValues></_>
        <_>
          <internalNodes>
            0 -1 86 1.8458085833117366e-04</internalNodes>
          <leafValues>
            1.8845899403095245e-01 -8.9364838600158691e-01</leafValues></_>
        <_>
          <internalNodes>
            0 -1 58 3.7833838723599911e-04</internalNodes>
          <leafValues>
            -3.6448168754577637e-01 4.6794503927230835e-01</leafValues></_>
        <_>
          <internalNodes>
            0 -1 57 -1.9018141028936952e-04</internalNodes>
          <leafValues>
            6.0001808404922485e-01 -3.0268985033035278e-01</leafValues></_></weakClassifiers></_>
    <!-- stage 16 -->
    <_>
      <maxWeakCount>10</maxWeakCount>
      <stageThreshold>-1.2160075902938843e+00</stageThreshold>
      <weakClassifiers>
        <_>
          <internalNodes>
            0 -1 0 3.7782156141474843e-04</internalNodes>
          <leafValues>
            2.3006834089756012e-01 -6.2732917070388794e-01</leafValues></_>
        <_>
          <internalNodes>
            0 -1 24 5.2530076354742050e-03</internalNodes>
          <leafValues>
            2.0144142210483551e-01 -6.4676213264465332e-01</leafValues></_>
        <_>
          <internalNodes>
            0 -1 73 -3.1752060749568045e-04</internalNodes>
          <leafValues>
            3.3252164721488953e-01 -4.0810942649841309e-01</leafValues></_>
        <_>
          <internalNodes>
            0 -1 19 -8.2218628376722336e-03</internalNodes>
          <leafValues>
            3.3724951744079590e-01 -4.9763727188110352e-01</leafValues></_>
        <_>
          <internalNodes>
            0 -1 68 -9.9819517345167696e-05</internalNodes>
          <leafValues>
            4.8927152156829834e-01 -3.0971553921699524e-01</leafValues></_>
        <_>
          <internalNodes>
            0 -1 53 7.4944514781236649e-03</internalNodes>
          <leafValues>
            -3.9370867609977722e-01 5.0779801607131958e-01</leafValues></_>
        <_>
          <internalNodes>
            0 -1 5 -1.6592664644122124e-02</internalNodes>
          <leafValues>
            -8.4062892198562622e-01 2.4782274663448334e-01</leafValues></_>
        <_>
          <internalNodes>
            0 -1 63 7.0432801730930805e-03</internalNodes>
          <leafValues>
            -2.4307267367839813e-01 7.0192193984985352e-01</leafValues></_>
        <_>
          <internalNodes>
            0 -1 54 3.8358531892299652e-03</internalNodes>
          <leafValues>
            5.4237574338912964e-01 -3.3479806780815125e-01</leafValues></_>
        <_>
          <internalNodes>
            0 -1 55 -1.5473369508981705e-02</internalNodes>
          <leafValues>
            3.1421235203742981e-01 -4.8740392923355103e-01</leafValues></_></weakClassifiers></_></stages>
  <features>
    <_>
      <rects>
        <_>
          0 0 3 1 -1.</_>
        <_>
          1 0 1 1 3.</_></rects>
      <tilted>0</tilted></_>
    <_>
      <rects>
        <_>
          0 0 2 2 -1.</_>
        <_>
          1 0 1 2 2.</_></rects>
      <tilted>0</tilted></_>
    <_>
      <rects>
        <_>
          0 0 8 1 -1.</_>
        <_>
          4 0 4 1 2.</_></rects>
      <tilted>0</tilted></_>
    <_>
      <rects>
        <_>
          0 0 4 6 -1.</_>
        <_>
          0 3 4 3 2.</_></rects>
      <tilted>0</tilted></_>
    <_>
      <rects>
        <_>
          0 0 4 8 -1.</_>
        <_>
          0 4 4 4 2.</_></rects>
      <tilted>0</tilted></_>
    <_>
      <rects>
        <_>
          0 0 18 20 -1.</_>
        <_>
          9 0 9 20 2.</_></rects>
      <tilted>0</tilted></_>
    <_>
      <rects>
        <_>
          0 1 1 9 -1.</_>
        <_>
          0 4 1 3 3.</_></rects>
      <tilted>0</tilted></_>
    <_>
      <rects>
        <_>
          0 1 1 10 -1.</_>
        <_>
          0 6 1 5 2.</_></rects>
      <tilted>0</tilted></_>
    <_>
      <rects>
        <_>
          0 1 6 10 -1.</_>
        <_>
          0 6 6 5 2.</_></rects>
      <tilted>0</tilted></_>
    <_>
      <rects>
        <_>
          0 3 4 17 -1.</_>
        <_>
          2 3 2 17 2.</_></rects>
      <tilted>0</tilted></_>
    <_>
      <rects>
        <_>
          0 6 2 4 -1.</_>
        <_>
          0 6 1 2 2.</_>
        <_>
          1 8 1 2 2.</_></rects>
      <tilted>0</tilted></_>
    <_>
      <rects>
        <_>
          0 8 20 12 -1.</_>
        <_>
          0 11 20 6 2.</_></rects>
      <tilted>0</tilted></_>
    <_>
      <rects>
        <_>
          0 10 14 10 -1.</_>
        <_>
          7 10 7 10 2.</_></rects>
      <tilted>0</tilted></_>
    <_>
      <rects>
        <_>
          0 12 1 8 -1.</_>
        <_>
          0 16 1 4 2.</_></rects>
      <tilted>0</tilted></_>
    <_>
      <rects>
        <_>
          0 12 9 8 -1.</_>
        <_>
          0 16 9 4 2.</_></rects>
      <tilted>0</tilted></_>
    <_>
      <rects>
        <_>
          0 19 4 1 -1.</_>
        <_>
          2 19 2 1 2.</_></rects>
      <tilted>0</tilted></_>
    <_>
      <rects>
        <_>
          0 19 6 1 -1.</_>
        <_>
          2 19 2 1 3.</_></rects>
      <tilted>0</tilted></_>
    <_>
      <rects>
        <_>
          0 19 20 1 -1.</_>
        <_>
          5 19 10 1 2.</_></rects>
      <tilted>0</tilted></_>
    <_>
      <rects>
        <_>
          1 0 19 15 -1.</_>
        <_>
          1 5 19 5 3.</_></rects>
      <tilted>0</tilted></_>
    <_>
      <rects>
        <_>
          1 16 5 4 -1.</_>
        <_>
          1 18 5 2 2.</_></rects>
      <tilted>0</tilted></_>
    <_>
      <rects>
        <_>
          2 4 15 9 -1.</_>
        <_>
          2 7 15 3 3.</_></rects>
      <tilted>0</tilted></_>
    <_>
      <rects>
        <_>
          2 18 5 2 -1.</_>
        <_>
          2 19 5 1 2.</_></rects>
      <tilted>0</tilted></_>
    <_>
      <rects>
        <_>
          2 18 18 2 -1.</_>
        <_>
          2 19 18 1 2.</_></rects>
      <tilted>0</tilted></_>
    <_>
      <rects>
        <_>
          3 3 2 2 -1.</_>
        <_>
          3 3 1 1 2.</_>
        <_>
          4 4 1 1 2.</_></rects>
      <tilted>0</tilted></_>
    <_>
      <rects>
        <_>
          3 8 15 3 -1.</_>
        <_>
          8 8 5 3 3.</_></rects>
      <tilted>0</tilted></_>
    <_>
      <rects>
        <_>
          3 18 1 2 -1.</_>
        <_>
          3 19 1 1 2.</_></rects>
      <tilted>0</tilted></_>
    <_>
      <rects>
        <_>
          4 3 12 12 -1.</_>
        <_>
          4 6 12 6 2.</_></rects>
      <tilted>0</tilted></_>
    <_>
      <rects>
        <_>
          4 18 3 2 -1.</_>
        <_>
          4 19 3 1 2.</_></rects>
      <tilted>0</tilted></_>
    <_>
      <rects>
        <_>
          5 8 2 1 -1.</_>
        <_>
          6 8 1 1 2.</_></rects>
      <tilted>0</tilted></_>
    <_>
      <rects>
        <_>
          5 12 15 8 -1.</_>
        <_>
          5 16 15 4 2.</_></rects>
      <tilted>0</tilted></_>
    <_>
      <rects>
        <_>
          5 13 6 1 -1.</_>
        <_>
          7 13 2 1 3.</_></rects>
      <tilted>0</tilted></_>
    <_>
      <rects>
        <_>
          5 13 9 3 -1.</_>
        <_>
          8 14 3 1 9.</_></rects>
      <tilted>0</tilted></_>
    <_>
      <rects>
        <_>
          5 13 12 1 -1.</_>
        <_>
          11 13 6 1 2.</_></rects>
      <tilted>0</tilted></_>
    <_>
      <rects>
        <_>
          5 14 3 3 -1.</_>
        <_>
          6 15 1 1 9.</_></rects>
      <tilted>0</tilted></_>
    <_>
      <rects>
        <_>
          6 8 8 2 -1.</_>
        <_>
          10 8 4 2 2.</_></rects>
      <tilted>0</tilted></_>
    <_>
      <rects>
        <_>
          6 9 5 6 -1.</_>
        <_>
          6 9 5 3 2.</_></rects>
      <tilted>1</tilted></_>
    <_>
      <rects>
        <_>
          6 12 6 3 -1.</_>
        <_>
          8 13 2 1 9.</_></rects>
      <tilted>0</tilted></_>
    <_>
      <rects>
        <_>
          6 13 6 3 -1.</_>
        <_>
          8 14 2 1 9.</_></rects>
      <tilted>0</tilted></_>
    <_>
      <rects>
        <_>
          7 4 3 6 -1.</_>
        <_>
          7 7 3 3 2.</_></rects>
      <tilted>0</tilted></_>
    <_>
      <rects>
        <_>
          7 6 12 6 -1.</_>
        <_>
          11 8 4 2 9.</_></rects>
      <tilted>0</tilted></_>
    <_>
      <rects>
        <_>
          7 6 12 10 -1.</_>
        <_>
          7 6 6 5 2.</_>
        <_>
          13 11 6 5 2.</_></rects>
      <tilted>0</tilted></_>
    <_>
      <rects>
        <_>
          7 7 6 2 -1.</_>
        <_>
          7 7 3 2 2.</_></rects>
      <tilted>1</tilted></_>
    <_>
      <rects>
        <_>
          7 7 8 8 -1.</_>
        <_>
          7 11 8 4 2.</_></rects>
      <tilted>0</tilted></_>
    <_>
      <rects>
        <_>
          7 9 2 2 -1.</_>
        <_>
          8 9 1 2 2.</_></rects>
      <tilted>0</tilted></_>
    <_>
      <rects>
        <_>
          7 10 6 1 -1.</_>
        <_>
          9 12 2 1 3.</_></rects>
      <tilted>1</tilted></_>
    <_>
      <rects>
        <_>
          7 13 5 3 -1.</_>
        <_>
          7 14 5 1 3.</_></rects>
      <tilted>0</tilted></_>
    <_>
      <rects>
        <_>
          7 19 10 1 -1.</_>
        <_>
          12 19 5 1 2.</_></rects>
      <tilted>0</tilted></_>
    <_>
      <rects>
        <_>
          8 1 12 18 -1.</_>
        <_>
          8 1 6 9 2.</_>
        <_>
          14 10 6 9 2.</_></rects>
      <tilted>0</tilted></_>
    <_>
      <rects>
        <_>
          8 3 3 12 -1.</_>
        <_>
          8 7 3 4 3.</_></rects>
      <tilted>0</tilted></_>
    <_>
      <rects>
        <_>
          8 4 3 6 -1.</_>
        <_>
          8 7 3 3 2.</_></rects>
      <tilted>0</tilted></_>
    <_>
      <rects>
        <_>
          8 8 1 4 -1.</_>
        <_>
          8 9 1 2 2.</_></rects>
      <tilted>0</tilted></_>
    <_>
      <rects>
        <_>
          8 8 4 1 -1.</_>
        <_>
          10 8 2 1 2.</_></rects>
      <tilted>0</tilted></_>
    <_>
      <rects>
        <_>
          8 8 2 2 -1.</_>
        <_>
          8 9 2 1 2.</_></rects>
      <tilted>0</tilted></_>
    <_>
      <rects>
        <_>
          8 10 4 4 -1.</_>
        <_>
          8 11 4 2 2.</_></rects>
      <tilted>0</tilted></_>
    <_>
      <rects>
        <_>
          8 14 9 6 -1.</_>
        <_>
          11 16 3 2 9.</_></rects>
      <tilted>0</tilted></_>
    <_>
      <rects>
        <_>
          9 0 5 20 -1.</_>
        <_>
          9 5 5 10 2.</_></rects>
      <tilted>0</tilted></_>
    <_>
      <rects>
        <_>
          9 6 2 3 -1.</_>
        <_>
          9 6 1 3 2.</_></rects>
      <tilted>1</tilted></_>
    <_>
      <rects>
        <_>
          9 9 1 2 -1.</_>
        <_>
          9 10 1 1 2.</_></rects>
      <tilted>0</tilted></_>
    <_>
      <rects>
        <_>
          9 9 1 3 -1.</_>
        <_>
          9 10 1 1 3.</_></rects>
      <tilted>0</tilted></_>
    <_>
      <rects>
        <_>
          9 15 1 2 -1.</_>
        <_>
          9 16 1 1 2.</_></rects>
      <tilted>0</tilted></_>
    <_>
      <rects>
        <_>
          10 0 8 2 -1.</_>
        <_>
          10 0 4 1 2.</_>
        <_>
          14 1 4 1 2.</_></rects>
      <tilted>0</tilted></_>
    <_>
      <rects>
        <_>
          10 2 1 2 -1.</_>
        <_>
          10 3 1 1 2.</_></rects>
      <tilted>0</tilted></_>
    <_>
      <rects>
        <_>
          10 9 1 2 -1.</_>
        <_>
          10 10 1 1 2.</_></rects>
      <tilted>0</tilted></_>
    <_>
      <rects>
        <_>
          10 14 3 4 -1.</_>
        <_>
          10 15 3 2 2.</_></rects>
      <tilted>0</tilted></_>
    <_>
      <rects>
        <_>
          11 8 7 10 -1.</_>
        <_>
          11 13 7 5 2.</_></rects>
      <tilted>0</tilted></_>
    <_>
      <rects>
        <_>
          11 9 2 2 -1.</_>
        <_>
          11 9 1 1 2.</_>
        <_>
          12 10 1 1 2.</_></rects>
      <tilted>0</tilted></_>
    <_>
      <rects>
        <_>
          12 0 6 1 -1.</_>
        <_>
          15 0 3 1 2.</_></rects>
      <tilted>0</tilted></_>
    <_>
      <rects>
        <_>
          12 0 8 1 -1.</_>
        <_>
          16 0 4 1 2.</_></rects>
      <tilted>0</tilted></_>
    <_>
      <rects>
        <_>
          12 9 2 2 -1.</_>
        <_>
          12 10 2 1 2.</_></rects>
      <tilted>0</tilted></_>
    <_>
      <rects>
        <_>
          12 10 1 4 -1.</_>
        <_>
          11 11 1 2 2.</_></rects>
      <tilted>1</tilted></_>
    <_>
      <rects>
        <_>
          12 13 1 2 -1.</_>
        <_>
          12 14 1 1 2.</_></rects>
      <tilted>0</tilted></_>
    <_>
      <rects>
        <_>
          12 18 8 2 -1.</_>
        <_>
          16 18 4 2 2.</_></rects>
      <tilted>0</tilted></_>
    <_>
      <rects>
        <_>
          12 18 6 2 -1.</_>
        <_>
          12 19 6 1 2.</_></rects>
      <tilted>0</tilted></_>
    <_>
      <rects>
        <_>
          13 9 2 3 -1.</_>
        <_>
          14 9 1 3 2.</_></rects>
      <tilted>0</tilted></_>
    <_>
      <rects>
        <_>
          13 9 2 4 -1.</_>
        <_>
          14 9 1 4 2.</_></rects>
      <tilted>0</tilted></_>
    <_>
      <rects>
        <_>
          13 12 1 3 -1.</_>
        <_>
          13 13 1 1 3.</_></rects>
      <tilted>0</tilted></_>
    <_>
      <rects>
        <_>
          13 18 6 1 -1.</_>
        <_>
          16 18 3 1 2.</_></rects>
      <tilted>0</tilted></_>
    <_>
      <rects>
        <_>
          14 2 6 8 -1.</_>
        <_>
          12 4 6 4 2.</_></rects>
      <tilted>1</tilted></_>
    <_>
      <rects>
        <_>
          14 4 1 6 -1.</_>
        <_>
          12 6 1 2 3.</_></rects>
      <tilted>1</tilted></_>
    <_>
      <rects>
        <_>
          14 6 4 5 -1.</_>
        <_>
          15 6 2 5 2.</_></rects>
      <tilted>0</tilted></_>
    <_>
      <rects>
        <_>
          14 6 6 3 -1.</_>
        <_>
          14 6 3 3 2.</_></rects>
      <tilted>1</tilted></_>
    <_>
      <rects>
        <_>
          14 15 6 4 -1.</_>
        <_>
          17 15 3 4 2.</_></rects>
      <tilted>0</tilted></_>
    <_>
      <rects>
        <_>
          14 18 6 2 -1.</_>
        <_>
          17 18 3 2 2.</_></rects>
      <tilted>0</tilted></_>
    <_>
      <rects>
        <_>
          15 0 4 2 -1.</_>
        <_>
          17 0 2 2 2.</_></rects>
      <tilted>0</tilted></_>
    <_>
      <rects>
        <_>
          15 0 4 6 -1.</_>
        <_>
          15 3 4 3 2.</_></rects>
      <tilted>0</tilted></_>
    <_>
      <rects>
        <_>
          16 0 4 1 -1.</_>
        <_>
          17 0 2 1 2.</_></rects>
      <tilted>0</tilted></_>
    <_>
      <rects>
        <_>
          16 1 4 1 -1.</_>
        <_>
          18 1 2 1 2.</_></rects>
      <tilted>0</tilted></_>
    <_>
      <rects>
        <_>
          16 17 2 1 -1.</_>
        <_>
          17 17 1 1 2.</_></rects>
      <tilted>0</tilted></_>
    <_>
      <rects>
        <_>
          17 2 3 9 -1.</_>
        <_>
          14 5 3 3 3.</_></rects>
      <tilted>1</tilted></_>
    <_>
      <rects>
        <_>
          18 0 2 1 -1.</_>
        <_>
          19 0 1 1 2.</_></rects>
      <tilted>0</tilted></_>
    <_>
      <rects>
        <_>
          18 0 1 2 -1.</_>
        <_>
          18 1 1 1 2.</_></rects>
      <tilted>0</tilted></_>
    <_>
      <rects>
        <_>
          18 6 2 4 -1.</_>
        <_>
          18 6 1 2 2.</_>
        <_>
          19 8 1 2 2.</_></rects>
      <tilted>0</tilted></_>
    <_>
      <rects>
        <_>
          18 12 2 6 -1.</_>
        <_>
          19 12 1 6 2.</_></rects>
      <tilted>0</tilted></_>
    <_>
      <rects>
        <_>
          19 0 1 4 -1.</_>
        <_>
          19 1 1 2 2.</_></rects>
      <tilted>0</tilted></_>
    <_>
      <rects>
        <_>
          19 3 1 16 -1.</_>
        <_>
          19 7 1 8 2.</_></rects>
      <tilted>0</tilted></_></features></cascade>
</opencv_storage>
