<?xml version="1.0"?>
<opencv_storage>
<stage10>
  <maxWeakCount>6</maxWeakCount>
  <stageThreshold>-3.2292181253433228e-01</stageThreshold>
  <weakClassifiers>
    <_>
      <internalNodes>
        0 -1 37365 2.0458485931158066e-02</internalNodes>
      <leafValues>
        -2.9620254039764404e-01 5.7073169946670532e-01</leafValues></_>
    <_>
      <internalNodes>
        0 -1 35433 6.7586963996291161e-04</internalNodes>
      <leafValues>
        2.4916130304336548e-01 -8.1050437688827515e-01</leafValues></_>
    <_>
      <internalNodes>
        0 -1 33962 4.0045985952019691e-03</internalNodes>
      <leafValues>
        2.5627437233924866e-01 -6.7475283145904541e-01</leafValues></_>
    <_>
      <internalNodes>
        0 -1 24869 -1.9034864380955696e-03</internalNodes>
      <leafValues>
        5.1255440711975098e-01 -3.9147073030471802e-01</leafValues></_>
    <_>
      <internalNodes>
        0 -1 18312 1.2460038065910339e-02</internalNodes>
      <leafValues>
        -6.1943674087524414e-01 3.0587673187255859e-01</leafValues></_>
    <_>
      <internalNodes>
        0 -1 33686 -4.3759658932685852e-02</internalNodes>
      <leafValues>
        5.5131518840789795e-01 -4.2527261376380920e-01</leafValues></_></weakClassifiers></stage10>
</opencv_storage>
