<?xml version="1.0"?>
<opencv_storage>
<stage14>
  <maxWeakCount>9</maxWeakCount>
  <stageThreshold>-6.5084928274154663e-01</stageThreshold>
  <weakClassifiers>
    <_>
      <internalNodes>
        0 -1 19143 -1.4909425377845764e-01</internalNodes>
      <leafValues>
        -9.5454543828964233e-01 1.6406250000000000e-01</leafValues></_>
    <_>
      <internalNodes>
        0 -1 18194 -2.3351532872766256e-03</internalNodes>
      <leafValues>
        4.9265667796134949e-01 -2.9361534118652344e-01</leafValues></_>
    <_>
      <internalNodes>
        0 -1 37959 -1.5412328764796257e-02</internalNodes>
      <leafValues>
        3.3159238100051880e-01 -4.9294030666351318e-01</leafValues></_>
    <_>
      <internalNodes>
        0 -1 28518 -8.0013740807771683e-03</internalNodes>
      <leafValues>
        5.8477205038070679e-01 -2.9625609517097473e-01</leafValues></_>
    <_>
      <internalNodes>
        0 -1 1709 6.0991454124450684e-01</internalNodes>
      <leafValues>
        -1.5701222419738770e-01 7.4514257907867432e-01</leafValues></_>
    <_>
      <internalNodes>
        0 -1 9883 7.2903424501419067e-02</internalNodes>
      <leafValues>
        2.4959257245063782e-01 -7.4935787916183472e-01</leafValues></_>
    <_>
      <internalNodes>
        0 -1 37245 -3.1739380210638046e-03</internalNodes>
      <leafValues>
        3.1493175029754639e-01 -5.1799720525741577e-01</leafValues></_>
    <_>
      <internalNodes>
        0 -1 24869 -2.2362035233527422e-03</internalNodes>
      <leafValues>
        4.9508735537528992e-01 -3.2019448280334473e-01</leafValues></_>
    <_>
      <internalNodes>
        0 -1 2939 -1.3476805761456490e-03</internalNodes>
      <leafValues>
        3.5500013828277588e-01 -4.8047208786010742e-01</leafValues></_></weakClassifiers></stage14>
</opencv_storage>
