<?xml version="1.0"?>
<opencv_storage>
<stage9>
  <maxWeakCount>9</maxWeakCount>
  <stageThreshold>-3.7128382921218872e-01</stageThreshold>
  <weakClassifiers>
    <_>
      <internalNodes>
        0 -1 1766 -6.8998441100120544e-02</internalNodes>
      <leafValues>
        8.2035928964614868e-01 -3.1639721989631653e-01</leafValues></_>
    <_>
      <internalNodes>
        0 -1 11391 2.5323152542114258e-02</internalNodes>
      <leafValues>
        2.8072363138198853e-01 -7.1918118000030518e-01</leafValues></_>
    <_>
      <internalNodes>
        0 -1 24924 -5.3156061767367646e-05</internalNodes>
      <leafValues>
        -6.3294237852096558e-01 2.2783981263637543e-01</leafValues></_>
    <_>
      <internalNodes>
        0 -1 220634 2.1276331972330809e-04</internalNodes>
      <leafValues>
        2.8167450428009033e-01 -6.0322260856628418e-01</leafValues></_>
    <_>
      <internalNodes>
        0 -1 207715 2.3050304502248764e-02</internalNodes>
      <leafValues>
        -2.9145786166191101e-01 5.1353055238723755e-01</leafValues></_>
    <_>
      <internalNodes>
        0 -1 194475 4.5061537093715742e-05</internalNodes>
      <leafValues>
        2.9256936907768250e-01 -6.1592334508895874e-01</leafValues></_>
    <_>
      <internalNodes>
        0 -1 49 -1.6850745305418968e-03</internalNodes>
      <leafValues>
        -6.3209456205368042e-01 2.4184936285018921e-01</leafValues></_>
    <_>
      <internalNodes>
        0 -1 219268 9.7161595476791263e-05</internalNodes>
      <leafValues>
        3.1328621506690979e-01 -6.0215401649475098e-01</leafValues></_>
    <_>
      <internalNodes>
        0 -1 132097 -1.4428779482841492e-02</internalNodes>
      <leafValues>
        4.8343029618263245e-01 -3.7043142318725586e-01</leafValues></_></weakClassifiers></stage9>
</opencv_storage>
