<?xml version="1.0"?>
<opencv_storage>
<cascade>
  <stageType>BOOST</stageType>
  <featureType>HAAR</featureType>
  <height>40</height>
  <width>20</width>
  <stageParams>
    <boostType>GAB</boostType>
    <minHitRate>9.9900001287460327e-01</minHitRate>
    <maxFalseAlarm>4.2500001192092896e-01</maxFalseAlarm>
    <weightTrimRate>9.4999999999999996e-01</weightTrimRate>
    <maxDepth>1</maxDepth>
    <maxWeakCount>100</maxWeakCount></stageParams>
  <featureParams>
    <maxCatCount>0</maxCatCount>
    <featSize>1</featSize>
    <mode>BASIC</mode></featureParams>
  <stageNum>10</stageNum>
  <stages>
    <!-- stage 0 -->
    <_>
      <maxWeakCount>2</maxWeakCount>
      <stageThreshold>-2.4878500401973724e-01</stageThreshold>
      <weakClassifiers>
        <_>
          <internalNodes>
            0 -1 6 4.4954106211662292e-02</internalNodes>
          <leafValues>
            -9.9650347232818604e-01 7.4561405181884766e-01</leafValues></_>
        <_>
          <internalNodes>
            0 -1 10 -2.3200911527965218e-05</internalNodes>
          <leafValues>
            7.4771851301193237e-01 -9.1928470134735107e-01</leafValues></_></weakClassifiers></_>
    <!-- stage 1 -->
    <_>
      <maxWeakCount>1</maxWeakCount>
      <stageThreshold>3.7457045912742615e-01</stageThreshold>
      <weakClassifiers>
        <_>
          <internalNodes>
            0 -1 7 2.1982189267873764e-02</internalNodes>
          <leafValues>
            -1. 3.7457045912742615e-01</leafValues></_></weakClassifiers></_>
    <!-- stage 2 -->
    <_>
      <maxWeakCount>3</maxWeakCount>
      <stageThreshold>-9.8075979948043823e-01</stageThreshold>
      <weakClassifiers>
        <_>
          <internalNodes>
            0 -1 11 2.1176826208829880e-02</internalNodes>
          <leafValues>
            -8.0821919441223145e-01 9.1608393192291260e-01</leafValues></_>
        <_>
          <internalNodes>
            0 -1 16 5.3597632795572281e-03</internalNodes>
          <leafValues>
            -8.1949132680892944e-01 7.9774326086044312e-01</leafValues></_>
        <_>
          <internalNodes>
            0 -1 17 1.4051778241991997e-02</internalNodes>
          <leafValues>
            -9.7028392553329468e-01 6.7247289419174194e-01</leafValues></_></weakClassifiers></_>
    <!-- stage 3 -->
    <_>
      <maxWeakCount>2</maxWeakCount>
      <stageThreshold>-5.2513074129819870e-02</stageThreshold>
      <weakClassifiers>
        <_>
          <internalNodes>
            0 -1 13 2.0265821367502213e-02</internalNodes>
          <leafValues>
            -7.8328174352645874e-01 6.8831169605255127e-01</leafValues></_>
        <_>
          <internalNodes>
            0 -1 18 -5.1476843655109406e-02</internalNodes>
          <leafValues>
            7.8857433795928955e-01 -7.4082475900650024e-01</leafValues></_></weakClassifiers></_>
    <!-- stage 4 -->
    <_>
      <maxWeakCount>3</maxWeakCount>
      <stageThreshold>-9.0489333868026733e-01</stageThreshold>
      <weakClassifiers>
        <_>
          <internalNodes>
            0 -1 3 -8.0085858702659607e-02</internalNodes>
          <leafValues>
            6.2416106462478638e-01 -7.5729644298553467e-01</leafValues></_>
        <_>
          <internalNodes>
            0 -1 15 -4.4336356222629547e-03</internalNodes>
          <leafValues>
            8.3924335241317749e-01 -6.8865007162094116e-01</leafValues></_>
        <_>
          <internalNodes>
            0 -1 5 5.8112256228923798e-02</internalNodes>
          <leafValues>
            -1. 5.4105317592620850e-01</leafValues></_></weakClassifiers></_>
    <!-- stage 5 -->
    <_>
      <maxWeakCount>2</maxWeakCount>
      <stageThreshold>-5.5960416793823242e-01</stageThreshold>
      <weakClassifiers>
        <_>
          <internalNodes>
            0 -1 1 -1.7306394875049591e-02</internalNodes>
          <leafValues>
            2.9749104380607605e-01 -9.2706334590911865e-01</leafValues></_>
        <_>
          <internalNodes>
            0 -1 2 6.7676519975066185e-03</internalNodes>
          <leafValues>
            -1. 3.6745920777320862e-01</leafValues></_></weakClassifiers></_>
    <!-- stage 6 -->
    <_>
      <maxWeakCount>2</maxWeakCount>
      <stageThreshold>-4.8079672455787659e-01</stageThreshold>
      <weakClassifiers>
        <_>
          <internalNodes>
            0 -1 4 -9.0394187718629837e-03</internalNodes>
          <leafValues>
            2.2330096364021301e-01 -9.5519345998764038e-01</leafValues></_>
        <_>
          <internalNodes>
            0 -1 8 -4.3566119857132435e-03</internalNodes>
          <leafValues>
            6.5758597850799561e-01 -7.0409768819808960e-01</leafValues></_></weakClassifiers></_>
    <!-- stage 7 -->
    <_>
      <maxWeakCount>2</maxWeakCount>
      <stageThreshold>-2.6021611690521240e-01</stageThreshold>
      <weakClassifiers>
        <_>
          <internalNodes>
            0 -1 14 1.1866180226206779e-02</internalNodes>
          <leafValues>
            -7.0128023624420166e-01 9.5876288414001465e-01</leafValues></_>
        <_>
          <internalNodes>
            0 -1 0 1.0741261765360832e-02</internalNodes>
          <leafValues>
            4.4106411933898926e-01 -9.4269168376922607e-01</leafValues></_></weakClassifiers></_>
    <!-- stage 8 -->
    <_>
      <maxWeakCount>2</maxWeakCount>
      <stageThreshold>-4.2378467321395874e-01</stageThreshold>
      <weakClassifiers>
        <_>
          <internalNodes>
            0 -1 19 5.1417299546301365e-03</internalNodes>
          <leafValues>
            -8.2198953628540039e-01 3.1277534365653992e-01</leafValues></_>
        <_>
          <internalNodes>
            0 -1 9 -2.8574801981449127e-02</internalNodes>
          <leafValues>
            6.5718412399291992e-01 -7.3655998706817627e-01</leafValues></_></weakClassifiers></_>
    <!-- stage 9 -->
    <_>
      <maxWeakCount>2</maxWeakCount>
      <stageThreshold>-2.4730545282363892e-01</stageThreshold>
      <weakClassifiers>
        <_>
          <internalNodes>
            0 -1 3 -7.7527411282062531e-02</internalNodes>
          <leafValues>
            5.2201259136199951e-01 -7.5351011753082275e-01</leafValues></_>
        <_>
          <internalNodes>
            0 -1 12 1.5150568215176463e-03</internalNodes>
          <leafValues>
            -7.6931804418563843e-01 5.9917688369750977e-01</leafValues></_></weakClassifiers></_></stages>
  <features>
    <_>
      <rects>
        <_>
          0 0 19 14 -1.</_>
        <_>
          0 7 19 7 2.</_></rects>
      <tilted>0</tilted></_>
    <_>
      <rects>
        <_>
          1 22 6 16 -1.</_>
        <_>
          1 30 6 8 2.</_></rects>
      <tilted>0</tilted></_>
    <_>
      <rects>
        <_>
          2 1 9 12 -1.</_>
        <_>
          2 7 9 6 2.</_></rects>
      <tilted>0</tilted></_>
    <_>
      <rects>
        <_>
          2 8 3 32 -1.</_>
        <_>
          2 24 3 16 2.</_></rects>
      <tilted>0</tilted></_>
    <_>
      <rects>
        <_>
          3 22 5 18 -1.</_>
        <_>
          3 31 5 9 2.</_></rects>
      <tilted>0</tilted></_>
    <_>
      <rects>
        <_>
          3 23 16 6 -1.</_>
        <_>
          11 23 8 6 2.</_></rects>
      <tilted>0</tilted></_>
    <_>
      <rects>
        <_>
          4 24 14 6 -1.</_>
        <_>
          11 24 7 6 2.</_></rects>
      <tilted>0</tilted></_>
    <_>
      <rects>
        <_>
          6 10 7 10 -1.</_>
        <_>
          6 15 7 5 2.</_></rects>
      <tilted>0</tilted></_>
    <_>
      <rects>
        <_>
          8 31 3 4 -1.</_>
        <_>
          9 31 1 4 3.</_></rects>
      <tilted>0</tilted></_>
    <_>
      <rects>
        <_>
          9 29 9 9 -1.</_>
        <_>
          12 29 3 9 3.</_></rects>
      <tilted>0</tilted></_>
    <_>
      <rects>
        <_>
          9 33 2 2 -1.</_>
        <_>
          9 33 1 1 2.</_>
        <_>
          10 34 1 1 2.</_></rects>
      <tilted>0</tilted></_>
    <_>
      <rects>
        <_>
          9 34 6 6 -1.</_>
        <_>
          11 34 2 6 3.</_></rects>
      <tilted>0</tilted></_>
    <_>
      <rects>
        <_>
          10 22 5 3 -1.</_>
        <_>
          10 23 5 1 3.</_></rects>
      <tilted>0</tilted></_>
    <_>
      <rects>
        <_>
          10 23 6 4 -1.</_>
        <_>
          12 23 2 4 3.</_></rects>
      <tilted>0</tilted></_>
    <_>
      <rects>
        <_>
          10 30 2 8 -1.</_>
        <_>
          10 30 1 4 2.</_>
        <_>
          11 34 1 4 2.</_></rects>
      <tilted>0</tilted></_>
    <_>
      <rects>
        <_>
          11 32 3 2 -1.</_>
        <_>
          12 32 1 2 3.</_></rects>
      <tilted>0</tilted></_>
    <_>
      <rects>
        <_>
          12 22 2 11 -1.</_>
        <_>
          13 22 1 11 2.</_></rects>
      <tilted>0</tilted></_>
    <_>
      <rects>
        <_>
          14 15 6 16 -1.</_>
        <_>
          16 15 2 16 3.</_></rects>
      <tilted>0</tilted></_>
    <_>
      <rects>
        <_>
          16 3 4 36 -1.</_>
        <_>
          16 3 2 18 2.</_>
        <_>
          18 21 2 18 2.</_></rects>
      <tilted>0</tilted></_>
    <_>
      <rects>
        <_>
          17 23 3 7 -1.</_>
        <_>
          18 23 1 7 3.</_></rects>
      <tilted>0</tilted></_></features></cascade>
</opencv_storage>
