<?xml version="1.0"?>
<opencv_storage>
<stage2>
  <maxWeakCount>8</maxWeakCount>
  <stageThreshold>-1.3429579734802246e+00</stageThreshold>
  <weakClassifiers>
    <_>
      <internalNodes>
        0 -1 726804 -2.5213132612407207e-03</internalNodes>
      <leafValues>
        5.4362416267395020e-01 -4.3942132592201233e-01</leafValues></_>
    <_>
      <internalNodes>
        0 -1 11383 1.4433632604777813e-02</internalNodes>
      <leafValues>
        -6.2632191181182861e-01 3.6058080196380615e-01</leafValues></_>
    <_>
      <internalNodes>
        0 -1 359416 -1.2801907723769546e-03</internalNodes>
      <leafValues>
        6.7222082614898682e-01 -3.8769549131393433e-01</leafValues></_>
    <_>
      <internalNodes>
        0 -1 164642 -8.7329503148794174e-03</internalNodes>
      <leafValues>
        4.6425586938858032e-01 -5.5562990903854370e-01</leafValues></_>
    <_>
      <internalNodes>
        0 -1 641785 -9.1972935479134321e-04</internalNodes>
      <leafValues>
        8.0495274066925049e-01 -2.4909214675426483e-01</leafValues></_>
    <_>
      <internalNodes>
        0 -1 573415 1.0705048916861415e-03</internalNodes>
      <leafValues>
        -2.2113174200057983e-01 8.4740036725997925e-01</leafValues></_>
    <_>
      <internalNodes>
        0 -1 60115 -8.9816916733980179e-03</internalNodes>
      <leafValues>
        4.3143558502197266e-01 -5.4516535997390747e-01</leafValues></_>
    <_>
      <internalNodes>
        0 -1 647695 -4.9243797548115253e-04</internalNodes>
      <leafValues>
        8.0768960714340210e-01 -3.2143133878707886e-01</leafValues></_></weakClassifiers></stage2>
</opencv_storage>
