<?xml version="1.0"?>
<opencv_storage>
<stage10>
  <maxWeakCount>5</maxWeakCount>
  <stageThreshold>-8.8837724924087524e-01</stageThreshold>
  <weakClassifiers>
    <_>
      <internalNodes>
        0 -1 237617 5.8302273973822594e-03</internalNodes>
      <leafValues>
        -7.4958264827728271e-01 2.4378108978271484e-01</leafValues></_>
    <_>
      <internalNodes>
        0 -1 15149 -2.5150612927973270e-03</internalNodes>
      <leafValues>
        3.1078526377677917e-01 -7.1186643838882446e-01</leafValues></_>
    <_>
      <internalNodes>
        0 -1 215284 -1.4892343897372484e-03</internalNodes>
      <leafValues>
        -8.2367271184921265e-01 2.7116355299949646e-01</leafValues></_>
    <_>
      <internalNodes>
        0 -1 224574 -1.3904171646572649e-04</internalNodes>
      <leafValues>
        -1. 2.5539723038673401e-01</leafValues></_>
    <_>
      <internalNodes>
        0 -1 146988 1.7461830284446478e-03</internalNodes>
      <leafValues>
        2.3718713223934174e-01 -8.7466818094253540e-01</leafValues></_></weakClassifiers></stage10>
</opencv_storage>
