<?xml version="1.0"?>
<opencv_storage>
<stage15>
  <maxWeakCount>6</maxWeakCount>
  <stageThreshold>-5.7330232858657837e-01</stageThreshold>
  <weakClassifiers>
    <_>
      <internalNodes>
        0 -1 90211 -2.4604290723800659e-02</internalNodes>
      <leafValues>
        -9.2156863212585449e-01 1.8875502049922943e-01</leafValues></_>
    <_>
      <internalNodes>
        0 -1 67400 -1.7036460340023041e-02</internalNodes>
      <leafValues>
        2.2112722694873810e-01 -6.9900822639465332e-01</leafValues></_>
    <_>
      <internalNodes>
        0 -1 124803 1.6075238818302751e-04</internalNodes>
      <leafValues>
        2.3848415911197662e-01 -7.4658066034317017e-01</leafValues></_>
    <_>
      <internalNodes>
        0 -1 42426 2.8596889972686768e-01</internalNodes>
      <leafValues>
        1.6693316400051117e-01 -9.3313091993331909e-01</leafValues></_>
    <_>
      <internalNodes>
        0 -1 83411 4.9324329942464828e-02</internalNodes>
      <leafValues>
        -5.1608967781066895e-01 4.2504230141639709e-01</leafValues></_>
    <_>
      <internalNodes>
        0 -1 9746 -6.2204618006944656e-04</internalNodes>
      <leafValues>
        -7.1358013153076172e-01 2.7679789066314697e-01</leafValues></_></weakClassifiers></stage15>
</opencv_storage>
