<?xml version="1.0"?>
<opencv_storage>
<stage4>
  <maxWeakCount>8</maxWeakCount>
  <stageThreshold>-1.3541009426116943e+00</stageThreshold>
  <weakClassifiers>
    <_>
      <internalNodes>
        0 -1 2599593 1.0007910430431366e-01</internalNodes>
      <leafValues>
        -3.8498789072036743e-01 8.5026735067367554e-01</leafValues></_>
    <_>
      <internalNodes>
        0 -1 2070202 -9.6922181546688080e-03</internalNodes>
      <leafValues>
        7.0850872993469238e-01 -2.9609310626983643e-01</leafValues></_>
    <_>
      <internalNodes>
        0 -1 2780143 2.6223496533930302e-03</internalNodes>
      <leafValues>
        -3.3217567205429077e-01 6.2877792119979858e-01</leafValues></_>
    <_>
      <internalNodes>
        0 -1 3682891 7.9258193727582693e-04</internalNodes>
      <leafValues>
        -3.7895485758781433e-01 6.0676521062850952e-01</leafValues></_>
    <_>
      <internalNodes>
        0 -1 3691473 4.6367861330509186e-02</internalNodes>
      <leafValues>
        -3.3345183730125427e-01 7.7645748853683472e-01</leafValues></_>
    <_>
      <internalNodes>
        0 -1 3650030 6.3854189647827297e-05</internalNodes>
      <leafValues>
        4.4770905375480652e-01 -7.3647230863571167e-01</leafValues></_>
    <_>
      <internalNodes>
        0 -1 1541225 -5.3272186778485775e-04</internalNodes>
      <leafValues>
        4.6537190675735474e-01 -5.3942817449569702e-01</leafValues></_>
    <_>
      <internalNodes>
        0 -1 1700496 -6.3334230799227953e-04</internalNodes>
      <leafValues>
        4.6328157186508179e-01 -5.0515198707580566e-01</leafValues></_></weakClassifiers></stage4>
</opencv_storage>
