<?xml version="1.0"?>
<opencv_storage>
<stage9>
  <maxWeakCount>8</maxWeakCount>
  <stageThreshold>-8.8762384653091431e-01</stageThreshold>
  <weakClassifiers>
    <_>
      <internalNodes>
        0 -1 24547 -1.0155338793992996e-01</internalNodes>
      <leafValues>
        7.7777779102325439e-01 -3.3333334326744080e-01</leafValues></_>
    <_>
      <internalNodes>
        0 -1 2849184 8.0834534019231796e-03</internalNodes>
      <leafValues>
        2.4745152890682220e-01 -8.2439857721328735e-01</leafValues></_>
    <_>
      <internalNodes>
        0 -1 2508698 1.1603872291743755e-02</internalNodes>
      <leafValues>
        -3.6066585779190063e-01 6.2575012445449829e-01</leafValues></_>
    <_>
      <internalNodes>
        0 -1 3403035 -7.3770561721175909e-04</internalNodes>
      <leafValues>
        3.8110405206680298e-01 -4.9861371517181396e-01</leafValues></_>
    <_>
      <internalNodes>
        0 -1 2377146 -2.5598576030461118e-05</internalNodes>
      <leafValues>
        -6.0413998365402222e-01 3.5452550649642944e-01</leafValues></_>
    <_>
      <internalNodes>
        0 -1 3732014 9.6441959613002837e-05</internalNodes>
      <leafValues>
        2.6386398077011108e-01 -7.3701763153076172e-01</leafValues></_>
    <_>
      <internalNodes>
        0 -1 233074 -3.5540206590667367e-04</internalNodes>
      <leafValues>
        -6.7168962955474854e-01 2.5223490595817566e-01</leafValues></_>
    <_>
      <internalNodes>
        0 -1 211858 1.8600720068207011e-05</internalNodes>
      <leafValues>
        2.5876325368881226e-01 -6.7719590663909912e-01</leafValues></_></weakClassifiers></stage9>
</opencv_storage>
