<?xml version="1.0"?>
<opencv_storage>
<stage15>
  <maxWeakCount>9</maxWeakCount>
  <stageThreshold>-7.1635192632675171e-01</stageThreshold>
  <weakClassifiers>
    <_>
      <internalNodes>
        0 -1 1738185 4.5117610134184361e-03</internalNodes>
      <leafValues>
        -3.7815126776695251e-01 5.5555558204650879e-01</leafValues></_>
    <_>
      <internalNodes>
        0 -1 197362 -2.2481421008706093e-02</internalNodes>
      <leafValues>
        5.9713071584701538e-01 -2.7750816941261292e-01</leafValues></_>
    <_>
      <internalNodes>
        0 -1 2870060 1.0166717693209648e-02</internalNodes>
      <leafValues>
        1.9123460352420807e-01 -9.3634510040283203e-01</leafValues></_>
    <_>
      <internalNodes>
        0 -1 3621107 -4.8921156121650711e-05</internalNodes>
      <leafValues>
        -6.7367368936538696e-01 2.2044841945171356e-01</leafValues></_>
    <_>
      <internalNodes>
        0 -1 2236904 -1.1351300054229796e-04</internalNodes>
      <leafValues>
        3.5777261853218079e-01 -3.9706227183341980e-01</leafValues></_>
    <_>
      <internalNodes>
        0 -1 5592 1.4838919043540955e-01</internalNodes>
      <leafValues>
        -4.3797013163566589e-01 4.9909776449203491e-01</leafValues></_>
    <_>
      <internalNodes>
        0 -1 1765401 -1.4990121126174927e-02</internalNodes>
      <leafValues>
        5.6043434143066406e-01 -4.0145257115364075e-01</leafValues></_>
    <_>
      <internalNodes>
        0 -1 1365549 -1.6099414788186550e-03</internalNodes>
      <leafValues>
        3.2996407151222229e-01 -5.9170591831207275e-01</leafValues></_>
    <_>
      <internalNodes>
        0 -1 569104 2.8976593166589737e-02</internalNodes>
      <leafValues>
        -3.0120632052421570e-01 5.9379428625106812e-01</leafValues></_></weakClassifiers></stage15>
</opencv_storage>
