<?xml version="1.0"?>
<opencv_storage>
<stage16>
  <maxWeakCount>9</maxWeakCount>
  <stageThreshold>-7.5590550899505615e-01</stageThreshold>
  <weakClassifiers>
    <_>
      <internalNodes>
        0 -1 29316 -2.6388221979141235e-01</internalNodes>
      <leafValues>
        8.9041095972061157e-01 -2.8634360432624817e-01</leafValues></_>
    <_>
      <internalNodes>
        0 -1 1779304 -6.1650443822145462e-03</internalNodes>
      <leafValues>
        -7.8237354755401611e-01 2.7152022719383240e-01</leafValues></_>
    <_>
      <internalNodes>
        0 -1 3673553 -5.5290372984018177e-05</internalNodes>
      <leafValues>
        -6.2202966213226318e-01 2.3891727626323700e-01</leafValues></_>
    <_>
      <internalNodes>
        0 -1 1010465 -1.1716360459104180e-03</internalNodes>
      <leafValues>
        6.8341964483261108e-01 -2.4228371679782867e-01</leafValues></_>
    <_>
      <internalNodes>
        0 -1 3689679 3.2235337130259722e-05</internalNodes>
      <leafValues>
        2.8604680299758911e-01 -7.0393168926239014e-01</leafValues></_>
    <_>
      <internalNodes>
        0 -1 3695800 -2.4361741088796407e-04</internalNodes>
      <leafValues>
        -8.1844323873519897e-01 2.8423938155174255e-01</leafValues></_>
    <_>
      <internalNodes>
        0 -1 416601 6.1017679981887341e-03</internalNodes>
      <leafValues>
        -3.0888974666595459e-01 7.4537026882171631e-01</leafValues></_>
    <_>
      <internalNodes>
        0 -1 3172032 1.6407575458288193e-04</internalNodes>
      <leafValues>
        4.5442643761634827e-01 -4.2262417078018188e-01</leafValues></_>
    <_>
      <internalNodes>
        0 -1 3261721 -6.9016562774777412e-03</internalNodes>
      <leafValues>
        6.0854470729827881e-01 -3.3536961674690247e-01</leafValues></_></weakClassifiers></stage16>
</opencv_storage>
