<?xml version="1.0"?>
<opencv_storage>
<stage6>
  <maxWeakCount>6</maxWeakCount>
  <stageThreshold>-9.8957008123397827e-01</stageThreshold>
  <weakClassifiers>
    <_>
      <internalNodes>
        0 -1 35939 -2.6277769356966019e-02</internalNodes>
      <leafValues>
        4.0852129459381104e-01 -8.1094527244567871e-01</leafValues></_>
    <_>
      <internalNodes>
        0 -1 35290 -9.5389187335968018e-03</internalNodes>
      <leafValues>
        8.0032676458358765e-01 -3.6189973354339600e-01</leafValues></_>
    <_>
      <internalNodes>
        0 -1 22813 -5.3608897142112255e-03</internalNodes>
      <leafValues>
        4.8665529489517212e-01 -5.0759398937225342e-01</leafValues></_>
    <_>
      <internalNodes>
        0 -1 37001 -4.3355266825528815e-05</internalNodes>
      <leafValues>
        2.8725421428680420e-01 -7.8282958269119263e-01</leafValues></_>
    <_>
      <internalNodes>
        0 -1 21828 -8.1151099875569344e-03</internalNodes>
      <leafValues>
        7.9265207052230835e-01 -2.9968324303627014e-01</leafValues></_>
    <_>
      <internalNodes>
        0 -1 32267 4.2261846829205751e-05</internalNodes>
      <leafValues>
        -4.3398278951644897e-01 5.5391520261764526e-01</leafValues></_></weakClassifiers></stage6>
</opencv_storage>
