<?xml version="1.0"?>
<opencv_storage>
<stage8>
  <maxWeakCount>5</maxWeakCount>
  <stageThreshold>-8.8672614097595215e-01</stageThreshold>
  <weakClassifiers>
    <_>
      <internalNodes>
        0 -1 157039 2.7888651937246323e-02</internalNodes>
      <leafValues>
        -6.5625000000000000e-01 6.4583331346511841e-01</leafValues></_>
    <_>
      <internalNodes>
        0 -1 211398 -1.2283524498343468e-02</internalNodes>
      <leafValues>
        4.0983557701110840e-01 -6.8581146001815796e-01</leafValues></_>
    <_>
      <internalNodes>
        0 -1 290156 1.0864962823688984e-03</internalNodes>
      <leafValues>
        -6.1110025644302368e-01 5.4053902626037598e-01</leafValues></_>
    <_>
      <internalNodes>
        0 -1 161431 -6.6908206790685654e-03</internalNodes>
      <leafValues>
        5.8800429105758667e-01 -5.5262237787246704e-01</leafValues></_>
    <_>
      <internalNodes>
        0 -1 291931 -6.8407701328396797e-03</internalNodes>
      <leafValues>
        5.2298080921173096e-01 -6.1721575260162354e-01</leafValues></_></weakClassifiers></stage8>
</opencv_storage>
