<?xml version="1.0"?>
<opencv_storage>
<stage4>
  <maxWeakCount>8</maxWeakCount>
  <stageThreshold>-1.3008086681365967e+00</stageThreshold>
  <weakClassifiers>
    <_>
      <internalNodes>
        0 -1 107028 -1.5891464427113533e-03</internalNodes>
      <leafValues>
        8.5542166233062744e-01 -3.2718893885612488e-01</leafValues></_>
    <_>
      <internalNodes>
        0 -1 204203 3.8871467113494873e-03</internalNodes>
      <leafValues>
        -3.2484087347984314e-01 7.9400038719177246e-01</leafValues></_>
    <_>
      <internalNodes>
        0 -1 201860 -1.5012869844213128e-03</internalNodes>
      <leafValues>
        7.8289180994033813e-01 -3.2790529727935791e-01</leafValues></_>
    <_>
      <internalNodes>
        0 -1 826 -1.8205888409283943e-05</internalNodes>
      <leafValues>
        -6.7406284809112549e-01 4.0214067697525024e-01</leafValues></_>
    <_>
      <internalNodes>
        0 -1 162774 -2.2284840233623981e-03</internalNodes>
      <leafValues>
        7.3710232973098755e-01 -3.5092455148696899e-01</leafValues></_>
    <_>
      <internalNodes>
        0 -1 176271 -4.7354931011795998e-03</internalNodes>
      <leafValues>
        7.5387018918991089e-01 -3.4595847129821777e-01</leafValues></_>
    <_>
      <internalNodes>
        0 -1 107376 -1.2724015861749649e-02</internalNodes>
      <leafValues>
        -8.9004480838775635e-01 3.6680462956428528e-01</leafValues></_>
    <_>
      <internalNodes>
        0 -1 218018 -4.2972289957106113e-03</internalNodes>
      <leafValues>
        9.2787957191467285e-01 -3.9293584227561951e-01</leafValues></_></weakClassifiers></stage4>
</opencv_storage>
