<?xml version="1.0"?>
<opencv_storage>
<stage15>
  <maxWeakCount>10</maxWeakCount>
  <stageThreshold>-1.0358157157897949e+00</stageThreshold>
  <weakClassifiers>
    <_>
      <internalNodes>
        0 -1 123876 -6.3705891370773315e-03</internalNodes>
      <leafValues>
        4.1463413834571838e-01 -3.8019168376922607e-01</leafValues></_>
    <_>
      <internalNodes>
        0 -1 89486 -3.6371331661939621e-03</internalNodes>
      <leafValues>
        -9.5082902908325195e-01 1.6538120806217194e-01</leafValues></_>
    <_>
      <internalNodes>
        0 -1 89486 1.1613981332629919e-03</internalNodes>
      <leafValues>
        2.7221462130546570e-01 -7.7122539281845093e-01</leafValues></_>
    <_>
      <internalNodes>
        0 -1 2006 -1.4853209257125854e-02</internalNodes>
      <leafValues>
        3.6085170507431030e-01 -4.3025705218315125e-01</leafValues></_>
    <_>
      <internalNodes>
        0 -1 77192 4.3170498684048653e-03</internalNodes>
      <leafValues>
        -9.7954177856445313e-01 1.5643803775310516e-01</leafValues></_>
    <_>
      <internalNodes>
        0 -1 49360 1.2804474681615829e-02</internalNodes>
      <leafValues>
        -2.6929286122322083e-01 8.4704989194869995e-01</leafValues></_>
    <_>
      <internalNodes>
        0 -1 8793 2.9683623462915421e-02</internalNodes>
      <leafValues>
        -2.1374748647212982e-01 8.1086927652359009e-01</leafValues></_>
    <_>
      <internalNodes>
        0 -1 109574 2.3169226187746972e-04</internalNodes>
      <leafValues>
        -4.4273659586906433e-01 3.7456467747688293e-01</leafValues></_>
    <_>
      <internalNodes>
        0 -1 46185 7.2051053866744041e-03</internalNodes>
      <leafValues>
        -2.3632791638374329e-01 6.9666635990142822e-01</leafValues></_>
    <_>
      <internalNodes>
        0 -1 121534 3.5887777339667082e-03</internalNodes>
      <leafValues>
        -4.6987855434417725e-01 3.6152720451354980e-01</leafValues></_></weakClassifiers></stage15>
</opencv_storage>
