<?xml version="1.0"?>
<opencv_storage>
<cascade>
  <stageType>BOOST</stageType>
  <featureType>HAAR</featureType>
  <height>30</height>
  <width>25</width>
  <stageParams>
    <boostType>GAB</boostType>
    <minHitRate>9.9900001287460327e-01</minHitRate>
    <maxFalseAlarm>4.0000000596046448e-01</maxFalseAlarm>
    <weightTrimRate>9.4999999999999996e-01</weightTrimRate>
    <maxDepth>1</maxDepth>
    <maxWeakCount>100</maxWeakCount></stageParams>
  <featureParams>
    <maxCatCount>0</maxCatCount>
    <featSize>1</featSize>
    <mode>BASIC</mode></featureParams>
  <stageNum>9</stageNum>
  <stages>
    <!-- stage 0 -->
    <_>
      <maxWeakCount>3</maxWeakCount>
      <stageThreshold>-1.1509755849838257e+00</stageThreshold>
      <weakClassifiers>
        <_>
          <internalNodes>
            0 -1 23 -7.1321092545986176e-02</internalNodes>
          <leafValues>
            6.4179104566574097e-01 -8.8313853740692139e-01</leafValues></_>
        <_>
          <internalNodes>
            0 -1 17 -1.4842446944385301e-05</internalNodes>
          <leafValues>
            7.1931505203247070e-01 -8.7119084596633911e-01</leafValues></_>
        <_>
          <internalNodes>
            0 -1 29 -9.6812458650674671e-05</internalNodes>
          <leafValues>
            6.0335373878479004e-01 -9.7066068649291992e-01</leafValues></_></weakClassifiers></_>
    <!-- stage 1 -->
    <_>
      <maxWeakCount>2</maxWeakCount>
      <stageThreshold>-5.5225515365600586e-01</stageThreshold>
      <weakClassifiers>
        <_>
          <internalNodes>
            0 -1 22 -9.0088963508605957e-02</internalNodes>
          <leafValues>
            5.0000000000000000e-01 -9.5985400676727295e-01</leafValues></_>
        <_>
          <internalNodes>
            0 -1 20 9.9937304854393005e-02</internalNodes>
          <leafValues>
            -9.3943601846694946e-01 4.0759885311126709e-01</leafValues></_></weakClassifiers></_>
    <!-- stage 2 -->
    <_>
      <maxWeakCount>3</maxWeakCount>
      <stageThreshold>-8.1794703006744385e-01</stageThreshold>
      <weakClassifiers>
        <_>
          <internalNodes>
            0 -1 10 -3.3037331886589527e-03</internalNodes>
          <leafValues>
            8.1021898984909058e-01 -7.7073907852172852e-01</leafValues></_>
        <_>
          <internalNodes>
            0 -1 9 -5.9863524511456490e-03</internalNodes>
          <leafValues>
            7.0244860649108887e-01 -7.9886835813522339e-01</leafValues></_>
        <_>
          <internalNodes>
            0 -1 16 -1.3458295725286007e-03</internalNodes>
          <leafValues>
            7.5166040658950806e-01 -6.4060872793197632e-01</leafValues></_></weakClassifiers></_>
    <!-- stage 3 -->
    <_>
      <maxWeakCount>4</maxWeakCount>
      <stageThreshold>-6.4663779735565186e-01</stageThreshold>
      <weakClassifiers>
        <_>
          <internalNodes>
            0 -1 32 6.4260020852088928e-02</internalNodes>
          <leafValues>
            -7.6816076040267944e-01 6.3398694992065430e-01</leafValues></_>
        <_>
          <internalNodes>
            0 -1 4 -1.7029401659965515e-01</internalNodes>
          <leafValues>
            4.9189358949661255e-01 -8.4791332483291626e-01</leafValues></_>
        <_>
          <internalNodes>
            0 -1 1 -5.3121313452720642e-02</internalNodes>
          <leafValues>
            5.5954724550247192e-01 -7.5618833303451538e-01</leafValues></_>
        <_>
          <internalNodes>
            0 -1 27 1.7055770382285118e-02</internalNodes>
          <leafValues>
            -9.3300938606262207e-01 4.0988898277282715e-01</leafValues></_></weakClassifiers></_>
    <!-- stage 4 -->
    <_>
      <maxWeakCount>5</maxWeakCount>
      <stageThreshold>-1.1412242650985718e+00</stageThreshold>
      <weakClassifiers>
        <_>
          <internalNodes>
            0 -1 3 -3.0134130269289017e-02</internalNodes>
          <leafValues>
            2.6086956262588501e-01 -8.0701756477355957e-01</leafValues></_>
        <_>
          <internalNodes>
            0 -1 11 3.2491326332092285e-02</internalNodes>
          <leafValues>
            2.2629338502883911e-01 -9.3175011873245239e-01</leafValues></_>
        <_>
          <internalNodes>
            0 -1 15 -2.0352784544229507e-02</internalNodes>
          <leafValues>
            5.1683831214904785e-01 -5.8107990026473999e-01</leafValues></_>
        <_>
          <internalNodes>
            0 -1 12 -3.0080741271376610e-03</internalNodes>
          <leafValues>
            7.6628017425537109e-01 -4.2690315842628479e-01</leafValues></_>
        <_>
          <internalNodes>
            0 -1 0 -4.3088924139738083e-03</internalNodes>
          <leafValues>
            4.4748294353485107e-01 -8.7097924947738647e-01</leafValues></_></weakClassifiers></_>
    <!-- stage 5 -->
    <_>
      <maxWeakCount>5</maxWeakCount>
      <stageThreshold>-1.1733838319778442e+00</stageThreshold>
      <weakClassifiers>
        <_>
          <internalNodes>
            0 -1 31 -1.7218081280589104e-02</internalNodes>
          <leafValues>
            2.7853882312774658e-01 -7.9345953464508057e-01</leafValues></_>
        <_>
          <internalNodes>
            0 -1 6 -1.7930716276168823e-02</internalNodes>
          <leafValues>
            3.4095630049705505e-01 -7.5167238712310791e-01</leafValues></_>
        <_>
          <internalNodes>
            0 -1 7 -4.0940783917903900e-02</internalNodes>
          <leafValues>
            4.3087300658226013e-01 -7.9077821969985962e-01</leafValues></_>
        <_>
          <internalNodes>
            0 -1 25 -5.2786857122555375e-04</internalNodes>
          <leafValues>
            6.8741154670715332e-01 -4.9361300468444824e-01</leafValues></_>
        <_>
          <internalNodes>
            0 -1 19 -1.0507344268262386e-02</internalNodes>
          <leafValues>
            4.3448805809020996e-01 -8.5147267580032349e-01</leafValues></_></weakClassifiers></_>
    <!-- stage 6 -->
    <_>
      <maxWeakCount>4</maxWeakCount>
      <stageThreshold>-7.4620676040649414e-01</stageThreshold>
      <weakClassifiers>
        <_>
          <internalNodes>
            0 -1 24 -3.6272760480642319e-03</internalNodes>
          <leafValues>
            6.0000002384185791e-01 -6.7536234855651855e-01</leafValues></_>
        <_>
          <internalNodes>
            0 -1 5 -3.2188825309276581e-02</internalNodes>
          <leafValues>
            3.7282207608222961e-01 -7.3767495155334473e-01</leafValues></_>
        <_>
          <internalNodes>
            0 -1 30 -3.5086162388324738e-02</internalNodes>
          <leafValues>
            4.1300451755523682e-01 -7.1934098005294800e-01</leafValues></_>
        <_>
          <internalNodes>
            0 -1 28 -1.9533983431756496e-03</internalNodes>
          <leafValues>
            3.4306463599205017e-01 -8.5667103528976440e-01</leafValues></_></weakClassifiers></_>
    <!-- stage 7 -->
    <_>
      <maxWeakCount>3</maxWeakCount>
      <stageThreshold>-7.3237127065658569e-01</stageThreshold>
      <weakClassifiers>
        <_>
          <internalNodes>
            0 -1 13 1.5439474955201149e-02</internalNodes>
          <leafValues>
            -6.5682137012481689e-01 7.5280898809432983e-01</leafValues></_>
        <_>
          <internalNodes>
            0 -1 26 -2.6836059987545013e-02</internalNodes>
          <leafValues>
            5.2749234437942505e-01 -6.3333922624588013e-01</leafValues></_>
        <_>
          <internalNodes>
            0 -1 2 -3.6008688621222973e-03</internalNodes>
          <leafValues>
            5.5778932571411133e-01 -4.8733046650886536e-01</leafValues></_></weakClassifiers></_>
    <!-- stage 8 -->
    <_>
      <maxWeakCount>4</maxWeakCount>
      <stageThreshold>-7.9203152656555176e-01</stageThreshold>
      <weakClassifiers>
        <_>
          <internalNodes>
            0 -1 8 -1.1616863310337067e-02</internalNodes>
          <leafValues>
            2.5000000000000000e-01 -7.5000000000000000e-01</leafValues></_>
        <_>
          <internalNodes>
            0 -1 14 -6.3887004216667265e-05</internalNodes>
          <leafValues>
            3.3254560828208923e-01 -8.8341265916824341e-01</leafValues></_>
        <_>
          <internalNodes>
            0 -1 21 6.4943492412567139e-02</internalNodes>
          <leafValues>
            -8.7160271406173706e-01 2.5955140590667725e-01</leafValues></_>
        <_>
          <internalNodes>
            0 -1 18 -1.9706925377249718e-03</internalNodes>
          <leafValues>
            5.8182972669601440e-01 -4.9858772754669189e-01</leafValues></_></weakClassifiers></_></stages>
  <features>
    <_>
      <rects>
        <_>
          0 0 6 25 -1.</_>
        <_>
          3 0 3 25 2.</_></rects>
      <tilted>0</tilted></_>
    <_>
      <rects>
        <_>
          0 21 18 7 -1.</_>
        <_>
          6 21 6 7 3.</_></rects>
      <tilted>0</tilted></_>
    <_>
      <rects>
        <_>
          2 0 8 2 -1.</_>
        <_>
          2 1 8 1 2.</_></rects>
      <tilted>0</tilted></_>
    <_>
      <rects>
        <_>
          2 1 6 16 -1.</_>
        <_>
          2 1 3 8 2.</_>
        <_>
          5 9 3 8 2.</_></rects>
      <tilted>0</tilted></_>
    <_>
      <rects>
        <_>
          3 0 19 18 -1.</_>
        <_>
          3 6 19 6 3.</_></rects>
      <tilted>0</tilted></_>
    <_>
      <rects>
        <_>
          3 9 9 11 -1.</_>
        <_>
          6 9 3 11 3.</_></rects>
      <tilted>0</tilted></_>
    <_>
      <rects>
        <_>
          4 1 12 6 -1.</_>
        <_>
          4 1 6 3 2.</_>
        <_>
          10 4 6 3 2.</_></rects>
      <tilted>0</tilted></_>
    <_>
      <rects>
        <_>
          4 20 18 10 -1.</_>
        <_>
          4 25 18 5 2.</_></rects>
      <tilted>0</tilted></_>
    <_>
      <rects>
        <_>
          4 24 4 6 -1.</_>
        <_>
          4 26 4 2 3.</_></rects>
      <tilted>0</tilted></_>
    <_>
      <rects>
        <_>
          5 13 6 3 -1.</_>
        <_>
          7 13 2 3 3.</_></rects>
      <tilted>0</tilted></_>
    <_>
      <rects>
        <_>
          6 2 4 3 -1.</_>
        <_>
          6 3 4 1 3.</_></rects>
      <tilted>0</tilted></_>
    <_>
      <rects>
        <_>
          6 17 18 5 -1.</_>
        <_>
          12 17 6 5 3.</_></rects>
      <tilted>0</tilted></_>
    <_>
      <rects>
        <_>
          7 2 2 3 -1.</_>
        <_>
          7 3 2 1 3.</_></rects>
      <tilted>0</tilted></_>
    <_>
      <rects>
        <_>
          7 3 2 6 -1.</_>
        <_>
          7 5 2 2 3.</_></rects>
      <tilted>0</tilted></_>
    <_>
      <rects>
        <_>
          7 5 9 3 -1.</_>
        <_>
          10 5 3 3 3.</_></rects>
      <tilted>0</tilted></_>
    <_>
      <rects>
        <_>
          7 11 4 18 -1.</_>
        <_>
          7 11 2 9 2.</_>
        <_>
          9 20 2 9 2.</_></rects>
      <tilted>0</tilted></_>
    <_>
      <rects>
        <_>
          7 18 2 5 -1.</_>
        <_>
          8 18 1 5 2.</_></rects>
      <tilted>0</tilted></_>
    <_>
      <rects>
        <_>
          7 24 2 2 -1.</_>
        <_>
          7 25 2 1 2.</_></rects>
      <tilted>0</tilted></_>
    <_>
      <rects>
        <_>
          8 27 6 3 -1.</_>
        <_>
          8 28 6 1 3.</_></rects>
      <tilted>0</tilted></_>
    <_>
      <rects>
        <_>
          9 2 12 8 -1.</_>
        <_>
          13 2 4 8 3.</_></rects>
      <tilted>0</tilted></_>
    <_>
      <rects>
        <_>
          9 8 10 21 -1.</_>
        <_>
          9 15 10 7 3.</_></rects>
      <tilted>0</tilted></_>
    <_>
      <rects>
        <_>
          10 8 13 18 -1.</_>
        <_>
          10 14 13 6 3.</_></rects>
      <tilted>0</tilted></_>
    <_>
      <rects>
        <_>
          11 0 14 15 -1.</_>
        <_>
          11 5 14 5 3.</_></rects>
      <tilted>0</tilted></_>
    <_>
      <rects>
        <_>
          12 1 12 12 -1.</_>
        <_>
          12 5 12 4 3.</_></rects>
      <tilted>0</tilted></_>
    <_>
      <rects>
        <_>
          12 13 4 2 -1.</_>
        <_>
          12 14 4 1 2.</_></rects>
      <tilted>0</tilted></_>
    <_>
      <rects>
        <_>
          13 21 2 2 -1.</_>
        <_>
          13 21 1 1 2.</_>
        <_>
          14 22 1 1 2.</_></rects>
      <tilted>0</tilted></_>
    <_>
      <rects>
        <_>
          13 24 12 4 -1.</_>
        <_>
          17 24 4 4 3.</_></rects>
      <tilted>0</tilted></_>
    <_>
      <rects>
        <_>
          14 5 2 20 -1.</_>
        <_>
          14 15 2 10 2.</_></rects>
      <tilted>0</tilted></_>
    <_>
      <rects>
        <_>
          15 7 9 6 -1.</_>
        <_>
          18 7 3 6 3.</_></rects>
      <tilted>0</tilted></_>
    <_>
      <rects>
        <_>
          15 22 2 6 -1.</_>
        <_>
          16 22 1 6 2.</_></rects>
      <tilted>0</tilted></_>
    <_>
      <rects>
        <_>
          17 1 7 12 -1.</_>
        <_>
          17 5 7 4 3.</_></rects>
      <tilted>0</tilted></_>
    <_>
      <rects>
        <_>
          18 11 6 9 -1.</_>
        <_>
          20 11 2 9 3.</_></rects>
      <tilted>0</tilted></_>
    <_>
      <rects>
        <_>
          19 6 6 24 -1.</_>
        <_>
          22 6 3 24 2.</_></rects>
      <tilted>0</tilted></_></features></cascade>
</opencv_storage>
