<?xml version="1.0"?>
<opencv_storage>
<cascade>
  <stageType>BOOST</stageType>
  <featureType>HAAR</featureType>
  <height>37</height>
  <width>15</width>
  <stageParams>
    <boostType>GAB</boostType>
    <minHitRate>9.9900001287460327e-01</minHitRate>
    <maxFalseAlarm>4.4999998807907104e-01</maxFalseAlarm>
    <weightTrimRate>9.4999999999999996e-01</weightTrimRate>
    <maxDepth>1</maxDepth>
    <maxWeakCount>100</maxWeakCount></stageParams>
  <featureParams>
    <maxCatCount>0</maxCatCount>
    <featSize>1</featSize>
    <mode>ALL</mode></featureParams>
  <stageNum>16</stageNum>
  <stages>
    <!-- stage 0 -->
    <_>
      <maxWeakCount>4</maxWeakCount>
      <stageThreshold>-1.4622687101364136e+00</stageThreshold>
      <weakClassifiers>
        <_>
          <internalNodes>
            0 -1 75 1.4099790714681149e-03</internalNodes>
          <leafValues>
            -7.6351350545883179e-01 7.4342107772827148e-01</leafValues></_>
        <_>
          <internalNodes>
            0 -1 12 3.5452074371278286e-03</internalNodes>
          <leafValues>
            -7.4102818965911865e-01 7.2611343860626221e-01</leafValues></_>
        <_>
          <internalNodes>
            0 -1 47 -3.1034266576170921e-03</internalNodes>
          <leafValues>
            9.0547204017639160e-01 -5.3834146261215210e-01</leafValues></_>
        <_>
          <internalNodes>
            0 -1 41 4.4574709609150887e-03</internalNodes>
          <leafValues>
            -9.0079188346862793e-01 5.8061444759368896e-01</leafValues></_></weakClassifiers></_>
    <!-- stage 1 -->
    <_>
      <maxWeakCount>3</maxWeakCount>
      <stageThreshold>-8.1201493740081787e-01</stageThreshold>
      <weakClassifiers>
        <_>
          <internalNodes>
            0 -1 6 1.5226579271256924e-03</internalNodes>
          <leafValues>
            -9.2340427637100220e-01 5.9452056884765625e-01</leafValues></_>
        <_>
          <internalNodes>
            0 -1 76 1.6123787499964237e-03</internalNodes>
          <leafValues>
            -6.5446245670318604e-01 8.5316312313079834e-01</leafValues></_>
        <_>
          <internalNodes>
            0 -1 13 5.8640297502279282e-03</internalNodes>
          <leafValues>
            -6.8878799676895142e-01 7.6585179567337036e-01</leafValues></_></weakClassifiers></_>
    <!-- stage 2 -->
    <_>
      <maxWeakCount>4</maxWeakCount>
      <stageThreshold>-8.8192379474639893e-01</stageThreshold>
      <weakClassifiers>
        <_>
          <internalNodes>
            0 -1 63 -1.2479213764891028e-03</internalNodes>
          <leafValues>
            8.6170214414596558e-01 -3.9320388436317444e-01</leafValues></_>
        <_>
          <internalNodes>
            0 -1 77 1.1661454290151596e-01</internalNodes>
          <leafValues>
            -5.8945167064666748e-01 6.7451411485671997e-01</leafValues></_>
        <_>
          <internalNodes>
            0 -1 39 -6.5418132580816746e-03</internalNodes>
          <leafValues>
            8.9504969120025635e-01 -3.6788180470466614e-01</leafValues></_>
        <_>
          <internalNodes>
            0 -1 24 1.5539664775133133e-02</internalNodes>
          <leafValues>
            -8.0358600616455078e-01 4.6861359477043152e-01</leafValues></_></weakClassifiers></_>
    <!-- stage 3 -->
    <_>
      <maxWeakCount>4</maxWeakCount>
      <stageThreshold>-6.3158017396926880e-01</stageThreshold>
      <weakClassifiers>
        <_>
          <internalNodes>
            0 -1 65 -4.4657462276518345e-03</internalNodes>
          <leafValues>
            7.4400001764297485e-01 -5.3142857551574707e-01</leafValues></_>
        <_>
          <internalNodes>
            0 -1 81 -8.3426116034388542e-03</internalNodes>
          <leafValues>
            6.7558574676513672e-01 -5.0622093677520752e-01</leafValues></_>
        <_>
          <internalNodes>
            0 -1 33 4.4168587774038315e-03</internalNodes>
          <leafValues>
            -4.0102225542068481e-01 8.5916686058044434e-01</leafValues></_>
        <_>
          <internalNodes>
            0 -1 57 9.2452217359095812e-04</internalNodes>
          <leafValues>
            -3.7471511960029602e-01 8.8182461261749268e-01</leafValues></_></weakClassifiers></_>
    <!-- stage 4 -->
    <_>
      <maxWeakCount>6</maxWeakCount>
      <stageThreshold>-9.9890267848968506e-01</stageThreshold>
      <weakClassifiers>
        <_>
          <internalNodes>
            0 -1 87 -1.9795000553131104e-03</internalNodes>
          <leafValues>
            7.0491802692413330e-01 -4.8314607143402100e-01</leafValues></_>
        <_>
          <internalNodes>
            0 -1 13 5.8782272972166538e-03</internalNodes>
          <leafValues>
            -5.8694028854370117e-01 5.3293538093566895e-01</leafValues></_>
        <_>
          <internalNodes>
            0 -1 39 -5.5908109061419964e-03</internalNodes>
          <leafValues>
            7.6101619005203247e-01 -4.1994872689247131e-01</leafValues></_>
        <_>
          <internalNodes>
            0 -1 17 -4.4759213924407959e-02</internalNodes>
          <leafValues>
            4.6206411719322205e-01 -7.5558131933212280e-01</leafValues></_>
        <_>
          <internalNodes>
            0 -1 29 -1.2236016336828470e-03</internalNodes>
          <leafValues>
            7.3984020948410034e-01 -4.2493909597396851e-01</leafValues></_>
        <_>
          <internalNodes>
            0 -1 96 2.2106361575424671e-03</internalNodes>
          <leafValues>
            -6.6586828231811523e-01 5.2121692895889282e-01</leafValues></_></weakClassifiers></_>
    <!-- stage 5 -->
    <_>
      <maxWeakCount>4</maxWeakCount>
      <stageThreshold>-4.6954473853111267e-01</stageThreshold>
      <weakClassifiers>
        <_>
          <internalNodes>
            0 -1 49 2.5934106670320034e-03</internalNodes>
          <leafValues>
            -3.8227847218513489e-01 7.3658537864685059e-01</leafValues></_>
        <_>
          <internalNodes>
            0 -1 11 7.0018912665545940e-03</internalNodes>
          <leafValues>
            -5.3780841827392578e-01 4.9396806955337524e-01</leafValues></_>
        <_>
          <internalNodes>
            0 -1 80 2.2206588182598352e-03</internalNodes>
          <leafValues>
            -2.8938734531402588e-01 8.8228261470794678e-01</leafValues></_>
        <_>
          <internalNodes>
            0 -1 63 -1.5605983790010214e-03</internalNodes>
          <leafValues>
            7.8353017568588257e-01 -2.9184696078300476e-01</leafValues></_></weakClassifiers></_>
    <!-- stage 6 -->
    <_>
      <maxWeakCount>4</maxWeakCount>
      <stageThreshold>-5.3816843032836914e-01</stageThreshold>
      <weakClassifiers>
        <_>
          <internalNodes>
            0 -1 34 -6.7182406783103943e-02</internalNodes>
          <leafValues>
            -1. 2.7388533949851990e-01</leafValues></_>
        <_>
          <internalNodes>
            0 -1 28 8.4537528455257416e-03</internalNodes>
          <leafValues>
            2.4448759853839874e-01 -8.7710803747177124e-01</leafValues></_>
        <_>
          <internalNodes>
            0 -1 59 -2.4195909500122070e-03</internalNodes>
          <leafValues>
            6.4391964673995972e-01 -4.0860944986343384e-01</leafValues></_>
        <_>
          <internalNodes>
            0 -1 15 3.9226463995873928e-03</internalNodes>
          <leafValues>
            -5.3454494476318359e-01 4.7366368770599365e-01</leafValues></_></weakClassifiers></_>
    <!-- stage 7 -->
    <_>
      <maxWeakCount>6</maxWeakCount>
      <stageThreshold>-6.8608528375625610e-01</stageThreshold>
      <weakClassifiers>
        <_>
          <internalNodes>
            0 -1 42 -1.9426161888986826e-03</internalNodes>
          <leafValues>
            -9.8260867595672607e-01 2.3298968374729156e-01</leafValues></_>
        <_>
          <internalNodes>
            0 -1 16 -1.2751995027065277e-01</internalNodes>
          <leafValues>
            3.7007823586463928e-01 -5.1224690675735474e-01</leafValues></_>
        <_>
          <internalNodes>
            0 -1 1 3.6459919065237045e-03</internalNodes>
          <leafValues>
            -4.4673189520835876e-01 4.5037698745727539e-01</leafValues></_>
        <_>
          <internalNodes>
            0 -1 44 -8.8437553495168686e-03</internalNodes>
          <leafValues>
            -6.2343919277191162e-01 3.8165238499641418e-01</leafValues></_>
        <_>
          <internalNodes>
            0 -1 95 3.2038004137575626e-03</internalNodes>
          <leafValues>
            -4.2695859074592590e-01 4.8054093122482300e-01</leafValues></_>
        <_>
          <internalNodes>
            0 -1 88 8.8925973977893591e-04</internalNodes>
          <leafValues>
            2.2102311253547668e-01 -7.1430677175521851e-01</leafValues></_></weakClassifiers></_>
    <!-- stage 8 -->
    <_>
      <maxWeakCount>6</maxWeakCount>
      <stageThreshold>-5.4271465539932251e-01</stageThreshold>
      <weakClassifiers>
        <_>
          <internalNodes>
            0 -1 72 6.2122866511344910e-02</internalNodes>
          <leafValues>
            -3.9358600974082947e-01 5.2529180049896240e-01</leafValues></_>
        <_>
          <internalNodes>
            0 -1 67 1.5446431934833527e-03</internalNodes>
          <leafValues>
            -6.4058983325958252e-01 3.5372692346572876e-01</leafValues></_>
        <_>
          <internalNodes>
            0 -1 10 4.6008178032934666e-03</internalNodes>
          <leafValues>
            -5.7046562433242798e-01 3.3566987514495850e-01</leafValues></_>
        <_>
          <internalNodes>
            0 -1 21 1.6866478836163878e-04</internalNodes>
          <leafValues>
            3.2400989532470703e-01 -6.3995993137359619e-01</leafValues></_>
        <_>
          <internalNodes>
            0 -1 74 7.0265885442495346e-03</internalNodes>
          <leafValues>
            -4.3061026930809021e-01 4.6695953607559204e-01</leafValues></_>
        <_>
          <internalNodes>
            0 -1 3 3.8666571490466595e-03</internalNodes>
          <leafValues>
            3.3728531002998352e-01 -6.4792042970657349e-01</leafValues></_></weakClassifiers></_>
    <!-- stage 9 -->
    <_>
      <maxWeakCount>8</maxWeakCount>
      <stageThreshold>-7.5628334283828735e-01</stageThreshold>
      <weakClassifiers>
        <_>
          <internalNodes>
            0 -1 22 1.1364277452230453e-02</internalNodes>
          <leafValues>
            -3.5734072327613831e-01 5.3974896669387817e-01</leafValues></_>
        <_>
          <internalNodes>
            0 -1 79 2.4258433841168880e-03</internalNodes>
          <leafValues>
            -3.2858750224113464e-01 5.6909412145614624e-01</leafValues></_>
        <_>
          <internalNodes>
            0 -1 2 5.0383517518639565e-03</internalNodes>
          <leafValues>
            -4.2070126533508301e-01 5.5993771553039551e-01</leafValues></_>
        <_>
          <internalNodes>
            0 -1 58 -3.2556124497205019e-03</internalNodes>
          <leafValues>
            5.1945245265960693e-01 -3.4869202971458435e-01</leafValues></_>
        <_>
          <internalNodes>
            0 -1 66 3.2981745898723602e-03</internalNodes>
          <leafValues>
            -2.0081192255020142e-01 8.0623036623001099e-01</leafValues></_>
        <_>
          <internalNodes>
            0 -1 25 1.3003557920455933e-01</internalNodes>
          <leafValues>
            1.9196362793445587e-01 -1.</leafValues></_>
        <_>
          <internalNodes>
            0 -1 31 -1.3712635636329651e-01</internalNodes>
          <leafValues>
            -9.1275870800018311e-01 1.8743421137332916e-01</leafValues></_>
        <_>
          <internalNodes>
            0 -1 43 -1.1908890679478645e-02</internalNodes>
          <leafValues>
            5.9679651260375977e-01 -3.4769222140312195e-01</leafValues></_></weakClassifiers></_>
    <!-- stage 10 -->
    <_>
      <maxWeakCount>8</maxWeakCount>
      <stageThreshold>-5.1523870229721069e-01</stageThreshold>
      <weakClassifiers>
        <_>
          <internalNodes>
            0 -1 92 -4.7634877264499664e-02</internalNodes>
          <leafValues>
            7.7941179275512695e-01 -2.2844827175140381e-01</leafValues></_>
        <_>
          <internalNodes>
            0 -1 91 4.2020328342914581e-02</internalNodes>
          <leafValues>
            -2.9169231653213501e-01 7.3455363512039185e-01</leafValues></_>
        <_>
          <internalNodes>
            0 -1 60 -7.1128609124571085e-04</internalNodes>
          <leafValues>
            5.0597000122070313e-01 -3.7268248200416565e-01</leafValues></_>
        <_>
          <internalNodes>
            0 -1 54 -4.0089236572384834e-03</internalNodes>
          <leafValues>
            6.8387192487716675e-01 -2.5973024964332581e-01</leafValues></_>
        <_>
          <internalNodes>
            0 -1 82 -1.1365737009327859e-04</internalNodes>
          <leafValues>
            -6.9082462787628174e-01 2.9782730340957642e-01</leafValues></_>
        <_>
          <internalNodes>
            0 -1 86 -2.5177607312798500e-03</internalNodes>
          <leafValues>
            4.7493717074394226e-01 -4.3005418777465820e-01</leafValues></_>
        <_>
          <internalNodes>
            0 -1 19 1.5660282224416733e-02</internalNodes>
          <leafValues>
            2.6104444265365601e-01 -7.8315752744674683e-01</leafValues></_>
        <_>
          <internalNodes>
            0 -1 73 -4.0620699524879456e-02</internalNodes>
          <leafValues>
            6.1392045021057129e-01 -2.6955559849739075e-01</leafValues></_></weakClassifiers></_>
    <!-- stage 11 -->
    <_>
      <maxWeakCount>9</maxWeakCount>
      <stageThreshold>-6.6547429561614990e-01</stageThreshold>
      <weakClassifiers>
        <_>
          <internalNodes>
            0 -1 27 -7.8486278653144836e-03</internalNodes>
          <leafValues>
            3.4131735563278198e-01 -4.2857143282890320e-01</leafValues></_>
        <_>
          <internalNodes>
            0 -1 64 -5.7313819415867329e-03</internalNodes>
          <leafValues>
            5.8435159921646118e-01 -2.8424516320228577e-01</leafValues></_>
        <_>
          <internalNodes>
            0 -1 12 3.7502169143408537e-03</internalNodes>
          <leafValues>
            -5.6790262460708618e-01 3.0199128389358521e-01</leafValues></_>
        <_>
          <internalNodes>
            0 -1 35 -1.7993940273299813e-03</internalNodes>
          <leafValues>
            7.0291560888290405e-01 -2.2195501625537872e-01</leafValues></_>
        <_>
          <internalNodes>
            0 -1 55 2.5557400658726692e-03</internalNodes>
          <leafValues>
            -3.3229193091392517e-01 5.6838619709014893e-01</leafValues></_>
        <_>
          <internalNodes>
            0 -1 48 -9.6922146622091532e-04</internalNodes>
          <leafValues>
            3.9143279194831848e-01 -4.5207837224006653e-01</leafValues></_>
        <_>
          <internalNodes>
            0 -1 52 5.1532885991036892e-03</internalNodes>
          <leafValues>
            2.9386255145072937e-01 -6.9999068975448608e-01</leafValues></_>
        <_>
          <internalNodes>
            0 -1 36 1.6774813411757350e-03</internalNodes>
          <leafValues>
            -4.7828373312950134e-01 3.6043155193328857e-01</leafValues></_>
        <_>
          <internalNodes>
            0 -1 18 3.0845077708363533e-03</internalNodes>
          <leafValues>
            2.9146516323089600e-01 -5.9729599952697754e-01</leafValues></_></weakClassifiers></_>
    <!-- stage 12 -->
    <_>
      <maxWeakCount>8</maxWeakCount>
      <stageThreshold>-1.0106432437896729e+00</stageThreshold>
      <weakClassifiers>
        <_>
          <internalNodes>
            0 -1 9 2.6149094104766846e-02</internalNodes>
          <leafValues>
            -3.6571428179740906e-01 5.1200002431869507e-01</leafValues></_>
        <_>
          <internalNodes>
            0 -1 71 9.7461324185132980e-03</internalNodes>
          <leafValues>
            -4.2136862874031067e-01 4.3808799982070923e-01</leafValues></_>
        <_>
          <internalNodes>
            0 -1 51 2.6515930891036987e-02</internalNodes>
          <leafValues>
            -2.1682171523571014e-01 6.9269412755966187e-01</leafValues></_>
        <_>
          <internalNodes>
            0 -1 89 3.1461752951145172e-04</internalNodes>
          <leafValues>
            2.4620570242404938e-01 -7.5588244199752808e-01</leafValues></_>
        <_>
          <internalNodes>
            0 -1 98 2.1010241471230984e-04</internalNodes>
          <leafValues>
            2.4948038160800934e-01 -7.6533657312393188e-01</leafValues></_>
        <_>
          <internalNodes>
            0 -1 97 -1.2885558418929577e-02</internalNodes>
          <leafValues>
            6.0227006673812866e-01 -3.2944890856742859e-01</leafValues></_>
        <_>
          <internalNodes>
            0 -1 37 1.7588033806532621e-03</internalNodes>
          <leafValues>
            -4.9952301383018494e-01 3.8344153761863708e-01</leafValues></_>
        <_>
          <internalNodes>
            0 -1 83 9.1029549366794527e-05</internalNodes>
          <leafValues>
            3.7162017822265625e-01 -4.6384507417678833e-01</leafValues></_></weakClassifiers></_>
    <!-- stage 13 -->
    <_>
      <maxWeakCount>9</maxWeakCount>
      <stageThreshold>-4.2288696765899658e-01</stageThreshold>
      <weakClassifiers>
        <_>
          <internalNodes>
            0 -1 4 -4.5994818210601807e-02</internalNodes>
          <leafValues>
            7.1014493703842163e-01 -2.1212121844291687e-01</leafValues></_>
        <_>
          <internalNodes>
            0 -1 0 4.4525224715471268e-02</internalNodes>
          <leafValues>
            -2.4876733124256134e-01 8.0001533031463623e-01</leafValues></_>
        <_>
          <internalNodes>
            0 -1 45 3.8615055382251740e-03</internalNodes>
          <leafValues>
            -4.0004256367683411e-01 3.7813681364059448e-01</leafValues></_>
        <_>
          <internalNodes>
            0 -1 70 -1.3603726401925087e-03</internalNodes>
          <leafValues>
            4.4057169556617737e-01 -3.5135093331336975e-01</leafValues></_>
        <_>
          <internalNodes>
            0 -1 7 4.5504182344302535e-04</internalNodes>
          <leafValues>
            -9.4047689437866211e-01 1.8082320690155029e-01</leafValues></_>
        <_>
          <internalNodes>
            0 -1 53 -2.2012405097484589e-03</internalNodes>
          <leafValues>
            3.5952094197273254e-01 -3.8776993751525879e-01</leafValues></_>
        <_>
          <internalNodes>
            0 -1 30 -3.9731353521347046e-02</internalNodes>
          <leafValues>
            -9.2867296934127808e-01 1.9191220402717590e-01</leafValues></_>
        <_>
          <internalNodes>
            0 -1 54 7.2756470181047916e-03</internalNodes>
          <leafValues>
            -2.2441163659095764e-01 7.8190147876739502e-01</leafValues></_>
        <_>
          <internalNodes>
            0 -1 20 1.1626878753304482e-02</internalNodes>
          <leafValues>
            -3.9796802401542664e-01 4.3595254421234131e-01</leafValues></_></weakClassifiers></_>
    <!-- stage 14 -->
    <_>
      <maxWeakCount>10</maxWeakCount>
      <stageThreshold>-8.6975473165512085e-01</stageThreshold>
      <weakClassifiers>
        <_>
          <internalNodes>
            0 -1 5 8.0356257967650890e-04</internalNodes>
          <leafValues>
            2.8455284237861633e-01 -4.5454546809196472e-01</leafValues></_>
        <_>
          <internalNodes>
            0 -1 32 8.9477866888046265e-02</internalNodes>
          <leafValues>
            1.8409314751625061e-01 -7.7248889207839966e-01</leafValues></_>
        <_>
          <internalNodes>
            0 -1 90 -5.1360554061830044e-04</internalNodes>
          <leafValues>
            -5.4560744762420654e-01 2.8468123078346252e-01</leafValues></_>
        <_>
          <internalNodes>
            0 -1 50 -1.9650631584227085e-03</internalNodes>
          <leafValues>
            3.8448721170425415e-01 -3.6066120862960815e-01</leafValues></_>
        <_>
          <internalNodes>
            0 -1 26 1.2948036892339587e-03</internalNodes>
          <leafValues>
            1.9544103741645813e-01 -6.4377599954605103e-01</leafValues></_>
        <_>
          <internalNodes>
            0 -1 62 -1.0138591751456261e-02</internalNodes>
          <leafValues>
            -9.1499412059783936e-01 1.1586943268775940e-01</leafValues></_>
        <_>
          <internalNodes>
            0 -1 84 -1.0587107390165329e-02</internalNodes>
          <leafValues>
            3.7985217571258545e-01 -3.9026334881782532e-01</leafValues></_>
        <_>
          <internalNodes>
            0 -1 61 2.2852853871881962e-03</internalNodes>
          <leafValues>
            -2.4295307695865631e-01 6.6504389047622681e-01</leafValues></_>
        <_>
          <internalNodes>
            0 -1 40 2.0920271053910255e-02</internalNodes>
          <leafValues>
            1.8646058440208435e-01 -8.8414007425308228e-01</leafValues></_>
        <_>
          <internalNodes>
            0 -1 85 3.3758830279111862e-02</internalNodes>
          <leafValues>
            -3.0273678898811340e-01 5.0518065690994263e-01</leafValues></_></weakClassifiers></_>
    <!-- stage 15 -->
    <_>
      <maxWeakCount>11</maxWeakCount>
      <stageThreshold>-1.1083902120590210e+00</stageThreshold>
      <weakClassifiers>
        <_>
          <internalNodes>
            0 -1 14 -1.4761023223400116e-01</internalNodes>
          <leafValues>
            3.9792388677597046e-01 -3.6977490782737732e-01</leafValues></_>
        <_>
          <internalNodes>
            0 -1 78 -1.0185454972088337e-02</internalNodes>
          <leafValues>
            6.4253687858581543e-01 -2.4455414712429047e-01</leafValues></_>
        <_>
          <internalNodes>
            0 -1 23 -4.2830415070056915e-02</internalNodes>
          <leafValues>
            7.5459975004196167e-01 -2.2641748189926147e-01</leafValues></_>
        <_>
          <internalNodes>
            0 -1 94 -2.9036672785878181e-03</internalNodes>
          <leafValues>
            5.3837502002716064e-01 -2.4981473386287689e-01</leafValues></_>
        <_>
          <internalNodes>
            0 -1 93 -2.3598418920300901e-04</internalNodes>
          <leafValues>
            -5.6874233484268188e-01 2.9972898960113525e-01</leafValues></_>
        <_>
          <internalNodes>
            0 -1 56 -4.5806192792952061e-04</internalNodes>
          <leafValues>
            4.2241057753562927e-01 -3.4850564599037170e-01</leafValues></_>
        <_>
          <internalNodes>
            0 -1 8 5.5503670591861010e-04</internalNodes>
          <leafValues>
            2.7532735466957092e-01 -5.2841180562973022e-01</leafValues></_>
        <_>
          <internalNodes>
            0 -1 68 1.8146303482353687e-03</internalNodes>
          <leafValues>
            3.2324844598770142e-01 -4.8872989416122437e-01</leafValues></_>
        <_>
          <internalNodes>
            0 -1 46 -6.6664274781942368e-03</internalNodes>
          <leafValues>
            5.4998320341110229e-01 -3.4262102842330933e-01</leafValues></_>
        <_>
          <internalNodes>
            0 -1 69 1.5305572014767677e-04</internalNodes>
          <leafValues>
            3.0722030997276306e-01 -6.5275490283966064e-01</leafValues></_>
        <_>
          <internalNodes>
            0 -1 38 -1.6234833310591057e-05</internalNodes>
          <leafValues>
            4.2508086562156677e-01 -4.5934316515922546e-01</leafValues></_></weakClassifiers></_></stages>
  <features>
    <_>
      <rects>
        <_>
          0 0 1 34 -1.</_>
        <_>
          0 17 1 17 2.</_></rects>
      <tilted>0</tilted></_>
    <_>
      <rects>
        <_>
          0 0 8 1 -1.</_>
        <_>
          4 0 4 1 2.</_></rects>
      <tilted>0</tilted></_>
    <_>
      <rects>
        <_>
          0 0 15 2 -1.</_>
        <_>
          0 1 15 1 2.</_></rects>
      <tilted>0</tilted></_>
    <_>
      <rects>
        <_>
          0 2 13 6 -1.</_>
        <_>
          0 4 13 2 3.</_></rects>
      <tilted>0</tilted></_>
    <_>
      <rects>
        <_>
          0 3 1 34 -1.</_>
        <_>
          0 20 1 17 2.</_></rects>
      <tilted>0</tilted></_>
    <_>
      <rects>
        <_>
          0 5 1 9 -1.</_>
        <_>
          0 8 1 3 3.</_></rects>
      <tilted>0</tilted></_>
    <_>
      <rects>
        <_>
          0 5 14 6 -1.</_>
        <_>
          0 8 14 3 2.</_></rects>
      <tilted>0</tilted></_>
    <_>
      <rects>
        <_>
          0 5 15 6 -1.</_>
        <_>
          0 8 15 3 2.</_></rects>
      <tilted>0</tilted></_>
    <_>
      <rects>
        <_>
          0 6 1 9 -1.</_>
        <_>
          0 9 1 3 3.</_></rects>
      <tilted>0</tilted></_>
    <_>
      <rects>
        <_>
          0 6 1 27 -1.</_>
        <_>
          0 15 1 9 3.</_></rects>
      <tilted>0</tilted></_>
    <_>
      <rects>
        <_>
          0 6 9 4 -1.</_>
        <_>
          0 8 9 2 2.</_></rects>
      <tilted>0</tilted></_>
    <_>
      <rects>
        <_>
          0 8 1 20 -1.</_>
        <_>
          0 13 1 10 2.</_></rects>
      <tilted>0</tilted></_>
    <_>
      <rects>
        <_>
          0 9 2 20 -1.</_>
        <_>
          1 9 1 20 2.</_></rects>
      <tilted>0</tilted></_>
    <_>
      <rects>
        <_>
          0 9 2 26 -1.</_>
        <_>
          1 9 1 26 2.</_></rects>
      <tilted>0</tilted></_>
    <_>
      <rects>
        <_>
          0 12 15 22 -1.</_>
        <_>
          0 23 15 11 2.</_></rects>
      <tilted>0</tilted></_>
    <_>
      <rects>
        <_>
          0 13 2 16 -1.</_>
        <_>
          1 13 1 16 2.</_></rects>
      <tilted>0</tilted></_>
    <_>
      <rects>
        <_>
          0 13 15 22 -1.</_>
        <_>
          0 24 15 11 2.</_></rects>
      <tilted>0</tilted></_>
    <_>
      <rects>
        <_>
          0 19 15 18 -1.</_>
        <_>
          0 28 15 9 2.</_></rects>
      <tilted>0</tilted></_>
    <_>
      <rects>
        <_>
          0 25 7 6 -1.</_>
        <_>
          0 28 7 3 2.</_></rects>
      <tilted>0</tilted></_>
    <_>
      <rects>
        <_>
          0 29 8 8 -1.</_>
        <_>
          0 33 8 4 2.</_></rects>
      <tilted>0</tilted></_>
    <_>
      <rects>
        <_>
          0 31 15 2 -1.</_>
        <_>
          5 31 5 2 3.</_></rects>
      <tilted>0</tilted></_>
    <_>
      <rects>
        <_>
          0 35 3 2 -1.</_>
        <_>
          0 36 3 1 2.</_></rects>
      <tilted>0</tilted></_>
    <_>
      <rects>
        <_>
          1 0 8 2 -1.</_>
        <_>
          5 0 4 2 2.</_></rects>
      <tilted>0</tilted></_>
    <_>
      <rects>
        <_>
          1 0 8 8 -1.</_>
        <_>
          1 0 4 4 2.</_>
        <_>
          5 4 4 4 2.</_></rects>
      <tilted>0</tilted></_>
    <_>
      <rects>
        <_>
          1 1 11 12 -1.</_>
        <_>
          1 7 11 6 2.</_></rects>
      <tilted>0</tilted></_>
    <_>
      <rects>
        <_>
          1 5 12 18 -1.</_>
        <_>
          5 11 4 6 9.</_></rects>
      <tilted>0</tilted></_>
    <_>
      <rects>
        <_>
          1 13 8 9 -1.</_>
        <_>
          3 13 4 9 2.</_></rects>
      <tilted>0</tilted></_>
    <_>
      <rects>
        <_>
          1 16 9 4 -1.</_>
        <_>
          4 16 3 4 3.</_></rects>
      <tilted>0</tilted></_>
    <_>
      <rects>
        <_>
          2 12 9 14 -1.</_>
        <_>
          5 12 3 14 3.</_></rects>
      <tilted>0</tilted></_>
    <_>
      <rects>
        <_>
          2 17 4 1 -1.</_>
        <_>
          3 17 2 1 2.</_></rects>
      <tilted>0</tilted></_>
    <_>
      <rects>
        <_>
          2 26 10 6 -1.</_>
        <_>
          2 29 10 3 2.</_></rects>
      <tilted>0</tilted></_>
    <_>
      <rects>
        <_>
          3 1 9 27 -1.</_>
        <_>
          6 10 3 9 9.</_></rects>
      <tilted>0</tilted></_>
    <_>
      <rects>
        <_>
          3 1 9 24 -1.</_>
        <_>
          3 7 9 12 2.</_></rects>
      <tilted>0</tilted></_>
    <_>
      <rects>
        <_>
          3 7 8 3 -1.</_>
        <_>
          3 8 8 1 3.</_></rects>
      <tilted>0</tilted></_>
    <_>
      <rects>
        <_>
          3 7 12 18 -1.</_>
        <_>
          3 13 12 6 3.</_></rects>
      <tilted>0</tilted></_>
    <_>
      <rects>
        <_>
          3 12 1 4 -1.</_>
        <_>
          3 13 1 2 2.</_></rects>
      <tilted>0</tilted></_>
    <_>
      <rects>
        <_>
          3 15 6 2 -1.</_>
        <_>
          3 15 3 1 2.</_>
        <_>
          6 16 3 1 2.</_></rects>
      <tilted>0</tilted></_>
    <_>
      <rects>
        <_>
          3 19 11 12 -1.</_>
        <_>
          3 22 11 6 2.</_></rects>
      <tilted>0</tilted></_>
    <_>
      <rects>
        <_>
          3 28 1 3 -1.</_>
        <_>
          3 29 1 1 3.</_></rects>
      <tilted>0</tilted></_>
    <_>
      <rects>
        <_>
          4 14 3 3 -1.</_>
        <_>
          5 15 1 1 9.</_></rects>
      <tilted>0</tilted></_>
    <_>
      <rects>
        <_>
          4 15 10 6 -1.</_>
        <_>
          4 15 5 3 2.</_>
        <_>
          9 18 5 3 2.</_></rects>
      <tilted>0</tilted></_>
    <_>
      <rects>
        <_>
          4 15 10 8 -1.</_>
        <_>
          9 15 5 8 2.</_></rects>
      <tilted>0</tilted></_>
    <_>
      <rects>
        <_>
          4 16 10 7 -1.</_>
        <_>
          9 16 5 7 2.</_></rects>
      <tilted>0</tilted></_>
    <_>
      <rects>
        <_>
          5 0 10 1 -1.</_>
        <_>
          10 0 5 1 2.</_></rects>
      <tilted>0</tilted></_>
    <_>
      <rects>
        <_>
          5 3 3 30 -1.</_>
        <_>
          5 18 3 15 2.</_></rects>
      <tilted>0</tilted></_>
    <_>
      <rects>
        <_>
          5 5 7 6 -1.</_>
        <_>
          5 7 7 2 3.</_></rects>
      <tilted>0</tilted></_>
    <_>
      <rects>
        <_>
          5 15 3 3 -1.</_>
        <_>
          6 16 1 1 9.</_></rects>
      <tilted>0</tilted></_>
    <_>
      <rects>
        <_>
          5 16 3 3 -1.</_>
        <_>
          6 17 1 1 9.</_></rects>
      <tilted>0</tilted></_>
    <_>
      <rects>
        <_>
          5 18 3 3 -1.</_>
        <_>
          6 19 1 1 9.</_></rects>
      <tilted>0</tilted></_>
    <_>
      <rects>
        <_>
          5 21 5 3 -1.</_>
        <_>
          5 22 5 1 3.</_></rects>
      <tilted>0</tilted></_>
    <_>
      <rects>
        <_>
          5 25 3 6 -1.</_>
        <_>
          5 28 3 3 2.</_></rects>
      <tilted>0</tilted></_>
    <_>
      <rects>
        <_>
          6 0 4 5 -1.</_>
        <_>
          6 0 2 5 2.</_></rects>
      <tilted>1</tilted></_>
    <_>
      <rects>
        <_>
          6 13 8 10 -1.</_>
        <_>
          8 13 4 10 2.</_></rects>
      <tilted>0</tilted></_>
    <_>
      <rects>
        <_>
          6 16 3 3 -1.</_>
        <_>
          7 17 1 1 9.</_></rects>
      <tilted>0</tilted></_>
    <_>
      <rects>
        <_>
          6 16 3 3 -1.</_>
        <_>
          6 17 3 1 3.</_></rects>
      <tilted>0</tilted></_>
    <_>
      <rects>
        <_>
          7 8 6 2 -1.</_>
        <_>
          7 8 3 1 2.</_>
        <_>
          10 9 3 1 2.</_></rects>
      <tilted>0</tilted></_>
    <_>
      <rects>
        <_>
          7 12 2 2 -1.</_>
        <_>
          7 13 2 1 2.</_></rects>
      <tilted>0</tilted></_>
    <_>
      <rects>
        <_>
          7 15 1 3 -1.</_>
        <_>
          7 16 1 1 3.</_></rects>
      <tilted>0</tilted></_>
    <_>
      <rects>
        <_>
          7 17 3 3 -1.</_>
        <_>
          8 18 1 1 9.</_></rects>
      <tilted>0</tilted></_>
    <_>
      <rects>
        <_>
          7 23 4 3 -1.</_>
        <_>
          7 24 4 1 3.</_></rects>
      <tilted>0</tilted></_>
    <_>
      <rects>
        <_>
          7 29 2 3 -1.</_>
        <_>
          7 30 2 1 3.</_></rects>
      <tilted>0</tilted></_>
    <_>
      <rects>
        <_>
          8 3 4 2 -1.</_>
        <_>
          8 4 4 1 2.</_></rects>
      <tilted>0</tilted></_>
    <_>
      <rects>
        <_>
          8 7 4 6 -1.</_>
        <_>
          8 9 4 2 3.</_></rects>
      <tilted>0</tilted></_>
    <_>
      <rects>
        <_>
          8 14 1 3 -1.</_>
        <_>
          8 15 1 1 3.</_></rects>
      <tilted>0</tilted></_>
    <_>
      <rects>
        <_>
          8 15 3 3 -1.</_>
        <_>
          9 16 1 1 9.</_></rects>
      <tilted>0</tilted></_>
    <_>
      <rects>
        <_>
          8 16 6 2 -1.</_>
        <_>
          10 16 2 2 3.</_></rects>
      <tilted>0</tilted></_>
    <_>
      <rects>
        <_>
          8 17 1 4 -1.</_>
        <_>
          8 18 1 2 2.</_></rects>
      <tilted>0</tilted></_>
    <_>
      <rects>
        <_>
          9 15 4 3 -1.</_>
        <_>
          11 15 2 3 2.</_></rects>
      <tilted>0</tilted></_>
    <_>
      <rects>
        <_>
          9 15 6 6 -1.</_>
        <_>
          11 17 2 6 3.</_></rects>
      <tilted>1</tilted></_>
    <_>
      <rects>
        <_>
          10 0 4 1 -1.</_>
        <_>
          12 0 2 1 2.</_></rects>
      <tilted>0</tilted></_>
    <_>
      <rects>
        <_>
          10 16 2 2 -1.</_>
        <_>
          10 17 2 1 2.</_></rects>
      <tilted>0</tilted></_>
    <_>
      <rects>
        <_>
          10 16 2 10 -1.</_>
        <_>
          10 16 2 5 2.</_></rects>
      <tilted>1</tilted></_>
    <_>
      <rects>
        <_>
          11 1 3 32 -1.</_>
        <_>
          11 9 3 16 2.</_></rects>
      <tilted>0</tilted></_>
    <_>
      <rects>
        <_>
          11 6 4 28 -1.</_>
        <_>
          11 6 2 14 2.</_>
        <_>
          13 20 2 14 2.</_></rects>
      <tilted>0</tilted></_>
    <_>
      <rects>
        <_>
          11 13 4 6 -1.</_>
        <_>
          11 13 2 3 2.</_>
        <_>
          13 16 2 3 2.</_></rects>
      <tilted>0</tilted></_>
    <_>
      <rects>
        <_>
          11 15 4 3 -1.</_>
        <_>
          12 15 2 3 2.</_></rects>
      <tilted>0</tilted></_>
    <_>
      <rects>
        <_>
          11 16 2 2 -1.</_>
        <_>
          12 16 1 2 2.</_></rects>
      <tilted>0</tilted></_>
    <_>
      <rects>
        <_>
          12 1 3 36 -1.</_>
        <_>
          13 13 1 12 9.</_></rects>
      <tilted>0</tilted></_>
    <_>
      <rects>
        <_>
          12 13 3 8 -1.</_>
        <_>
          13 14 1 8 3.</_></rects>
      <tilted>1</tilted></_>
    <_>
      <rects>
        <_>
          12 17 2 2 -1.</_>
        <_>
          13 17 1 2 2.</_></rects>
      <tilted>0</tilted></_>
    <_>
      <rects>
        <_>
          12 22 3 1 -1.</_>
        <_>
          13 22 1 1 3.</_></rects>
      <tilted>0</tilted></_>
    <_>
      <rects>
        <_>
          13 0 2 36 -1.</_>
        <_>
          14 0 1 36 2.</_></rects>
      <tilted>0</tilted></_>
    <_>
      <rects>
        <_>
          13 0 2 2 -1.</_>
        <_>
          13 1 2 1 2.</_></rects>
      <tilted>0</tilted></_>
    <_>
      <rects>
        <_>
          13 0 2 3 -1.</_>
        <_>
          13 1 2 1 3.</_></rects>
      <tilted>0</tilted></_>
    <_>
      <rects>
        <_>
          13 5 2 26 -1.</_>
        <_>
          14 5 1 26 2.</_></rects>
      <tilted>0</tilted></_>
    <_>
      <rects>
        <_>
          13 9 2 16 -1.</_>
        <_>
          13 13 2 8 2.</_></rects>
      <tilted>0</tilted></_>
    <_>
      <rects>
        <_>
          13 14 2 3 -1.</_>
        <_>
          14 14 1 3 2.</_></rects>
      <tilted>0</tilted></_>
    <_>
      <rects>
        <_>
          13 15 1 3 -1.</_>
        <_>
          12 16 1 1 3.</_></rects>
      <tilted>1</tilted></_>
    <_>
      <rects>
        <_>
          13 29 2 8 -1.</_>
        <_>
          13 33 2 4 2.</_></rects>
      <tilted>0</tilted></_>
    <_>
      <rects>
        <_>
          13 35 2 2 -1.</_>
        <_>
          13 36 2 1 2.</_></rects>
      <tilted>0</tilted></_>
    <_>
      <rects>
        <_>
          14 0 1 8 -1.</_>
        <_>
          14 2 1 4 2.</_></rects>
      <tilted>0</tilted></_>
    <_>
      <rects>
        <_>
          14 0 1 32 -1.</_>
        <_>
          14 16 1 16 2.</_></rects>
      <tilted>0</tilted></_>
    <_>
      <rects>
        <_>
          14 7 1 28 -1.</_>
        <_>
          14 21 1 14 2.</_></rects>
      <tilted>0</tilted></_>
    <_>
      <rects>
        <_>
          14 9 1 4 -1.</_>
        <_>
          14 11 1 2 2.</_></rects>
      <tilted>0</tilted></_>
    <_>
      <rects>
        <_>
          14 11 1 6 -1.</_>
        <_>
          14 13 1 2 3.</_></rects>
      <tilted>0</tilted></_>
    <_>
      <rects>
        <_>
          14 14 1 3 -1.</_>
        <_>
          13 15 1 1 3.</_></rects>
      <tilted>1</tilted></_>
    <_>
      <rects>
        <_>
          14 15 1 4 -1.</_>
        <_>
          14 15 1 2 2.</_></rects>
      <tilted>1</tilted></_>
    <_>
      <rects>
        <_>
          14 17 1 12 -1.</_>
        <_>
          14 23 1 6 2.</_></rects>
      <tilted>0</tilted></_>
    <_>
      <rects>
        <_>
          14 25 1 12 -1.</_>
        <_>
          14 31 1 6 2.</_></rects>
      <tilted>0</tilted></_></features></cascade>
</opencv_storage>
