<?xml version="1.0"?>
<opencv_storage>
<stage13>
  <maxWeakCount>9</maxWeakCount>
  <stageThreshold>-4.2288696765899658e-01</stageThreshold>
  <weakClassifiers>
    <_>
      <internalNodes>
        0 -1 3987 -4.5994818210601807e-02</internalNodes>
      <leafValues>
        7.1014493703842163e-01 -2.1212121844291687e-01</leafValues></_>
    <_>
      <internalNodes>
        0 -1 114 4.4525224715471268e-02</internalNodes>
      <leafValues>
        -2.4876733124256134e-01 8.0001533031463623e-01</leafValues></_>
    <_>
      <internalNodes>
        0 -1 119092 3.8615055382251740e-03</internalNodes>
      <leafValues>
        -4.0004256367683411e-01 3.7813681364059448e-01</leafValues></_>
    <_>
      <internalNodes>
        0 -1 200822 -1.3603726401925087e-03</internalNodes>
      <leafValues>
        4.4057169556617737e-01 -3.5135093331336975e-01</leafValues></_>
    <_>
      <internalNodes>
        0 -1 7411 4.5504182344302535e-04</internalNodes>
      <leafValues>
        -9.4047689437866211e-01 1.8082320690155029e-01</leafValues></_>
    <_>
      <internalNodes>
        0 -1 144843 -2.2012405097484589e-03</internalNodes>
      <leafValues>
        3.5952094197273254e-01 -3.8776993751525879e-01</leafValues></_>
    <_>
      <internalNodes>
        0 -1 69570 -3.9731353521347046e-02</internalNodes>
      <leafValues>
        -9.2867296934127808e-01 1.9191220402717590e-01</leafValues></_>
    <_>
      <internalNodes>
        0 -1 145091 7.2756470181047916e-03</internalNodes>
      <leafValues>
        -2.2441163659095764e-01 7.8190147876739502e-01</leafValues></_>
    <_>
      <internalNodes>
        0 -1 24400 1.1626878753304482e-02</internalNodes>
      <leafValues>
        -3.9796802401542664e-01 4.3595254421234131e-01</leafValues></_></weakClassifiers></stage13>
</opencv_storage>
