<?xml version="1.0"?>
<opencv_storage>
<stage7>
  <maxWeakCount>6</maxWeakCount>
  <stageThreshold>-8.0248343944549561e-01</stageThreshold>
  <weakClassifiers>
    <_>
      <internalNodes>
        0 -1 171647 -4.7508310526609421e-03</internalNodes>
      <leafValues>
        2.3577235639095306e-01 -7.2881358861923218e-01</leafValues></_>
    <_>
      <internalNodes>
        0 -1 86795 -1.8184978980571032e-03</internalNodes>
      <leafValues>
        3.2277825474739075e-01 -8.4114015102386475e-01</leafValues></_>
    <_>
      <internalNodes>
        0 -1 79802 -1.1644733604043722e-03</internalNodes>
      <leafValues>
        6.1056810617446899e-01 -4.6120604872703552e-01</leafValues></_>
    <_>
      <internalNodes>
        0 -1 90446 3.6493696272373199e-02</internalNodes>
      <leafValues>
        -4.4619140028953552e-01 7.4105113744735718e-01</leafValues></_>
    <_>
      <internalNodes>
        0 -1 187955 -7.1143491368275136e-05</internalNodes>
      <leafValues>
        -9.3378406763076782e-01 4.1150176525115967e-01</leafValues></_>
    <_>
      <internalNodes>
        0 -1 51359 -1.7455898341722786e-04</internalNodes>
      <leafValues>
        4.8014748096466064e-01 -7.0326203107833862e-01</leafValues></_></weakClassifiers></stage7>
</opencv_storage>
