<?xml version="1.0"?>
<opencv_storage>
<stage4>
  <maxWeakCount>6</maxWeakCount>
  <stageThreshold>-1.3541365861892700e+00</stageThreshold>
  <weakClassifiers>
    <_>
      <internalNodes>
        0 -1 24364 -1.5560809522867203e-02</internalNodes>
      <leafValues>
        6.2237763404846191e-01 -5.6687897443771362e-01</leafValues></_>
    <_>
      <internalNodes>
        0 -1 109346 -1.3259259285405278e-03</internalNodes>
      <leafValues>
        8.7475025653839111e-01 -4.3059217929840088e-01</leafValues></_>
    <_>
      <internalNodes>
        0 -1 110817 -4.0594879537820816e-02</internalNodes>
      <leafValues>
        5.8442169427871704e-01 -6.1459332704544067e-01</leafValues></_>
    <_>
      <internalNodes>
        0 -1 92529 2.0926226861774921e-03</internalNodes>
      <leafValues>
        -3.5989040136337280e-01 9.5278161764144897e-01</leafValues></_>
    <_>
      <internalNodes>
        0 -1 92598 -1.8385406583547592e-03</internalNodes>
      <leafValues>
        8.5741889476776123e-01 -3.2798850536346436e-01</leafValues></_>
    <_>
      <internalNodes>
        0 -1 109572 -1.5233675949275494e-03</internalNodes>
      <leafValues>
        8.3802747726440430e-01 -3.5953572392463684e-01</leafValues></_></weakClassifiers></stage4>
</opencv_storage>
