<?xml version="1.0"?>
<opencv_storage>
<stage5>
  <maxWeakCount>8</maxWeakCount>
  <stageThreshold>-6.9987261295318604e-01</stageThreshold>
  <weakClassifiers>
    <_>
      <internalNodes>
        0 -1 151545 1.6324192285537720e-01</internalNodes>
      <leafValues>
        -3.7157106399536133e-01 7.4874371290206909e-01</leafValues></_>
    <_>
      <internalNodes>
        0 -1 109984 -1.2698016362264752e-03</internalNodes>
      <leafValues>
        6.8420654535293579e-01 -3.1881999969482422e-01</leafValues></_>
    <_>
      <internalNodes>
        0 -1 150106 1.1803375557065010e-02</internalNodes>
      <leafValues>
        -4.4610187411308289e-01 6.6668975353240967e-01</leafValues></_>
    <_>
      <internalNodes>
        0 -1 8151 -2.7369398158043623e-03</internalNodes>
      <leafValues>
        3.9540991187095642e-01 -6.3006633520126343e-01</leafValues></_>
    <_>
      <internalNodes>
        0 -1 203639 3.1060283072292805e-03</internalNodes>
      <leafValues>
        -3.3632433414459229e-01 7.2839516401290894e-01</leafValues></_>
    <_>
      <internalNodes>
        0 -1 223426 -2.0824436796829104e-04</internalNodes>
      <leafValues>
        -7.9848486185073853e-01 2.6793462038040161e-01</leafValues></_>
    <_>
      <internalNodes>
        0 -1 203630 -5.1038442179560661e-03</internalNodes>
      <leafValues>
        7.8030210733413696e-01 -3.1645017862319946e-01</leafValues></_>
    <_>
      <internalNodes>
        0 -1 213528 -2.8718385146930814e-04</internalNodes>
      <leafValues>
        -6.6383934020996094e-01 4.2605033516883850e-01</leafValues></_></weakClassifiers></stage5>
</opencv_storage>
