<?xml version="1.0"?>
<opencv_storage>
<stage14>
  <maxWeakCount>8</maxWeakCount>
  <stageThreshold>-8.0142444372177124e-01</stageThreshold>
  <weakClassifiers>
    <_>
      <internalNodes>
        0 -1 142875 1.7088133096694946e-01</internalNodes>
      <leafValues>
        -3.6269429326057434e-01 6.5420562028884888e-01</leafValues></_>
    <_>
      <internalNodes>
        0 -1 190788 -1.3458779081702232e-02</internalNodes>
      <leafValues>
        6.0552096366882324e-01 -2.3624774813652039e-01</leafValues></_>
    <_>
      <internalNodes>
        0 -1 33951 1.0958016850054264e-02</internalNodes>
      <leafValues>
        -5.0871825218200684e-01 2.8109264373779297e-01</leafValues></_>
    <_>
      <internalNodes>
        0 -1 11548 2.1390873938798904e-02</internalNodes>
      <leafValues>
        1.3501781225204468e-01 -9.0491795539855957e-01</leafValues></_>
    <_>
      <internalNodes>
        0 -1 86387 1.6443918866571039e-04</internalNodes>
      <leafValues>
        -3.5303607583045959e-01 3.9115226268768311e-01</leafValues></_>
    <_>
      <internalNodes>
        0 -1 14487 8.5705304518342018e-03</internalNodes>
      <leafValues>
        -2.0804774761199951e-01 6.9008445739746094e-01</leafValues></_>
    <_>
      <internalNodes>
        0 -1 222106 -5.1612692186608911e-04</internalNodes>
      <leafValues>
        5.3704696893692017e-01 -3.2364386320114136e-01</leafValues></_>
    <_>
      <internalNodes>
        0 -1 108750 2.8207350522279739e-02</internalNodes>
      <leafValues>
        2.6613482832908630e-01 -8.5096657276153564e-01</leafValues></_></weakClassifiers></stage14>
</opencv_storage>
