<?xml version="1.0"?>
<opencv_storage>
<stage6>
  <maxWeakCount>5</maxWeakCount>
  <stageThreshold>-2.6665446162223816e-01</stageThreshold>
  <weakClassifiers>
    <_>
      <internalNodes>
        0 -1 27478 -7.5200330466032028e-03</internalNodes>
      <leafValues>
        3.7046006321907043e-01 -8.1818181276321411e-01</leafValues></_>
    <_>
      <internalNodes>
        0 -1 1833 7.0609807968139648e-02</internalNodes>
      <leafValues>
        -7.8027677536010742e-01 3.2047051191329956e-01</leafValues></_>
    <_>
      <internalNodes>
        0 -1 17465 3.0257380008697510e-01</internalNodes>
      <leafValues>
        2.8852444887161255e-01 -9.7973787784576416e-01</leafValues></_>
    <_>
      <internalNodes>
        0 -1 38580 -1.7717942595481873e-02</internalNodes>
      <leafValues>
        6.4181619882583618e-01 -4.8371651768684387e-01</leafValues></_>
    <_>
      <internalNodes>
        0 -1 3902 -1.8089685589075089e-02</internalNodes>
      <leafValues>
        4.2624890804290771e-01 -6.8298566341400146e-01</leafValues></_></weakClassifiers></stage6>
</opencv_storage>
