<?xml version="1.0"?>
<opencv_storage>
<stage5>
  <maxWeakCount>8</maxWeakCount>
  <stageThreshold>-8.9258265495300293e-01</stageThreshold>
  <weakClassifiers>
    <_>
      <internalNodes>
        0 -1 392 1.9010677933692932e-02</internalNodes>
      <leafValues>
        -3.9100345969200134e-01 5.3554505109786987e-01</leafValues></_>
    <_>
      <internalNodes>
        0 -1 49944 1.7790412530303001e-02</internalNodes>
      <leafValues>
        -6.8807005882263184e-01 3.4678524732589722e-01</leafValues></_>
    <_>
      <internalNodes>
        0 -1 76404 1.3118670322000980e-03</internalNodes>
      <leafValues>
        2.4181619286537170e-01 -7.2052067518234253e-01</leafValues></_>
    <_>
      <internalNodes>
        0 -1 118538 4.7709565842524171e-04</internalNodes>
      <leafValues>
        2.4631652235984802e-01 -7.4670773744583130e-01</leafValues></_>
    <_>
      <internalNodes>
        0 -1 114901 -1.0649872943758965e-02</internalNodes>
      <leafValues>
        5.4098290205001831e-01 -3.4034776687622070e-01</leafValues></_>
    <_>
      <internalNodes>
        0 -1 122751 -3.3227819949388504e-03</internalNodes>
      <leafValues>
        3.4383770823478699e-01 -4.4561028480529785e-01</leafValues></_>
    <_>
      <internalNodes>
        0 -1 9930 -3.5336051951162517e-04</internalNodes>
      <leafValues>
        -5.3971147537231445e-01 3.3803141117095947e-01</leafValues></_>
    <_>
      <internalNodes>
        0 -1 69559 -5.7944599539041519e-03</internalNodes>
      <leafValues>
        -8.6554825305938721e-01 1.9274868071079254e-01</leafValues></_></weakClassifiers></stage5>
</opencv_storage>
