<?xml version="1.0"?>
<opencv_storage>
<stage8>
  <maxWeakCount>11</maxWeakCount>
  <stageThreshold>-1.2740511894226074e+00</stageThreshold>
  <weakClassifiers>
    <_>
      <internalNodes>
        0 -1 9229 2.2639323025941849e-02</internalNodes>
      <leafValues>
        -6.7892974615097046e-01 2.8958630561828613e-01</leafValues></_>
    <_>
      <internalNodes>
        0 -1 113349 -4.5494288206100464e-02</internalNodes>
      <leafValues>
        4.1248163580894470e-01 -3.7353318929672241e-01</leafValues></_>
    <_>
      <internalNodes>
        0 -1 104639 7.1257157251238823e-03</internalNodes>
      <leafValues>
        -2.4875907599925995e-01 5.6710898876190186e-01</leafValues></_>
    <_>
      <internalNodes>
        0 -1 500 9.1233123093843460e-03</internalNodes>
      <leafValues>
        -4.0299466252326965e-01 3.4899061918258667e-01</leafValues></_>
    <_>
      <internalNodes>
        0 -1 62251 7.2249318473041058e-03</internalNodes>
      <leafValues>
        -1.9932019710540771e-01 8.0636173486709595e-01</leafValues></_>
    <_>
      <internalNodes>
        0 -1 62609 -5.3469073027372360e-03</internalNodes>
      <leafValues>
        6.5596187114715576e-01 -2.7693617343902588e-01</leafValues></_>
    <_>
      <internalNodes>
        0 -1 110676 8.0969091504812241e-04</internalNodes>
      <leafValues>
        2.7152004837989807e-01 -7.2298139333724976e-01</leafValues></_>
    <_>
      <internalNodes>
        0 -1 99449 2.1063019521534443e-03</internalNodes>
      <leafValues>
        -2.3643310368061066e-01 6.4912182092666626e-01</leafValues></_>
    <_>
      <internalNodes>
        0 -1 41124 -4.7508981078863144e-02</internalNodes>
      <leafValues>
        3.2363367080688477e-01 -4.6532094478607178e-01</leafValues></_>
    <_>
      <internalNodes>
        0 -1 40531 -3.3992175012826920e-02</internalNodes>
      <leafValues>
        -7.9805237054824829e-01 1.9520212709903717e-01</leafValues></_>
    <_>
      <internalNodes>
        0 -1 116321 4.7926492989063263e-03</internalNodes>
      <leafValues>
        -3.8609963655471802e-01 3.8017743825912476e-01</leafValues></_></weakClassifiers></stage8>
</opencv_storage>
