<?xml version="1.0"?>
<opencv_storage>
<stage2>
  <maxWeakCount>5</maxWeakCount>
  <stageThreshold>-9.3004107475280762e-01</stageThreshold>
  <weakClassifiers>
    <_>
      <internalNodes>
        0 -1 69302 3.3756591379642487e-02</internalNodes>
      <leafValues>
        -7.8172588348388672e-01 5.0825083255767822e-01</leafValues></_>
    <_>
      <internalNodes>
        0 -1 80391 6.0837361961603165e-03</internalNodes>
      <leafValues>
        -4.6915212273597717e-01 8.2815968990325928e-01</leafValues></_>
    <_>
      <internalNodes>
        0 -1 92571 5.2792839705944061e-03</internalNodes>
      <leafValues>
        -7.5889080762863159e-01 4.3751248717308044e-01</leafValues></_>
    <_>
      <internalNodes>
        0 -1 583 4.5475000515580177e-03</internalNodes>
      <leafValues>
        -7.6685172319412231e-01 3.8226497173309326e-01</leafValues></_>
    <_>
      <internalNodes>
        0 -1 86290 2.2682333365082741e-03</internalNodes>
      <leafValues>
        -4.9894049763679504e-01 6.9924360513687134e-01</leafValues></_></weakClassifiers></stage2>
</opencv_storage>
