<?xml version="1.0"?>
<opencv_storage>
<stage6>
  <maxWeakCount>6</maxWeakCount>
  <stageThreshold>-1.2525070905685425e+00</stageThreshold>
  <weakClassifiers>
    <_>
      <internalNodes>
        0 -1 25621 -1.7300385981798172e-02</internalNodes>
      <leafValues>
        5.4920637607574463e-01 -6.0701751708984375e-01</leafValues></_>
    <_>
      <internalNodes>
        0 -1 120771 4.4829398393630981e-03</internalNodes>
      <leafValues>
        -6.2780338525772095e-01 5.0270599126815796e-01</leafValues></_>
    <_>
      <internalNodes>
        0 -1 85127 -4.6583181247115135e-03</internalNodes>
      <leafValues>
        8.4442073106765747e-01 -3.4242802858352661e-01</leafValues></_>
    <_>
      <internalNodes>
        0 -1 104097 -3.4955590963363647e-03</internalNodes>
      <leafValues>
        8.8487660884857178e-01 -4.6647742390632629e-01</leafValues></_>
    <_>
      <internalNodes>
        0 -1 114321 -1.3407433405518532e-02</internalNodes>
      <leafValues>
        5.6133806705474854e-01 -7.7916270494461060e-01</leafValues></_>
    <_>
      <internalNodes>
        0 -1 119300 -2.4294189643114805e-03</internalNodes>
      <leafValues>
        4.3416875600814819e-01 -7.4697613716125488e-01</leafValues></_></weakClassifiers></stage6>
</opencv_storage>
