<?xml version="1.0"?>
<opencv_storage>
<stage10>
  <maxWeakCount>6</maxWeakCount>
  <stageThreshold>-6.5763711929321289e-01</stageThreshold>
  <weakClassifiers>
    <_>
      <internalNodes>
        0 -1 261863 2.4723952636122704e-02</internalNodes>
      <leafValues>
        -2.6881721615791321e-01 9.2592591047286987e-01</leafValues></_>
    <_>
      <internalNodes>
        0 -1 576902 2.9689693823456764e-02</internalNodes>
      <leafValues>
        3.2656171917915344e-01 -8.0006128549575806e-01</leafValues></_>
    <_>
      <internalNodes>
        0 -1 510726 -5.3216214291751385e-04</internalNodes>
      <leafValues>
        7.5858849287033081e-01 -3.0955460667610168e-01</leafValues></_>
    <_>
      <internalNodes>
        0 -1 641721 -3.2942026155069470e-04</internalNodes>
      <leafValues>
        -6.4102119207382202e-01 3.4050291776657104e-01</leafValues></_>
    <_>
      <internalNodes>
        0 -1 366180 7.9942750744521618e-04</internalNodes>
      <leafValues>
        -3.2636359333992004e-01 7.1002739667892456e-01</leafValues></_>
    <_>
      <internalNodes>
        0 -1 624817 3.9957864210009575e-03</internalNodes>
      <leafValues>
        -3.2973432540893555e-01 6.6506576538085938e-01</leafValues></_></weakClassifiers></stage10>
</opencv_storage>
