<?xml version="1.0"?>
<opencv_storage>
<stage13>
  <maxWeakCount>10</maxWeakCount>
  <stageThreshold>-1.1787204742431641e+00</stageThreshold>
  <weakClassifiers>
    <_>
      <internalNodes>
        0 -1 17525 -4.3524831533432007e-02</internalNodes>
      <leafValues>
        1.9117647409439087e-01 -6.4156627655029297e-01</leafValues></_>
    <_>
      <internalNodes>
        0 -1 11363 -3.6332975141704082e-03</internalNodes>
      <leafValues>
        3.1061387062072754e-01 -3.8970035314559937e-01</leafValues></_>
    <_>
      <internalNodes>
        0 -1 79133 -7.7823316678404808e-04</internalNodes>
      <leafValues>
        2.2110927104949951e-01 -5.2388525009155273e-01</leafValues></_>
    <_>
      <internalNodes>
        0 -1 89197 9.7404439002275467e-03</internalNodes>
      <leafValues>
        -1.7111998796463013e-01 6.8116337060928345e-01</leafValues></_>
    <_>
      <internalNodes>
        0 -1 62301 -3.5553164780139923e-02</internalNodes>
      <leafValues>
        -8.7124276161193848e-01 1.4387489855289459e-01</leafValues></_>
    <_>
      <internalNodes>
        0 -1 21661 -7.1575805544853210e-02</internalNodes>
      <leafValues>
        -9.2499089241027832e-01 1.1930368095636368e-01</leafValues></_>
    <_>
      <internalNodes>
        0 -1 21798 -1.2659031897783279e-02</internalNodes>
      <leafValues>
        1.3342659175395966e-01 -8.5737568140029907e-01</leafValues></_>
    <_>
      <internalNodes>
        0 -1 54804 2.9786925762891769e-02</internalNodes>
      <leafValues>
        7.5778611004352570e-02 -9.3513661623001099e-01</leafValues></_>
    <_>
      <internalNodes>
        0 -1 41234 -1.3344384729862213e-02</internalNodes>
      <leafValues>
        6.1398577690124512e-01 -2.1542085707187653e-01</leafValues></_>
    <_>
      <internalNodes>
        0 -1 89156 3.6951858783140779e-04</internalNodes>
      <leafValues>
        -3.1588721275329590e-01 3.6379370093345642e-01</leafValues></_></weakClassifiers></stage13>
</opencv_storage>
