<?xml version="1.0"?>
<opencv_storage>
<cascade>
  <stageType>BOOST</stageType>
  <featureType>HAAR</featureType>
  <height>50</height>
  <width>20</width>
  <stageParams>
    <boostType>GAB</boostType>
    <minHitRate>9.9900001287460327e-01</minHitRate>
    <maxFalseAlarm>4.7499999403953552e-01</maxFalseAlarm>
    <weightTrimRate>9.4999999999999996e-01</weightTrimRate>
    <maxDepth>1</maxDepth>
    <maxWeakCount>100</maxWeakCount></stageParams>
  <featureParams>
    <maxCatCount>0</maxCatCount>
    <featSize>1</featSize>
    <mode>BASIC</mode></featureParams>
  <stageNum>15</stageNum>
  <stages>
    <!-- stage 0 -->
    <_>
      <maxWeakCount>4</maxWeakCount>
      <stageThreshold>-1.2448569536209106e+00</stageThreshold>
      <weakClassifiers>
        <_>
          <internalNodes>
            0 -1 54 -3.1400464940816164e-03</internalNodes>
          <leafValues>
            8.3870965242385864e-01 -8.3098590373992920e-01</leafValues></_>
        <_>
          <internalNodes>
            0 -1 32 1.0961538464471232e-05</internalNodes>
          <leafValues>
            -6.8296867609024048e-01 7.5592970848083496e-01</leafValues></_>
        <_>
          <internalNodes>
            0 -1 55 -7.4050717557838652e-06</internalNodes>
          <leafValues>
            8.2438373565673828e-01 -5.7104355096817017e-01</leafValues></_>
        <_>
          <internalNodes>
            0 -1 63 1.5047506167320535e-05</internalNodes>
          <leafValues>
            -4.9151322245597839e-01 8.4014123678207397e-01</leafValues></_></weakClassifiers></_>
    <!-- stage 1 -->
    <_>
      <maxWeakCount>4</maxWeakCount>
      <stageThreshold>-1.1794650554656982e+00</stageThreshold>
      <weakClassifiers>
        <_>
          <internalNodes>
            0 -1 24 -9.5502194017171860e-03</internalNodes>
          <leafValues>
            4.8437500000000000e-01 -7.3933649063110352e-01</leafValues></_>
        <_>
          <internalNodes>
            0 -1 15 -2.4068350903689861e-03</internalNodes>
          <leafValues>
            4.3347725272178650e-01 -7.4038916826248169e-01</leafValues></_>
        <_>
          <internalNodes>
            0 -1 51 8.4756652358919382e-04</internalNodes>
          <leafValues>
            -5.0102132558822632e-01 7.6087903976440430e-01</leafValues></_>
        <_>
          <internalNodes>
            0 -1 75 -1.1440934613347054e-03</internalNodes>
          <leafValues>
            8.0128192901611328e-01 -3.4887358546257019e-01</leafValues></_></weakClassifiers></_>
    <!-- stage 2 -->
    <_>
      <maxWeakCount>6</maxWeakCount>
      <stageThreshold>-1.4921846389770508e+00</stageThreshold>
      <weakClassifiers>
        <_>
          <internalNodes>
            0 -1 2 -4.7358468174934387e-01</internalNodes>
          <leafValues>
            8.4615385532379150e-01 -6.2886595726013184e-01</leafValues></_>
        <_>
          <internalNodes>
            0 -1 92 -3.5292355460114777e-04</internalNodes>
          <leafValues>
            7.8775429725646973e-01 -3.5608139634132385e-01</leafValues></_>
        <_>
          <internalNodes>
            0 -1 28 7.9858052777126431e-04</internalNodes>
          <leafValues>
            -2.8476801514625549e-01 8.4352904558181763e-01</leafValues></_>
        <_>
          <internalNodes>
            0 -1 61 -3.5744631895795465e-04</internalNodes>
          <leafValues>
            7.1138274669647217e-01 -3.6426344513893127e-01</leafValues></_>
        <_>
          <internalNodes>
            0 -1 23 3.3729048445820808e-03</internalNodes>
          <leafValues>
            -6.3165640830993652e-01 4.7082605957984924e-01</leafValues></_>
        <_>
          <internalNodes>
            0 -1 49 -2.9974645003676414e-03</internalNodes>
          <leafValues>
            8.0381828546524048e-01 -3.2903188467025757e-01</leafValues></_></weakClassifiers></_>
    <!-- stage 3 -->
    <_>
      <maxWeakCount>7</maxWeakCount>
      <stageThreshold>-1.0807219743728638e+00</stageThreshold>
      <weakClassifiers>
        <_>
          <internalNodes>
            0 -1 80 1.4373058080673218e-01</internalNodes>
          <leafValues>
            -6.6739606857299805e-01 5.9139782190322876e-01</leafValues></_>
        <_>
          <internalNodes>
            0 -1 19 -1.7840648069977760e-03</internalNodes>
          <leafValues>
            5.6919580698013306e-01 -4.7834882140159607e-01</leafValues></_>
        <_>
          <internalNodes>
            0 -1 64 1.4934544451534748e-03</internalNodes>
          <leafValues>
            -3.8026982545852661e-01 7.1982228755950928e-01</leafValues></_>
        <_>
          <internalNodes>
            0 -1 34 1.6702804714441299e-03</internalNodes>
          <leafValues>
            -4.5632112026214600e-01 5.1467573642730713e-01</leafValues></_>
        <_>
          <internalNodes>
            0 -1 73 2.0768400281667709e-03</internalNodes>
          <leafValues>
            -3.5377845168113708e-01 6.9953644275665283e-01</leafValues></_>
        <_>
          <internalNodes>
            0 -1 9 1.2152690906077623e-03</internalNodes>
          <leafValues>
            -3.4927147626876831e-01 6.0326904058456421e-01</leafValues></_>
        <_>
          <internalNodes>
            0 -1 77 -1.1303506325930357e-03</internalNodes>
          <leafValues>
            7.0119786262512207e-01 -3.1887364387512207e-01</leafValues></_></weakClassifiers></_>
    <!-- stage 4 -->
    <_>
      <maxWeakCount>7</maxWeakCount>
      <stageThreshold>-1.6185905933380127e+00</stageThreshold>
      <weakClassifiers>
        <_>
          <internalNodes>
            0 -1 3 -2.9605704545974731e-01</internalNodes>
          <leafValues>
            9.2405062913894653e-01 -6.8577492237091064e-01</leafValues></_>
        <_>
          <internalNodes>
            0 -1 86 5.9159786906093359e-04</internalNodes>
          <leafValues>
            1.9073185324668884e-01 -8.0246776342391968e-01</leafValues></_>
        <_>
          <internalNodes>
            0 -1 96 -1.2774433707818389e-04</internalNodes>
          <leafValues>
            -7.3928856849670410e-01 2.4054816365242004e-01</leafValues></_>
        <_>
          <internalNodes>
            0 -1 11 -2.4722545640543103e-04</internalNodes>
          <leafValues>
            -8.1404197216033936e-01 2.2586083412170410e-01</leafValues></_>
        <_>
          <internalNodes>
            0 -1 12 2.4546589702367783e-04</internalNodes>
          <leafValues>
            3.3578574657440186e-01 -5.4277175664901733e-01</leafValues></_>
        <_>
          <internalNodes>
            0 -1 83 6.8336889147758484e-02</internalNodes>
          <leafValues>
            -3.1837674975395203e-01 6.8609637022018433e-01</leafValues></_>
        <_>
          <internalNodes>
            0 -1 85 4.8620603047311306e-04</internalNodes>
          <leafValues>
            2.9363912343978882e-01 -7.2880792617797852e-01</leafValues></_></weakClassifiers></_>
    <!-- stage 5 -->
    <_>
      <maxWeakCount>6</maxWeakCount>
      <stageThreshold>-1.0361176729202271e+00</stageThreshold>
      <weakClassifiers>
        <_>
          <internalNodes>
            0 -1 68 1.7384904623031616e-01</internalNodes>
          <leafValues>
            -6.9934642314910889e-01 7.8021979331970215e-01</leafValues></_>
        <_>
          <internalNodes>
            0 -1 33 1.6207899898290634e-02</internalNodes>
          <leafValues>
            -6.1835408210754395e-01 2.7159434556961060e-01</leafValues></_>
        <_>
          <internalNodes>
            0 -1 17 -5.9790555387735367e-03</internalNodes>
          <leafValues>
            4.6703189611434937e-01 -4.6151149272918701e-01</leafValues></_>
        <_>
          <internalNodes>
            0 -1 95 1.2689208961091936e-04</internalNodes>
          <leafValues>
            2.8444510698318481e-01 -7.1638536453247070e-01</leafValues></_>
        <_>
          <internalNodes>
            0 -1 99 2.4576252326369286e-04</internalNodes>
          <leafValues>
            2.7429285645484924e-01 -6.9910293817520142e-01</leafValues></_>
        <_>
          <internalNodes>
            0 -1 16 2.4098819994833320e-04</internalNodes>
          <leafValues>
            3.1202620267868042e-01 -6.6073971986770630e-01</leafValues></_></weakClassifiers></_>
    <!-- stage 6 -->
    <_>
      <maxWeakCount>6</maxWeakCount>
      <stageThreshold>-1.2185953855514526e+00</stageThreshold>
      <weakClassifiers>
        <_>
          <internalNodes>
            0 -1 70 1.8134534358978271e-01</internalNodes>
          <leafValues>
            -6.8089890480041504e-01 5.0476193428039551e-01</leafValues></_>
        <_>
          <internalNodes>
            0 -1 48 -1.0212291963398457e-03</internalNodes>
          <leafValues>
            5.2397286891937256e-01 -4.3995210528373718e-01</leafValues></_>
        <_>
          <internalNodes>
            0 -1 67 -7.2630459726497065e-06</internalNodes>
          <leafValues>
            4.8903426527976990e-01 -3.9145904779434204e-01</leafValues></_>
        <_>
          <internalNodes>
            0 -1 60 -2.5961026549339294e-03</internalNodes>
          <leafValues>
            6.7555999755859375e-01 -2.7968677878379822e-01</leafValues></_>
        <_>
          <internalNodes>
            0 -1 8 3.7914549466222525e-04</internalNodes>
          <leafValues>
            3.8440445065498352e-01 -5.9253638982772827e-01</leafValues></_>
        <_>
          <internalNodes>
            0 -1 45 -1.4298141002655029e-02</internalNodes>
          <leafValues>
            -7.6624971628189087e-01 2.9144653677940369e-01</leafValues></_></weakClassifiers></_>
    <!-- stage 7 -->
    <_>
      <maxWeakCount>6</maxWeakCount>
      <stageThreshold>-1.1206252574920654e+00</stageThreshold>
      <weakClassifiers>
        <_>
          <internalNodes>
            0 -1 5 -1.5255536884069443e-02</internalNodes>
          <leafValues>
            1.7419354617595673e-01 -7.0126581192016602e-01</leafValues></_>
        <_>
          <internalNodes>
            0 -1 18 -3.0026747845113277e-03</internalNodes>
          <leafValues>
            5.5404096841812134e-01 -3.7113007903099060e-01</leafValues></_>
        <_>
          <internalNodes>
            0 -1 81 -8.1867491826415062e-04</internalNodes>
          <leafValues>
            6.0340583324432373e-01 -2.9971489310264587e-01</leafValues></_>
        <_>
          <internalNodes>
            0 -1 84 1.1596783995628357e-02</internalNodes>
          <leafValues>
            -4.1875454783439636e-01 4.6418669819831848e-01</leafValues></_>
        <_>
          <internalNodes>
            0 -1 87 -2.2002888727001846e-04</internalNodes>
          <leafValues>
            5.3178852796554565e-01 -4.0802612900733948e-01</leafValues></_>
        <_>
          <internalNodes>
            0 -1 79 2.1675217896699905e-02</internalNodes>
          <leafValues>
            1.9532500207424164e-01 -9.3562906980514526e-01</leafValues></_></weakClassifiers></_>
    <!-- stage 8 -->
    <_>
      <maxWeakCount>7</maxWeakCount>
      <stageThreshold>-1.2798351049423218e+00</stageThreshold>
      <weakClassifiers>
        <_>
          <internalNodes>
            0 -1 38 -4.3324027210474014e-03</internalNodes>
          <leafValues>
            4.3925234675407410e-01 -6.7042887210845947e-01</leafValues></_>
        <_>
          <internalNodes>
            0 -1 37 -4.9424320459365845e-03</internalNodes>
          <leafValues>
            4.3882605433464050e-01 -4.5024606585502625e-01</leafValues></_>
        <_>
          <internalNodes>
            0 -1 36 1.3956121169030666e-02</internalNodes>
          <leafValues>
            2.2541038691997528e-01 -8.1682288646697998e-01</leafValues></_>
        <_>
          <internalNodes>
            0 -1 43 -1.9555758684873581e-02</internalNodes>
          <leafValues>
            -8.0618083477020264e-01 2.2288659214973450e-01</leafValues></_>
        <_>
          <internalNodes>
            0 -1 25 -3.0188714154064655e-03</internalNodes>
          <leafValues>
            2.4257110059261322e-01 -5.6806164979934692e-01</leafValues></_>
        <_>
          <internalNodes>
            0 -1 91 -4.6829963102936745e-03</internalNodes>
          <leafValues>
            4.6555122733116150e-01 -3.4380772709846497e-01</leafValues></_>
        <_>
          <internalNodes>
            0 -1 21 -1.0310052894055843e-03</internalNodes>
          <leafValues>
            6.0670638084411621e-01 -2.8651195764541626e-01</leafValues></_></weakClassifiers></_>
    <!-- stage 9 -->
    <_>
      <maxWeakCount>7</maxWeakCount>
      <stageThreshold>-8.9870333671569824e-01</stageThreshold>
      <weakClassifiers>
        <_>
          <internalNodes>
            0 -1 1 -5.4910928010940552e-01</internalNodes>
          <leafValues>
            9.2156863212585449e-01 -5.9519040584564209e-01</leafValues></_>
        <_>
          <internalNodes>
            0 -1 62 -1.0652588680386543e-03</internalNodes>
          <leafValues>
            4.8861965537071228e-01 -3.8261637091636658e-01</leafValues></_>
        <_>
          <internalNodes>
            0 -1 76 -3.3834960777312517e-03</internalNodes>
          <leafValues>
            4.1954120993614197e-01 -3.6600542068481445e-01</leafValues></_>
        <_>
          <internalNodes>
            0 -1 74 1.2602348811924458e-02</internalNodes>
          <leafValues>
            1.6697552800178528e-01 -9.8454868793487549e-01</leafValues></_>
        <_>
          <internalNodes>
            0 -1 41 -2.6465468108654022e-03</internalNodes>
          <leafValues>
            5.0859749317169189e-01 -3.2279261946678162e-01</leafValues></_>
        <_>
          <internalNodes>
            0 -1 93 1.3359822332859039e-03</internalNodes>
          <leafValues>
            2.8498488664627075e-01 -5.2013069391250610e-01</leafValues></_>
        <_>
          <internalNodes>
            0 -1 94 -1.9070987036684528e-05</internalNodes>
          <leafValues>
            -4.2288795113563538e-01 3.3550995588302612e-01</leafValues></_></weakClassifiers></_>
    <!-- stage 10 -->
    <_>
      <maxWeakCount>10</maxWeakCount>
      <stageThreshold>-1.2046061754226685e+00</stageThreshold>
      <weakClassifiers>
        <_>
          <internalNodes>
            0 -1 30 -4.0389761328697205e-02</internalNodes>
          <leafValues>
            5.1428574323654175e-01 -5.9583336114883423e-01</leafValues></_>
        <_>
          <internalNodes>
            0 -1 22 2.1667039254680276e-04</internalNodes>
          <leafValues>
            -6.0697597265243530e-01 1.8409535288810730e-01</leafValues></_>
        <_>
          <internalNodes>
            0 -1 46 -1.5688994899392128e-03</internalNodes>
          <leafValues>
            5.5386650562286377e-01 -2.6899480819702148e-01</leafValues></_>
        <_>
          <internalNodes>
            0 -1 20 -4.4505610130727291e-03</internalNodes>
          <leafValues>
            5.1158726215362549e-01 -2.4362002313137054e-01</leafValues></_>
        <_>
          <internalNodes>
            0 -1 44 -2.8858124278485775e-03</internalNodes>
          <leafValues>
            5.3003752231597900e-01 -2.7139124274253845e-01</leafValues></_>
        <_>
          <internalNodes>
            0 -1 90 -8.0424206316820346e-06</internalNodes>
          <leafValues>
            -4.5550492405891418e-01 3.5842797160148621e-01</leafValues></_>
        <_>
          <internalNodes>
            0 -1 52 -1.2241515330970287e-02</internalNodes>
          <leafValues>
            -9.7602665424346924e-01 1.2012808024883270e-01</leafValues></_>
        <_>
          <internalNodes>
            0 -1 29 3.3898457884788513e-02</internalNodes>
          <leafValues>
            1.1681253463029861e-01 -9.3046373128890991e-01</leafValues></_>
        <_>
          <internalNodes>
            0 -1 69 -5.4829160217195749e-04</internalNodes>
          <leafValues>
            4.9056664109230042e-01 -2.7013811469078064e-01</leafValues></_>
        <_>
          <internalNodes>
            0 -1 31 -1.2307614088058472e-02</internalNodes>
          <leafValues>
            4.7984027862548828e-01 -2.7971926331520081e-01</leafValues></_></weakClassifiers></_>
    <!-- stage 11 -->
    <_>
      <maxWeakCount>7</maxWeakCount>
      <stageThreshold>-8.5403442382812500e-01</stageThreshold>
      <weakClassifiers>
        <_>
          <internalNodes>
            0 -1 7 -3.3075027167797089e-02</internalNodes>
          <leafValues>
            3.4999999403953552e-01 -6.7906975746154785e-01</leafValues></_>
        <_>
          <internalNodes>
            0 -1 71 -7.6135043054819107e-03</internalNodes>
          <leafValues>
            3.4612599015235901e-01 -4.5285430550575256e-01</leafValues></_>
        <_>
          <internalNodes>
            0 -1 65 1.1076540686190128e-02</internalNodes>
          <leafValues>
            -3.3648091554641724e-01 4.4619584083557129e-01</leafValues></_>
        <_>
          <internalNodes>
            0 -1 35 7.9981237649917603e-03</internalNodes>
          <leafValues>
            1.5674529969692230e-01 -9.4366753101348877e-01</leafValues></_>
        <_>
          <internalNodes>
            0 -1 42 -6.1028366908431053e-03</internalNodes>
          <leafValues>
            5.2654397487640381e-01 -2.7061992883682251e-01</leafValues></_>
        <_>
          <internalNodes>
            0 -1 6 -9.3382811173796654e-03</internalNodes>
          <leafValues>
            4.9848267436027527e-01 -2.7876025438308716e-01</leafValues></_>
        <_>
          <internalNodes>
            0 -1 50 1.4392225071787834e-02</internalNodes>
          <leafValues>
            -5.3223890066146851e-01 2.9567176103591919e-01</leafValues></_></weakClassifiers></_>
    <!-- stage 12 -->
    <_>
      <maxWeakCount>8</maxWeakCount>
      <stageThreshold>-1.3147914409637451e+00</stageThreshold>
      <weakClassifiers>
        <_>
          <internalNodes>
            0 -1 57 -6.6725525539368391e-04</internalNodes>
          <leafValues>
            4.5833334326744080e-01 -6.4757710695266724e-01</leafValues></_>
        <_>
          <internalNodes>
            0 -1 27 1.3256805948913097e-02</internalNodes>
          <leafValues>
            -3.1632760167121887e-01 6.3330781459808350e-01</leafValues></_>
        <_>
          <internalNodes>
            0 -1 58 1.6224109276663512e-04</internalNodes>
          <leafValues>
            -3.3821174502372742e-01 4.1297525167465210e-01</leafValues></_>
        <_>
          <internalNodes>
            0 -1 59 9.1573093086481094e-03</internalNodes>
          <leafValues>
            2.2380836308002472e-01 -7.2358530759811401e-01</leafValues></_>
        <_>
          <internalNodes>
            0 -1 14 7.9974452091846615e-06</internalNodes>
          <leafValues>
            -4.2251434922218323e-01 3.3937031030654907e-01</leafValues></_>
        <_>
          <internalNodes>
            0 -1 66 2.6898449286818504e-02</internalNodes>
          <leafValues>
            -2.7260074019432068e-01 5.5666565895080566e-01</leafValues></_>
        <_>
          <internalNodes>
            0 -1 78 6.6626328043639660e-04</internalNodes>
          <leafValues>
            -3.4887954592704773e-01 3.9876112341880798e-01</leafValues></_>
        <_>
          <internalNodes>
            0 -1 10 -1.4085678849369287e-03</internalNodes>
          <leafValues>
            4.3563249707221985e-01 -2.9839915037155151e-01</leafValues></_></weakClassifiers></_>
    <!-- stage 13 -->
    <_>
      <maxWeakCount>7</maxWeakCount>
      <stageThreshold>-1.0425575971603394e+00</stageThreshold>
      <weakClassifiers>
        <_>
          <internalNodes>
            0 -1 0 -1.1648127436637878e-01</internalNodes>
          <leafValues>
            5.6923079490661621e-01 -5.9175258874893188e-01</leafValues></_>
        <_>
          <internalNodes>
            0 -1 53 -1.7002716194838285e-03</internalNodes>
          <leafValues>
            3.9562839269638062e-01 -3.6010819673538208e-01</leafValues></_>
        <_>
          <internalNodes>
            0 -1 40 9.6074352040886879e-04</internalNodes>
          <leafValues>
            -5.1385796070098877e-01 2.3565794527530670e-01</leafValues></_>
        <_>
          <internalNodes>
            0 -1 56 5.8282767422497272e-03</internalNodes>
          <leafValues>
            2.0450615882873535e-01 -7.5344598293304443e-01</leafValues></_>
        <_>
          <internalNodes>
            0 -1 39 -1.3797704130411148e-02</internalNodes>
          <leafValues>
            -7.3836940526962280e-01 1.8967926502227783e-01</leafValues></_>
        <_>
          <internalNodes>
            0 -1 13 1.7905973363667727e-03</internalNodes>
          <leafValues>
            -3.3029720187187195e-01 4.1730013489723206e-01</leafValues></_>
        <_>
          <internalNodes>
            0 -1 97 2.3351659998297691e-02</internalNodes>
          <leafValues>
            -1.7988818883895874e-01 8.0096471309661865e-01</leafValues></_></weakClassifiers></_>
    <!-- stage 14 -->
    <_>
      <maxWeakCount>8</maxWeakCount>
      <stageThreshold>-1.5132226943969727e+00</stageThreshold>
      <weakClassifiers>
        <_>
          <internalNodes>
            0 -1 26 -1.9290879368782043e-01</internalNodes>
          <leafValues>
            2.2727273404598236e-01 -6.6985648870468140e-01</leafValues></_>
        <_>
          <internalNodes>
            0 -1 82 7.7477998274844140e-06</internalNodes>
          <leafValues>
            1.4280883967876434e-01 -6.2216424942016602e-01</leafValues></_>
        <_>
          <internalNodes>
            0 -1 4 1.1272435949649662e-04</internalNodes>
          <leafValues>
            2.8940057754516602e-01 -4.7875660657882690e-01</leafValues></_>
        <_>
          <internalNodes>
            0 -1 47 -6.5730409696698189e-03</internalNodes>
          <leafValues>
            -7.1939182281494141e-01 2.2487033903598785e-01</leafValues></_>
        <_>
          <internalNodes>
            0 -1 88 -2.0332229323685169e-03</internalNodes>
          <leafValues>
            4.8307293653488159e-01 -3.0011478066444397e-01</leafValues></_>
        <_>
          <internalNodes>
            0 -1 89 3.0758841894567013e-03</internalNodes>
          <leafValues>
            -3.2031172513961792e-01 4.6457496285438538e-01</leafValues></_>
        <_>
          <internalNodes>
            0 -1 98 -2.9919130611233413e-05</internalNodes>
          <leafValues>
            -5.5771112442016602e-01 2.7151566743850708e-01</leafValues></_>
        <_>
          <internalNodes>
            0 -1 72 1.7056590877473354e-04</internalNodes>
          <leafValues>
            2.8023603558540344e-01 -4.6949499845504761e-01</leafValues></_></weakClassifiers></_></stages>
  <features>
    <_>
      <rects>
        <_>
          0 0 10 17 -1.</_>
        <_>
          5 0 5 17 2.</_></rects>
      <tilted>0</tilted></_>
    <_>
      <rects>
        <_>
          0 0 18 38 -1.</_>
        <_>
          6 0 6 38 3.</_></rects>
      <tilted>0</tilted></_>
    <_>
      <rects>
        <_>
          0 0 18 44 -1.</_>
        <_>
          6 0 6 44 3.</_></rects>
      <tilted>0</tilted></_>
    <_>
      <rects>
        <_>
          0 0 18 49 -1.</_>
        <_>
          6 0 6 49 3.</_></rects>
      <tilted>0</tilted></_>
    <_>
      <rects>
        <_>
          0 4 3 3 -1.</_>
        <_>
          1 4 1 3 3.</_></rects>
      <tilted>0</tilted></_>
    <_>
      <rects>
        <_>
          0 5 8 5 -1.</_>
        <_>
          4 5 4 5 2.</_></rects>
      <tilted>0</tilted></_>
    <_>
      <rects>
        <_>
          0 7 6 11 -1.</_>
        <_>
          2 7 2 11 3.</_></rects>
      <tilted>0</tilted></_>
    <_>
      <rects>
        <_>
          0 8 6 15 -1.</_>
        <_>
          3 8 3 15 2.</_></rects>
      <tilted>0</tilted></_>
    <_>
      <rects>
        <_>
          0 9 4 9 -1.</_>
        <_>
          0 12 4 3 3.</_></rects>
      <tilted>0</tilted></_>
    <_>
      <rects>
        <_>
          0 12 15 3 -1.</_>
        <_>
          0 13 15 1 3.</_></rects>
      <tilted>0</tilted></_>
    <_>
      <rects>
        <_>
          0 15 10 2 -1.</_>
        <_>
          0 15 5 1 2.</_>
        <_>
          5 16 5 1 2.</_></rects>
      <tilted>0</tilted></_>
    <_>
      <rects>
        <_>
          0 17 1 3 -1.</_>
        <_>
          0 18 1 1 3.</_></rects>
      <tilted>0</tilted></_>
    <_>
      <rects>
        <_>
          0 17 2 3 -1.</_>
        <_>
          0 18 2 1 3.</_></rects>
      <tilted>0</tilted></_>
    <_>
      <rects>
        <_>
          0 23 1 14 -1.</_>
        <_>
          0 30 1 7 2.</_></rects>
      <tilted>0</tilted></_>
    <_>
      <rects>
        <_>
          0 24 2 3 -1.</_>
        <_>
          0 25 2 1 3.</_></rects>
      <tilted>0</tilted></_>
    <_>
      <rects>
        <_>
          0 24 10 3 -1.</_>
        <_>
          5 24 5 3 2.</_></rects>
      <tilted>0</tilted></_>
    <_>
      <rects>
        <_>
          1 6 1 6 -1.</_>
        <_>
          1 8 1 2 3.</_></rects>
      <tilted>0</tilted></_>
    <_>
      <rects>
        <_>
          1 17 6 6 -1.</_>
        <_>
          4 17 3 6 2.</_></rects>
      <tilted>0</tilted></_>
    <_>
      <rects>
        <_>
          1 20 11 3 -1.</_>
        <_>
          1 21 11 1 3.</_></rects>
      <tilted>0</tilted></_>
    <_>
      <rects>
        <_>
          1 23 10 3 -1.</_>
        <_>
          1 24 10 1 3.</_></rects>
      <tilted>0</tilted></_>
    <_>
      <rects>
        <_>
          1 23 13 3 -1.</_>
        <_>
          1 24 13 1 3.</_></rects>
      <tilted>0</tilted></_>
    <_>
      <rects>
        <_>
          1 28 3 2 -1.</_>
        <_>
          2 28 1 2 3.</_></rects>
      <tilted>0</tilted></_>
    <_>
      <rects>
        <_>
          2 0 14 2 -1.</_>
        <_>
          9 0 7 2 2.</_></rects>
      <tilted>0</tilted></_>
    <_>
      <rects>
        <_>
          2 1 18 3 -1.</_>
        <_>
          11 1 9 3 2.</_></rects>
      <tilted>0</tilted></_>
    <_>
      <rects>
        <_>
          2 1 11 6 -1.</_>
        <_>
          2 3 11 2 3.</_></rects>
      <tilted>0</tilted></_>
    <_>
      <rects>
        <_>
          2 17 4 11 -1.</_>
        <_>
          4 17 2 11 2.</_></rects>
      <tilted>0</tilted></_>
    <_>
      <rects>
        <_>
          2 22 18 27 -1.</_>
        <_>
          8 22 6 27 3.</_></rects>
      <tilted>0</tilted></_>
    <_>
      <rects>
        <_>
          2 24 3 12 -1.</_>
        <_>
          2 30 3 6 2.</_></rects>
      <tilted>0</tilted></_>
    <_>
      <rects>
        <_>
          2 25 3 1 -1.</_>
        <_>
          3 25 1 1 3.</_></rects>
      <tilted>0</tilted></_>
    <_>
      <rects>
        <_>
          2 29 18 12 -1.</_>
        <_>
          2 33 18 4 3.</_></rects>
      <tilted>0</tilted></_>
    <_>
      <rects>
        <_>
          2 31 8 7 -1.</_>
        <_>
          6 31 4 7 2.</_></rects>
      <tilted>0</tilted></_>
    <_>
      <rects>
        <_>
          2 37 14 10 -1.</_>
        <_>
          2 42 14 5 2.</_></rects>
      <tilted>0</tilted></_>
    <_>
      <rects>
        <_>
          3 1 13 3 -1.</_>
        <_>
          3 2 13 1 3.</_></rects>
      <tilted>0</tilted></_>
    <_>
      <rects>
        <_>
          3 4 15 27 -1.</_>
        <_>
          3 13 15 9 3.</_></rects>
      <tilted>0</tilted></_>
    <_>
      <rects>
        <_>
          3 12 7 4 -1.</_>
        <_>
          3 14 7 2 2.</_></rects>
      <tilted>0</tilted></_>
    <_>
      <rects>
        <_>
          3 13 16 4 -1.</_>
        <_>
          3 13 8 2 2.</_>
        <_>
          11 15 8 2 2.</_></rects>
      <tilted>0</tilted></_>
    <_>
      <rects>
        <_>
          3 30 17 10 -1.</_>
        <_>
          3 35 17 5 2.</_></rects>
      <tilted>0</tilted></_>
    <_>
      <rects>
        <_>
          4 0 3 8 -1.</_>
        <_>
          4 4 3 4 2.</_></rects>
      <tilted>0</tilted></_>
    <_>
      <rects>
        <_>
          4 0 9 2 -1.</_>
        <_>
          4 1 9 1 2.</_></rects>
      <tilted>0</tilted></_>
    <_>
      <rects>
        <_>
          4 19 14 9 -1.</_>
        <_>
          4 22 14 3 3.</_></rects>
      <tilted>0</tilted></_>
    <_>
      <rects>
        <_>
          5 0 6 50 -1.</_>
        <_>
          8 0 3 50 2.</_></rects>
      <tilted>0</tilted></_>
    <_>
      <rects>
        <_>
          5 2 9 2 -1.</_>
        <_>
          5 3 9 1 2.</_></rects>
      <tilted>0</tilted></_>
    <_>
      <rects>
        <_>
          5 3 3 8 -1.</_>
        <_>
          5 7 3 4 2.</_></rects>
      <tilted>0</tilted></_>
    <_>
      <rects>
        <_>
          5 4 10 27 -1.</_>
        <_>
          5 13 10 9 3.</_></rects>
      <tilted>0</tilted></_>
    <_>
      <rects>
        <_>
          5 16 15 3 -1.</_>
        <_>
          5 17 15 1 3.</_></rects>
      <tilted>0</tilted></_>
    <_>
      <rects>
        <_>
          5 16 15 12 -1.</_>
        <_>
          5 20 15 4 3.</_></rects>
      <tilted>0</tilted></_>
    <_>
      <rects>
        <_>
          5 17 3 3 -1.</_>
        <_>
          5 18 3 1 3.</_></rects>
      <tilted>0</tilted></_>
    <_>
      <rects>
        <_>
          5 22 5 8 -1.</_>
        <_>
          5 26 5 4 2.</_></rects>
      <tilted>0</tilted></_>
    <_>
      <rects>
        <_>
          5 23 6 2 -1.</_>
        <_>
          5 23 3 1 2.</_>
        <_>
          8 24 3 1 2.</_></rects>
      <tilted>0</tilted></_>
    <_>
      <rects>
        <_>
          5 34 3 7 -1.</_>
        <_>
          6 34 1 7 3.</_></rects>
      <tilted>0</tilted></_>
    <_>
      <rects>
        <_>
          6 3 14 30 -1.</_>
        <_>
          6 13 14 10 3.</_></rects>
      <tilted>0</tilted></_>
    <_>
      <rects>
        <_>
          6 14 4 3 -1.</_>
        <_>
          6 15 4 1 3.</_></rects>
      <tilted>0</tilted></_>
    <_>
      <rects>
        <_>
          6 26 10 5 -1.</_>
        <_>
          11 26 5 5 2.</_></rects>
      <tilted>0</tilted></_>
    <_>
      <rects>
        <_>
          7 0 7 2 -1.</_>
        <_>
          7 1 7 1 2.</_></rects>
      <tilted>0</tilted></_>
    <_>
      <rects>
        <_>
          7 0 9 4 -1.</_>
        <_>
          7 2 9 2 2.</_></rects>
      <tilted>0</tilted></_>
    <_>
      <rects>
        <_>
          7 1 2 4 -1.</_>
        <_>
          7 1 1 2 2.</_>
        <_>
          8 3 1 2 2.</_></rects>
      <tilted>0</tilted></_>
    <_>
      <rects>
        <_>
          7 5 2 27 -1.</_>
        <_>
          8 5 1 27 2.</_></rects>
      <tilted>0</tilted></_>
    <_>
      <rects>
        <_>
          7 15 1 3 -1.</_>
        <_>
          7 16 1 1 3.</_></rects>
      <tilted>0</tilted></_>
    <_>
      <rects>
        <_>
          7 15 2 2 -1.</_>
        <_>
          7 16 2 1 2.</_></rects>
      <tilted>0</tilted></_>
    <_>
      <rects>
        <_>
          7 17 6 14 -1.</_>
        <_>
          7 17 3 7 2.</_>
        <_>
          10 24 3 7 2.</_></rects>
      <tilted>0</tilted></_>
    <_>
      <rects>
        <_>
          7 19 7 3 -1.</_>
        <_>
          7 20 7 1 3.</_></rects>
      <tilted>0</tilted></_>
    <_>
      <rects>
        <_>
          7 22 1 3 -1.</_>
        <_>
          7 23 1 1 3.</_></rects>
      <tilted>0</tilted></_>
    <_>
      <rects>
        <_>
          7 22 2 3 -1.</_>
        <_>
          7 23 2 1 3.</_></rects>
      <tilted>0</tilted></_>
    <_>
      <rects>
        <_>
          7 31 2 2 -1.</_>
        <_>
          7 31 1 1 2.</_>
        <_>
          8 32 1 1 2.</_></rects>
      <tilted>0</tilted></_>
    <_>
      <rects>
        <_>
          7 40 3 5 -1.</_>
        <_>
          8 40 1 5 3.</_></rects>
      <tilted>0</tilted></_>
    <_>
      <rects>
        <_>
          8 2 6 12 -1.</_>
        <_>
          8 6 6 4 3.</_></rects>
      <tilted>0</tilted></_>
    <_>
      <rects>
        <_>
          8 4 10 6 -1.</_>
        <_>
          13 4 5 6 2.</_></rects>
      <tilted>0</tilted></_>
    <_>
      <rects>
        <_>
          8 7 2 2 -1.</_>
        <_>
          8 7 1 1 2.</_>
        <_>
          9 8 1 1 2.</_></rects>
      <tilted>0</tilted></_>
    <_>
      <rects>
        <_>
          8 14 12 35 -1.</_>
        <_>
          14 14 6 35 2.</_></rects>
      <tilted>0</tilted></_>
    <_>
      <rects>
        <_>
          8 17 1 3 -1.</_>
        <_>
          8 18 1 1 3.</_></rects>
      <tilted>0</tilted></_>
    <_>
      <rects>
        <_>
          8 18 12 31 -1.</_>
        <_>
          14 18 6 31 2.</_></rects>
      <tilted>0</tilted></_>
    <_>
      <rects>
        <_>
          8 26 12 6 -1.</_>
        <_>
          8 26 6 3 2.</_>
        <_>
          14 29 6 3 2.</_></rects>
      <tilted>0</tilted></_>
    <_>
      <rects>
        <_>
          9 7 11 3 -1.</_>
        <_>
          9 8 11 1 3.</_></rects>
      <tilted>0</tilted></_>
    <_>
      <rects>
        <_>
          9 9 3 10 -1.</_>
        <_>
          10 9 1 10 3.</_></rects>
      <tilted>0</tilted></_>
    <_>
      <rects>
        <_>
          9 11 2 15 -1.</_>
        <_>
          9 16 2 5 3.</_></rects>
      <tilted>0</tilted></_>
    <_>
      <rects>
        <_>
          9 18 3 3 -1.</_>
        <_>
          9 19 3 1 3.</_></rects>
      <tilted>0</tilted></_>
    <_>
      <rects>
        <_>
          9 21 4 9 -1.</_>
        <_>
          9 24 4 3 3.</_></rects>
      <tilted>0</tilted></_>
    <_>
      <rects>
        <_>
          9 27 6 3 -1.</_>
        <_>
          9 28 6 1 3.</_></rects>
      <tilted>0</tilted></_>
    <_>
      <rects>
        <_>
          10 3 1 6 -1.</_>
        <_>
          10 5 1 2 3.</_></rects>
      <tilted>0</tilted></_>
    <_>
      <rects>
        <_>
          10 15 8 12 -1.</_>
        <_>
          10 19 8 4 3.</_></rects>
      <tilted>0</tilted></_>
    <_>
      <rects>
        <_>
          10 17 10 29 -1.</_>
        <_>
          15 17 5 29 2.</_></rects>
      <tilted>0</tilted></_>
    <_>
      <rects>
        <_>
          10 21 4 3 -1.</_>
        <_>
          10 22 4 1 3.</_></rects>
      <tilted>0</tilted></_>
    <_>
      <rects>
        <_>
          12 1 1 2 -1.</_>
        <_>
          12 2 1 1 2.</_></rects>
      <tilted>0</tilted></_>
    <_>
      <rects>
        <_>
          12 3 8 42 -1.</_>
        <_>
          16 3 4 42 2.</_></rects>
      <tilted>0</tilted></_>
    <_>
      <rects>
        <_>
          12 18 6 14 -1.</_>
        <_>
          15 18 3 14 2.</_></rects>
      <tilted>0</tilted></_>
    <_>
      <rects>
        <_>
          12 47 2 3 -1.</_>
        <_>
          13 47 1 3 2.</_></rects>
      <tilted>0</tilted></_>
    <_>
      <rects>
        <_>
          13 0 6 1 -1.</_>
        <_>
          16 0 3 1 2.</_></rects>
      <tilted>0</tilted></_>
    <_>
      <rects>
        <_>
          13 28 1 3 -1.</_>
        <_>
          13 29 1 1 3.</_></rects>
      <tilted>0</tilted></_>
    <_>
      <rects>
        <_>
          13 30 4 6 -1.</_>
        <_>
          15 30 2 6 2.</_></rects>
      <tilted>0</tilted></_>
    <_>
      <rects>
        <_>
          14 20 3 21 -1.</_>
        <_>
          15 20 1 21 3.</_></rects>
      <tilted>0</tilted></_>
    <_>
      <rects>
        <_>
          14 20 6 6 -1.</_>
        <_>
          14 20 3 3 2.</_>
        <_>
          17 23 3 3 2.</_></rects>
      <tilted>0</tilted></_>
    <_>
      <rects>
        <_>
          14 34 6 11 -1.</_>
        <_>
          16 34 2 11 3.</_></rects>
      <tilted>0</tilted></_>
    <_>
      <rects>
        <_>
          14 41 2 2 -1.</_>
        <_>
          14 41 1 1 2.</_>
        <_>
          15 42 1 1 2.</_></rects>
      <tilted>0</tilted></_>
    <_>
      <rects>
        <_>
          15 10 5 9 -1.</_>
        <_>
          15 13 5 3 3.</_></rects>
      <tilted>0</tilted></_>
    <_>
      <rects>
        <_>
          16 0 2 3 -1.</_>
        <_>
          17 0 1 3 2.</_></rects>
      <tilted>0</tilted></_>
    <_>
      <rects>
        <_>
          18 3 2 2 -1.</_>
        <_>
          18 4 2 1 2.</_></rects>
      <tilted>0</tilted></_>
    <_>
      <rects>
        <_>
          18 22 2 2 -1.</_>
        <_>
          18 23 2 1 2.</_></rects>
      <tilted>0</tilted></_>
    <_>
      <rects>
        <_>
          19 6 1 42 -1.</_>
        <_>
          19 27 1 21 2.</_></rects>
      <tilted>0</tilted></_>
    <_>
      <rects>
        <_>
          19 7 1 4 -1.</_>
        <_>
          19 9 1 2 2.</_></rects>
      <tilted>0</tilted></_>
    <_>
      <rects>
        <_>
          19 31 1 3 -1.</_>
        <_>
          19 32 1 1 3.</_></rects>
      <tilted>0</tilted></_></features></cascade>
</opencv_storage>
