<?xml version="1.0"?>
<opencv_storage>
<cascade>
  <stageType>BOOST</stageType>
  <featureType>HAAR</featureType>
  <height>15</height>
  <width>15</width>
  <stageParams>
    <boostType>GAB</boostType>
    <minHitRate>9.9900001287460327e-01</minHitRate>
    <maxFalseAlarm>4.7499999403953552e-01</maxFalseAlarm>
    <weightTrimRate>9.4999999999999996e-01</weightTrimRate>
    <maxDepth>1</maxDepth>
    <maxWeakCount>100</maxWeakCount></stageParams>
  <featureParams>
    <maxCatCount>0</maxCatCount>
    <featSize>1</featSize>
    <mode>ALL</mode></featureParams>
  <stageNum>17</stageNum>
  <stages>
    <!-- stage 0 -->
    <_>
      <maxWeakCount>3</maxWeakCount>
      <stageThreshold>-7.3486852645874023e-01</stageThreshold>
      <weakClassifiers>
        <_>
          <internalNodes>
            0 -1 63 9.7828775644302368e-02</internalNodes>
          <leafValues>
            -9.0579712390899658e-01 7.7160495519638062e-01</leafValues></_>
        <_>
          <internalNodes>
            0 -1 16 -1.1325810919515789e-04</internalNodes>
          <leafValues>
            7.2637939453125000e-01 -7.2614860534667969e-01</leafValues></_>
        <_>
          <internalNodes>
            0 -1 22 4.2777130147442222e-05</internalNodes>
          <leafValues>
            -5.6316828727722168e-01 8.9707720279693604e-01</leafValues></_></weakClassifiers></_>
    <!-- stage 1 -->
    <_>
      <maxWeakCount>4</maxWeakCount>
      <stageThreshold>-1.1437126398086548e+00</stageThreshold>
      <weakClassifiers>
        <_>
          <internalNodes>
            0 -1 60 -5.8253430324839428e-05</internalNodes>
          <leafValues>
            6.6990292072296143e-01 -7.1134018898010254e-01</leafValues></_>
        <_>
          <internalNodes>
            0 -1 39 1.5102959878277034e-04</internalNodes>
          <leafValues>
            -6.4021998643875122e-01 6.6327214241027832e-01</leafValues></_>
        <_>
          <internalNodes>
            0 -1 70 -4.7341909521492198e-05</internalNodes>
          <leafValues>
            8.0815845727920532e-01 -5.4877483844757080e-01</leafValues></_>
        <_>
          <internalNodes>
            0 -1 87 -5.2234663598937914e-05</internalNodes>
          <leafValues>
            7.8387016057968140e-01 -6.0031086206436157e-01</leafValues></_></weakClassifiers></_>
    <!-- stage 2 -->
    <_>
      <maxWeakCount>3</maxWeakCount>
      <stageThreshold>-4.4444298744201660e-01</stageThreshold>
      <weakClassifiers>
        <_>
          <internalNodes>
            0 -1 37 5.5937674915185198e-05</internalNodes>
          <leafValues>
            -4.9865227937698364e-01 8.0786025524139404e-01</leafValues></_>
        <_>
          <internalNodes>
            0 -1 38 -1.1397334310458973e-04</internalNodes>
          <leafValues>
            6.1758339405059814e-01 -6.3387995958328247e-01</leafValues></_>
        <_>
          <internalNodes>
            0 -1 18 -5.3914867748972028e-05</internalNodes>
          <leafValues>
            7.0833790302276611e-01 -5.6337410211563110e-01</leafValues></_></weakClassifiers></_>
    <!-- stage 3 -->
    <_>
      <maxWeakCount>3</maxWeakCount>
      <stageThreshold>-9.7390598058700562e-01</stageThreshold>
      <weakClassifiers>
        <_>
          <internalNodes>
            0 -1 51 4.7219399362802505e-02</internalNodes>
          <leafValues>
            -9.2035400867462158e-01 5.5614972114562988e-01</leafValues></_>
        <_>
          <internalNodes>
            0 -1 28 1.6865430399775505e-02</internalNodes>
          <leafValues>
            -5.4696512222290039e-01 7.0523881912231445e-01</leafValues></_>
        <_>
          <internalNodes>
            0 -1 94 -6.3207773491740227e-03</internalNodes>
          <leafValues>
            4.9341309070587158e-01 -6.7312616109848022e-01</leafValues></_></weakClassifiers></_>
    <!-- stage 4 -->
    <_>
      <maxWeakCount>6</maxWeakCount>
      <stageThreshold>-1.0377105474472046e+00</stageThreshold>
      <weakClassifiers>
        <_>
          <internalNodes>
            0 -1 4 -2.3706529289484024e-02</internalNodes>
          <leafValues>
            7.0542633533477783e-01 -5.3216373920440674e-01</leafValues></_>
        <_>
          <internalNodes>
            0 -1 33 2.2368509322404861e-02</internalNodes>
          <leafValues>
            -4.0116330981254578e-01 9.0354031324386597e-01</leafValues></_>
        <_>
          <internalNodes>
            0 -1 105 -9.9425874650478363e-03</internalNodes>
          <leafValues>
            4.8441269993782043e-01 -6.8650102615356445e-01</leafValues></_>
        <_>
          <internalNodes>
            0 -1 107 3.0129896476864815e-03</internalNodes>
          <leafValues>
            -4.2579391598701477e-01 7.5529897212982178e-01</leafValues></_>
        <_>
          <internalNodes>
            0 -1 59 -6.8619963712990284e-03</internalNodes>
          <leafValues>
            5.3256380558013916e-01 -5.8541899919509888e-01</leafValues></_>
        <_>
          <internalNodes>
            0 -1 89 -3.0687514226883650e-03</internalNodes>
          <leafValues>
            5.0169223546981812e-01 -6.9556605815887451e-01</leafValues></_></weakClassifiers></_>
    <!-- stage 5 -->
    <_>
      <maxWeakCount>6</maxWeakCount>
      <stageThreshold>-9.9535977840423584e-01</stageThreshold>
      <weakClassifiers>
        <_>
          <internalNodes>
            0 -1 0 -2.8142273426055908e-02</internalNodes>
          <leafValues>
            6.5737050771713257e-01 -4.7277936339378357e-01</leafValues></_>
        <_>
          <internalNodes>
            0 -1 68 3.6105252802371979e-03</internalNodes>
          <leafValues>
            -3.9169585704803467e-01 7.5093424320220947e-01</leafValues></_>
        <_>
          <internalNodes>
            0 -1 81 2.0336415618658066e-02</internalNodes>
          <leafValues>
            -6.7170709371566772e-01 4.8687094449996948e-01</leafValues></_>
        <_>
          <internalNodes>
            0 -1 34 3.7985373288393021e-02</internalNodes>
          <leafValues>
            -3.8145360350608826e-01 8.7875157594680786e-01</leafValues></_>
        <_>
          <internalNodes>
            0 -1 26 -1.1851591989398003e-02</internalNodes>
          <leafValues>
            3.1710809469223022e-01 -9.7277987003326416e-01</leafValues></_>
        <_>
          <internalNodes>
            0 -1 69 5.2848402410745621e-03</internalNodes>
          <leafValues>
            -3.9367190003395081e-01 7.4628770351409912e-01</leafValues></_></weakClassifiers></_>
    <!-- stage 6 -->
    <_>
      <maxWeakCount>6</maxWeakCount>
      <stageThreshold>-1.3329982757568359e+00</stageThreshold>
      <weakClassifiers>
        <_>
          <internalNodes>
            0 -1 42 2.8317221440374851e-03</internalNodes>
          <leafValues>
            -3.3649289608001709e-01 7.9775279760360718e-01</leafValues></_>
        <_>
          <internalNodes>
            0 -1 17 -1.1526580899953842e-02</internalNodes>
          <leafValues>
            5.8073955774307251e-01 -4.5323577523231506e-01</leafValues></_>
        <_>
          <internalNodes>
            0 -1 13 -1.8052767962217331e-02</internalNodes>
          <leafValues>
            4.4027039408683777e-01 -5.8321338891983032e-01</leafValues></_>
        <_>
          <internalNodes>
            0 -1 36 -8.0226715654134750e-03</internalNodes>
          <leafValues>
            7.5288730859756470e-01 -3.5601088404655457e-01</leafValues></_>
        <_>
          <internalNodes>
            0 -1 91 -4.8740291967988014e-03</internalNodes>
          <leafValues>
            8.4440994262695313e-01 -1.9314004480838776e-01</leafValues></_>
        <_>
          <internalNodes>
            0 -1 21 -5.8790137991309166e-03</internalNodes>
          <leafValues>
            5.6805241107940674e-01 -4.4488063454627991e-01</leafValues></_></weakClassifiers></_>
    <!-- stage 7 -->
    <_>
      <maxWeakCount>6</maxWeakCount>
      <stageThreshold>-1.3289527893066406e+00</stageThreshold>
      <weakClassifiers>
        <_>
          <internalNodes>
            0 -1 33 4.1589684784412384e-02</internalNodes>
          <leafValues>
            -2.7631577849388123e-01 8.7500000000000000e-01</leafValues></_>
        <_>
          <internalNodes>
            0 -1 48 5.3085228428244591e-03</internalNodes>
          <leafValues>
            3.5878726840019226e-01 -7.7137786149978638e-01</leafValues></_>
        <_>
          <internalNodes>
            0 -1 86 -9.4859814271330833e-03</internalNodes>
          <leafValues>
            7.9517126083374023e-01 -3.1789648532867432e-01</leafValues></_>
        <_>
          <internalNodes>
            0 -1 65 -6.3012940809130669e-03</internalNodes>
          <leafValues>
            8.1324851512908936e-01 -2.3240578174591064e-01</leafValues></_>
        <_>
          <internalNodes>
            0 -1 41 -3.4911378752440214e-03</internalNodes>
          <leafValues>
            7.2268694639205933e-01 -2.9670256376266479e-01</leafValues></_>
        <_>
          <internalNodes>
            0 -1 46 1.8650755286216736e-02</internalNodes>
          <leafValues>
            4.4389647245407104e-01 -5.8557009696960449e-01</leafValues></_></weakClassifiers></_>
    <!-- stage 8 -->
    <_>
      <maxWeakCount>9</maxWeakCount>
      <stageThreshold>-1.4897453784942627e+00</stageThreshold>
      <weakClassifiers>
        <_>
          <internalNodes>
            0 -1 77 8.6975619196891785e-02</internalNodes>
          <leafValues>
            -6.6492146253585815e-01 3.1051343679428101e-01</leafValues></_>
        <_>
          <internalNodes>
            0 -1 4 -2.1539090201258659e-02</internalNodes>
          <leafValues>
            3.9241835474967957e-01 -5.0200510025024414e-01</leafValues></_>
        <_>
          <internalNodes>
            0 -1 13 -5.7013116776943207e-02</internalNodes>
          <leafValues>
            6.2528431415557861e-01 -3.0026912689208984e-01</leafValues></_>
        <_>
          <internalNodes>
            0 -1 83 -3.4562991932034492e-03</internalNodes>
          <leafValues>
            7.8854876756668091e-01 -2.1309649944305420e-01</leafValues></_>
        <_>
          <internalNodes>
            0 -1 103 -1.1492072371765971e-03</internalNodes>
          <leafValues>
            2.8542432188987732e-01 -7.6167130470275879e-01</leafValues></_>
        <_>
          <internalNodes>
            0 -1 58 2.0754789002239704e-03</internalNodes>
          <leafValues>
            -3.3331674337387085e-01 6.2167608737945557e-01</leafValues></_>
        <_>
          <internalNodes>
            0 -1 76 9.5255430787801743e-03</internalNodes>
          <leafValues>
            1.8586970865726471e-01 -8.7900400161743164e-01</leafValues></_>
        <_>
          <internalNodes>
            0 -1 100 1.0780960321426392e-02</internalNodes>
          <leafValues>
            -2.3973777890205383e-01 8.9820653200149536e-01</leafValues></_>
        <_>
          <internalNodes>
            0 -1 64 -1.8601160496473312e-02</internalNodes>
          <leafValues>
            2.9230734705924988e-01 -7.1823251247406006e-01</leafValues></_></weakClassifiers></_>
    <!-- stage 9 -->
    <_>
      <maxWeakCount>6</maxWeakCount>
      <stageThreshold>-7.4282908439636230e-01</stageThreshold>
      <weakClassifiers>
        <_>
          <internalNodes>
            0 -1 62 9.0104185044765472e-02</internalNodes>
          <leafValues>
            -6.8558949232101440e-01 4.2318058013916016e-01</leafValues></_>
        <_>
          <internalNodes>
            0 -1 1 5.8196265250444412e-02</internalNodes>
          <leafValues>
            -4.1382476687431335e-01 5.3909116983413696e-01</leafValues></_>
        <_>
          <internalNodes>
            0 -1 80 2.0171566866338253e-03</internalNodes>
          <leafValues>
            2.6358482241630554e-01 -8.1942665576934814e-01</leafValues></_>
        <_>
          <internalNodes>
            0 -1 102 4.5215375721454620e-02</internalNodes>
          <leafValues>
            -3.8498485088348389e-01 5.4691416025161743e-01</leafValues></_>
        <_>
          <internalNodes>
            0 -1 7 4.1521765524521470e-04</internalNodes>
          <leafValues>
            2.6271528005599976e-01 -8.0747950077056885e-01</leafValues></_>
        <_>
          <internalNodes>
            0 -1 8 2.9092113254591823e-04</internalNodes>
          <leafValues>
            3.6638242006301880e-01 -6.3081777095794678e-01</leafValues></_></weakClassifiers></_>
    <!-- stage 10 -->
    <_>
      <maxWeakCount>6</maxWeakCount>
      <stageThreshold>-1.3076813220977783e+00</stageThreshold>
      <weakClassifiers>
        <_>
          <internalNodes>
            0 -1 95 7.3719280771911144e-04</internalNodes>
          <leafValues>
            3.7433156371116638e-01 -6.1946904659271240e-01</leafValues></_>
        <_>
          <internalNodes>
            0 -1 6 -1.2652575969696045e-03</internalNodes>
          <leafValues>
            -7.6252114772796631e-01 2.5874465703964233e-01</leafValues></_>
        <_>
          <internalNodes>
            0 -1 73 1.5231770230457187e-03</internalNodes>
          <leafValues>
            3.2832771539688110e-01 -6.1268156766891479e-01</leafValues></_>
        <_>
          <internalNodes>
            0 -1 47 1.1783003807067871e-01</internalNodes>
          <leafValues>
            -3.1052154302597046e-01 7.0946770906448364e-01</leafValues></_>
        <_>
          <internalNodes>
            0 -1 27 -3.5665464401245117e-01</internalNodes>
          <leafValues>
            6.9642418622970581e-01 -4.4165337085723877e-01</leafValues></_>
        <_>
          <internalNodes>
            0 -1 93 -6.2753297388553619e-03</internalNodes>
          <leafValues>
            4.3141597509384155e-01 -6.0208970308303833e-01</leafValues></_></weakClassifiers></_>
    <!-- stage 11 -->
    <_>
      <maxWeakCount>8</maxWeakCount>
      <stageThreshold>-1.0622711181640625e+00</stageThreshold>
      <weakClassifiers>
        <_>
          <internalNodes>
            0 -1 61 -2.3619372223038226e-04</internalNodes>
          <leafValues>
            2.4454148113727570e-01 -7.8873240947723389e-01</leafValues></_>
        <_>
          <internalNodes>
            0 -1 34 7.3784247040748596e-02</internalNodes>
          <leafValues>
            -2.1385911107063293e-01 8.7674099206924438e-01</leafValues></_>
        <_>
          <internalNodes>
            0 -1 14 -2.5871587917208672e-02</internalNodes>
          <leafValues>
            1.9420795142650604e-01 -9.7002613544464111e-01</leafValues></_>
        <_>
          <internalNodes>
            0 -1 50 2.1626455709338188e-03</internalNodes>
          <leafValues>
            1.7059394717216492e-01 -8.1430923938751221e-01</leafValues></_>
        <_>
          <internalNodes>
            0 -1 101 -3.1619284301996231e-02</internalNodes>
          <leafValues>
            -8.8310778141021729e-01 1.5270920097827911e-01</leafValues></_>
        <_>
          <internalNodes>
            0 -1 98 1.1121693998575211e-02</internalNodes>
          <leafValues>
            1.6173484921455383e-01 -7.2397947311401367e-01</leafValues></_>
        <_>
          <internalNodes>
            0 -1 2 6.0538400430232286e-04</internalNodes>
          <leafValues>
            -5.1797550916671753e-01 3.1801405549049377e-01</leafValues></_>
        <_>
          <internalNodes>
            0 -1 109 6.0048951127100736e-05</internalNodes>
          <leafValues>
            -4.7420653700828552e-01 3.7227043509483337e-01</leafValues></_></weakClassifiers></_>
    <!-- stage 12 -->
    <_>
      <maxWeakCount>9</maxWeakCount>
      <stageThreshold>-8.9654368162155151e-01</stageThreshold>
      <weakClassifiers>
        <_>
          <internalNodes>
            0 -1 106 -2.1301981178112328e-04</internalNodes>
          <leafValues>
            5.1162791252136230e-01 -3.8596490025520325e-01</leafValues></_>
        <_>
          <internalNodes>
            0 -1 10 -1.4579447917640209e-02</internalNodes>
          <leafValues>
            7.6716411113739014e-01 -2.4798963963985443e-01</leafValues></_>
        <_>
          <internalNodes>
            0 -1 57 -9.3431081622838974e-03</internalNodes>
          <leafValues>
            6.7118060588836670e-01 -2.7879220247268677e-01</leafValues></_>
        <_>
          <internalNodes>
            0 -1 66 -9.1326153778936714e-05</internalNodes>
          <leafValues>
            4.8288142681121826e-01 -4.4193997979164124e-01</leafValues></_>
        <_>
          <internalNodes>
            0 -1 104 1.6068769618868828e-02</internalNodes>
          <leafValues>
            -2.8208267688751221e-01 7.8521633148193359e-01</leafValues></_>
        <_>
          <internalNodes>
            0 -1 85 2.0645377226173878e-03</internalNodes>
          <leafValues>
            2.9884299635887146e-01 -8.5732561349868774e-01</leafValues></_>
        <_>
          <internalNodes>
            0 -1 55 -3.2144808210432529e-04</internalNodes>
          <leafValues>
            4.5197385549545288e-01 -4.3198528885841370e-01</leafValues></_>
        <_>
          <internalNodes>
            0 -1 32 -1.1699978262186050e-02</internalNodes>
          <leafValues>
            6.2610965967178345e-01 -3.1283515691757202e-01</leafValues></_>
        <_>
          <internalNodes>
            0 -1 30 -1.1074248701334000e-02</internalNodes>
          <leafValues>
            3.7747997045516968e-01 -5.1399350166320801e-01</leafValues></_></weakClassifiers></_>
    <!-- stage 13 -->
    <_>
      <maxWeakCount>10</maxWeakCount>
      <stageThreshold>-7.6304268836975098e-01</stageThreshold>
      <weakClassifiers>
        <_>
          <internalNodes>
            0 -1 97 -3.3898672554641962e-03</internalNodes>
          <leafValues>
            6.0185188055038452e-01 -3.3854165673255920e-01</leafValues></_>
        <_>
          <internalNodes>
            0 -1 45 -4.8516886308789253e-03</internalNodes>
          <leafValues>
            4.8053619265556335e-01 -4.3103405833244324e-01</leafValues></_>
        <_>
          <internalNodes>
            0 -1 12 4.2640725150704384e-03</internalNodes>
          <leafValues>
            -3.9167374372482300e-01 4.3637430667877197e-01</leafValues></_>
        <_>
          <internalNodes>
            0 -1 67 -8.3587188273668289e-03</internalNodes>
          <leafValues>
            6.0900849103927612e-01 -3.5349053144454956e-01</leafValues></_>
        <_>
          <internalNodes>
            0 -1 88 -2.5555826723575592e-03</internalNodes>
          <leafValues>
            7.2150152921676636e-01 -2.2407524287700653e-01</leafValues></_>
        <_>
          <internalNodes>
            0 -1 43 -5.0450563430786133e-02</internalNodes>
          <leafValues>
            7.0890617370605469e-01 -2.3830993473529816e-01</leafValues></_>
        <_>
          <internalNodes>
            0 -1 9 -5.1139196148142219e-04</internalNodes>
          <leafValues>
            4.4675710797309875e-01 -4.2649018764495850e-01</leafValues></_>
        <_>
          <internalNodes>
            0 -1 3 -3.4287462476640940e-03</internalNodes>
          <leafValues>
            -7.7065783739089966e-01 1.9641734659671783e-01</leafValues></_>
        <_>
          <internalNodes>
            0 -1 5 -1.8755884841084480e-02</internalNodes>
          <leafValues>
            -8.5196846723556519e-01 1.8079073727130890e-01</leafValues></_>
        <_>
          <internalNodes>
            0 -1 82 -8.4872962906956673e-04</internalNodes>
          <leafValues>
            4.9082148075103760e-01 -4.1473421454429626e-01</leafValues></_></weakClassifiers></_>
    <!-- stage 14 -->
    <_>
      <maxWeakCount>9</maxWeakCount>
      <stageThreshold>-1.0986323356628418e+00</stageThreshold>
      <weakClassifiers>
        <_>
          <internalNodes>
            0 -1 15 -1.2536109425127506e-03</internalNodes>
          <leafValues>
            2.3076923191547394e-01 -7.2413790225982666e-01</leafValues></_>
        <_>
          <internalNodes>
            0 -1 23 -2.1056551486253738e-02</internalNodes>
          <leafValues>
            6.0588496923446655e-01 -2.7786916494369507e-01</leafValues></_>
        <_>
          <internalNodes>
            0 -1 74 2.2328111808747053e-03</internalNodes>
          <leafValues>
            -7.7974015474319458e-01 2.2714734077453613e-01</leafValues></_>
        <_>
          <internalNodes>
            0 -1 42 4.0127094835042953e-03</internalNodes>
          <leafValues>
            -2.9915624856948853e-01 5.6875729560852051e-01</leafValues></_>
        <_>
          <internalNodes>
            0 -1 25 6.1466963961720467e-03</internalNodes>
          <leafValues>
            -2.6298415660858154e-01 6.1383104324340820e-01</leafValues></_>
        <_>
          <internalNodes>
            0 -1 79 2.6463409885764122e-03</internalNodes>
          <leafValues>
            2.4862828850746155e-01 -9.1123169660568237e-01</leafValues></_>
        <_>
          <internalNodes>
            0 -1 11 -3.3493470400571823e-02</internalNodes>
          <leafValues>
            5.3269368410110474e-01 -3.6452960968017578e-01</leafValues></_>
        <_>
          <internalNodes>
            0 -1 52 -4.5256203156895936e-04</internalNodes>
          <leafValues>
            4.1454043984413147e-01 -3.5169684886932373e-01</leafValues></_>
        <_>
          <internalNodes>
            0 -1 40 7.6287046074867249e-02</internalNodes>
          <leafValues>
            -1.9125728309154510e-01 8.4678333997726440e-01</leafValues></_></weakClassifiers></_>
    <!-- stage 15 -->
    <_>
      <maxWeakCount>11</maxWeakCount>
      <stageThreshold>-8.3260327577590942e-01</stageThreshold>
      <weakClassifiers>
        <_>
          <internalNodes>
            0 -1 44 1.5744868665933609e-02</internalNodes>
          <leafValues>
            -1.7063492536544800e-01 8.9583331346511841e-01</leafValues></_>
        <_>
          <internalNodes>
            0 -1 31 -2.5857379660010338e-03</internalNodes>
          <leafValues>
            5.4343718290328979e-01 -2.4329000711441040e-01</leafValues></_>
        <_>
          <internalNodes>
            0 -1 24 5.6287229061126709e-02</internalNodes>
          <leafValues>
            -1.3996379077434540e-01 9.5794820785522461e-01</leafValues></_>
        <_>
          <internalNodes>
            0 -1 19 3.8519583642482758e-02</internalNodes>
          <leafValues>
            -4.2080894112586975e-01 3.5625559091567993e-01</leafValues></_>
        <_>
          <internalNodes>
            0 -1 78 -1.8496633274480700e-03</internalNodes>
          <leafValues>
            -8.3594119548797607e-01 2.0453362166881561e-01</leafValues></_>
        <_>
          <internalNodes>
            0 -1 72 -8.1750020384788513e-02</internalNodes>
          <leafValues>
            3.7485691905021667e-01 -3.9633110165596008e-01</leafValues></_>
        <_>
          <internalNodes>
            0 -1 110 -3.8981840014457703e-02</internalNodes>
          <leafValues>
            7.7598011493682861e-01 -1.9966846704483032e-01</leafValues></_>
        <_>
          <internalNodes>
            0 -1 92 -4.5188493095338345e-03</internalNodes>
          <leafValues>
            5.2817726135253906e-01 -3.0769187211990356e-01</leafValues></_>
        <_>
          <internalNodes>
            0 -1 108 -9.1510871425271034e-03</internalNodes>
          <leafValues>
            4.4617682695388794e-01 -4.1990062594413757e-01</leafValues></_>
        <_>
          <internalNodes>
            0 -1 111 -9.0509641449898481e-04</internalNodes>
          <leafValues>
            -6.8421876430511475e-01 2.5543957948684692e-01</leafValues></_>
        <_>
          <internalNodes>
            0 -1 56 -2.3809479898773134e-04</internalNodes>
          <leafValues>
            2.7226859331130981e-01 -5.4253929853439331e-01</leafValues></_></weakClassifiers></_>
    <!-- stage 16 -->
    <_>
      <maxWeakCount>12</maxWeakCount>
      <stageThreshold>-1.0262761116027832e+00</stageThreshold>
      <weakClassifiers>
        <_>
          <internalNodes>
            0 -1 29 -6.2567591667175293e-03</internalNodes>
          <leafValues>
            3.6656892299652100e-01 -4.8262548446655273e-01</leafValues></_>
        <_>
          <internalNodes>
            0 -1 90 -4.3705582618713379e-02</internalNodes>
          <leafValues>
            7.1716696023941040e-01 -2.2437137365341187e-01</leafValues></_>
        <_>
          <internalNodes>
            0 -1 35 -2.5831699371337891e-02</internalNodes>
          <leafValues>
            7.2705203294754028e-01 -1.7192737758159637e-01</leafValues></_>
        <_>
          <internalNodes>
            0 -1 75 -5.5817249231040478e-03</internalNodes>
          <leafValues>
            5.6246018409729004e-01 -2.3390994966030121e-01</leafValues></_>
        <_>
          <internalNodes>
            0 -1 99 -4.0783267468214035e-03</internalNodes>
          <leafValues>
            7.9451304674148560e-01 -2.0564842224121094e-01</leafValues></_>
        <_>
          <internalNodes>
            0 -1 49 -1.1546348687261343e-03</internalNodes>
          <leafValues>
            4.0320396423339844e-01 -3.4323224425315857e-01</leafValues></_>
        <_>
          <internalNodes>
            0 -1 53 -1.8026473117060959e-04</internalNodes>
          <leafValues>
            3.0452287197113037e-01 -4.1388240456581116e-01</leafValues></_>
        <_>
          <internalNodes>
            0 -1 54 -7.6405227184295654e-02</internalNodes>
          <leafValues>
            -8.5574823617935181e-01 1.7030705511569977e-01</leafValues></_>
        <_>
          <internalNodes>
            0 -1 96 -6.9389147683978081e-03</internalNodes>
          <leafValues>
            7.8858709335327148e-01 -1.9859658181667328e-01</leafValues></_>
        <_>
          <internalNodes>
            0 -1 71 -3.3873342908918858e-03</internalNodes>
          <leafValues>
            -6.4662873744964600e-01 2.4824704229831696e-01</leafValues></_>
        <_>
          <internalNodes>
            0 -1 84 -3.0407975427806377e-03</internalNodes>
          <leafValues>
            6.8808996677398682e-01 -2.3176306486129761e-01</leafValues></_>
        <_>
          <internalNodes>
            0 -1 20 5.4153650999069214e-03</internalNodes>
          <leafValues>
            -2.7469938993453979e-01 4.9116098880767822e-01</leafValues></_></weakClassifiers></_></stages>
  <features>
    <_>
      <rects>
        <_>
          0 1 4 8 -1.</_>
        <_>
          0 1 2 4 2.</_>
        <_>
          2 5 2 4 2.</_></rects>
      <tilted>0</tilted></_>
    <_>
      <rects>
        <_>
          0 1 9 3 -1.</_>
        <_>
          3 1 3 3 3.</_></rects>
      <tilted>0</tilted></_>
    <_>
      <rects>
        <_>
          0 2 1 4 -1.</_>
        <_>
          0 4 1 2 2.</_></rects>
      <tilted>0</tilted></_>
    <_>
      <rects>
        <_>
          0 5 1 4 -1.</_>
        <_>
          0 7 1 2 2.</_></rects>
      <tilted>0</tilted></_>
    <_>
      <rects>
        <_>
          0 7 6 3 -1.</_>
        <_>
          2 7 2 3 3.</_></rects>
      <tilted>0</tilted></_>
    <_>
      <rects>
        <_>
          0 7 3 8 -1.</_>
        <_>
          0 9 3 4 2.</_></rects>
      <tilted>0</tilted></_>
    <_>
      <rects>
        <_>
          0 12 2 1 -1.</_>
        <_>
          1 12 1 1 2.</_></rects>
      <tilted>0</tilted></_>
    <_>
      <rects>
        <_>
          0 13 1 2 -1.</_>
        <_>
          0 14 1 1 2.</_></rects>
      <tilted>0</tilted></_>
    <_>
      <rects>
        <_>
          0 14 3 1 -1.</_>
        <_>
          1 14 1 1 3.</_></rects>
      <tilted>0</tilted></_>
    <_>
      <rects>
        <_>
          1 0 4 1 -1.</_>
        <_>
          2 0 2 1 2.</_></rects>
      <tilted>0</tilted></_>
    <_>
      <rects>
        <_>
          1 3 4 2 -1.</_>
        <_>
          1 3 2 1 2.</_>
        <_>
          3 4 2 1 2.</_></rects>
      <tilted>0</tilted></_>
    <_>
      <rects>
        <_>
          1 13 14 2 -1.</_>
        <_>
          1 14 14 1 2.</_></rects>
      <tilted>0</tilted></_>
    <_>
      <rects>
        <_>
          1 14 6 1 -1.</_>
        <_>
          4 14 3 1 2.</_></rects>
      <tilted>0</tilted></_>
    <_>
      <rects>
        <_>
          2 0 8 4 -1.</_>
        <_>
          2 0 4 2 2.</_>
        <_>
          6 2 4 2 2.</_></rects>
      <tilted>0</tilted></_>
    <_>
      <rects>
        <_>
          2 1 12 2 -1.</_>
        <_>
          2 1 6 2 2.</_></rects>
      <tilted>1</tilted></_>
    <_>
      <rects>
        <_>
          2 3 3 6 -1.</_>
        <_>
          3 5 1 2 9.</_></rects>
      <tilted>0</tilted></_>
    <_>
      <rects>
        <_>
          2 5 3 4 -1.</_>
        <_>
          3 5 1 4 3.</_></rects>
      <tilted>0</tilted></_>
    <_>
      <rects>
        <_>
          2 6 4 4 -1.</_>
        <_>
          3 6 2 4 2.</_></rects>
      <tilted>0</tilted></_>
    <_>
      <rects>
        <_>
          2 7 2 1 -1.</_>
        <_>
          3 7 1 1 2.</_></rects>
      <tilted>0</tilted></_>
    <_>
      <rects>
        <_>
          2 9 12 6 -1.</_>
        <_>
          2 11 12 2 3.</_></rects>
      <tilted>0</tilted></_>
    <_>
      <rects>
        <_>
          2 11 1 2 -1.</_>
        <_>
          2 11 1 1 2.</_></rects>
      <tilted>1</tilted></_>
    <_>
      <rects>
        <_>
          2 13 6 2 -1.</_>
        <_>
          2 14 6 1 2.</_></rects>
      <tilted>0</tilted></_>
    <_>
      <rects>
        <_>
          3 0 2 1 -1.</_>
        <_>
          4 0 1 1 2.</_></rects>
      <tilted>0</tilted></_>
    <_>
      <rects>
        <_>
          3 0 2 2 -1.</_>
        <_>
          3 0 1 2 2.</_></rects>
      <tilted>1</tilted></_>
    <_>
      <rects>
        <_>
          3 0 3 2 -1.</_>
        <_>
          4 1 1 2 3.</_></rects>
      <tilted>1</tilted></_>
    <_>
      <rects>
        <_>
          3 0 6 2 -1.</_>
        <_>
          3 0 3 1 2.</_>
        <_>
          6 1 3 1 2.</_></rects>
      <tilted>0</tilted></_>
    <_>
      <rects>
        <_>
          3 0 12 3 -1.</_>
        <_>
          3 0 6 3 2.</_></rects>
      <tilted>1</tilted></_>
    <_>
      <rects>
        <_>
          3 0 10 12 -1.</_>
        <_>
          3 4 10 4 3.</_></rects>
      <tilted>0</tilted></_>
    <_>
      <rects>
        <_>
          3 2 6 4 -1.</_>
        <_>
          3 2 3 2 2.</_>
        <_>
          6 4 3 2 2.</_></rects>
      <tilted>0</tilted></_>
    <_>
      <rects>
        <_>
          3 3 3 3 -1.</_>
        <_>
          4 4 1 1 9.</_></rects>
      <tilted>0</tilted></_>
    <_>
      <rects>
        <_>
          3 3 6 3 -1.</_>
        <_>
          5 4 2 1 9.</_></rects>
      <tilted>0</tilted></_>
    <_>
      <rects>
        <_>
          3 9 2 2 -1.</_>
        <_>
          3 9 1 1 2.</_>
        <_>
          4 10 1 1 2.</_></rects>
      <tilted>0</tilted></_>
    <_>
      <rects>
        <_>
          4 1 3 3 -1.</_>
        <_>
          5 2 1 1 9.</_></rects>
      <tilted>0</tilted></_>
    <_>
      <rects>
        <_>
          4 1 3 2 -1.</_>
        <_>
          5 2 1 2 3.</_></rects>
      <tilted>1</tilted></_>
    <_>
      <rects>
        <_>
          4 1 3 3 -1.</_>
        <_>
          5 2 1 3 3.</_></rects>
      <tilted>1</tilted></_>
    <_>
      <rects>
        <_>
          4 1 4 3 -1.</_>
        <_>
          4 2 4 1 3.</_></rects>
      <tilted>0</tilted></_>
    <_>
      <rects>
        <_>
          4 2 2 3 -1.</_>
        <_>
          4 3 2 1 3.</_></rects>
      <tilted>0</tilted></_>
    <_>
      <rects>
        <_>
          4 3 2 2 -1.</_>
        <_>
          4 3 1 1 2.</_>
        <_>
          5 4 1 1 2.</_></rects>
      <tilted>0</tilted></_>
    <_>
      <rects>
        <_>
          4 3 3 3 -1.</_>
        <_>
          4 4 3 1 3.</_></rects>
      <tilted>0</tilted></_>
    <_>
      <rects>
        <_>
          4 7 2 4 -1.</_>
        <_>
          5 7 1 4 2.</_></rects>
      <tilted>0</tilted></_>
    <_>
      <rects>
        <_>
          4 7 4 4 -1.</_>
        <_>
          4 7 4 2 2.</_></rects>
      <tilted>1</tilted></_>
    <_>
      <rects>
        <_>
          4 9 1 3 -1.</_>
        <_>
          4 10 1 1 3.</_></rects>
      <tilted>0</tilted></_>
    <_>
      <rects>
        <_>
          4 9 2 2 -1.</_>
        <_>
          4 9 1 1 2.</_>
        <_>
          5 10 1 1 2.</_></rects>
      <tilted>0</tilted></_>
    <_>
      <rects>
        <_>
          5 0 9 2 -1.</_>
        <_>
          5 0 9 1 2.</_></rects>
      <tilted>1</tilted></_>
    <_>
      <rects>
        <_>
          5 1 1 3 -1.</_>
        <_>
          5 2 1 1 3.</_></rects>
      <tilted>0</tilted></_>
    <_>
      <rects>
        <_>
          5 2 2 4 -1.</_>
        <_>
          6 2 1 4 2.</_></rects>
      <tilted>0</tilted></_>
    <_>
      <rects>
        <_>
          5 2 8 10 -1.</_>
        <_>
          5 2 4 5 2.</_>
        <_>
          9 7 4 5 2.</_></rects>
      <tilted>0</tilted></_>
    <_>
      <rects>
        <_>
          5 2 9 6 -1.</_>
        <_>
          5 5 9 3 2.</_></rects>
      <tilted>0</tilted></_>
    <_>
      <rects>
        <_>
          5 3 6 4 -1.</_>
        <_>
          8 3 3 4 2.</_></rects>
      <tilted>0</tilted></_>
    <_>
      <rects>
        <_>
          5 4 1 3 -1.</_>
        <_>
          5 5 1 1 3.</_></rects>
      <tilted>0</tilted></_>
    <_>
      <rects>
        <_>
          5 4 6 1 -1.</_>
        <_>
          8 4 3 1 2.</_></rects>
      <tilted>0</tilted></_>
    <_>
      <rects>
        <_>
          5 4 5 8 -1.</_>
        <_>
          5 8 5 4 2.</_></rects>
      <tilted>0</tilted></_>
    <_>
      <rects>
        <_>
          5 5 3 1 -1.</_>
        <_>
          6 5 1 1 3.</_></rects>
      <tilted>0</tilted></_>
    <_>
      <rects>
        <_>
          5 5 8 1 -1.</_>
        <_>
          7 5 4 1 2.</_></rects>
      <tilted>0</tilted></_>
    <_>
      <rects>
        <_>
          5 5 6 6 -1.</_>
        <_>
          7 7 2 2 9.</_></rects>
      <tilted>0</tilted></_>
    <_>
      <rects>
        <_>
          5 8 2 2 -1.</_>
        <_>
          5 8 1 1 2.</_>
        <_>
          6 9 1 1 2.</_></rects>
      <tilted>0</tilted></_>
    <_>
      <rects>
        <_>
          5 8 2 5 -1.</_>
        <_>
          5 8 1 5 2.</_></rects>
      <tilted>1</tilted></_>
    <_>
      <rects>
        <_>
          5 8 5 3 -1.</_>
        <_>
          5 9 5 1 3.</_></rects>
      <tilted>0</tilted></_>
    <_>
      <rects>
        <_>
          5 11 2 2 -1.</_>
        <_>
          5 11 1 1 2.</_>
        <_>
          6 12 1 1 2.</_></rects>
      <tilted>0</tilted></_>
    <_>
      <rects>
        <_>
          6 1 3 4 -1.</_>
        <_>
          7 2 1 4 3.</_></rects>
      <tilted>1</tilted></_>
    <_>
      <rects>
        <_>
          6 2 2 2 -1.</_>
        <_>
          7 2 1 2 2.</_></rects>
      <tilted>0</tilted></_>
    <_>
      <rects>
        <_>
          6 2 9 4 -1.</_>
        <_>
          6 3 9 2 2.</_></rects>
      <tilted>0</tilted></_>
    <_>
      <rects>
        <_>
          6 3 4 10 -1.</_>
        <_>
          6 8 4 5 2.</_></rects>
      <tilted>0</tilted></_>
    <_>
      <rects>
        <_>
          6 3 6 10 -1.</_>
        <_>
          6 8 6 5 2.</_></rects>
      <tilted>0</tilted></_>
    <_>
      <rects>
        <_>
          6 4 4 6 -1.</_>
        <_>
          6 4 2 6 2.</_></rects>
      <tilted>1</tilted></_>
    <_>
      <rects>
        <_>
          6 6 1 3 -1.</_>
        <_>
          6 7 1 1 3.</_></rects>
      <tilted>0</tilted></_>
    <_>
      <rects>
        <_>
          6 6 3 2 -1.</_>
        <_>
          7 6 1 2 3.</_></rects>
      <tilted>0</tilted></_>
    <_>
      <rects>
        <_>
          6 8 4 3 -1.</_>
        <_>
          6 9 4 1 3.</_></rects>
      <tilted>0</tilted></_>
    <_>
      <rects>
        <_>
          6 9 2 4 -1.</_>
        <_>
          6 9 1 2 2.</_>
        <_>
          7 11 1 2 2.</_></rects>
      <tilted>0</tilted></_>
    <_>
      <rects>
        <_>
          6 11 2 3 -1.</_>
        <_>
          6 12 2 1 3.</_></rects>
      <tilted>0</tilted></_>
    <_>
      <rects>
        <_>
          6 12 2 2 -1.</_>
        <_>
          6 12 1 1 2.</_>
        <_>
          7 13 1 1 2.</_></rects>
      <tilted>0</tilted></_>
    <_>
      <rects>
        <_>
          7 0 6 1 -1.</_>
        <_>
          9 0 2 1 3.</_></rects>
      <tilted>0</tilted></_>
    <_>
      <rects>
        <_>
          7 0 8 6 -1.</_>
        <_>
          9 2 4 6 2.</_></rects>
      <tilted>1</tilted></_>
    <_>
      <rects>
        <_>
          7 3 3 2 -1.</_>
        <_>
          8 3 1 2 3.</_></rects>
      <tilted>0</tilted></_>
    <_>
      <rects>
        <_>
          7 5 7 9 -1.</_>
        <_>
          7 8 7 3 3.</_></rects>
      <tilted>0</tilted></_>
    <_>
      <rects>
        <_>
          7 13 4 2 -1.</_>
        <_>
          7 13 2 1 2.</_>
        <_>
          9 14 2 1 2.</_></rects>
      <tilted>0</tilted></_>
    <_>
      <rects>
        <_>
          8 0 6 1 -1.</_>
        <_>
          11 0 3 1 2.</_></rects>
      <tilted>0</tilted></_>
    <_>
      <rects>
        <_>
          8 2 6 10 -1.</_>
        <_>
          8 7 6 5 2.</_></rects>
      <tilted>0</tilted></_>
    <_>
      <rects>
        <_>
          8 3 2 1 -1.</_>
        <_>
          9 3 1 1 2.</_></rects>
      <tilted>0</tilted></_>
    <_>
      <rects>
        <_>
          8 3 3 1 -1.</_>
        <_>
          9 3 1 1 3.</_></rects>
      <tilted>0</tilted></_>
    <_>
      <rects>
        <_>
          8 3 4 2 -1.</_>
        <_>
          9 3 2 2 2.</_></rects>
      <tilted>0</tilted></_>
    <_>
      <rects>
        <_>
          8 4 7 9 -1.</_>
        <_>
          8 7 7 3 3.</_></rects>
      <tilted>0</tilted></_>
    <_>
      <rects>
        <_>
          8 8 2 2 -1.</_>
        <_>
          8 8 1 1 2.</_>
        <_>
          9 9 1 1 2.</_></rects>
      <tilted>0</tilted></_>
    <_>
      <rects>
        <_>
          8 9 2 2 -1.</_>
        <_>
          8 9 1 1 2.</_>
        <_>
          9 10 1 1 2.</_></rects>
      <tilted>0</tilted></_>
    <_>
      <rects>
        <_>
          8 11 2 2 -1.</_>
        <_>
          8 11 1 1 2.</_>
        <_>
          9 12 1 1 2.</_></rects>
      <tilted>0</tilted></_>
    <_>
      <rects>
        <_>
          9 3 4 1 -1.</_>
        <_>
          10 3 2 1 2.</_></rects>
      <tilted>0</tilted></_>
    <_>
      <rects>
        <_>
          9 5 1 3 -1.</_>
        <_>
          8 6 1 1 3.</_></rects>
      <tilted>1</tilted></_>
    <_>
      <rects>
        <_>
          9 5 2 2 -1.</_>
        <_>
          10 5 1 2 2.</_></rects>
      <tilted>0</tilted></_>
    <_>
      <rects>
        <_>
          9 7 1 3 -1.</_>
        <_>
          9 8 1 1 3.</_></rects>
      <tilted>0</tilted></_>
    <_>
      <rects>
        <_>
          9 7 6 2 -1.</_>
        <_>
          11 7 2 2 3.</_></rects>
      <tilted>0</tilted></_>
    <_>
      <rects>
        <_>
          9 7 4 4 -1.</_>
        <_>
          11 7 2 4 2.</_></rects>
      <tilted>0</tilted></_>
    <_>
      <rects>
        <_>
          9 11 1 3 -1.</_>
        <_>
          9 12 1 1 3.</_></rects>
      <tilted>0</tilted></_>
    <_>
      <rects>
        <_>
          9 11 4 4 -1.</_>
        <_>
          9 11 2 2 2.</_>
        <_>
          11 13 2 2 2.</_></rects>
      <tilted>0</tilted></_>
    <_>
      <rects>
        <_>
          10 0 5 3 -1.</_>
        <_>
          9 1 5 1 3.</_></rects>
      <tilted>1</tilted></_>
    <_>
      <rects>
        <_>
          10 1 1 8 -1.</_>
        <_>
          10 3 1 4 2.</_></rects>
      <tilted>0</tilted></_>
    <_>
      <rects>
        <_>
          10 4 2 1 -1.</_>
        <_>
          11 4 1 1 2.</_></rects>
      <tilted>0</tilted></_>
    <_>
      <rects>
        <_>
          10 7 2 4 -1.</_>
        <_>
          10 7 1 2 2.</_>
        <_>
          11 9 1 2 2.</_></rects>
      <tilted>0</tilted></_>
    <_>
      <rects>
        <_>
          10 8 3 1 -1.</_>
        <_>
          11 8 1 1 3.</_></rects>
      <tilted>0</tilted></_>
    <_>
      <rects>
        <_>
          10 8 1 6 -1.</_>
        <_>
          10 10 1 2 3.</_></rects>
      <tilted>0</tilted></_>
    <_>
      <rects>
        <_>
          10 9 2 2 -1.</_>
        <_>
          10 9 1 1 2.</_>
        <_>
          11 10 1 1 2.</_></rects>
      <tilted>0</tilted></_>
    <_>
      <rects>
        <_>
          10 12 1 3 -1.</_>
        <_>
          10 13 1 1 3.</_></rects>
      <tilted>0</tilted></_>
    <_>
      <rects>
        <_>
          11 1 3 5 -1.</_>
        <_>
          12 2 1 5 3.</_></rects>
      <tilted>1</tilted></_>
    <_>
      <rects>
        <_>
          11 2 4 9 -1.</_>
        <_>
          13 2 2 9 2.</_></rects>
      <tilted>0</tilted></_>
    <_>
      <rects>
        <_>
          11 5 4 10 -1.</_>
        <_>
          11 5 2 5 2.</_>
        <_>
          13 10 2 5 2.</_></rects>
      <tilted>0</tilted></_>
    <_>
      <rects>
        <_>
          11 11 3 1 -1.</_>
        <_>
          12 12 1 1 3.</_></rects>
      <tilted>1</tilted></_>
    <_>
      <rects>
        <_>
          12 1 3 4 -1.</_>
        <_>
          11 2 3 2 2.</_></rects>
      <tilted>1</tilted></_>
    <_>
      <rects>
        <_>
          12 3 2 2 -1.</_>
        <_>
          12 3 1 1 2.</_>
        <_>
          13 4 1 1 2.</_></rects>
      <tilted>0</tilted></_>
    <_>
      <rects>
        <_>
          12 10 3 1 -1.</_>
        <_>
          13 10 1 1 3.</_></rects>
      <tilted>0</tilted></_>
    <_>
      <rects>
        <_>
          13 4 2 8 -1.</_>
        <_>
          13 4 1 4 2.</_>
        <_>
          14 8 1 4 2.</_></rects>
      <tilted>0</tilted></_>
    <_>
      <rects>
        <_>
          13 6 2 3 -1.</_>
        <_>
          14 6 1 3 2.</_></rects>
      <tilted>0</tilted></_>
    <_>
      <rects>
        <_>
          14 1 1 6 -1.</_>
        <_>
          14 1 1 3 2.</_></rects>
      <tilted>1</tilted></_>
    <_>
      <rects>
        <_>
          14 8 1 3 -1.</_>
        <_>
          14 9 1 1 3.</_></rects>
      <tilted>0</tilted></_></features></cascade>
</opencv_storage>
