<?xml version="1.0"?>
<opencv_storage>
<stage14>
  <maxWeakCount>9</maxWeakCount>
  <stageThreshold>-1.0986323356628418e+00</stageThreshold>
  <weakClassifiers>
    <_>
      <internalNodes>
        0 -1 9408 -1.2536109425127506e-03</internalNodes>
      <leafValues>
        2.3076923191547394e-01 -7.2413790225982666e-01</leafValues></_>
    <_>
      <internalNodes>
        0 -1 11842 -2.1056551486253738e-02</internalNodes>
      <leafValues>
        6.0588496923446655e-01 -2.7786916494369507e-01</leafValues></_>
    <_>
      <internalNodes>
        0 -1 27602 2.2328111808747053e-03</internalNodes>
      <leafValues>
        -7.7974015474319458e-01 2.2714734077453613e-01</leafValues></_>
    <_>
      <internalNodes>
        0 -1 18615 4.0127094835042953e-03</internalNodes>
      <leafValues>
        -2.9915624856948853e-01 5.6875729560852051e-01</leafValues></_>
    <_>
      <internalNodes>
        0 -1 11993 6.1466963961720467e-03</internalNodes>
      <leafValues>
        -2.6298415660858154e-01 6.1383104324340820e-01</leafValues></_>
    <_>
      <internalNodes>
        0 -1 29522 2.6463409885764122e-03</internalNodes>
      <leafValues>
        2.4862828850746155e-01 -9.1123169660568237e-01</leafValues></_>
    <_>
      <internalNodes>
        0 -1 7999 -3.3493470400571823e-02</internalNodes>
      <leafValues>
        5.3269368410110474e-01 -3.6452960968017578e-01</leafValues></_>
    <_>
      <internalNodes>
        0 -1 21039 -4.5256203156895936e-04</internalNodes>
      <leafValues>
        4.1454043984413147e-01 -3.5169684886932373e-01</leafValues></_>
    <_>
      <internalNodes>
        0 -1 18339 7.6287046074867249e-02</internalNodes>
      <leafValues>
        -1.9125728309154510e-01 8.4678333997726440e-01</leafValues></_></weakClassifiers></stage14>
</opencv_storage>
