<?xml version="1.0"?>
<opencv_storage>
<cascade>
  <stageType>BOOST</stageType>
  <featureType>HAAR</featureType>
  <height>62</height>
  <width>25</width>
  <stageParams>
    <boostType>GAB</boostType>
    <minHitRate>9.9500000476837158e-01</minHitRate>
    <maxFalseAlarm>4.2500001192092896e-01</maxFalseAlarm>
    <weightTrimRate>9.4999999999999996e-01</weightTrimRate>
    <maxDepth>1</maxDepth>
    <maxWeakCount>100</maxWeakCount></stageParams>
  <featureParams>
    <maxCatCount>0</maxCatCount>
    <featSize>1</featSize>
    <mode>BASIC</mode></featureParams>
  <stageNum>13</stageNum>
  <stages>
    <!-- stage 0 -->
    <_>
      <maxWeakCount>3</maxWeakCount>
      <stageThreshold>-8.1525719165802002e-01</stageThreshold>
      <weakClassifiers>
        <_>
          <internalNodes>
            0 -1 25 -6.4973610278684646e-06</internalNodes>
          <leafValues>
            8.6021506786346436e-01 -8.6956518888473511e-01</leafValues></_>
        <_>
          <internalNodes>
            0 -1 20 9.4779206847306341e-06</internalNodes>
          <leafValues>
            -8.4092229604721069e-01 8.6725622415542603e-01</leafValues></_>
        <_>
          <internalNodes>
            0 -1 26 -1.2911878911836538e-05</internalNodes>
          <leafValues>
            8.9523029327392578e-01 -7.7890717983245850e-01</leafValues></_></weakClassifiers></_>
    <!-- stage 1 -->
    <_>
      <maxWeakCount>3</maxWeakCount>
      <stageThreshold>-6.6860556602478027e-01</stageThreshold>
      <weakClassifiers>
        <_>
          <internalNodes>
            0 -1 28 -1.9774758256971836e-03</internalNodes>
          <leafValues>
            9.3150687217712402e-01 -7.4008810520172119e-01</leafValues></_>
        <_>
          <internalNodes>
            0 -1 22 -5.3470267448574305e-04</internalNodes>
          <leafValues>
            9.1597825288772583e-01 -7.5682902336120605e-01</leafValues></_>
        <_>
          <internalNodes>
            0 -1 23 9.9363876506686211e-04</internalNodes>
          <leafValues>
            -8.0953574180603027e-01 8.2831156253814697e-01</leafValues></_></weakClassifiers></_>
    <!-- stage 2 -->
    <_>
      <maxWeakCount>3</maxWeakCount>
      <stageThreshold>-9.3056768178939819e-01</stageThreshold>
      <weakClassifiers>
        <_>
          <internalNodes>
            0 -1 39 -1.5323042869567871e-02</internalNodes>
          <leafValues>
            6.1538463830947876e-01 -6.6666668653488159e-01</leafValues></_>
        <_>
          <internalNodes>
            0 -1 47 3.1013875268399715e-03</internalNodes>
          <leafValues>
            -5.9086054563522339e-01 8.1601482629776001e-01</leafValues></_>
        <_>
          <internalNodes>
            0 -1 5 -9.2570204287767410e-04</internalNodes>
          <leafValues>
            5.6135940551757813e-01 -9.5509171485900879e-01</leafValues></_></weakClassifiers></_>
    <!-- stage 3 -->
    <_>
      <maxWeakCount>4</maxWeakCount>
      <stageThreshold>-4.7085914015769958e-01</stageThreshold>
      <weakClassifiers>
        <_>
          <internalNodes>
            0 -1 31 -4.9813956022262573e-02</internalNodes>
          <leafValues>
            5.1412427425384521e-01 -6.8794327974319458e-01</leafValues></_>
        <_>
          <internalNodes>
            0 -1 33 8.4984246641397476e-03</internalNodes>
          <leafValues>
            -5.1078754663467407e-01 7.9320740699768066e-01</leafValues></_>
        <_>
          <internalNodes>
            0 -1 12 -2.3533205967396498e-03</internalNodes>
          <leafValues>
            4.3605494499206543e-01 -8.1509292125701904e-01</leafValues></_>
        <_>
          <internalNodes>
            0 -1 1 4.3487886432558298e-04</internalNodes>
          <leafValues>
            3.4089702367782593e-01 -9.1022425889968872e-01</leafValues></_></weakClassifiers></_>
    <!-- stage 4 -->
    <_>
      <maxWeakCount>4</maxWeakCount>
      <stageThreshold>-5.5816543102264404e-01</stageThreshold>
      <weakClassifiers>
        <_>
          <internalNodes>
            0 -1 27 -4.0203109383583069e-03</internalNodes>
          <leafValues>
            6.1250001192092896e-01 -6.7727273702621460e-01</leafValues></_>
        <_>
          <internalNodes>
            0 -1 52 -1.3385482598096132e-03</internalNodes>
          <leafValues>
            7.3406541347503662e-01 -6.3097333908081055e-01</leafValues></_>
        <_>
          <internalNodes>
            0 -1 43 -5.9703346778405830e-05</internalNodes>
          <leafValues>
            4.2990374565124512e-01 -9.2783004045486450e-01</leafValues></_>
        <_>
          <internalNodes>
            0 -1 49 -1.0124549735337496e-03</internalNodes>
          <leafValues>
            3.8813796639442444e-01 -7.9545074701309204e-01</leafValues></_></weakClassifiers></_>
    <!-- stage 5 -->
    <_>
      <maxWeakCount>5</maxWeakCount>
      <stageThreshold>-7.1676594018936157e-01</stageThreshold>
      <weakClassifiers>
        <_>
          <internalNodes>
            0 -1 10 -2.3037046194076538e-03</internalNodes>
          <leafValues>
            6.4238411188125610e-01 -6.6146993637084961e-01</leafValues></_>
        <_>
          <internalNodes>
            0 -1 9 1.6621727496385574e-02</internalNodes>
          <leafValues>
            -6.1037850379943848e-01 6.8580228090286255e-01</leafValues></_>
        <_>
          <internalNodes>
            0 -1 42 -5.3533876780420542e-04</internalNodes>
          <leafValues>
            6.0795289278030396e-01 -6.2988978624343872e-01</leafValues></_>
        <_>
          <internalNodes>
            0 -1 40 -1.4971984550356865e-02</internalNodes>
          <leafValues>
            6.9181537628173828e-01 -4.9142634868621826e-01</leafValues></_>
        <_>
          <internalNodes>
            0 -1 19 1.2252384331077337e-03</internalNodes>
          <leafValues>
            -7.3953324556350708e-01 4.9315693974494934e-01</leafValues></_></weakClassifiers></_>
    <!-- stage 6 -->
    <_>
      <maxWeakCount>5</maxWeakCount>
      <stageThreshold>-5.5313539505004883e-01</stageThreshold>
      <weakClassifiers>
        <_>
          <internalNodes>
            0 -1 41 1.6510256100445986e-03</internalNodes>
          <leafValues>
            -6.4186048507690430e-01 4.4705882668495178e-01</leafValues></_>
        <_>
          <internalNodes>
            0 -1 36 -4.1094847023487091e-02</internalNodes>
          <leafValues>
            7.3476088047027588e-01 -4.7770935297012329e-01</leafValues></_>
        <_>
          <internalNodes>
            0 -1 24 -3.3729716669768095e-03</internalNodes>
          <leafValues>
            5.5831843614578247e-01 -7.1546840667724609e-01</leafValues></_>
        <_>
          <internalNodes>
            0 -1 16 -5.0113126635551453e-03</internalNodes>
          <leafValues>
            6.1956477165222168e-01 -5.6205171346664429e-01</leafValues></_>
        <_>
          <internalNodes>
            0 -1 11 -2.0074704661965370e-03</internalNodes>
          <leafValues>
            6.6233801841735840e-01 -4.9577316641807556e-01</leafValues></_></weakClassifiers></_>
    <!-- stage 7 -->
    <_>
      <maxWeakCount>4</maxWeakCount>
      <stageThreshold>-8.9140677452087402e-01</stageThreshold>
      <weakClassifiers>
        <_>
          <internalNodes>
            0 -1 6 6.3647553324699402e-02</internalNodes>
          <leafValues>
            -6.2929064035415649e-01 4.6012270450592041e-01</leafValues></_>
        <_>
          <internalNodes>
            0 -1 34 -3.6386493593454361e-04</internalNodes>
          <leafValues>
            4.1836512088775635e-01 -8.0976653099060059e-01</leafValues></_>
        <_>
          <internalNodes>
            0 -1 32 -6.4627733081579208e-04</internalNodes>
          <leafValues>
            3.4101387858390808e-01 -7.7993130683898926e-01</leafValues></_>
        <_>
          <internalNodes>
            0 -1 44 -5.8914250985253602e-05</internalNodes>
          <leafValues>
            -8.8277685642242432e-01 3.3502292633056641e-01</leafValues></_></weakClassifiers></_>
    <!-- stage 8 -->
    <_>
      <maxWeakCount>5</maxWeakCount>
      <stageThreshold>-7.7371275424957275e-01</stageThreshold>
      <weakClassifiers>
        <_>
          <internalNodes>
            0 -1 15 1.7461387906223536e-03</internalNodes>
          <leafValues>
            -5.7473683357238770e-01 5.8399999141693115e-01</leafValues></_>
        <_>
          <internalNodes>
            0 -1 14 6.5173716284334660e-03</internalNodes>
          <leafValues>
            -6.2856078147888184e-01 5.1146572828292847e-01</leafValues></_>
        <_>
          <internalNodes>
            0 -1 37 -3.8240831345319748e-03</internalNodes>
          <leafValues>
            7.5315022468566895e-01 -4.0694233775138855e-01</leafValues></_>
        <_>
          <internalNodes>
            0 -1 3 -9.3311034142971039e-03</internalNodes>
          <leafValues>
            6.2787216901779175e-01 -4.8724699020385742e-01</leafValues></_>
        <_>
          <internalNodes>
            0 -1 4 4.7613721108064055e-04</internalNodes>
          <leafValues>
            3.3646184206008911e-01 -9.7498911619186401e-01</leafValues></_></weakClassifiers></_>
    <!-- stage 9 -->
    <_>
      <maxWeakCount>4</maxWeakCount>
      <stageThreshold>-7.7913361787796021e-01</stageThreshold>
      <weakClassifiers>
        <_>
          <internalNodes>
            0 -1 30 -4.4701360166072845e-02</internalNodes>
          <leafValues>
            3.0000001192092896e-01 -6.4999997615814209e-01</leafValues></_>
        <_>
          <internalNodes>
            0 -1 0 1.0869297198951244e-02</internalNodes>
          <leafValues>
            -5.8026945590972900e-01 4.7944650053977966e-01</leafValues></_>
        <_>
          <internalNodes>
            0 -1 45 -7.8366842353716493e-04</internalNodes>
          <leafValues>
            4.5444238185882568e-01 -6.7588800191879272e-01</leafValues></_>
        <_>
          <internalNodes>
            0 -1 7 -1.2819381481676828e-05</internalNodes>
          <leafValues>
            3.3211961388587952e-01 -8.8269215822219849e-01</leafValues></_></weakClassifiers></_>
    <!-- stage 10 -->
    <_>
      <maxWeakCount>4</maxWeakCount>
      <stageThreshold>-7.5826638936996460e-01</stageThreshold>
      <weakClassifiers>
        <_>
          <internalNodes>
            0 -1 51 1.3162344694137573e-03</internalNodes>
          <leafValues>
            -6.0089683532714844e-01 4.4155845046043396e-01</leafValues></_>
        <_>
          <internalNodes>
            0 -1 48 2.2030922991689295e-04</internalNodes>
          <leafValues>
            -6.9578379392623901e-01 3.9577129483222961e-01</leafValues></_>
        <_>
          <internalNodes>
            0 -1 17 6.2311982037499547e-04</internalNodes>
          <leafValues>
            2.7716648578643799e-01 -1.</leafValues></_>
        <_>
          <internalNodes>
            0 -1 2 1.8756083445623517e-03</internalNodes>
          <leafValues>
            2.6124775409698486e-01 -9.1457092761993408e-01</leafValues></_></weakClassifiers></_>
    <!-- stage 11 -->
    <_>
      <maxWeakCount>4</maxWeakCount>
      <stageThreshold>-9.0227609872817993e-01</stageThreshold>
      <weakClassifiers>
        <_>
          <internalNodes>
            0 -1 8 -1.1623664759099483e-02</internalNodes>
          <leafValues>
            -9.2217898368835449e-01 1.0787171870470047e-01</leafValues></_>
        <_>
          <internalNodes>
            0 -1 50 7.3886723257601261e-03</internalNodes>
          <leafValues>
            -4.9587458372116089e-01 6.4917045831680298e-01</leafValues></_>
        <_>
          <internalNodes>
            0 -1 18 -3.4081542398780584e-03</internalNodes>
          <leafValues>
            -8.8707882165908813e-01 3.8101175427436829e-01</leafValues></_>
        <_>
          <internalNodes>
            0 -1 46 2.5753694353625178e-04</internalNodes>
          <leafValues>
            3.7280562520027161e-01 -7.9874831438064575e-01</leafValues></_></weakClassifiers></_>
    <!-- stage 12 -->
    <_>
      <maxWeakCount>5</maxWeakCount>
      <stageThreshold>-1.0760909318923950e+00</stageThreshold>
      <weakClassifiers>
        <_>
          <internalNodes>
            0 -1 13 1.1093608103692532e-02</internalNodes>
          <leafValues>
            -5.3784859180450439e-01 7.1428573131561279e-01</leafValues></_>
        <_>
          <internalNodes>
            0 -1 21 -1.3872245326638222e-03</internalNodes>
          <leafValues>
            4.8686307668685913e-01 -7.5032418966293335e-01</leafValues></_>
        <_>
          <internalNodes>
            0 -1 38 5.5685031838947907e-05</internalNodes>
          <leafValues>
            -8.0251741409301758e-01 3.7000334262847900e-01</leafValues></_>
        <_>
          <internalNodes>
            0 -1 35 4.1205334127880633e-05</internalNodes>
          <leafValues>
            3.9403179287910461e-01 -7.9797989130020142e-01</leafValues></_>
        <_>
          <internalNodes>
            0 -1 29 3.6807269789278507e-03</internalNodes>
          <leafValues>
            -5.0929284095764160e-01 5.7539188861846924e-01</leafValues></_></weakClassifiers></_></stages>
  <features>
    <_>
      <rects>
        <_>
          1 7 8 20 -1.</_>
        <_>
          1 7 4 10 2.</_>
        <_>
          5 17 4 10 2.</_></rects>
      <tilted>0</tilted></_>
    <_>
      <rects>
        <_>
          1 7 10 3 -1.</_>
        <_>
          1 8 10 1 3.</_></rects>
      <tilted>0</tilted></_>
    <_>
      <rects>
        <_>
          1 32 24 12 -1.</_>
        <_>
          1 38 24 6 2.</_></rects>
      <tilted>0</tilted></_>
    <_>
      <rects>
        <_>
          2 26 6 12 -1.</_>
        <_>
          2 26 3 6 2.</_>
        <_>
          5 32 3 6 2.</_></rects>
      <tilted>0</tilted></_>
    <_>
      <rects>
        <_>
          2 33 2 6 -1.</_>
        <_>
          2 35 2 2 3.</_></rects>
      <tilted>0</tilted></_>
    <_>
      <rects>
        <_>
          2 49 9 1 -1.</_>
        <_>
          5 49 3 1 3.</_></rects>
      <tilted>0</tilted></_>
    <_>
      <rects>
        <_>
          3 0 12 36 -1.</_>
        <_>
          9 0 6 36 2.</_></rects>
      <tilted>0</tilted></_>
    <_>
      <rects>
        <_>
          3 41 6 4 -1.</_>
        <_>
          3 43 6 2 2.</_></rects>
      <tilted>0</tilted></_>
    <_>
      <rects>
        <_>
          4 32 8 24 -1.</_>
        <_>
          4 40 8 8 3.</_></rects>
      <tilted>0</tilted></_>
    <_>
      <rects>
        <_>
          5 16 4 40 -1.</_>
        <_>
          7 16 2 40 2.</_></rects>
      <tilted>0</tilted></_>
    <_>
      <rects>
        <_>
          6 20 3 5 -1.</_>
        <_>
          7 20 1 5 3.</_></rects>
      <tilted>0</tilted></_>
    <_>
      <rects>
        <_>
          6 21 2 6 -1.</_>
        <_>
          7 21 1 6 2.</_></rects>
      <tilted>0</tilted></_>
    <_>
      <rects>
        <_>
          7 13 1 42 -1.</_>
        <_>
          7 34 1 21 2.</_></rects>
      <tilted>0</tilted></_>
    <_>
      <rects>
        <_>
          7 24 4 14 -1.</_>
        <_>
          7 24 2 7 2.</_>
        <_>
          9 31 2 7 2.</_></rects>
      <tilted>0</tilted></_>
    <_>
      <rects>
        <_>
          8 2 12 14 -1.</_>
        <_>
          8 2 6 7 2.</_>
        <_>
          14 9 6 7 2.</_></rects>
      <tilted>0</tilted></_>
    <_>
      <rects>
        <_>
          8 30 3 2 -1.</_>
        <_>
          9 30 1 2 3.</_></rects>
      <tilted>0</tilted></_>
    <_>
      <rects>
        <_>
          8 40 6 10 -1.</_>
        <_>
          10 40 2 10 3.</_></rects>
      <tilted>0</tilted></_>
    <_>
      <rects>
        <_>
          8 48 8 3 -1.</_>
        <_>
          8 49 8 1 3.</_></rects>
      <tilted>0</tilted></_>
    <_>
      <rects>
        <_>
          9 36 16 6 -1.</_>
        <_>
          9 39 16 3 2.</_></rects>
      <tilted>0</tilted></_>
    <_>
      <rects>
        <_>
          10 2 8 7 -1.</_>
        <_>
          14 2 4 7 2.</_></rects>
      <tilted>0</tilted></_>
    <_>
      <rects>
        <_>
          10 6 2 2 -1.</_>
        <_>
          10 6 1 1 2.</_>
        <_>
          11 7 1 1 2.</_></rects>
      <tilted>0</tilted></_>
    <_>
      <rects>
        <_>
          10 19 4 9 -1.</_>
        <_>
          10 22 4 3 3.</_></rects>
      <tilted>0</tilted></_>
    <_>
      <rects>
        <_>
          10 20 2 4 -1.</_>
        <_>
          10 20 1 2 2.</_>
        <_>
          11 22 1 2 2.</_></rects>
      <tilted>0</tilted></_>
    <_>
      <rects>
        <_>
          10 31 3 5 -1.</_>
        <_>
          11 31 1 5 3.</_></rects>
      <tilted>0</tilted></_>
    <_>
      <rects>
        <_>
          10 54 6 6 -1.</_>
        <_>
          12 54 2 6 3.</_></rects>
      <tilted>0</tilted></_>
    <_>
      <rects>
        <_>
          11 35 1 2 -1.</_>
        <_>
          11 36 1 1 2.</_></rects>
      <tilted>0</tilted></_>
    <_>
      <rects>
        <_>
          11 58 2 2 -1.</_>
        <_>
          11 58 1 1 2.</_>
        <_>
          12 59 1 1 2.</_></rects>
      <tilted>0</tilted></_>
    <_>
      <rects>
        <_>
          12 28 3 7 -1.</_>
        <_>
          13 28 1 7 3.</_></rects>
      <tilted>0</tilted></_>
    <_>
      <rects>
        <_>
          12 29 3 4 -1.</_>
        <_>
          13 29 1 4 3.</_></rects>
      <tilted>0</tilted></_>
    <_>
      <rects>
        <_>
          12 30 6 8 -1.</_>
        <_>
          12 30 3 4 2.</_>
        <_>
          15 34 3 4 2.</_></rects>
      <tilted>0</tilted></_>
    <_>
      <rects>
        <_>
          13 0 5 42 -1.</_>
        <_>
          13 21 5 21 2.</_></rects>
      <tilted>0</tilted></_>
    <_>
      <rects>
        <_>
          13 8 11 22 -1.</_>
        <_>
          13 19 11 11 2.</_></rects>
      <tilted>0</tilted></_>
    <_>
      <rects>
        <_>
          13 28 12 3 -1.</_>
        <_>
          13 29 12 1 3.</_></rects>
      <tilted>0</tilted></_>
    <_>
      <rects>
        <_>
          13 36 6 4 -1.</_>
        <_>
          15 36 2 4 3.</_></rects>
      <tilted>0</tilted></_>
    <_>
      <rects>
        <_>
          13 40 10 2 -1.</_>
        <_>
          13 41 10 1 2.</_></rects>
      <tilted>0</tilted></_>
    <_>
      <rects>
        <_>
          14 0 9 9 -1.</_>
        <_>
          14 3 9 3 3.</_></rects>
      <tilted>0</tilted></_>
    <_>
      <rects>
        <_>
          14 10 8 24 -1.</_>
        <_>
          18 10 4 24 2.</_></rects>
      <tilted>0</tilted></_>
    <_>
      <rects>
        <_>
          14 19 3 9 -1.</_>
        <_>
          15 19 1 9 3.</_></rects>
      <tilted>0</tilted></_>
    <_>
      <rects>
        <_>
          14 57 6 2 -1.</_>
        <_>
          14 58 6 1 2.</_></rects>
      <tilted>0</tilted></_>
    <_>
      <rects>
        <_>
          16 14 6 19 -1.</_>
        <_>
          18 14 2 19 3.</_></rects>
      <tilted>0</tilted></_>
    <_>
      <rects>
        <_>
          16 20 5 15 -1.</_>
        <_>
          16 25 5 5 3.</_></rects>
      <tilted>0</tilted></_>
    <_>
      <rects>
        <_>
          16 36 2 6 -1.</_>
        <_>
          16 36 1 3 2.</_>
        <_>
          17 39 1 3 2.</_></rects>
      <tilted>0</tilted></_>
    <_>
      <rects>
        <_>
          17 17 3 2 -1.</_>
        <_>
          18 17 1 2 3.</_></rects>
      <tilted>0</tilted></_>
    <_>
      <rects>
        <_>
          17 27 8 2 -1.</_>
        <_>
          17 28 8 1 2.</_></rects>
      <tilted>0</tilted></_>
    <_>
      <rects>
        <_>
          17 58 6 4 -1.</_>
        <_>
          17 58 3 2 2.</_>
        <_>
          20 60 3 2 2.</_></rects>
      <tilted>0</tilted></_>
    <_>
      <rects>
        <_>
          18 39 3 11 -1.</_>
        <_>
          19 39 1 11 3.</_></rects>
      <tilted>0</tilted></_>
    <_>
      <rects>
        <_>
          18 43 2 9 -1.</_>
        <_>
          18 46 2 3 3.</_></rects>
      <tilted>0</tilted></_>
    <_>
      <rects>
        <_>
          19 39 3 9 -1.</_>
        <_>
          20 39 1 9 3.</_></rects>
      <tilted>0</tilted></_>
    <_>
      <rects>
        <_>
          20 39 4 2 -1.</_>
        <_>
          20 40 4 1 2.</_></rects>
      <tilted>0</tilted></_>
    <_>
      <rects>
        <_>
          20 44 3 10 -1.</_>
        <_>
          20 49 3 5 2.</_></rects>
      <tilted>0</tilted></_>
    <_>
      <rects>
        <_>
          21 20 3 31 -1.</_>
        <_>
          22 20 1 31 3.</_></rects>
      <tilted>0</tilted></_>
    <_>
      <rects>
        <_>
          21 37 3 2 -1.</_>
        <_>
          22 37 1 2 3.</_></rects>
      <tilted>0</tilted></_>
    <_>
      <rects>
        <_>
          21 39 3 3 -1.</_>
        <_>
          22 39 1 3 3.</_></rects>
      <tilted>0</tilted></_></features></cascade>
</opencv_storage>
