<?xml version="1.0"?>
<opencv_storage>
<stage12>
  <maxWeakCount>7</maxWeakCount>
  <stageThreshold>-9.0939778089523315e-01</stageThreshold>
  <weakClassifiers>
    <_>
      <internalNodes>
        0 -1 17465 2.9112112522125244e-01</internalNodes>
      <leafValues>
        2.2153209149837494e-01 -9.1452991962432861e-01</leafValues></_>
    <_>
      <internalNodes>
        0 -1 25359 -3.3583614975214005e-02</internalNodes>
      <leafValues>
        3.4987330436706543e-01 -5.0848954916000366e-01</leafValues></_>
    <_>
      <internalNodes>
        0 -1 38580 -1.5600196085870266e-02</internalNodes>
      <leafValues>
        5.2485704421997070e-01 -3.4858801960945129e-01</leafValues></_>
    <_>
      <internalNodes>
        0 -1 28099 -1.7501821275800467e-04</internalNodes>
      <leafValues>
        3.3333918452262878e-01 -6.0004514455795288e-01</leafValues></_>
    <_>
      <internalNodes>
        0 -1 30159 -1.8462404608726501e-02</internalNodes>
      <leafValues>
        -8.1874924898147583e-01 2.1233443915843964e-01</leafValues></_>
    <_>
      <internalNodes>
        0 -1 3825 6.6038236021995544e-02</internalNodes>
      <leafValues>
        -3.0162864923477173e-01 6.1430221796035767e-01</leafValues></_>
    <_>
      <internalNodes>
        0 -1 301 4.8654504120349884e-02</internalNodes>
      <leafValues>
        -5.1789730787277222e-01 4.4829255342483521e-01</leafValues></_></weakClassifiers></stage12>
</opencv_storage>
