<?xml version="1.0"?>
<opencv_storage>
<stage16>
  <maxWeakCount>8</maxWeakCount>
  <stageThreshold>-8.2954746484756470e-01</stageThreshold>
  <weakClassifiers>
    <_>
      <internalNodes>
        0 -1 16208 2.7470546774566174e-03</internalNodes>
      <leafValues>
        2.2522522509098053e-01 -6.4102566242218018e-01</leafValues></_>
    <_>
      <internalNodes>
        0 -1 506798 -2.3382382933050394e-03</internalNodes>
      <leafValues>
        5.2291911840438843e-01 -2.9713863134384155e-01</leafValues></_>
    <_>
      <internalNodes>
        0 -1 554972 -3.4193473402410746e-04</internalNodes>
      <leafValues>
        4.5540049672126770e-01 -3.5738998651504517e-01</leafValues></_>
    <_>
      <internalNodes>
        0 -1 419383 1.1822193861007690e-02</internalNodes>
      <leafValues>
        -2.1330161392688751e-01 7.5599640607833862e-01</leafValues></_>
    <_>
      <internalNodes>
        0 -1 181985 6.1883684247732162e-02</internalNodes>
      <leafValues>
        2.7515763044357300e-01 -6.9897949695587158e-01</leafValues></_>
    <_>
      <internalNodes>
        0 -1 537632 -5.0369161181151867e-03</internalNodes>
      <leafValues>
        7.7463990449905396e-01 -3.1185781955718994e-01</leafValues></_>
    <_>
      <internalNodes>
        0 -1 640206 -1.3353059068322182e-02</internalNodes>
      <leafValues>
        -9.8424327373504639e-01 2.7579140663146973e-01</leafValues></_>
    <_>
      <internalNodes>
        0 -1 8281 7.5406640768051147e-02</internalNodes>
      <leafValues>
        -4.0861383080482483e-01 5.4810339212417603e-01</leafValues></_></weakClassifiers></stage16>
</opencv_storage>
