<?xml version="1.0"?>
<opencv_storage>
<stage5>
  <maxWeakCount>8</maxWeakCount>
  <stageThreshold>-9.7386479377746582e-01</stageThreshold>
  <weakClassifiers>
    <_>
      <internalNodes>
        0 -1 15283 -1.4249607920646667e-02</internalNodes>
      <leafValues>
        9.1780823469161987e-01 -2.9515418410301208e-01</leafValues></_>
    <_>
      <internalNodes>
        0 -1 17813 1.3880934566259384e-02</internalNodes>
      <leafValues>
        -8.6051404476165771e-01 3.4409067034721375e-01</leafValues></_>
    <_>
      <internalNodes>
        0 -1 30958 2.4474497884511948e-02</internalNodes>
      <leafValues>
        -3.5843914747238159e-01 7.3541933298110962e-01</leafValues></_>
    <_>
      <internalNodes>
        0 -1 330 -3.1185648404061794e-03</internalNodes>
      <leafValues>
        -7.4696499109268188e-01 3.1380018591880798e-01</leafValues></_>
    <_>
      <internalNodes>
        0 -1 5568 -1.4108069241046906e-02</internalNodes>
      <leafValues>
        8.7365680932998657e-01 -2.9662880301475525e-01</leafValues></_>
    <_>
      <internalNodes>
        0 -1 27244 -2.2470517084002495e-02</internalNodes>
      <leafValues>
        -7.2749537229537964e-01 3.6850413680076599e-01</leafValues></_>
    <_>
      <internalNodes>
        0 -1 18190 5.5069993250072002e-03</internalNodes>
      <leafValues>
        -3.0848529934883118e-01 8.4267687797546387e-01</leafValues></_>
    <_>
      <internalNodes>
        0 -1 37379 -1.2830135528929532e-04</internalNodes>
      <leafValues>
        3.5444718599319458e-01 -8.8290399312973022e-01</leafValues></_></weakClassifiers></stage5>
</opencv_storage>
